4 300
a 0.000196 -0.000389 0.000442 0.000625 -0.000904 -0.001546 -0.000797 -0.000616 0.001179 0.001179 -0.000227 0.000119 -0.000609 0.000585 0.001233 0.000391 0.000696 0.001342 0.001106 0.000004 -0.000717 0.001611 0.000760 0.001247 0.000145 -0.000387 0.000542 -0.001354 0.001490 0.000918 -0.001023 0.000149 -0.000583 -0.000725 -0.001619 -0.000239 -0.000538 0.000675 0.000461 -0.000612 0.000302 0.000668 -0.001293 0.001646 -0.000665 0.000260 0.000174 0.000310 0.001243 0.000187 0.000045 -0.000540 0.000264 -0.001211 0.000551 0.000918 0.000539 -0.001034 0.001212 -0.000367 -0.000976 0.000782 0.001062 -0.000921 0.000541 0.000493 -0.000805 0.000235 -0.000402 -0.000510 -0.000077 -0.000698 -0.001096 0.000045 -0.000839 0.001524 0.000609 0.000246 0.000028 0.001643 -0.000229 0.000818 0.000180 -0.001389 0.000259 -0.001393 0.000278 -0.000887 0.001635 0.001324 -0.000935 0.001195 -0.000032 0.000352 -0.001329 -0.001011 0.000753 0.000986 -0.001313 -0.001289 -0.000408 0.000912 -0.000276 0.000521 0.001108 0.000946 0.000461 -0.001224 -0.000262 0.000138 -0.000766 -0.000818 -0.001310 0.000707 0.000481 -0.001605 0.000482 -0.000323 -0.000544 -0.000996 -0.000687 -0.000843 -0.000256 -0.000226 0.000633 -0.000320 0.000023 -0.001008 0.000030 0.000687 -0.001648 0.000867 0.000674 -0.000557 -0.000608 0.000346 -0.000636 0.000587 -0.000773 0.001280 -0.001479 0.000042 0.000022 -0.000953 -0.000221 0.000065 -0.001615 -0.001253 -0.001003 0.000828 0.000138 0.001022 0.001262 0.001512 0.001274 0.001493 -0.001143 -0.001234 0.001274 -0.001004 -0.001049 0.000283 -0.001011 0.000264 -0.001662 0.000795 0.001454 -0.000126 0.001341 0.001149 0.001656 -0.000163 0.000063 -0.001351 -0.000826 0.001555 0.001593 0.001655 0.001565 -0.000624 0.001361 -0.000039 0.000717 0.000465 0.000804 -0.000031 -0.000480 -0.000254 0.000575 0.001127 0.001405 -0.000377 0.000100 0.000130 -0.001630 0.000123 0.001239 -0.000265 -0.000141 -0.000682 0.000957 -0.001573 -0.001258 -0.001097 0.001324 -0.000125 0.000884 0.000351 -0.000249 -0.000014 -0.001623 -0.000258 0.001416 -0.000223 -0.000726 0.001078 0.001348 -0.000011 -0.001092 0.001436 0.000911 0.001303 0.001448 -0.000750 0.000637 -0.001192 -0.000752 0.000982 -0.001526 0.000762 -0.000682 0.001494 0.001453 0.000929 0.001481 0.000526 -0.001282 -0.001043 -0.001182 0.000688 -0.000687 0.000750 0.001036 0.000620 -0.000023 -0.001231 0.000678 -0.001184 0.000717 0.001220 0.000795 -0.001457 0.000747 -0.001266 0.000113 -0.000030 -0.001537 0.000206 0.001066 -0.000231 0.001096 -0.001060 0.000177 0.000695 0.000628 0.001477 0.000496 -0.001627 -0.000858 0.001423 -0.001291 0.000048 0.000352 -0.001197 -0.000894 -0.000936 -0.000263 0.000722 0.000041 0.001033 0.000103 -0.000044 0.000064 0.000876 -0.001590 0.001540 0.000886 -0.000983 -0.001556 0.001630 -0.001112 -0.001498 -0.001107 0.001204 -0.001256 -0.000949 -0.001212 0.001322 -0.001514 -0.001011
c 0.000795 -0.000694 -0.000152 0.000709 0.001428 -0.000110 -0.001242 0.000602 0.000450 0.001605 -0.001273 0.000697 0.000137 0.001200 -0.001362 -0.000395 0.000227 -0.000646 0.001177 0.000954 -0.000275 0.000458 0.000251 0.000514 -0.000057 0.000588 0.000107 0.000469 -0.000437 0.000419 -0.001437 0.000110 -0.001540 0.000689 0.000081 0.001557 -0.000925 0.001488 -0.000403 0.000794 0.001372 0.000450 0.000126 0.001194 -0.001266 0.000703 -0.000732 -0.001220 -0.001596 -0.000880 0.001335 0.001267 0.000793 0.000757 0.001256 0.000883 -0.001441 -0.001484 0.000322 0.001225 0.000931 -0.001161 0.000877 -0.000713 -0.000864 0.001502 0.000935 -0.000528 0.000147 -0.000454 -0.001596 -0.000225 -0.000569 -0.001525 -0.001056 0.001379 -0.000240 0.001307 -0.000911 -0.000676 -0.000133 -0.000288 0.001657 -0.000581 -0.000262 -0.001278 -0.001348 0.001584 -0.001233 0.001259 0.000482 -0.001171 -0.000681 -0.000152 -0.000983 0.001379 -0.001100 0.001196 0.000745 -0.000804 0.000919 -0.000965 -0.000129 -0.000595 -0.001334 0.001390 -0.001222 -0.001608 0.000020 0.001055 -0.001193 -0.001617 0.000984 -0.001116 -0.000997 0.001270 -0.001517 0.001564 0.001457 -0.000298 0.000369 -0.000049 0.000862 -0.001157 0.000597 -0.000197 0.000096 0.000728 -0.001124 -0.000819 0.001665 -0.001042 -0.000864 0.000473 -0.000999 0.001068 0.001209 0.001250 0.001254 -0.000412 0.001079 0.000212 0.000673 -0.001233 0.001197 -0.000021 -0.001449 0.001275 0.000430 -0.001651 0.000925 -0.000309 0.000921 -0.001393 -0.001025 0.000889 0.000110 -0.000355 -0.000869 0.000252 -0.000002 0.001252 0.001163 0.001576 -0.000252 0.000505 -0.000612 0.001633 0.000320 -0.001664 -0.001370 0.000252 0.000177 -0.001614 -0.000751 -0.000777 0.001489 -0.000978 -0.000569 0.000859 -0.000936 -0.000167 0.000126 -0.001083 -0.000234 0.000197 0.001566 0.000522 -0.000686 0.000478 0.000377 -0.000396 0.000725 0.000286 0.000118 0.001549 -0.000386 -0.000895 -0.000110 0.000881 -0.000506 0.000686 -0.000707 0.000891 -0.001004 0.001334 0.001547 -0.000005 0.001663 -0.000918 -0.001132 -0.001000 -0.001390 -0.001199 0.000371 0.001262 0.001613 -0.000816 -0.001188 0.000326 -0.001342 -0.001139 -0.000662 0.000161 0.000513 0.000422 -0.000874 -0.001348 0.001205 -0.000932 -0.001553 0.001211 0.001244 0.001099 0.001203 0.001633 0.000209 -0.001128 0.001528 -0.001394 -0.000524 -0.000145 0.001027 -0.000395 0.000318 0.001502 0.001150 -0.000320 0.000835 0.001613 0.000397 -0.000435 -0.001318 -0.001556 0.000391 -0.000409 -0.000556 -0.000742 0.000206 0.000634 0.000824 0.001344 0.000931 -0.000699 -0.000690 0.000322 -0.000251 -0.000336 -0.000044 -0.001518 0.000066 0.000211 -0.000481 0.000672 -0.001035 -0.000431 0.000893 0.000543 -0.000912 0.001642 0.000640 0.000646 0.000779 -0.001070 -0.000586 -0.001044 0.000159 0.001453 -0.001357 -0.001255 0.000183 0.001221 -0.000801 0.001399 -0.001072 0.001621 0.000638 -0.000261 0.001497 0.001088
b -0.000357 -0.000454 0.001492 -0.001648 -0.001656 0.001286 0.001539 0.000828 0.001427 0.001449 0.000933 -0.000310 -0.000662 0.000021 -0.000178 0.001630 -0.000713 0.001294 0.001070 0.000706 0.000336 0.000077 -0.000587 0.001581 -0.001291 -0.000154 -0.000879 0.000234 -0.001244 0.000700 -0.000308 -0.000107 0.000485 0.001194 0.001582 -0.000656 -0.000819 0.000732 -0.000493 -0.000344 -0.001563 -0.001551 -0.001667 -0.001460 0.001149 -0.001533 -0.000571 0.001028 -0.001234 0.001318 -0.000763 -0.000983 0.000855 -0.001533 0.000645 0.001192 -0.001197 -0.000148 -0.001281 0.000167 0.000651 -0.001127 -0.001366 -0.000597 0.000729 -0.001515 -0.001284 0.000326 0.001609 0.000294 -0.000824 -0.000154 0.001280 -0.001096 0.000356 0.001423 0.000192 0.001615 -0.000260 -0.001380 -0.001540 -0.000176 0.000742 0.001430 -0.001268 0.001486 -0.001233 -0.000463 -0.000608 0.001399 0.000496 0.001029 0.000521 -0.000640 -0.000310 0.000726 0.001453 -0.000457 -0.001149 -0.001631 0.000906 -0.001019 -0.001658 0.000032 -0.000881 -0.000845 -0.001034 0.001045 -0.000619 -0.000249 -0.000128 -0.000064 0.001318 0.000545 0.000706 0.001411 0.001564 0.001275 0.000868 0.000544 -0.001066 -0.000154 0.000798 -0.000368 -0.000052 0.000474 -0.001333 -0.000719 0.000453 -0.000499 -0.000672 -0.000755 -0.000518 0.001630 -0.001523 0.000520 -0.000635 0.001608 -0.001632 0.000313 0.000244 0.001470 -0.001347 0.000576 -0.000830 0.001008 0.001133 0.001556 -0.000602 -0.001653 0.000299 -0.000904 0.000004 0.000337 0.000798 -0.000544 -0.000321 0.000523 -0.000709 0.001566 0.000751 -0.000838 0.000713 -0.000597 0.000075 0.001340 -0.000712 0.001023 -0.001661 -0.000512 0.001346 -0.000004 0.001394 0.001064 -0.001110 0.001307 0.000555 0.000787 0.000445 0.001663 -0.000246 0.000036 -0.001251 0.000329 0.000070 0.001638 0.000936 -0.001610 -0.000777 -0.001455 -0.001641 0.000764 -0.000146 -0.001449 -0.000170 0.000424 0.000012 0.000138 0.000734 -0.001570 0.000032 -0.001623 -0.001213 0.001188 -0.000451 0.001281 -0.000840 -0.000994 -0.000649 0.001499 0.000484 -0.000138 -0.000159 -0.000770 -0.000231 -0.000456 -0.000681 0.000648 0.000347 -0.001618 -0.001358 0.000562 0.001004 -0.000595 0.000115 -0.001151 0.000289 -0.001062 0.001278 -0.000133 0.001126 -0.000709 0.000683 -0.000756 -0.000263 0.001347 0.000772 -0.001496 0.001648 -0.001566 -0.001077 0.000696 -0.001557 0.000760 0.001010 0.000681 0.000888 -0.000260 -0.001100 -0.001012 0.000210 0.000527 -0.001598 0.001042 0.000283 0.001065 -0.000587 0.001374 0.000921 -0.000825 -0.001501 -0.001311 -0.000248 -0.000306 0.000364 0.000679 -0.000492 0.001029 -0.000766 0.001533 0.000205 -0.000461 0.000816 0.000497 0.000931 -0.001549 -0.001006 -0.001644 -0.001658 0.000333 0.001304 0.001015 0.001651 -0.000210 0.000150 0.001241 0.000942 0.000983 0.001019 0.000472 -0.001048 0.000797 -0.001442 0.000484 0.000635 0.001417 -0.000805 -0.000250 -0.000599 0.000220
d -0.001278 -0.000810 0.000137 0.000881 -0.001663 0.001322 0.000350 -0.000072 0.001071 0.001288 0.001460 -0.000557 -0.000921 0.001498 -0.001369 0.000078 -0.000900 -0.001202 -0.000962 -0.000657 0.001283 -0.001435 0.000012 -0.001146 -0.001109 0.001186 -0.000204 0.000305 0.001252 -0.000809 -0.000001 -0.000863 -0.001250 0.001662 -0.000534 -0.001656 -0.000716 -0.001350 0.000708 0.000070 -0.001653 -0.000225 -0.000245 0.001605 0.000876 0.000781 -0.000207 -0.000227 0.000481 -0.001237 -0.000680 -0.000675 0.000161 0.001303 0.001027 -0.000077 0.001477 -0.000994 -0.001036 0.000539 0.001071 0.001573 -0.001547 0.000066 0.000871 0.001382 0.001245 -0.000680 0.001520 0.000342 -0.001102 0.001285 -0.000787 0.000763 -0.000642 -0.001508 0.001469 -0.000584 0.000751 -0.000910 0.000026 0.000369 -0.000894 -0.001316 0.001140 -0.001284 -0.000973 0.000914 -0.001017 -0.001529 -0.000121 -0.001567 -0.000199 0.000845 -0.001225 -0.000179 0.000582 -0.001262 0.000066 -0.001574 -0.001061 0.000824 0.001599 -0.000715 0.000380 -0.001469 0.000462 0.001151 0.000375 -0.001197 0.001262 0.000514 -0.001665 0.000245 0.001182 -0.000635 0.000550 0.001303 0.001040 -0.001654 0.000224 -0.000340 -0.001038 0.000959 0.000798 0.001249 -0.000700 0.001559 0.000747 0.001216 -0.000578 0.000277 0.000148 0.000333 -0.000127 0.000073 0.000849 -0.000469 0.000818 0.001102 0.000654 -0.000236 -0.000916 0.001096 0.000834 0.000569 0.001384 0.000426 -0.000947 0.001018 0.001498 -0.001344 0.001093 0.000702 0.000850 -0.000956 -0.000562 0.000116 0.000700 -0.001621 -0.000314 0.000928 0.001223 -0.001016 -0.000005 0.000395 -0.000796 0.001442 0.001083 0.001568 -0.001450 -0.001613 0.000785 -0.001116 0.000265 -0.000474 -0.000138 0.000218 -0.000782 -0.000278 0.001422 -0.000120 -0.001642 -0.000297 -0.000640 0.001552 0.000524 -0.000719 -0.001479 -0.001602 0.000201 -0.001540 0.000348 -0.001598 0.000981 0.001102 -0.001638 -0.000465 -0.001176 -0.000554 -0.000458 0.001649 0.000884 -0.000995 -0.001484 -0.000468 -0.001352 0.000501 0.001422 -0.000135 0.001150 0.000320 0.001396 0.001254 -0.000782 0.001469 0.000446 0.000431 0.000473 0.001579 0.000449 0.000764 0.000258 -0.000043 -0.001666 -0.001053 0.001561 -0.001533 0.001150 -0.001553 -0.000547 -0.001186 -0.000830 -0.001493 -0.000306 0.000450 0.000527 -0.000703 -0.001184 0.001070 -0.000849 0.001459 0.001160 0.000420 0.000643 -0.000463 0.001422 0.000661 -0.001580 -0.000138 -0.001167 -0.001609 -0.001154 -0.000104 0.001601 -0.000968 -0.000093 -0.000232 -0.001328 0.000470 -0.000034 0.001067 -0.000672 0.001186 0.001442 0.000186 -0.000011 -0.001534 0.001206 0.000429 0.000798 0.000582 -0.001023 -0.000881 0.000894 0.000745 0.000112 0.000320 -0.001413 -0.000567 -0.001553 -0.001450 0.001266 -0.000529 -0.000340 -0.000494 0.001202 0.001557 -0.000013 -0.000806 0.001129 0.000252 -0.000963 0.000045 0.001217 -0.000836 -0.000672 0.000431 -0.001278 0.000255
