20 300
one -1.671300083398818970e-02 7.239600270986557007e-02 -6.052500009536743164e-02 -1.076750010251998901e-01 -2.389900013804435730e-02 1.234359964728355408e-01 -1.060480028390884399e-01 -2.284700050950050354e-02 1.972600072622299194e-02 -1.655009984970092773e-01 1.506949961185455322e-01 1.362709999084472656e-01 -6.062199920415878296e-02 -2.170900069177150726e-02 6.102799996733665466e-02 -4.963700100779533386e-02 -1.533399987965822220e-02 -2.378099970519542694e-02 7.065500319004058838e-02 -2.022099941968917847e-01 -4.202999919652938843e-02 1.386999990791082382e-02 3.320400044322013855e-02 -8.138500154018402100e-02 -5.338999908417463303e-03 1.249400004744529724e-01 -5.267399922013282776e-02 -3.647600114345550537e-02 4.680000129155814648e-04 7.500600069761276245e-02 -9.056700021028518677e-02 -1.285099983215332031e-02 4.935999959707260132e-02 1.208909973502159119e-01 1.411760002374649048e-01 1.143629997968673706e-01 3.310500085353851318e-02 1.263629943132400513e-01 -1.153459995985031128e-01 -1.699080020189285278e-01 -7.231000065803527832e-02 -1.481499969959259033e-01 2.031099982559680939e-02 -2.160000003641471267e-04 -1.367000024765729904e-02 -6.461100280284881592e-02 1.737120002508163452e-01 7.375399768352508545e-02 -2.499799989163875580e-02 -1.646919995546340942e-01 9.968000464141368866e-03 -6.150399893522262573e-02 -8.114799857139587402e-02 -2.592400088906288147e-02 3.627600148320198059e-02 1.112699974328279495e-02 9.238199889659881592e-02 1.957800053060054779e-02 -3.782700002193450928e-02 6.264999974519014359e-03 -3.378900140523910522e-02 7.094999775290489197e-03 3.512499853968620300e-02 -9.201000444591045380e-03 -1.342889964580535889e-01 1.259389966726303101e-01 -1.059999968856573105e-02 1.114490032196044922e-01 -2.489200048148632050e-02 4.227500036358833313e-02 -7.338900119066238403e-02 1.692380011081695557e-01 3.674200177192687988e-02 -7.658500224351882935e-02 2.284550070762634277e-01 5.876000039279460907e-03 1.240499969571828842e-02 -1.557669937610626221e-01 -1.047440022230148315e-01 8.771699666976928711e-02 -1.761599928140640259e-01 -8.594000339508056641e-02 -2.514399960637092590e-02 1.050760000944137573e-01 1.488899998366832733e-02 8.937399834394454956e-02 -2.758700028061866760e-02 7.015900313854217529e-02 -8.793000131845474243e-02 -1.265799999237060547e-02 1.976200006902217865e-02 1.188530027866363525e-01 -7.451800256967544556e-02 -3.582900017499923706e-02 -1.434000022709369659e-02 -7.825800031423568726e-02 8.541300147771835327e-02 7.579399645328521729e-02 -5.767299979925155640e-02 1.657470017671585083e-01 3.662800043821334839e-02 -1.534530073404312134e-01 7.708799839019775391e-02 1.888000033795833588e-02 -5.443599820137023926e-02 -4.567100107669830322e-02 1.559599936008453369e-01 -7.609999924898147583e-02 6.928600370883941650e-02 -2.282740026712417603e-01 -1.260109990835189819e-01 1.147430017590522766e-01 -1.320360004901885986e-01 -8.095700293779373169e-02 7.371500134468078613e-02 8.162199705839157104e-02 -1.262319982051849365e-01 -5.962000228464603424e-03 -1.748500019311904907e-02 4.819999914616346359e-03 -6.047699972987174988e-02 2.601700089871883392e-02 1.082879975438117981e-01 -1.732099987566471100e-02 5.485000088810920715e-02 7.255599647760391235e-02 4.840600118041038513e-02 1.932200044393539429e-02 3.987399861216545105e-02 5.295000039041042328e-03 3.871199861168861389e-02 6.900000153109431267e-05 2.053519934415817261e-01 -1.246969997882843018e-01 -1.201739981770515442e-01 3.654599934816360474e-02 -6.165599822998046875e-02 -2.034779936075210571e-01 1.024150028824806213e-01 -7.133100181818008423e-02 -7.750099897384643555e-02 -7.030700147151947021e-02 5.472999997437000275e-03 -6.108099967241287231e-02 -1.066310033202171326e-01 5.899399891495704651e-02 -7.210200279951095581e-02 6.202999874949455261e-02 1.307439953088760376e-01 1.033020019531250000e-01 9.240999817848205566e-03 -2.285999990999698639e-02 -1.878979951143264771e-01 1.752799935638904572e-02 1.011520028114318848e-01 6.858699768781661987e-02 6.353200227022171021e-02 -6.002100184559822083e-02 -1.896450072526931763e-01 1.074080020189285278e-01 9.291899949312210083e-02 -1.812009960412979126e-01 -3.820899873971939087e-02 -1.032280027866363525e-01 -7.671599835157394409e-02 -3.802800178527832031e-02 1.175540015101432800e-01 4.937000107020139694e-03 1.019729971885681152e-01 -4.910499975085258484e-02 -3.667600080370903015e-02 3.371600061655044556e-02 -7.602000236511230469e-02 -8.279500156641006470e-02 1.138999983668327332e-01 4.635399952530860901e-02 3.553999960422515869e-02 1.460999995470046997e-02 4.136899858713150024e-02 -3.484399989247322083e-02 2.009099908173084259e-02 8.379399776458740234e-02 -2.716300077736377716e-02 -3.489299863576889038e-02 -7.507500052452087402e-02 1.316349953413009644e-01 -1.374319940805435181e-01 -9.518399834632873535e-02 -6.918399780988693237e-02 4.416900128126144409e-02 -1.338630020618438721e-01 5.714900046586990356e-02 5.605000071227550507e-03 -6.328500062227249146e-02 -3.968900069594383240e-02 1.044460013508796692e-01 1.012490019202232361e-01 -3.939199820160865784e-02 1.371890008449554443e-01 -1.866200007498264313e-02 1.071960031986236572e-01 5.449999868869781494e-02 4.136399924755096436e-02 6.846400350332260132e-02 4.723300039768218994e-02 8.769000321626663208e-02 1.366309970617294312e-01 6.490000057965517044e-03 -1.244799979031085968e-02 -1.196409985423088074e-01 1.414700001478195190e-01 -1.147020012140274048e-01 9.805899858474731445e-02 -1.143919974565505981e-01 -3.485000133514404297e-02 -9.628300368785858154e-02 -3.636699914932250977e-02 -1.358730047941207886e-01 -4.812299832701683044e-02 7.660000119358301163e-03 9.196899831295013428e-02 -2.058500051498413086e-02 1.874150037765502930e-01 7.090000063180923462e-02 -7.355999946594238281e-02 2.234599925577640533e-02 5.268900096416473389e-02 -2.327699959278106689e-02 4.333399981260299683e-02 -1.515990048646926880e-01 4.122500121593475342e-02 1.313100010156631470e-02 2.707800082862377167e-02 1.882199943065643311e-02 -4.537900164723396301e-02 5.262000020593404770e-03 -1.256200019270181656e-02 1.470400020480155945e-02 1.770800054073333740e-01 -1.333499979227781296e-02 -2.009700052440166473e-02 -4.736400023102760315e-02 -4.740000003948807716e-04 -6.520999968051910400e-02 -3.003999963402748108e-02 8.188500255346298218e-02 9.359000250697135925e-03 -3.931999951601028442e-02 -9.453999809920787811e-03 -2.900899946689605713e-02 5.978700146079063416e-02 -1.900559961795806885e-01 1.063809990882873535e-01 -1.447069942951202393e-01 7.213500142097473145e-02 -1.224069967865943909e-01 -9.964600205421447754e-02 -7.471299916505813599e-02 2.089589983224868774e-01 1.635919958353042603e-01 -5.477600172162055969e-02 -6.420700252056121826e-02 -2.158560007810592651e-01 -2.318840026855468750e-01 -5.500800162553787231e-02 6.673300266265869141e-02 4.069999791681766510e-03 -4.269099980592727661e-02 2.347799949347972870e-02 -7.604599744081497192e-02 -1.148160025477409363e-01 -1.903899945318698883e-02 6.285899877548217773e-02 -9.319200366735458374e-02 -6.497500091791152954e-02 -1.119590029120445251e-01 -3.645600005984306335e-02 -6.783299893140792847e-02 7.802599668502807617e-02 -3.742900118231773376e-02 -4.273900017142295837e-02 4.238300025463104248e-02 -4.730999842286109924e-02 5.203400179743766785e-02 -2.157000079751014709e-02 -1.444009989500045776e-01 9.435500204563140869e-02 -9.086599946022033691e-02 5.617399886250495911e-02 6.904000043869018555e-02 4.339899867773056030e-02 5.562400072813034058e-02 4.579500108957290649e-02 5.447100102901458740e-02 6.177999824285507202e-02 1.594299972057342529e-01 -2.531999954953789711e-03 2.091609984636306763e-01 -2.417000010609626770e-02 -1.405800040811300278e-02 
two -2.195999957621097565e-03 1.386159956455230713e-01 -1.767520010471343994e-01 -1.459649950265884399e-01 -8.652199804782867432e-02 1.975750029087066650e-01 1.121199969202280045e-02 -1.989099942147731781e-02 1.931319981813430786e-01 5.783800035715103149e-02 1.273490041494369507e-01 2.310449928045272827e-01 1.244000042788684368e-03 -1.703100092709064484e-02 2.662900090217590332e-02 -1.364990025758743286e-01 8.230300247669219971e-02 1.541119962930679321e-01 1.807940006256103516e-01 -1.180180013179779053e-01 7.840500026941299438e-02 1.427599973976612091e-02 -3.028000006452202797e-03 -7.051300257444381714e-02 -2.988100051879882812e-02 8.936200290918350220e-02 1.951500028371810913e-02 -7.213400304317474365e-02 1.150600016117095947e-01 -2.363000065088272095e-02 -1.206730008125305176e-01 6.446799635887145996e-02 2.317489981651306152e-01 1.346299983561038971e-02 1.255249977111816406e-01 -1.222299970686435699e-02 3.743699938058853149e-02 9.803199768066406250e-02 -8.176600188016891479e-02 4.226699844002723694e-02 2.232100069522857666e-02 -2.075520008802413940e-01 -1.192149966955184937e-01 -4.039499908685684204e-02 7.672800123691558838e-02 -2.526500076055526733e-02 2.664240002632141113e-01 1.386480033397674561e-01 -5.211399868130683899e-02 -2.014549970626831055e-01 1.188009977340698242e-01 -1.846919953823089600e-01 -2.146600037813186646e-01 -6.309899687767028809e-02 1.158109977841377258e-01 1.817129999399185181e-01 2.532930076122283936e-01 -6.536799669265747070e-02 7.652000058442354202e-03 4.720899835228919983e-02 -1.069519966840744019e-01 -1.118130013346672058e-01 2.060910016298294067e-01 1.771900057792663574e-02 -1.350290030241012573e-01 4.114300012588500977e-02 3.537800163030624390e-02 4.372999817132949829e-02 7.861799746751785278e-02 -6.134299933910369873e-02 -2.891599945724010468e-02 1.058270037174224854e-01 -8.767700195312500000e-02 -1.901749968528747559e-01 1.587850004434585571e-01 -4.546999931335449219e-02 1.585100032389163971e-02 -2.300300076603889465e-02 8.953999727964401245e-03 1.599159985780715942e-01 -1.186110004782676697e-01 7.492800056934356689e-02 -1.153530031442642212e-01 3.269680142402648926e-01 8.108100295066833496e-02 9.239300340414047241e-02 -9.849700331687927246e-02 1.257999986410140991e-01 -6.720300018787384033e-02 -2.301539927721023560e-01 -4.616099968552589417e-02 1.775870025157928467e-01 -3.327700123190879822e-02 -7.220800220966339111e-02 -3.252099826931953430e-02 -8.933500200510025024e-02 -4.324299842119216919e-02 4.881500080227851868e-02 2.628500014543533325e-02 -2.418000064790248871e-02 -6.300300359725952148e-02 -1.526149958372116089e-01 -8.285800367593765259e-02 2.666000043973326683e-03 1.980799995362758636e-02 1.693099923431873322e-02 1.745399981737136841e-01 2.255999948829412460e-03 3.079899959266185760e-02 -1.771270036697387695e-01 -2.902599982917308807e-02 1.565000042319297791e-02 -6.736999843269586563e-03 2.913700044155120850e-02 -9.205800294876098633e-02 -2.306300029158592224e-02 -3.565400093793869019e-02 3.914999961853027344e-02 -3.430299833416938782e-02 -1.406410038471221924e-01 3.173099830746650696e-02 1.625380069017410278e-01 -1.547200046479701996e-02 1.568999956361949444e-03 9.695599973201751709e-02 4.422000143676996231e-03 5.838799849152565002e-02 -8.685600012540817261e-02 -4.195999819785356522e-03 8.113799989223480225e-02 9.486500173807144165e-02 1.566729992628097534e-01 1.244719997048377991e-01 -6.711599975824356079e-02 8.009999874047935009e-04 1.120000034570693970e-01 9.515400230884552002e-02 -1.578940004110336304e-01 1.196879968047142029e-01 -1.614170074462890625e-01 -2.649709880352020264e-01 -1.057399995625019073e-02 -9.202100336551666260e-02 -8.617900311946868896e-02 -6.153999827802181244e-03 9.351400285959243774e-02 -9.709499776363372803e-02 1.426880061626434326e-01 2.499379962682723999e-01 1.330520063638687134e-01 -3.262500092387199402e-02 -3.097599931061267853e-02 -2.330120056867599487e-01 6.906600296497344971e-02 3.388380110263824463e-01 5.031400173902511597e-02 -8.190199732780456543e-02 -3.032230138778686523e-01 -1.237120032310485840e-01 2.419209927320480347e-01 2.212760001420974731e-01 -1.742199957370758057e-01 5.596899986267089844e-02 -1.647039949893951416e-01 -7.553000003099441528e-03 1.009100005030632019e-01 1.372099965810775757e-01 -2.621199935674667358e-02 1.692129969596862793e-01 -1.112399995326995850e-01 2.812699973583221436e-02 -1.504410058259963989e-01 -8.010199666023254395e-02 -5.132799968123435974e-02 2.538860142230987549e-01 -1.336999982595443726e-02 -1.387760043144226074e-01 1.880159974098205566e-01 2.627800032496452332e-02 -5.938100069761276245e-02 -1.657229959964752197e-01 1.071060001850128174e-01 -2.970900014042854309e-02 3.553700074553489685e-02 -1.644929945468902588e-01 1.475179940462112427e-01 1.047900039702653885e-02 -2.077549993991851807e-01 -9.272900223731994629e-02 1.578709930181503296e-01 -2.212000079452991486e-02 -4.801800101995468140e-02 1.315879970788955688e-01 -3.615050017833709717e-01 1.107000047340989113e-03 1.303779929876327515e-01 1.037930026650428772e-01 -8.338200300931930542e-02 4.889599978923797607e-02 1.394599955528974533e-02 -2.193799987435340881e-02 -2.350600063800811768e-02 -1.455000042915344238e-01 1.622020006179809570e-01 -8.794099837541580200e-02 -3.010199964046478271e-02 2.603839933872222900e-01 -4.941999912261962891e-03 4.332400113344192505e-02 7.229100167751312256e-02 7.411000132560729980e-02 -2.641200087964534760e-02 -5.442300066351890564e-02 -1.234600041061639786e-02 1.726990044116973877e-01 -4.443000070750713348e-03 1.506900042295455933e-02 -1.291870027780532837e-01 -9.720899909734725952e-02 -6.499099731445312500e-02 -5.332899838685989380e-02 2.452770024538040161e-01 2.498490065336227417e-01 5.849999934434890747e-02 -9.652800112962722778e-02 5.092000123113393784e-03 8.582299947738647461e-02 -4.097099974751472473e-02 1.593459993600845337e-01 -4.177200049161911011e-02 8.550299704074859619e-02 1.294839978218078613e-01 1.231639981269836426e-01 7.756400108337402344e-02 -1.464029997587203979e-01 -6.305100023746490479e-02 -2.576659917831420898e-01 2.067179977893829346e-01 1.170599982142448425e-01 -6.670299917459487915e-02 -2.131240069866180420e-01 -3.458499908447265625e-02 2.727399952709674835e-02 -2.556349933147430420e-01 5.612999945878982544e-02 1.777119934558868408e-01 1.265580058097839355e-01 4.808799922466278076e-02 2.787999995052814484e-02 -8.746399730443954468e-02 -2.464699931442737579e-02 -1.090880036354064941e-01 1.652610003948211670e-01 -2.079039961099624634e-01 6.948500126600265503e-02 -1.476349979639053345e-01 -2.397889941930770874e-01 6.361199915409088135e-02 8.655299991369247437e-02 3.105030059814453125e-01 1.557430028915405273e-01 -9.236899763345718384e-02 -1.554639935493469238e-01 -5.906999856233596802e-02 -9.720000438392162323e-03 2.547740042209625244e-01 -3.974800184369087219e-02 -4.121999815106391907e-02 5.544399842619895935e-02 -3.787999972701072693e-03 4.258599877357482910e-02 -5.267899855971336365e-02 -1.670200005173683167e-02 -1.984519958496093750e-01 -5.700600147247314453e-02 -1.511860042810440063e-01 -1.017979979515075684e-01 -5.321599915623664856e-02 9.192900359630584717e-02 -2.081650048494338989e-01 -6.313200294971466064e-02 -3.102900087833404541e-02 -1.869000028818845749e-03 1.564980000257492065e-01 6.103299930691719055e-02 -8.222000300884246826e-02 -1.776699908077716827e-02 -1.506620049476623535e-01 -2.314699999988079071e-02 -4.205700010061264038e-02 4.108399897813796997e-02 8.153299987316131592e-02 3.937799856066703796e-02 -2.562200091779232025e-02 5.704000126570463181e-03 2.162539958953857422e-01 8.149400353431701660e-02 1.167280003428459167e-01 -1.278939992189407349e-01 5.522999912500381470e-02 
three 2.787099964916706085e-02 1.304740011692047119e-01 -1.716769933700561523e-01 -6.451299786567687988e-02 3.046300075948238373e-02 1.973309963941574097e-01 2.035100013017654419e-02 -4.417200013995170593e-02 1.515890061855316162e-01 1.665999926626682281e-02 8.755999803543090820e-02 2.498240023851394653e-01 -4.594999924302101135e-02 1.004649996757507324e-01 6.319399923086166382e-02 -8.516900241374969482e-02 7.791300117969512939e-02 1.179340034723281860e-01 1.847719997167587280e-01 -1.960200071334838867e-02 -4.679999779909849167e-03 -1.234299968928098679e-02 -5.755399912595748901e-02 -7.656800001859664917e-02 1.336890012025833130e-01 1.375170052051544189e-01 -3.414300084114074707e-02 4.425099864602088928e-02 6.869900226593017578e-02 4.061700031161308289e-02 -1.161229982972145081e-01 1.503610014915466309e-01 1.775819957256317139e-01 -4.836999997496604919e-02 -1.048600021749734879e-02 -1.446999981999397278e-02 -4.516899958252906799e-02 9.719999879598617554e-02 2.682999940589070320e-03 -1.355999987572431564e-02 -2.457199990749359131e-02 -2.218320071697235107e-01 -1.013529971241950989e-01 -4.760099947452545166e-02 1.223599985241889954e-01 4.052000120282173157e-02 2.806920111179351807e-01 1.177330017089843750e-01 -1.583299972116947174e-02 -2.073249965906143188e-01 1.581320017576217651e-01 -2.899569869041442871e-01 -1.861259937286376953e-01 -6.517300009727478027e-02 1.161630004644393921e-01 2.172649949789047241e-01 1.994549930095672607e-01 3.476599976420402527e-02 -2.877300046384334564e-02 1.401239931583404541e-01 -7.247199863195419312e-02 -6.955000013113021851e-02 2.240349948406219482e-01 -1.029070019721984863e-01 -1.020250022411346436e-01 2.360000088810920715e-02 7.810399681329727173e-02 2.140700072050094604e-02 9.372299909591674805e-02 -1.457930058240890503e-01 5.569399893283843994e-02 1.322810053825378418e-01 -1.424109935760498047e-01 -1.101899966597557068e-01 2.107110023498535156e-01 -3.746699914336204529e-02 3.281000070273876190e-03 -1.189349964261054993e-01 -8.647800236940383911e-02 2.509970068931579590e-01 -1.985139995813369751e-01 9.417000226676464081e-03 -1.762019991874694824e-01 2.037950009107589722e-01 1.178560033440589905e-01 1.749510020017623901e-01 -1.331370025873184204e-01 1.495929956436157227e-01 -2.390399947762489319e-02 -2.337319999933242798e-01 -2.194700017571449280e-02 1.059900000691413879e-01 -1.174490004777908325e-01 -1.768299937248229980e-01 -5.767399817705154419e-02 -4.961699992418289185e-02 -1.335600018501281738e-02 5.360500141978263855e-02 2.323799952864646912e-02 -1.076100021600723267e-02 -2.184180021286010742e-01 -1.271349936723709106e-01 -1.253600046038627625e-02 2.336000092327594757e-03 -8.888400346040725708e-02 7.456900179386138916e-02 1.381299942731857300e-01 2.762199938297271729e-02 1.746910065412521362e-01 -1.869170069694519043e-01 -1.115830019116401672e-01 1.839300058782100677e-02 -2.156299911439418793e-02 1.955500058829784393e-02 -9.872300177812576294e-02 2.470000088214874268e-02 -9.890799969434738159e-02 2.612000098451972008e-03 -6.968999654054641724e-02 -1.199320033192634583e-01 5.357800051569938660e-02 7.839400321245193481e-02 -3.974600136280059814e-02 4.827300086617469788e-02 4.076199978590011597e-02 -3.344200178980827332e-02 2.355300076305866241e-02 -6.104400008916854858e-02 1.032190024852752686e-01 3.040100075304508209e-02 1.557109951972961426e-01 1.299179941415786743e-01 5.907500162720680237e-02 -1.035609990358352661e-01 -7.315199822187423706e-02 1.090010032057762146e-01 5.842699855566024780e-02 -1.485539972782135010e-01 1.043260022997856140e-01 -1.142250001430511475e-01 -2.513990104198455811e-01 -1.971000060439109802e-02 -1.386079937219619751e-01 -1.394789963960647583e-01 1.701300032436847687e-02 1.163399964570999146e-02 -1.341319978237152100e-01 1.294530034065246582e-01 2.995519936084747314e-01 7.449100166559219360e-02 -1.722200028598308563e-02 -9.275700151920318604e-02 -2.271559983491897583e-01 -3.475800156593322754e-02 3.678500056266784668e-01 8.049599826335906982e-02 -1.152800023555755615e-02 -2.384890019893646240e-01 -9.245499968528747559e-02 1.497900038957595825e-01 2.436970025300979614e-01 -1.550869941711425781e-01 4.168999940156936646e-02 -2.015900015830993652e-01 1.255470067262649536e-01 1.257340013980865479e-01 1.102339997887611389e-01 1.251399982720613480e-02 9.308599680662155151e-02 -1.167920008301734924e-01 8.685999549925327301e-03 -1.820710003376007080e-01 -1.537629961967468262e-01 3.209999995306134224e-03 2.257259935140609741e-01 3.384999930858612061e-03 -5.715499818325042725e-02 2.045879960060119629e-01 1.114860028028488159e-01 -6.980500370264053345e-02 -1.508300006389617920e-01 1.490440070629119873e-01 1.817999989725649357e-03 5.532999988645315170e-03 -1.178629994392395020e-01 1.134900003671646118e-01 2.654800005257129669e-02 -1.932280063629150391e-01 -4.625700041651725769e-02 1.740459948778152466e-01 1.323700044304132462e-02 -1.417499966919422150e-02 1.104750037193298340e-01 -4.081859886646270752e-01 -3.271500021219253540e-02 6.516300141811370850e-02 8.725900202989578247e-02 -2.679199911653995514e-02 3.059400059282779694e-02 6.423400342464447021e-02 -5.869999877177178860e-04 8.220099657773971558e-02 -1.147279962897300720e-01 1.061799973249435425e-01 -8.240000344812870026e-03 -8.948799967765808105e-02 2.290969938039779663e-01 -3.043599985539913177e-02 -3.585299849510192871e-02 5.365600064396858215e-02 1.099570021033287048e-01 1.486499980092048645e-02 -4.828299954533576965e-02 -4.282300174236297607e-02 1.102060005068778992e-01 -4.958499968051910400e-02 3.775199875235557556e-02 -1.019620001316070557e-01 -3.586800023913383484e-02 -1.492100059986114502e-01 1.216800045222043991e-02 1.973779946565628052e-01 3.234240114688873291e-01 5.127000063657760620e-02 -6.706099957227706909e-02 2.906100079417228699e-02 8.544299751520156860e-02 -1.110780015587806702e-01 2.473489940166473389e-01 -1.509989947080612183e-01 2.429999969899654388e-02 1.463270038366317749e-01 7.663899660110473633e-02 9.197299927473068237e-02 -6.338100135326385498e-02 -2.184999920427799225e-02 -1.689160019159317017e-01 1.987189948558807373e-01 1.147399991750717163e-01 -9.628300368785858154e-02 -8.829300105571746826e-02 -5.782200023531913757e-02 2.203200012445449829e-02 -2.799960076808929443e-01 7.578100264072418213e-02 1.787340044975280762e-01 1.326189935207366943e-01 6.504400074481964111e-02 1.727100089192390442e-02 -9.408400207757949829e-02 -1.523900032043457031e-02 -6.792400032281875610e-02 9.450499713420867920e-02 -1.616100072860717773e-01 7.506900280714035034e-02 -1.333760023117065430e-01 -2.587620019912719727e-01 -4.535499960184097290e-02 5.587000027298927307e-02 3.397679924964904785e-01 1.044590026140213013e-01 -1.343429982662200928e-01 -1.122540012001991272e-01 -2.183399908244609833e-02 2.291399985551834106e-02 3.117760121822357178e-01 -2.508799917995929718e-02 -1.996699906885623932e-02 5.921600013971328735e-02 2.113999985158443451e-02 3.170999931171536446e-03 -4.766700044274330139e-02 -8.812700212001800537e-02 -1.510030031204223633e-01 -5.514200031757354736e-02 -1.682469993829727173e-01 -2.300100028514862061e-02 7.890599966049194336e-02 -6.231999956071376801e-03 -2.556590139865875244e-01 -7.024099677801132202e-02 2.424100041389465332e-02 -2.713999943807721138e-03 1.450839936733245850e-01 5.120699852705001831e-02 -1.383299976587295532e-01 -1.069409996271133423e-01 -1.521870046854019165e-01 -8.085999637842178345e-03 1.205999986268579960e-03 1.101170033216476440e-01 1.230029985308647156e-01 5.475699901580810547e-02 -3.537800163030624390e-02 3.863700106739997864e-02 2.776539921760559082e-01 1.449599955230951309e-02 1.292500048875808716e-01 -8.702900260686874390e-02 3.775100037455558777e-02 
four -2.373999916017055511e-03 7.336699962615966797e-02 -7.257899641990661621e-02 -8.272500336170196533e-02 1.300700008869171143e-02 1.547800004482269287e-01 6.543699651956558228e-02 -3.014099970459938049e-02 1.431650072336196899e-01 3.217000048607587814e-03 1.437170058488845825e-01 2.542549967765808105e-01 -1.573299989104270935e-02 1.126160025596618652e-01 3.773299977183341980e-02 -4.634699970483779907e-02 1.747499965131282806e-02 1.523849964141845703e-01 1.600250005722045898e-01 -7.832600176334381104e-02 -8.888999931514263153e-03 3.280000062659382820e-03 -6.918700039386749268e-02 -1.955999992787837982e-02 9.471499919891357422e-02 1.416749954223632812e-01 -7.597699761390686035e-02 -6.188299879431724548e-02 9.214600175619125366e-02 1.023809984326362610e-01 -1.763419955968856812e-01 1.212980002164840698e-01 1.226989999413490295e-01 -6.226100027561187744e-02 7.028900086879730225e-02 -1.000339984893798828e-01 -5.572799965739250183e-02 1.810300052165985107e-01 1.313999993726611137e-03 2.438499964773654938e-02 -4.638300091028213501e-02 -2.114000022411346436e-01 -8.808899670839309692e-02 -1.772999996319413185e-03 8.598099648952484131e-02 2.295299991965293884e-02 2.185949981212615967e-01 1.422940045595169067e-01 6.840000278316438198e-04 -2.087299972772598267e-01 1.167080029845237732e-01 -3.040660023689270020e-01 -1.612190008163452148e-01 -5.027699843049049377e-02 1.113839969038963318e-01 1.707919985055923462e-01 2.310709953308105469e-01 -8.960999548435211182e-03 4.095000214874744415e-03 9.617800265550613403e-02 -5.402899906039237976e-02 -4.616200178861618042e-02 1.893009990453720093e-01 -8.624699711799621582e-02 -9.980300068855285645e-02 1.954000070691108704e-02 7.211100310087203979e-02 3.553500026464462280e-02 6.086200103163719177e-02 -1.166350021958351135e-01 3.535899892449378967e-02 1.541389971971511841e-01 -9.021300077438354492e-02 -1.739149987697601318e-01 1.951580047607421875e-01 -4.293299838900566101e-02 3.433600068092346191e-02 -9.742800146341323853e-02 -8.022999763488769531e-02 3.092829883098602295e-01 -1.424330025911331177e-01 2.442299947142601013e-02 -1.882639974355697632e-01 3.010649979114532471e-01 1.082600001245737076e-02 1.247859969735145569e-01 -1.280909925699234009e-01 2.252770066261291504e-01 -3.431599959731101990e-02 -2.051880061626434326e-01 -3.002200089395046234e-02 1.160600036382675171e-01 -8.897200226783752441e-02 -1.380580067634582520e-01 -8.786000311374664307e-02 -3.330099955201148987e-02 1.779399998486042023e-02 6.032999977469444275e-02 7.120300084352493286e-02 -2.579999854788184166e-04 -2.980940043926239014e-01 -1.023029983043670654e-01 -5.846900120377540588e-02 -2.733599953353404999e-02 -2.066100016236305237e-02 1.030829995870590210e-01 2.259519994258880615e-01 2.199999988079071045e-03 1.688459962606430054e-01 -7.943499833345413208e-02 -1.900929957628250122e-01 -4.452700167894363403e-02 -4.857899993658065796e-02 2.225999953225255013e-03 -1.288769990205764771e-01 -1.501599978655576706e-02 -8.863099664449691772e-02 -2.544399909675121307e-02 -6.972400099039077759e-02 -6.026300042867660522e-02 5.337699875235557556e-02 9.435900300741195679e-02 -1.092899963259696960e-02 6.486400216817855835e-02 4.619099944829940796e-02 -7.525400072336196899e-02 3.545999992638826370e-03 -2.528899908065795898e-02 8.371599763631820679e-02 9.690099954605102539e-02 2.480919957160949707e-01 1.313460022211074829e-01 7.978200167417526245e-02 -1.809000037610530853e-03 -7.122399657964706421e-02 8.451800048351287842e-02 5.460400134325027466e-02 -1.461270004510879517e-01 8.105099946260452271e-02 -1.038189977407455444e-01 -1.817860007286071777e-01 4.769999941345304251e-04 -1.144869998097419739e-01 -1.032430008053779602e-01 -5.727999843657016754e-03 -4.065800085663795471e-02 -1.560990065336227417e-01 1.356779932975769043e-01 1.822050064802169800e-01 5.705200135707855225e-02 -5.492400005459785461e-02 -1.195830032229423523e-01 -2.008810043334960938e-01 4.119399935007095337e-02 3.747340142726898193e-01 3.282700106501579285e-02 -4.917600005865097046e-02 -2.490389943122863770e-01 -1.474460065364837646e-01 2.276100069284439087e-01 2.540960013866424561e-01 -4.081400111317634583e-02 2.799700014293193817e-02 -1.438699960708618164e-01 7.055100053548812866e-02 5.443499982357025146e-02 1.182439997792243958e-01 1.470199972391128540e-02 1.380079984664916992e-01 -1.045140027999877930e-01 -8.194000273942947388e-02 -2.236559987068176270e-01 -2.021719962358474731e-01 -7.249999791383743286e-02 2.244679927825927734e-01 -6.296300143003463745e-02 -7.244899868965148926e-02 1.582099944353103638e-01 1.519510000944137573e-01 -5.034099891781806946e-02 -1.672910004854202271e-01 1.123159974813461304e-01 1.038800030946731567e-01 -1.241699978709220886e-02 -1.067290008068084717e-01 1.298110038042068481e-01 -2.879700064659118652e-02 -1.388500034809112549e-01 -8.915200084447860718e-02 1.288029998540878296e-01 -3.098000027239322662e-02 -5.368100106716156006e-02 1.021659970283508301e-01 -4.312669932842254639e-01 -5.936399847269058228e-02 3.285900130867958069e-02 6.433700025081634521e-02 -4.137500002980232239e-02 7.881200313568115234e-02 2.944000065326690674e-02 -5.068200081586837769e-02 5.451799929141998291e-02 -7.001499831676483154e-02 1.355910003185272217e-01 5.970000056549906731e-04 -8.429200202226638794e-02 2.586300075054168701e-01 -4.320799931883811951e-02 -2.743300050497055054e-02 9.719499945640563965e-02 4.830300062894821167e-02 -4.585200175642967224e-02 3.340800106525421143e-02 -2.434300072491168976e-02 1.445430070161819458e-01 -1.132839992642402649e-01 6.947699934244155884e-02 -1.175799965858459473e-01 -5.378599837422370911e-02 -1.806910037994384766e-01 2.127600088715553284e-02 1.717260032892227173e-01 3.951379954814910889e-01 1.066849976778030396e-01 -2.242299914360046387e-02 7.574500143527984619e-02 5.961899831891059875e-02 -1.532090008258819580e-01 2.035479992628097534e-01 -9.945400059223175049e-02 7.144500315189361572e-02 1.066910028457641602e-01 1.063679978251457214e-01 4.413000121712684631e-02 -1.300249993801116943e-01 -6.595200300216674805e-02 -1.319479942321777344e-01 2.294860035181045532e-01 8.465400338172912598e-02 -1.239560022950172424e-01 -9.206499904394149780e-02 -8.358900249004364014e-02 4.340999945998191833e-02 -2.610059976577758789e-01 1.169999968260526657e-02 1.919569969177246094e-01 4.801499843597412109e-02 1.159590035676956177e-01 -2.420799992978572845e-02 -4.097700119018554688e-02 8.196599781513214111e-02 -1.240459978580474854e-01 8.988200128078460693e-02 -1.527269929647445679e-01 -1.360899955034255981e-02 -1.629890054464340210e-01 -2.089139968156814575e-01 -3.692200034856796265e-02 9.819299727678298950e-02 3.339369893074035645e-01 8.736299723386764526e-02 -1.338810026645660400e-01 -1.483249962329864502e-01 1.857800036668777466e-02 5.494600161910057068e-02 3.092010021209716797e-01 -4.385799914598464966e-02 -1.063269972801208496e-01 2.372499927878379822e-02 -3.742400184273719788e-02 -8.073499798774719238e-02 -4.703100025653839111e-02 -8.173599839210510254e-02 -2.504130005836486816e-01 -1.425819993019104004e-01 -1.761330068111419678e-01 -7.424999959766864777e-03 3.367200121283531189e-02 1.455199997872114182e-02 -3.177019953727722168e-01 -6.997399777173995972e-02 -3.961300104856491089e-02 3.716300055384635925e-02 5.895100161433219910e-02 1.770180016756057739e-01 -2.223719954490661621e-01 -1.146870031952857971e-01 -1.276360005140304565e-01 -1.107299979776144028e-02 7.160000037401914597e-03 6.709499657154083252e-02 1.161269992589950562e-01 9.116899967193603516e-02 -2.998900040984153748e-02 1.068800035864114761e-02 1.905480027198791504e-01 -8.118700236082077026e-02 1.043689996004104614e-01 -6.805200129747390747e-02 -5.322999786585569382e-03 
five 7.488500326871871948e-02 1.285589933395385742e-01 -9.260199964046478271e-02 -5.428700149059295654e-02 9.875999763607978821e-03 2.371640056371688843e-01 6.615199893712997437e-02 -1.256580054759979248e-01 7.377599924802780151e-02 -1.924300007522106171e-02 3.173600137233734131e-02 2.553670108318328857e-01 -5.114699900150299072e-02 6.189300119876861572e-02 3.364099934697151184e-02 -1.041959971189498901e-01 2.340999990701675415e-02 6.677000224590301514e-02 9.374900162220001221e-02 -1.021120026707649231e-01 -3.859300166368484497e-02 -3.038500063121318817e-02 -3.397800028324127197e-02 5.307200178503990173e-02 9.166099876165390015e-02 6.027700006961822510e-02 -1.371619999408721924e-01 2.750799991190433502e-02 -3.049999941140413284e-04 1.580110043287277222e-01 -2.080149948596954346e-01 6.126400083303451538e-02 1.255130022764205933e-01 -5.919000133872032166e-02 7.586599886417388916e-02 7.507999893277883530e-03 -9.744999930262565613e-03 4.978499934077262878e-02 4.525899887084960938e-02 4.916999861598014832e-02 -8.990900218486785889e-02 -1.524170041084289551e-01 -9.629999846220016479e-02 -6.640300154685974121e-02 1.845989972352981567e-01 3.795300051569938660e-02 3.209590017795562744e-01 8.757600188255310059e-02 8.556500077247619629e-02 -1.217409968376159668e-01 1.101320013403892517e-01 -2.870410084724426270e-01 -1.382180005311965942e-01 -6.566099822521209717e-02 7.876200228929519653e-02 1.895170062780380249e-01 2.427420020103454590e-01 1.097199972718954086e-02 3.532300144433975220e-02 4.733600094914436340e-02 1.236299984157085419e-02 -8.908700197935104370e-02 1.232229992747306824e-01 -7.998800277709960938e-02 -1.153200026601552963e-02 1.481869965791702271e-01 6.387799978256225586e-02 -1.181400008499622345e-02 9.468500316143035889e-02 -6.073600053787231445e-02 4.628900066018104553e-02 1.052739992737770081e-01 -5.786300078034400940e-02 -9.072100371122360229e-02 2.041739970445632935e-01 -2.782800048589706421e-02 7.001899927854537964e-02 -9.342200309038162231e-02 -1.519690006971359253e-01 3.252319991588592529e-01 -2.779119908809661865e-01 -5.388899892568588257e-02 -1.767780035734176636e-01 1.426659971475601196e-01 3.377899900078773499e-02 -2.590999938547611237e-03 -1.126110032200813293e-01 1.352840065956115723e-01 -8.531000465154647827e-03 -1.303779929876327515e-01 -7.267999649047851562e-02 1.183319985866546631e-01 -1.223400011658668518e-01 -1.740690022706985474e-01 -1.000789999961853027e-01 3.236699849367141724e-02 7.871100306510925293e-02 6.812199950218200684e-02 -7.611300051212310791e-02 -3.727399930357933044e-02 -2.773709893226623535e-01 -4.367800056934356689e-02 -2.677300013601779938e-02 -4.453499987721443176e-02 -2.831199951469898224e-02 9.600199759006500244e-02 1.770000010728836060e-01 5.894200131297111511e-02 1.592880040407180786e-01 -1.904470026493072510e-01 -1.353999972343444824e-01 -1.603000052273273468e-02 -1.120769977569580078e-01 -1.331759989261627197e-01 -3.191899880766868591e-02 7.133899629116058350e-02 -9.554900228977203369e-02 -5.367999896407127380e-03 -1.780400052666664124e-02 -1.803289949893951416e-01 6.681899726390838623e-02 1.020260006189346313e-01 -4.311199858784675598e-02 9.354200214147567749e-02 6.651999801397323608e-02 -9.670899808406829834e-02 -3.842999925836920738e-03 -3.454999998211860657e-02 6.644300371408462524e-02 5.816200003027915955e-02 2.036480009555816650e-01 6.840100139379501343e-02 6.598699837923049927e-02 -9.228800237178802490e-02 -8.713400363922119141e-02 1.203920021653175354e-01 -9.851399809122085571e-02 -1.119420006871223450e-01 6.509499996900558472e-02 -7.841400057077407837e-02 -1.957959979772567749e-01 -8.810999803245067596e-03 -1.405549943447113037e-01 -7.762599736452102661e-02 -1.194730028510093689e-01 -5.346500128507614136e-02 -1.593270003795623779e-01 7.605600357055664062e-02 3.587639927864074707e-01 1.688770055770874023e-01 -1.325100008398294449e-02 -1.419129967689514160e-01 -1.912599951028823853e-01 -8.007600158452987671e-02 2.676239907741546631e-01 1.416939944028854370e-01 -1.260000048205256462e-03 -1.421959996223449707e-01 -1.032949984073638916e-01 1.734649986028671265e-01 1.295430064201354980e-01 -1.114059984683990479e-01 1.194380000233650208e-01 -1.638460010290145874e-01 3.804500028491020203e-02 1.018730029463768005e-01 1.491120010614395142e-01 1.297589987516403198e-01 5.168699845671653748e-02 -1.391530036926269531e-01 -2.662999927997589111e-02 -6.601300090551376343e-02 -1.440919935703277588e-01 -7.095599919557571411e-02 1.226790025830268860e-01 -1.776400022208690643e-02 -5.801200121641159058e-02 2.427809983491897583e-01 1.104530021548271179e-01 -6.289000157266855240e-03 -1.831219941377639771e-01 9.825599938631057739e-02 9.103500097990036011e-02 2.551800012588500977e-02 -8.182100206613540649e-02 1.208629980683326721e-01 -3.413899987936019897e-02 -1.613319963216781616e-01 -2.494999952614307404e-02 7.386399805545806885e-02 -2.245699986815452576e-02 -1.095950007438659668e-01 8.175600320100784302e-02 -3.663859963417053223e-01 -6.445199996232986450e-02 5.556299909949302673e-02 3.646000102162361145e-02 -1.983200013637542725e-02 7.575000077486038208e-02 7.892400026321411133e-02 2.684300020337104797e-02 1.186880022287368774e-01 -1.208849996328353882e-01 1.004389971494674683e-01 -9.219899773597717285e-02 -8.712799847126007080e-02 2.193229943513870239e-01 -1.154860034584999084e-01 -6.910999771207571030e-03 8.353500068187713623e-02 7.994200289249420166e-02 -2.581099979579448700e-02 2.886099927127361298e-02 -1.730599999427795410e-02 1.234159991145133972e-01 -1.197950020432472229e-01 -1.188599970191717148e-02 -4.600900039076805115e-02 -7.451999932527542114e-03 -2.057490050792694092e-01 1.049899980425834656e-01 1.114569976925849915e-01 3.264339864253997803e-01 5.475400015711784363e-02 -9.198999963700771332e-03 6.937000155448913574e-02 1.267029941082000732e-01 -3.397599980235099792e-02 1.476339995861053467e-01 -5.934900045394897461e-02 6.138999946415424347e-03 4.443199932575225830e-02 5.729600042104721069e-02 4.306999966502189636e-02 -1.320119947195053101e-01 -7.532999664545059204e-02 -7.023599743843078613e-02 1.773059964179992676e-01 5.116900056600570679e-02 -5.512100085616111755e-02 -7.180000096559524536e-02 -1.262640058994293213e-01 5.084799975156784058e-02 -1.607279926538467407e-01 -6.273499876260757446e-02 6.844899803400039673e-02 6.570599973201751709e-02 7.709900289773941040e-02 -7.899700105190277100e-02 4.248699918389320374e-02 1.009240001440048218e-01 -9.260600060224533081e-02 1.328489929437637329e-01 -1.035400032997131348e-01 1.189500000327825546e-02 -1.338270008563995361e-01 -2.955180108547210693e-01 -1.484649926424026489e-01 1.177610009908676147e-01 3.367199897766113281e-01 7.748500257730484009e-02 -5.438200011849403381e-02 -8.070400357246398926e-02 -1.447100006043910980e-02 3.383599966764450073e-02 3.405579924583435059e-01 -6.044400110840797424e-02 -5.703299865126609802e-02 2.806900069117546082e-02 3.669299930334091187e-02 -9.361299872398376465e-02 -1.725200004875659943e-02 -1.649969965219497681e-01 -1.788440048694610596e-01 -7.853200286626815796e-02 -1.284209936857223511e-01 -1.041319966316223145e-01 1.194859966635704041e-01 3.984999842941761017e-03 -2.292709946632385254e-01 -8.999300003051757812e-02 -1.273700036108493805e-02 6.107000168412923813e-03 1.404370069503784180e-01 1.628479957580566406e-01 -2.119189947843551636e-01 -1.970389932394027710e-01 -8.299600332975387573e-02 8.104999549686908722e-03 -6.455100327730178833e-02 1.320769935846328735e-01 1.024300009012222290e-01 8.442900329828262329e-02 -5.718500167131423950e-02 2.043100073933601379e-02 1.875910013914108276e-01 -6.656599789857864380e-02 1.270900070667266846e-01 -8.410699665546417236e-02 7.279799878597259521e-02 
six 7.617100328207015991e-02 3.068000078201293945e-03 -1.196120008826255798e-01 -1.046240031719207764e-01 2.566800080239772797e-02 1.121750026941299438e-01 1.216220036149024963e-01 -9.985899925231933594e-02 9.444499760866165161e-02 -4.521400108933448792e-02 1.011580005288124084e-01 1.080090031027793884e-01 -1.734600029885768890e-02 3.783600032329559326e-02 7.117299735546112061e-02 -9.675300121307373047e-02 7.677999883890151978e-02 1.485790014266967773e-01 1.757310032844543457e-01 -1.105339974164962769e-01 -1.195750012993812561e-01 3.331299871206283569e-02 -1.462399959564208984e-02 1.199600007385015488e-02 4.707999899983406067e-02 1.552270054817199707e-01 -1.630980074405670166e-01 1.034300029277801514e-02 4.286799952387809753e-02 2.423159927129745483e-01 -1.435109972953796387e-01 9.519999730400741100e-04 1.441790014505386353e-01 -6.107499822974205017e-02 4.014499858021736145e-02 1.510199997574090958e-02 -7.239899784326553345e-02 1.378159970045089722e-01 5.285799875855445862e-02 -7.340999785810709000e-03 -9.909799695014953613e-02 -1.171339973807334900e-01 -2.190330028533935547e-01 -2.441800013184547424e-02 2.109149992465972900e-01 7.780700176954269409e-02 2.437770068645477295e-01 5.901699885725975037e-02 5.755100026726722717e-02 -2.822839915752410889e-01 1.574369966983795166e-01 -3.319050073623657227e-01 -1.734309941530227661e-01 -7.660599797964096069e-02 9.215100109577178955e-02 2.188899964094161987e-01 2.349810004234313965e-01 -5.618700012564659119e-02 9.790000040084123611e-04 6.277400255203247070e-02 -5.353099852800369263e-02 -7.666300237178802490e-02 1.942960023880004883e-01 -4.515900090336799622e-02 -7.864200323820114136e-02 1.863510012626647949e-01 3.558500111103057861e-02 7.285299897193908691e-02 7.783100008964538574e-02 -1.705040037631988525e-01 -5.835999920964241028e-02 1.738349944353103638e-01 -2.610000083222985268e-03 -8.147799968719482422e-02 2.881050109863281250e-01 -4.947499930858612061e-02 7.910000160336494446e-03 -4.918000195175409317e-03 -1.226880028843879700e-01 3.624320030212402344e-01 -1.985580027103424072e-01 4.241700097918510437e-02 -2.429929971694946289e-01 1.918019950389862061e-01 -1.857100054621696472e-02 4.690200090408325195e-02 -1.084420010447502136e-01 2.304890006780624390e-01 -2.945899963378906250e-02 -1.286489963531494141e-01 -1.133999973535537720e-01 8.333099633455276489e-02 -5.708999931812286377e-02 -1.991270035505294800e-01 -1.296849995851516724e-01 -9.475199878215789795e-02 1.771200075745582581e-02 8.987700194120407104e-02 1.306600030511617661e-02 -2.492900006473064423e-02 -2.824470102787017822e-01 -8.225099742412567139e-02 -6.443999707698822021e-02 4.333000164479017258e-03 -1.173620000481605530e-01 2.051199972629547119e-02 1.335690021514892578e-01 2.930999966338276863e-03 2.347719967365264893e-01 -1.325239986181259155e-01 -1.090079993009567261e-01 -1.877900026738643646e-02 1.622699946165084839e-02 -7.559700310230255127e-02 -3.569699823856353760e-02 1.648700051009654999e-02 -7.051999866962432861e-02 1.384500041604042053e-02 -1.749699935317039490e-02 -1.326189935207366943e-01 1.438740044832229614e-01 1.458339989185333252e-01 -1.777400076389312744e-02 7.828199863433837891e-02 7.642800360918045044e-02 -1.859389990568161011e-01 -3.448000177741050720e-02 -2.086500078439712524e-02 6.470499932765960693e-02 1.891610026359558105e-01 1.587049961090087891e-01 1.183430030941963196e-01 1.137169972062110901e-01 -1.088780015707015991e-01 -8.449199795722961426e-02 6.804899871349334717e-02 -3.091800026595592499e-02 -9.132300317287445068e-02 7.443899661302566528e-02 -1.241289973258972168e-01 -1.673090010881423950e-01 -5.127599835395812988e-02 -1.002549976110458374e-01 -8.793299645185470581e-02 -2.043890058994293213e-01 -1.156629994511604309e-01 -2.126709967851638794e-01 8.944900333881378174e-02 2.165279984474182129e-01 1.423050016164779663e-01 -6.449099630117416382e-02 -1.157919988036155701e-01 -8.976300060749053955e-02 -9.773699939250946045e-02 2.576479911804199219e-01 7.020899653434753418e-02 -2.156200073659420013e-02 -1.858150064945220947e-01 -5.261899903416633606e-02 1.565099954605102539e-01 1.896100044250488281e-01 -1.282230019569396973e-01 6.666900217533111572e-02 -1.837469935417175293e-01 8.544799685478210449e-02 5.333599820733070374e-02 1.048960015177726746e-01 1.057540029287338257e-01 1.976799964904785156e-02 -1.424939930438995361e-01 -6.422600150108337402e-02 -1.534689962863922119e-01 -2.010760009288787842e-01 -1.244029998779296875e-01 1.182020008563995361e-01 -1.018289998173713684e-01 3.284300118684768677e-02 1.931239962577819824e-01 1.839209944009780884e-01 -2.115000039339065552e-01 -1.422110050916671753e-01 1.396169960498809814e-01 3.307300060987472534e-02 -4.950100183486938477e-02 -2.523400075733661652e-02 1.619659960269927979e-01 -4.379799962043762207e-02 -9.441299736499786377e-02 2.155000111088156700e-03 1.531029939651489258e-01 9.032700210809707642e-02 -9.751199930906295776e-02 1.514379978179931641e-01 -3.531410098075866699e-01 4.548000171780586243e-03 1.604500040411949158e-02 3.451000154018402100e-02 -7.749000098556280136e-03 7.244700193405151367e-02 1.706299930810928345e-02 3.466000035405158997e-02 7.240899652242660522e-02 -1.191430017352104187e-01 1.845339983701705933e-01 -2.315700054168701172e-02 -1.336150020360946655e-01 2.188369929790496826e-01 -3.886000020429491997e-03 -6.196000054478645325e-02 9.144999831914901733e-02 2.087499946355819702e-02 -5.662000179290771484e-02 1.583399996161460876e-02 -8.002699911594390869e-02 1.360470056533813477e-01 -1.545899957418441772e-01 4.329999908804893494e-03 -8.431000262498855591e-02 1.483200024813413620e-02 -2.190899997949600220e-01 8.171500265598297119e-02 1.357640027999877930e-01 3.505519926548004150e-01 5.774600058794021606e-02 -1.424400042742490768e-02 1.791000016964972019e-03 6.877999752759933472e-02 -7.660599797964096069e-02 2.207989990711212158e-01 -9.704499691724777222e-02 6.208299845457077026e-02 5.445399880409240723e-02 6.756199896335601807e-02 8.268799632787704468e-02 -1.189490035176277161e-01 -1.050790026783943176e-01 -1.150230020284652710e-01 1.709450036287307739e-01 -1.834899932146072388e-02 -1.274800021201372147e-02 -9.471900016069412231e-02 -3.819499909877777100e-02 -3.663900122046470642e-02 -2.640100121498107910e-01 -1.501599978655576706e-02 8.532299846410751343e-02 8.708599954843521118e-02 1.250659972429275513e-01 -8.299600332975387573e-02 -2.838400006294250488e-02 9.713999927043914795e-02 -3.079300001263618469e-02 7.635799795389175415e-02 -1.284459978342056274e-01 5.371100082993507385e-02 -4.865900054574012756e-02 -2.333710044622421265e-01 -1.070090010762214661e-01 1.816029995679855347e-01 2.822189927101135254e-01 6.971299648284912109e-02 5.248500034213066101e-02 -9.345199912786483765e-02 -4.956000018864870071e-03 1.213449984788894653e-01 2.431180030107498169e-01 -7.568600028753280640e-02 -1.334840059280395508e-01 1.096389964222908020e-01 8.952000178396701813e-03 -9.354700148105621338e-02 -9.380199760198593140e-02 -1.309570074081420898e-01 -2.360219955444335938e-01 -8.184999972581863403e-02 -1.639070063829421997e-01 3.979400172829627991e-02 8.235800266265869141e-02 4.944499954581260681e-02 -2.249400019645690918e-01 -9.783300012350082397e-02 6.775800138711929321e-02 1.040470004081726074e-01 3.780300170183181763e-02 2.122689932584762573e-01 -1.883150041103363037e-01 -1.220450028777122498e-01 -8.399400115013122559e-02 -2.124500088393688202e-02 1.843300089240074158e-02 3.635599836707115173e-02 9.380699694156646729e-02 1.395390033721923828e-01 -1.239890009164810181e-01 4.561499878764152527e-02 2.038989961147308350e-01 -1.114590018987655640e-01 1.693200021982192993e-01 -1.135770007967948914e-01 1.581599935889244080e-02 
seven -2.243199944496154785e-02 1.085729971528053284e-01 -7.895100116729736328e-02 -1.354880034923553467e-01 -9.380999952554702759e-03 1.983869969844818115e-01 8.388700336217880249e-02 -5.792199820280075073e-02 1.257629990577697754e-01 -8.846600353717803955e-02 -3.950000100303441286e-04 2.561219930648803711e-01 -1.624699980020523071e-01 1.459040045738220215e-01 5.567799881100654602e-02 -7.611600309610366821e-02 2.672700025141239166e-02 -2.219399996101856232e-02 9.414599835872650146e-02 -1.131360009312629700e-01 -1.073900014162063599e-01 -2.440500073134899139e-02 -5.653800070285797119e-02 2.095299959182739258e-02 1.850579977035522461e-01 5.490300059318542480e-02 -2.064740061759948730e-01 1.048580035567283630e-01 9.444999694824218750e-02 2.513999938964843750e-01 -2.098769992589950562e-01 5.883799865841865540e-02 1.606619954109191895e-01 -5.610999837517738342e-02 3.017899952828884125e-02 -4.324800148606300354e-02 3.412500023841857910e-02 1.102849990129470825e-01 2.050100080668926239e-02 1.930199936032295227e-02 -2.755500003695487976e-02 -7.937700301408767700e-02 -9.019999951124191284e-02 -3.366199880838394165e-02 2.268480062484741211e-01 5.225700139999389648e-02 3.490419983863830566e-01 1.384020000696182251e-01 8.339399844408035278e-02 -2.178660035133361816e-01 2.668820023536682129e-01 -2.623820006847381592e-01 -1.208769977092742920e-01 -1.395130008459091187e-01 1.301749944686889648e-01 1.858869940042495728e-01 1.654939949512481689e-01 -1.067299954593181610e-02 1.100500021129846573e-02 1.251710057258605957e-01 -8.635099977254867554e-02 -2.782100066542625427e-02 1.960950046777725220e-01 -2.773699909448623657e-02 1.765000075101852417e-02 9.026899933815002441e-02 1.518449932336807251e-01 3.244199976325035095e-02 1.427969932556152344e-01 -3.048799932003021240e-02 -6.245800107717514038e-02 1.730900071561336517e-02 -4.701500013470649719e-02 -4.907799884676933289e-02 2.771129906177520752e-01 -1.440259963274002075e-01 -2.677300013601779938e-02 -1.361249983310699463e-01 -1.811639964580535889e-01 4.561710059642791748e-01 -1.934739947319030762e-01 -1.443700026720762253e-02 -1.912789940834045410e-01 2.088990062475204468e-01 1.490500010550022125e-02 7.295300066471099854e-02 -1.733009964227676392e-01 1.759440004825592041e-01 -5.758599936962127686e-02 -1.188990026712417603e-01 1.243000035174190998e-03 4.907400161027908325e-02 -6.731200218200683594e-02 -1.199460029602050781e-01 -6.899599730968475342e-02 -1.364859938621520996e-01 1.366499997675418854e-02 -7.134199887514114380e-02 -4.794799908995628357e-02 -7.410299777984619141e-02 -2.978740036487579346e-01 -1.168999969959259033e-01 -5.801900103688240051e-02 -7.259099930524826050e-02 -5.465399846434593201e-02 -1.273099984973669052e-02 1.917729973793029785e-01 1.974499970674514771e-02 1.697639971971511841e-01 -1.212740018963813782e-01 -1.868519932031631470e-01 -1.463199965655803680e-02 2.179799973964691162e-02 -4.616999998688697815e-02 -6.038400158286094666e-02 6.835900247097015381e-02 -2.886999957263469696e-02 -1.095100026577711105e-02 -1.138199958950281143e-02 -7.734999805688858032e-02 1.154830008745193481e-01 1.461140066385269165e-01 3.509400039911270142e-02 6.979499757289886475e-02 9.479899704456329346e-02 -2.324209958314895630e-01 -6.741700321435928345e-02 1.996699906885623932e-02 1.418610066175460815e-01 7.507800310850143433e-02 1.785710006952285767e-01 6.264500319957733154e-02 7.130400091409683228e-02 -1.007200032472610474e-01 -7.613900303840637207e-02 2.840499952435493469e-02 1.966799981892108917e-02 -6.894499808549880981e-02 1.769799925386905670e-02 -9.941700100898742676e-02 -2.621859908103942871e-01 3.576000034809112549e-02 -6.568399816751480103e-02 -1.366209983825683594e-01 -1.156909987330436707e-01 -5.324300006031990051e-02 -2.089190036058425903e-01 -1.128299999982118607e-02 2.586849927902221680e-01 1.777610033750534058e-01 -4.726900160312652588e-02 -3.389999968931078911e-03 -2.053450047969818115e-01 -1.480500027537345886e-02 2.820590138435363770e-01 8.630800247192382812e-02 1.514299958944320679e-02 -1.190079972147941589e-01 -1.286550015211105347e-01 1.718879938125610352e-01 5.495600029826164246e-02 -1.281380057334899902e-01 1.134549975395202637e-01 -2.525070011615753174e-01 9.139300137758255005e-02 7.762599736452102661e-02 1.449840068817138672e-01 1.090259999036788940e-01 9.178300201892852783e-02 -1.649210005998611450e-01 -4.017899930477142334e-02 -8.476799726486206055e-02 -2.124319970607757568e-01 -6.863400340080261230e-02 1.333860009908676147e-01 -4.354000091552734375e-02 4.727400094270706177e-02 2.556209862232208252e-01 1.540630012750625610e-01 -1.057799998670816422e-02 -2.098210006952285767e-01 4.460699856281280518e-02 3.219500184059143066e-02 8.155599981546401978e-02 -2.540000132285058498e-04 1.497640013694763184e-01 -2.404999919235706329e-02 -7.587300240993499756e-02 -3.540699928998947144e-02 1.243479996919631958e-01 5.544799938797950745e-02 -2.458699978888034821e-02 1.672669947147369385e-01 -5.101799964904785156e-01 2.802399918437004089e-02 1.682000048458576202e-02 7.888200134038925171e-02 -4.507900029420852661e-02 1.505320072174072266e-01 1.193350031971931458e-01 3.375700116157531738e-02 1.173549965023994446e-01 -8.057200163602828979e-02 2.497000060975551605e-02 9.403999894857406616e-03 -1.105360016226768494e-01 2.115589976310729980e-01 -6.637699902057647705e-02 -4.362599924206733704e-02 8.022899925708770752e-02 1.174900028854608536e-02 -5.289600044488906860e-02 -3.065899945795536041e-02 -6.478100270032882690e-02 1.915079951286315918e-01 -1.541139930486679077e-01 5.049100145697593689e-02 -1.985339969396591187e-01 -1.001719981431961060e-01 -2.051440030336380005e-01 4.812100157141685486e-02 7.739199697971343994e-02 3.152459859848022461e-01 1.277299970388412476e-02 1.395499985665082932e-02 2.089000074192881584e-03 5.075599998235702515e-02 -5.648500099778175354e-02 1.725350022315979004e-01 -1.975789964199066162e-01 8.319299668073654175e-02 7.258699834346771240e-02 1.091379970312118530e-01 6.976400315761566162e-02 -1.990280002355575562e-01 -1.611669957637786865e-01 -6.420399993658065796e-02 2.601180076599121094e-01 -1.222949996590614319e-01 8.055999875068664551e-02 -4.248699918389320374e-02 3.958600014448165894e-02 7.039699703454971313e-02 -1.524489969015121460e-01 -5.304199829697608948e-02 1.656849980354309082e-01 5.622300133109092712e-02 3.165899962186813354e-02 2.178000053390860558e-03 -1.852600090205669403e-02 7.047999650239944458e-02 -7.363600283861160278e-02 1.368550062179565430e-01 -6.348600238561630249e-02 -5.254700034856796265e-02 -1.200440004467964172e-01 -2.152470052242279053e-01 5.255999974906444550e-03 2.409030050039291382e-01 2.772859930992126465e-01 6.190799921751022339e-02 7.488999981433153152e-03 -1.517540067434310913e-01 2.812499925494194031e-02 1.298310011625289917e-01 3.546949923038482666e-01 1.802100054919719696e-02 -1.353009939193725586e-01 6.736399978399276733e-02 -3.348999889567494392e-03 -5.784599855542182922e-02 3.730500116944313049e-02 -1.907929927110671997e-01 -6.792999804019927979e-02 -1.147060021758079529e-01 -1.381320059299468994e-01 -1.176400016993284225e-02 1.654269993305206299e-01 -2.990199998021125793e-02 -1.853200048208236694e-01 -1.500010043382644653e-01 1.139670014381408691e-01 -2.005100063979625702e-02 1.050940006971359253e-01 2.407529950141906738e-01 -2.307900041341781616e-01 -1.897370070219039917e-01 -2.104499936103820801e-02 3.541199862957000732e-02 -2.812400087714195251e-02 1.102129966020584106e-01 5.201999843120574951e-02 1.603430062532424927e-01 -9.340099990367889404e-02 -8.282399922609329224e-02 1.597719937562942505e-01 -6.164300069212913513e-02 1.355659961700439453e-01 -5.900299921631813049e-02 2.718299999833106995e-02 
eight 3.069799952208995819e-02 1.424860060214996338e-01 -1.306300014257431030e-01 -6.515599787235260010e-02 5.075399950146675110e-02 1.101830005645751953e-01 3.049699962139129639e-02 1.365000032819807529e-03 1.373160034418106079e-01 -1.295090019702911377e-01 1.473779976367950439e-01 2.673609852790832520e-01 -1.007609963417053223e-01 5.558099970221519470e-02 5.238800123333930969e-02 -1.669310033321380615e-01 -7.969599962234497070e-02 1.014470010995864868e-01 1.203740015625953674e-01 -2.492100000381469727e-02 -2.497900091111660004e-02 -2.867900021374225616e-02 -9.426400065422058105e-02 4.554000217467546463e-03 1.181999966502189636e-01 1.406960040330886841e-01 -2.147549986839294434e-01 1.122399978339672089e-02 4.561800137162208557e-02 2.673690021038055420e-01 -1.552869975566864014e-01 2.249499969184398651e-02 9.110700339078903198e-02 -7.173100113868713379e-02 4.253700003027915955e-02 5.881199985742568970e-02 2.958399988710880280e-02 1.400309950113296509e-01 8.590999990701675415e-03 9.859999641776084900e-03 -9.811700135469436646e-02 -1.237059980630874634e-01 -1.626169979572296143e-01 -1.234980002045631409e-01 2.227839976549148560e-01 3.106500022113323212e-02 3.188320100307464600e-01 8.389300107955932617e-02 1.157459989190101624e-01 -2.178220003843307495e-01 1.963180005550384521e-01 -2.031459957361221313e-01 -1.378040015697479248e-01 -3.265700116753578186e-02 9.288299828767776489e-02 1.507149934768676758e-01 2.327959984540939331e-01 -3.590499982237815857e-02 -4.788500070571899414e-02 7.304699718952178955e-02 9.031999856233596802e-03 -1.126680001616477966e-01 1.889300048351287842e-01 -1.685800030827522278e-02 -6.966999918222427368e-02 1.569570004940032959e-01 -4.356999881565570831e-03 7.586999982595443726e-02 1.897439956665039062e-01 -9.650199860334396362e-02 -3.030999936163425446e-02 2.191549986600875854e-01 -7.028300315141677856e-02 -4.944099858403205872e-02 2.077299952507019043e-01 -9.765200316905975342e-02 3.705000132322311401e-02 -1.200599968433380127e-01 -1.103769987821578979e-01 4.512529969215393066e-01 -1.781799942255020142e-01 9.102500230073928833e-02 -1.085309982299804688e-01 1.866350024938583374e-01 6.775000132620334625e-03 6.309600174427032471e-02 -1.184689998626708984e-01 1.785079985857009888e-01 -8.796200156211853027e-02 -7.346300035715103149e-02 1.507799979299306870e-02 8.809900283813476562e-02 -4.032300040125846863e-02 -2.180310040712356567e-01 -5.102600157260894775e-02 -1.166040003299713135e-01 4.166999831795692444e-03 -3.747199848294258118e-02 -5.018999800086021423e-03 1.769899949431419373e-02 -2.633750140666961670e-01 -9.541399776935577393e-02 -4.167699813842773438e-02 -1.423600036650896072e-02 -3.483099862933158875e-02 -5.508999805897474289e-03 1.899120062589645386e-01 3.320600092411041260e-02 2.120029926300048828e-01 -1.527339965105056763e-01 -1.135659962892532349e-01 -2.706800028681755066e-02 8.635999634861946106e-03 -3.436600044369697571e-02 -5.766399949789047241e-02 3.011699952185153961e-02 -7.189799845218658447e-02 -4.317799955606460571e-02 3.812599927186965942e-02 -1.456280052661895752e-01 5.958300083875656128e-02 1.015990003943443298e-01 6.083400174975395203e-02 7.512599974870681763e-02 7.039099931716918945e-02 -1.555500030517578125e-01 -3.852299973368644714e-02 2.789000049233436584e-02 7.661200314760208130e-02 1.047030016779899597e-01 2.050479948520660400e-01 1.570910066366195679e-01 1.152729988098144531e-01 -2.572800032794475555e-02 -8.805400133132934570e-02 3.672299906611442566e-02 -7.953000254929065704e-03 -1.444170027971267700e-01 9.314499795436859131e-02 -1.950390040874481201e-01 -1.970189958810806274e-01 -3.418200090527534485e-02 -4.905499890446662903e-02 -1.030109971761703491e-01 -9.601200371980667114e-02 -9.449300169944763184e-02 -1.977840065956115723e-01 6.456100195646286011e-02 2.435449957847595215e-01 1.582089960575103760e-01 -1.074590012431144714e-01 -9.419000148773193359e-02 -2.706390023231506348e-01 2.040700055658817291e-02 2.779470086097717285e-01 2.979099936783313751e-02 -2.194999950006604195e-03 -2.412350028753280640e-01 -6.409399956464767456e-02 1.886100023984909058e-01 1.094150021672248840e-01 -1.557430028915405273e-01 1.439889967441558838e-01 -1.680759936571121216e-01 -7.749299705028533936e-02 7.285899668931961060e-02 1.704809963703155518e-01 1.995970010757446289e-01 8.532200008630752563e-02 -1.326780021190643311e-01 -1.337739974260330200e-01 -1.994159966707229614e-01 -2.541230022907257080e-01 -6.309100240468978882e-02 1.374370008707046509e-01 -9.003899991512298584e-02 4.465400055050849915e-02 1.951220035552978516e-01 1.450989991426467896e-01 -6.445399671792984009e-02 -2.360569983720779419e-01 6.067100167274475098e-02 8.300500363111495972e-02 5.309100076556205750e-02 -8.999600261449813843e-02 1.382389962673187256e-01 -6.947900354862213135e-02 -8.003699779510498047e-02 -1.950499974191188812e-02 -1.360800024121999741e-02 1.707600057125091553e-02 1.260900031775236130e-02 2.312069982290267944e-01 -3.852030038833618164e-01 -7.664299756288528442e-02 3.553099930286407471e-02 2.411399967968463898e-02 -4.610399901866912842e-02 9.613499790430068970e-02 1.029139980673789978e-01 4.935799911618232727e-02 6.334599852561950684e-02 -3.590499982237815857e-02 1.203190013766288757e-01 1.529909968376159668e-01 -1.106180027127265930e-01 2.121980041265487671e-01 -1.324910074472427368e-01 -6.285300105810165405e-02 1.344970017671585083e-01 3.121500089764595032e-02 -3.272600099444389343e-02 3.035200014710426331e-02 -5.183000117540359497e-02 1.822189986705780029e-01 -1.593350023031234741e-01 1.029290035367012024e-01 -8.297400176525115967e-02 -1.364559978246688843e-01 -2.246039956808090210e-01 8.274400234222412109e-02 8.353299647569656372e-02 3.514020144939422607e-01 1.903999969363212585e-02 -6.757999770343303680e-03 6.168900057673454285e-02 9.343200176954269409e-02 -1.252779960632324219e-01 1.429139971733093262e-01 -8.899299800395965576e-02 1.223860010504722595e-01 9.680800139904022217e-02 1.005600020289421082e-02 3.601400181651115417e-02 -9.915199875831604004e-02 -1.392710059881210327e-01 -7.139299809932708740e-02 1.567090004682540894e-01 -2.655199915170669556e-02 -3.835299983620643616e-02 -1.333650052547454834e-01 1.850000000558793545e-03 -3.442999906837940216e-03 -1.879059970378875732e-01 -5.053300037980079651e-02 1.455480009317398071e-01 -7.226000074297189713e-03 1.182520017027854919e-01 -1.287969946861267090e-01 4.966999869793653488e-03 4.680199921131134033e-02 -5.230199918150901794e-02 1.682019978761672974e-01 -2.766299992799758911e-02 -3.375000087544322014e-03 -2.524000033736228943e-02 -2.141329944133758545e-01 -1.960099935531616211e-01 1.319600045680999756e-01 3.351710140705108643e-01 2.351900003850460052e-02 -1.763899996876716614e-02 -1.820980012416839600e-01 1.006300002336502075e-02 4.492599889636039734e-02 2.776280045509338379e-01 2.588899992406368256e-02 -1.832640022039413452e-01 6.179200112819671631e-02 9.730000165291130543e-04 -1.721699982881546021e-01 5.538700148463249207e-02 -1.902460008859634399e-01 -2.079779952764511108e-01 -6.813800334930419922e-02 -7.973500341176986694e-02 1.521000056527554989e-03 1.182330027222633362e-01 3.275100141763687134e-02 -1.598459929227828979e-01 -6.511099636554718018e-02 9.235499799251556396e-02 8.806999772787094116e-02 7.640899717807769775e-02 2.113769948482513428e-01 -2.397619932889938354e-01 -2.107640057802200317e-01 -1.012459993362426758e-01 -5.931000225245952606e-03 2.405999926850199699e-03 7.565899938344955444e-02 6.811200082302093506e-02 1.307419985532760620e-01 -9.262499958276748657e-02 9.979000315070152283e-03 1.772550046443939209e-01 -7.603500038385391235e-02 2.853699959814548492e-02 -2.704999968409538269e-02 -3.032100014388561249e-02 
nine 4.910999909043312073e-02 1.079630032181739807e-01 -1.467400044202804565e-01 -4.344100132584571838e-02 -2.438499964773654938e-02 1.322560012340545654e-01 1.113810017704963684e-01 -6.493800133466720581e-02 9.406699985265731812e-02 -1.189590021967887878e-01 2.624900080263614655e-02 3.120670020580291748e-01 -1.914599984884262085e-01 8.548100292682647705e-02 1.205210015177726746e-01 -4.193900153040885925e-02 -4.992200061678886414e-02 1.426469981670379639e-01 1.509110033512115479e-01 -1.519519984722137451e-01 1.369199994951486588e-02 -3.724399954080581665e-02 -3.467699885368347168e-02 3.103099949657917023e-02 1.486230045557022095e-01 1.327639967203140259e-01 -1.981890052556991577e-01 3.955999854952096939e-03 4.902800172567367554e-02 2.063809931278228760e-01 -1.815630048513412476e-01 5.328999832272529602e-02 1.352470070123672485e-01 -2.501299977302551270e-02 -3.469699993729591370e-02 2.584400027990341187e-02 -4.171599820256233215e-02 1.137029975652694702e-01 -3.962999954819679260e-02 8.397900313138961792e-02 -1.389269977807998657e-01 -1.304930001497268677e-01 -2.426230013370513916e-01 -6.070499867200851440e-02 2.345860004425048828e-01 -4.836000036448240280e-03 3.456580042839050293e-01 8.261899650096893311e-02 9.904000163078308105e-02 -2.454999983310699463e-01 1.697099953889846802e-01 -3.648619949817657471e-01 -1.250530034303665161e-01 -4.283300042152404785e-02 5.121599882841110229e-02 2.311940044164657593e-01 2.181989997625350952e-01 -7.077100127935409546e-02 -2.208600006997585297e-02 5.917200073599815369e-02 -9.488800168037414551e-02 -2.125000022351741791e-02 1.211439967155456543e-01 -1.185099966824054718e-02 9.480000007897615433e-04 7.056000083684921265e-02 1.037980020046234131e-01 3.253100067377090454e-02 1.359229981899261475e-01 -1.120690032839775085e-01 -1.584780067205429077e-01 1.676920056343078613e-01 -8.110599964857101440e-02 -3.274599835276603699e-02 2.091300040483474731e-01 -5.480099841952323914e-02 -6.653899699449539185e-02 -7.721199840307235718e-02 -1.720750033855438232e-01 4.598740041255950928e-01 -1.319520026445388794e-01 5.455600097775459290e-02 -1.088839992880821228e-01 1.960770040750503540e-01 -6.461999844759702682e-03 3.209599852561950684e-02 -2.853000070899724960e-03 2.004819959402084351e-01 -7.619400322437286377e-02 -9.330400079488754272e-02 2.149900048971176147e-02 1.563789993524551392e-01 -1.656160056591033936e-01 -1.781730055809020996e-01 -1.604589968919754028e-01 -1.511169970035552979e-01 2.415999956429004669e-02 3.562400117516517639e-02 -6.539700180292129517e-02 -8.148600161075592041e-02 -2.906680107116699219e-01 -2.409799955785274506e-02 -1.648470014333724976e-01 1.788000017404556274e-02 -1.093060001730918884e-01 -3.739099949598312378e-02 2.141859978437423706e-01 5.018400028347969055e-02 1.538899987936019897e-01 -1.234930008649826050e-01 -1.216970011591911316e-01 -4.647000133991241455e-02 -1.428600028157234192e-02 -1.061450019478797913e-01 8.762399852275848389e-02 5.068000033497810364e-02 -4.710999876260757446e-02 -1.049999967217445374e-01 8.241499960422515869e-02 -1.928289979696273804e-01 9.947399795055389404e-02 5.070399865508079529e-02 -1.279999967664480209e-02 1.343999989330768585e-03 9.689100086688995361e-02 -2.476390004158020020e-01 -8.177100121974945068e-02 -1.848099939525127411e-02 1.297599971294403076e-01 1.024279966950416565e-01 1.886509954929351807e-01 1.073020026087760925e-01 1.552840024232864380e-01 -7.197300344705581665e-02 -9.171500056982040405e-02 2.420799992978572845e-02 -1.124180033802986145e-01 -7.965499907732009888e-02 2.197200059890747070e-02 -1.358170062303543091e-01 -2.158280014991760254e-01 3.709800168871879578e-02 -1.499940007925033569e-01 -7.195399701595306396e-02 -1.160899996757507324e-01 -6.869000196456909180e-02 -1.745110005140304565e-01 4.553399980068206787e-02 1.825969964265823364e-01 1.435189992189407349e-01 -7.072400301694869995e-02 -1.027429997920989990e-01 -1.690730005502700806e-01 -5.280000157654285431e-03 2.617819905281066895e-01 1.639400050044059753e-02 7.142200320959091187e-02 -2.861349880695343018e-01 -6.588900089263916016e-02 1.026199981570243835e-01 2.211800031363964081e-02 -1.800570040941238403e-01 9.891200065612792969e-02 -1.487929970026016235e-01 2.713900059461593628e-02 1.047519966959953308e-01 1.403139978647232056e-01 1.524560004472732544e-01 8.883000165224075317e-02 -2.429980039596557617e-01 -2.221670001745223999e-01 -1.533930003643035889e-01 -2.256280034780502319e-01 -7.271400094032287598e-02 5.328400060534477234e-02 -3.025499917566776276e-02 -6.819000001996755600e-03 2.183780074119567871e-01 1.215500012040138245e-01 -2.595999976620078087e-03 -2.846280038356781006e-01 1.431269943714141846e-01 -4.234600067138671875e-02 3.830200061202049255e-02 -3.079500049352645874e-02 2.135969996452331543e-01 -2.165099978446960449e-02 -2.019000053405761719e-02 6.662300229072570801e-02 -5.510999821126461029e-03 1.715599931776523590e-02 -9.716799855232238770e-02 2.124090045690536499e-01 -3.469099998474121094e-01 -5.182199925184249878e-02 9.992899745702743530e-02 8.649899810552597046e-02 3.045099973678588867e-02 1.764840036630630493e-01 7.986199855804443359e-02 3.811400011181831360e-02 1.161120012402534485e-01 -5.367999896407127380e-02 1.171109974384307861e-01 -2.626200020313262939e-02 -1.285970062017440796e-01 1.871760040521621704e-01 -1.046890020370483398e-01 -1.791370064020156860e-01 1.059660017490386963e-01 5.279099941253662109e-02 6.046500056982040405e-02 -5.880000069737434387e-03 -7.585400342941284180e-02 1.428990066051483154e-01 -2.226420044898986816e-01 9.709899872541427612e-02 -3.899899870157241821e-02 -8.442900329828262329e-02 -1.420360058546066284e-01 5.527300015091896057e-02 8.310399949550628662e-02 2.558259963989257812e-01 2.380700036883354187e-02 6.530000246129930019e-04 3.455299884080886841e-02 1.325400024652481079e-01 -1.021590009331703186e-01 5.385899916291236877e-02 -1.425870060920715332e-01 5.514999851584434509e-02 1.117210015654563904e-01 4.032399877905845642e-02 1.091820001602172852e-01 -1.541209965944290161e-01 -1.108739972114562988e-01 -1.203399989753961563e-02 1.961430013179779053e-01 -3.376299887895584106e-02 4.687799885869026184e-02 -9.430500119924545288e-02 -2.736900001764297485e-02 5.770000279881060123e-04 -1.767449975013732910e-01 -2.541499957442283630e-02 1.366640031337738037e-01 6.155899912118911743e-02 1.531590074300765991e-01 -1.023809984326362610e-01 2.583600021898746490e-02 4.193399846553802490e-02 -8.173099905252456665e-02 3.668999997898936272e-03 -4.293400049209594727e-02 -2.289099991321563721e-02 -9.109199792146682739e-02 -2.114599943161010742e-01 -1.334940046072006226e-01 1.370189934968948364e-01 3.276669979095458984e-01 6.755500286817550659e-02 3.607299923896789551e-02 -2.116699963808059692e-01 7.105399668216705322e-02 9.283500164747238159e-02 3.245449960231781006e-01 -7.055299729108810425e-02 -8.097399771213531494e-02 3.676199913024902344e-02 3.110099956393241882e-02 -1.206580027937889099e-01 7.032600045204162598e-02 -2.011609971523284912e-01 -2.307509928941726685e-01 -1.003649979829788208e-01 -1.428160071372985840e-01 3.240900114178657532e-02 1.794700026512145996e-01 5.094299837946891785e-02 -4.918900132179260254e-02 -1.243259981274604797e-01 1.440310031175613403e-01 -4.863800108432769775e-02 8.394999802112579346e-02 9.850999712944030762e-02 -1.149820014834403992e-01 -2.465150058269500732e-01 -9.680499881505966187e-02 -4.457499831914901733e-02 -3.197000175714492798e-02 -4.719600081443786621e-02 5.587799847126007080e-02 1.940940022468566895e-01 -4.862099885940551758e-02 -5.144799873232841492e-02 1.254439949989318848e-01 -8.347100019454956055e-02 7.282400131225585938e-02 -1.346100028604269028e-02 2.750200033187866211e-02 
ten 9.471800178289413452e-02 1.374779939651489258e-01 -1.950179934501647949e-01 -9.249199926853179932e-02 6.842199712991714478e-02 5.899000167846679688e-02 1.016160026192665100e-01 -4.558200016617774963e-02 5.040999874472618103e-02 -1.142370030283927917e-01 2.291800081729888916e-02 2.958630025386810303e-01 -2.072550058364868164e-01 -4.260899871587753296e-02 7.884400337934494019e-02 -2.515420019626617432e-01 6.196099892258644104e-02 7.146000117063522339e-02 1.299889981746673584e-01 -5.190100148320198059e-02 -8.286900073289871216e-02 4.725800082087516785e-02 -8.753400295972824097e-02 1.625120043754577637e-01 3.124099969863891602e-02 6.228699907660484314e-02 -2.945069968700408936e-01 1.229200046509504318e-02 -7.650099694728851318e-02 3.026759922504425049e-01 -2.795900106430053711e-01 7.665500044822692871e-02 1.354999956674873829e-03 -2.763799950480461121e-02 1.078829988837242126e-01 1.615840047597885132e-01 -4.916499927639961243e-02 9.684800356626510620e-02 5.725999828428030014e-03 6.046300008893013000e-02 -9.633299708366394043e-02 -8.472900092601776123e-02 -2.444469928741455078e-01 5.907399952411651611e-02 2.083870023488998413e-01 -1.296299975365400314e-02 2.394870072603225708e-01 4.190099984407424927e-02 2.412129938602447510e-01 -1.066759973764419556e-01 9.384000301361083984e-02 -1.205070018768310547e-01 -1.040790006518363953e-01 -8.341299742460250854e-02 2.456520050764083862e-01 1.677549928426742554e-01 1.506419926881790161e-01 3.600100055336952209e-02 2.041400037705898285e-02 1.023539975285530090e-01 5.117300152778625488e-02 -1.628340035676956177e-01 1.548829972743988037e-01 -9.942699968814849854e-02 9.018900245428085327e-02 1.315969973802566528e-01 -1.860300078988075256e-02 -1.307770013809204102e-01 1.309089958667755127e-01 -9.833300113677978516e-02 -5.268900096416473389e-02 1.277309954166412354e-01 -3.959999885410070419e-03 -1.103309988975524902e-01 2.145809978246688843e-01 -7.254400104284286499e-02 -8.302100002765655518e-02 -4.209000151604413986e-03 -2.064940035343170166e-01 3.575150072574615479e-01 -3.051779866218566895e-01 -2.349600009620189667e-02 -8.268100023269653320e-02 6.688699871301651001e-02 4.404100030660629272e-02 -2.845799922943115234e-02 -1.269900053739547729e-01 7.030799984931945801e-02 4.661900177597999573e-02 -9.991300106048583984e-02 -5.583399906754493713e-02 1.265220046043395996e-01 -1.522720009088516235e-01 -1.494069993495941162e-01 -8.099000155925750732e-02 -3.220000071451067924e-04 8.546999655663967133e-03 8.861099928617477417e-02 -1.063499972224235535e-02 -1.432900037616491318e-02 -2.088990062475204468e-01 -1.015179976820945740e-01 -8.562999963760375977e-02 4.364999942481517792e-03 -1.045669987797737122e-01 9.028299897909164429e-02 1.048680022358894348e-01 2.273000031709671021e-02 2.154320031404495239e-01 -1.630470007658004761e-01 -5.629299953579902649e-02 3.989600017666816711e-02 -2.325859963893890381e-01 -4.609699919819831848e-02 2.365599945187568665e-02 1.257199943065643311e-01 -1.209350004792213440e-01 5.341900140047073364e-02 9.944400191307067871e-02 -1.699050068855285645e-01 -2.929599955677986145e-02 1.251309961080551147e-01 8.579900115728378296e-02 9.954000264406204224e-02 3.604000061750411987e-02 -6.988699734210968018e-02 9.027200192213058472e-02 -5.063000135123729706e-03 -5.750999785959720612e-03 1.600279957056045532e-01 2.010799944400787354e-01 1.023610010743141174e-01 6.095099821686744690e-02 -1.027429997920989990e-01 -5.984399840235710144e-02 6.032799929380416870e-02 -1.971610039472579956e-01 -4.129499942064285278e-02 8.206800371408462524e-02 -9.404899924993515015e-02 -1.022069975733757019e-01 2.620700001716613770e-02 -1.011520028114318848e-01 -8.840999752283096313e-02 -1.662269979715347290e-01 9.170999750494956970e-03 -1.812999993562698364e-01 1.275610029697418213e-01 3.307740092277526855e-01 5.928200110793113708e-02 -2.871200069785118103e-02 -1.248949989676475525e-01 -6.468900293111801147e-02 -9.341199696063995361e-02 6.483300030231475830e-02 9.106799960136413574e-02 7.644999772310256958e-03 -1.433019936084747314e-01 -1.592189967632293701e-01 8.334299921989440918e-02 -4.360200092196464539e-02 -9.000699967145919800e-02 4.469199851155281067e-02 -1.835480034351348877e-01 3.465399891138076782e-02 9.658300131559371948e-02 1.540939956903457642e-01 1.936620026826858521e-01 3.829500079154968262e-02 -2.610360085964202881e-01 -1.548659950494766235e-01 3.181900084018707275e-02 -8.674199879169464111e-02 -8.331800252199172974e-02 1.551899965852499008e-02 1.086500007659196854e-02 -5.957999825477600098e-02 1.557019948959350586e-01 5.542200058698654175e-02 -7.057099789381027222e-02 -2.916359901428222656e-01 1.752730011940002441e-01 4.866800084710121155e-02 7.107300311326980591e-02 -2.298299968242645264e-02 8.031599968671798706e-02 -9.334100037813186646e-02 -8.585999719798564911e-03 -7.935000211000442505e-02 -6.935500353574752808e-02 -2.347899973392486572e-02 -2.262230068445205688e-01 6.538499891757965088e-02 -3.508819937705993652e-01 -4.934500157833099365e-02 2.248799987137317657e-02 -1.513800024986267090e-02 -8.779999800026416779e-03 1.133340001106262207e-01 3.029000014066696167e-02 1.155230030417442322e-01 1.264590024948120117e-01 -1.172169968485832214e-01 7.380200177431106567e-02 -8.361300081014633179e-02 -1.863750070333480835e-01 1.798380017280578613e-01 -9.875600039958953857e-02 2.677999902516603470e-03 6.819699704647064209e-02 -6.314999889582395554e-03 -9.154599905014038086e-02 -5.999499931931495667e-02 -8.004800230264663696e-02 2.180420011281967163e-01 -6.331100314855575562e-02 2.266730070114135742e-01 -4.104499891400337219e-02 -1.001809984445571899e-01 -1.640029996633529663e-01 1.651259958744049072e-01 6.438100337982177734e-02 3.576979935169219971e-01 3.838000074028968811e-02 -9.214100241661071777e-02 2.103300020098686218e-02 1.434559971094131470e-01 2.026100084185600281e-02 4.199599847197532654e-02 -7.834299653768539429e-02 1.733399927616119385e-02 6.505999714136123657e-02 6.591200083494186401e-02 8.535999804735183716e-02 -1.467490047216415405e-01 -6.591500341892242432e-02 -6.051699817180633545e-02 1.546700000762939453e-01 -1.040900032967329025e-02 7.957000285387039185e-03 -2.166200056672096252e-02 3.735399991273880005e-02 1.217900030314922333e-02 -1.569879949092864990e-01 -1.130919978022575378e-01 -1.070669963955879211e-01 4.295999929308891296e-02 1.081390008330345154e-01 -7.753100246191024780e-02 2.094800025224685669e-02 8.144900202751159668e-02 -9.684699773788452148e-02 1.403020024299621582e-01 7.651399821043014526e-02 -5.247999913990497589e-03 -8.026099950075149536e-02 -2.589620053768157959e-01 -1.479540020227432251e-01 1.221700012683868408e-01 3.452410101890563965e-01 -5.652699992060661316e-02 5.705099925398826599e-02 -1.620489954948425293e-01 -7.505299896001815796e-02 1.066249981522560120e-01 3.163970112800598145e-01 1.831400021910667419e-02 -3.381400182843208313e-02 1.890699937939643860e-02 1.207310035824775696e-01 -7.540299743413925171e-02 3.426500037312507629e-02 -1.590549945831298828e-01 -2.502900063991546631e-01 8.259000256657600403e-03 -1.044730022549629211e-01 -1.544989943504333496e-01 8.395200222730636597e-02 -3.541300073266029358e-02 -1.163510009646415710e-01 -1.884240061044692993e-01 1.400479972362518311e-01 2.804999938234686852e-03 5.018100142478942871e-02 2.418809980154037476e-01 -2.134850025177001953e-01 -2.845009863376617432e-01 -1.926900073885917664e-02 7.588300108909606934e-02 8.046600222587585449e-02 8.284999988973140717e-03 9.655100107192993164e-02 9.665700048208236694e-02 -6.731099635362625122e-02 -6.932800263166427612e-02 2.054180055856704712e-01 -1.512860059738159180e-01 1.073049977421760559e-01 -4.819099977612495422e-02 8.190599828958511353e-02 
dog 3.225910067558288574e-01 1.040479987859725952e-01 -9.455999732017517090e-02 2.135719954967498779e-01 -4.748100042343139648e-02 1.039099972695112228e-02 1.930319964885711670e-01 1.516800001263618469e-02 9.286399930715560913e-02 7.242900133132934570e-02 -3.529919981956481934e-01 7.164099812507629395e-02 -6.708600372076034546e-02 -2.029549926519393921e-01 2.544830143451690674e-01 -1.549140065908432007e-01 3.560230135917663574e-01 -4.033749997615814209e-01 1.107620000839233398e-01 -1.343639940023422241e-01 -1.617980003356933594e-01 1.524839997291564941e-01 2.974629998207092285e-01 -1.305029988288879395e-01 1.584949940443038940e-01 4.008919894695281982e-01 -9.224999696016311646e-03 -3.204430043697357178e-01 1.032579988241195679e-01 4.616520106792449951e-01 -2.131700068712234497e-01 -3.487899899482727051e-02 1.519380062818527222e-01 1.018180027604103088e-01 3.541130125522613525e-01 1.810259968042373657e-01 1.858370006084442139e-01 2.146899998188018799e-01 -2.128939926624298096e-01 -2.834430038928985596e-01 1.864000037312507629e-02 1.447049975395202637e-01 1.462700031697750092e-02 2.405229955911636353e-01 3.541849851608276367e-01 -9.546200186014175415e-02 -2.268099971115589142e-02 -8.408500254154205322e-02 2.057050019502639771e-01 -5.336299911141395569e-02 9.473899751901626587e-02 -1.766629964113235474e-01 -1.595900058746337891e-01 -6.777100265026092529e-02 1.513800024986267090e-01 -9.947499632835388184e-02 -2.031800001859664917e-01 5.774699896574020386e-02 -4.753189980983734131e-01 1.355029940605163574e-01 -1.734800077974796295e-02 -2.753629982471466064e-01 2.651200070977210999e-02 -1.431380063295364380e-01 -1.778980046510696411e-01 -3.308419883251190186e-01 -6.661900132894515991e-02 -1.912200003862380981e-01 -7.369899749755859375e-02 2.406470030546188354e-01 5.080699920654296875e-02 8.167800307273864746e-02 1.937689930200576782e-01 -2.345580011606216431e-01 1.228210031986236572e-01 -7.286699861288070679e-02 1.879799962043762207e-01 -1.771569997072219849e-01 1.331550031900405884e-01 -2.901139855384826660e-01 6.073899939656257629e-02 -1.522300019860267639e-02 5.047199875116348267e-02 2.841100096702575684e-01 -1.507360041141510010e-01 -4.384100064635276794e-02 1.417399942874908447e-01 2.885160148143768311e-01 -1.566449999809265137e-01 1.572999954223632812e-01 2.197900041937828064e-02 1.962150037288665771e-01 -6.166499853134155273e-02 -1.869500055909156799e-02 1.225090026855468750e-01 5.296299979090690613e-02 8.646000176668167114e-02 2.198790013790130615e-01 -2.411340028047561646e-01 5.496099963784217834e-02 1.567150056362152100e-01 1.234280019998550415e-01 -1.223120018839836121e-01 8.339700102806091309e-02 9.300000220537185669e-02 -1.596540063619613647e-01 -2.887789905071258545e-01 -8.606100082397460938e-02 8.617900311946868896e-02 4.377700015902519226e-02 7.956299930810928345e-02 -1.452839970588684082e-01 1.586599946022033691e-01 1.068800017237663269e-01 1.063290014863014221e-01 2.565889954566955566e-01 -1.305460035800933838e-01 7.442799955606460571e-02 8.566600084304809570e-02 1.332290023565292358e-01 1.474000066518783569e-01 1.384200006723403931e-01 9.389000013470649719e-03 -1.023999997414648533e-03 -3.033249974250793457e-01 -1.466169953346252441e-01 -2.400300055742263794e-01 -1.677699983119964600e-01 2.684300020337104797e-02 1.811760067939758301e-01 8.740999735891819000e-03 1.463250070810317993e-01 6.726399809122085571e-02 3.232460021972656250e-01 6.013200059533119202e-02 4.063799977302551270e-02 1.251370012760162354e-01 2.066300064325332642e-01 7.170200347900390625e-02 3.811320066452026367e-01 1.089899986982345581e-02 2.287499979138374329e-02 -2.916989922523498535e-01 1.510789990425109863e-01 3.317109942436218262e-01 -3.957799822092056274e-02 -8.791999891400337219e-03 -2.474099956452846527e-02 -2.230400033295154572e-02 1.742289960384368896e-01 -5.978500097990036011e-02 -7.774300128221511841e-02 -5.715699866414070129e-02 -1.434150040149688721e-01 -1.295710057020187378e-01 1.493030041456222534e-01 2.428400069475173950e-01 4.130089879035949707e-01 1.312050074338912964e-01 -5.196300148963928223e-02 2.048839926719665527e-01 -4.181360006332397461e-01 -1.444100029766559601e-02 5.020999908447265625e-02 -9.075599908828735352e-02 2.987090051174163818e-01 -9.519500285387039185e-02 2.341900020837783813e-02 -3.219819962978363037e-01 2.162380069494247437e-01 2.507719993591308594e-01 1.691630035638809204e-01 -1.956200040876865387e-02 -2.059949934482574463e-01 1.127839982509613037e-01 5.047199875116348267e-02 -1.505949944257736206e-01 -3.418599814176559448e-02 3.253270089626312256e-01 7.482600212097167969e-02 -1.717510074377059937e-01 5.522900074720382690e-02 1.103099994361400604e-02 -1.373230069875717163e-01 6.649999995715916157e-04 -3.486619889736175537e-01 9.761100262403488159e-02 1.314570009708404541e-01 -4.414900019764900208e-02 5.709600076079368591e-02 3.192500025033950806e-02 -9.812000207602977753e-03 1.395200043916702271e-01 8.909299969673156738e-02 8.613000065088272095e-02 2.917349934577941895e-01 4.844399914145469666e-02 -3.795199841260910034e-02 7.389000058174133301e-02 -7.066000252962112427e-02 -6.087300181388854980e-02 -3.440000116825103760e-02 1.157729998230934143e-01 -1.455010026693344116e-01 -1.365810036659240723e-01 -1.885969936847686768e-01 2.467889934778213501e-01 -1.655579954385757446e-01 -1.526799984276294708e-02 -7.105500251054763794e-02 3.720799833536148071e-02 2.652399986982345581e-02 1.425330042839050293e-01 -4.398800060153007507e-02 1.608719974756240845e-01 1.801660060882568359e-01 1.875489950180053711e-01 8.896499872207641602e-02 1.416289955377578735e-01 -3.170349895954132080e-01 6.860599666833877563e-02 -1.609670072793960571e-01 4.991099983453750610e-02 -1.974759995937347412e-01 1.432999968528747559e-03 -3.909400105476379395e-01 -1.061189994215965271e-01 -1.462620049715042114e-01 3.446530103683471680e-01 1.513479948043823242e-01 2.355599962174892426e-02 -2.965099923312664032e-02 2.178519964218139648e-01 -3.444499894976615906e-02 -6.090300157666206360e-02 -3.313910067081451416e-01 1.050190031528472900e-01 -1.057000015862286091e-03 1.704169958829879761e-01 -3.662919998168945312e-01 7.753700017929077148e-02 -7.105100154876708984e-02 1.339500024914741516e-02 -2.921069860458374023e-01 3.903700038790702820e-02 -6.489899754524230957e-02 2.880000101868063211e-04 -3.878799825906753540e-02 -6.605499982833862305e-02 -6.450999993830919266e-03 1.089520007371902466e-01 9.650999680161476135e-03 4.966099932789802551e-02 -1.955379992723464966e-01 -1.356189996004104614e-01 6.996099650859832764e-02 4.612800106406211853e-02 -1.060110032558441162e-01 1.472959965467453003e-01 9.419000148773193359e-02 -3.208189904689788818e-01 5.471599847078323364e-02 -2.050540000200271606e-01 -1.472759991884231567e-01 3.397800028324127197e-02 1.044699996709823608e-01 6.230400130152702332e-02 2.061389982700347900e-01 -1.507440060377120972e-01 6.711799651384353638e-02 -1.103179976344108582e-01 1.646240055561065674e-01 -3.976000007241964340e-03 -1.455609947443008423e-01 2.126570045948028564e-01 -1.147119998931884766e-01 2.793720066547393799e-01 -2.220170050859451294e-01 3.736090064048767090e-01 3.508000075817108154e-01 -3.109399974346160889e-02 -5.834199860692024231e-02 6.972700357437133789e-02 -1.171040013432502747e-01 9.581600129604339600e-02 -4.191000014543533325e-02 2.241900004446506500e-02 -3.106760084629058838e-01 2.529579997062683105e-01 5.021899938583374023e-02 -9.259399771690368652e-02 -2.003629952669143677e-01 2.394549995660781860e-01 -3.943900018930435181e-02 1.592200063169002533e-02 3.891099989414215088e-02 8.634000085294246674e-03 -8.326700329780578613e-02 -4.958299919962882996e-02 2.080229967832565308e-01 
pig 2.526780068874359131e-01 -2.333520054817199707e-01 -7.205899804830551147e-02 9.321000427007675171e-03 2.669680118560791016e-01 2.444050014019012451e-01 3.295849859714508057e-01 2.996869981288909912e-01 -4.999859929084777832e-01 -1.733999997377395630e-01 -8.441200107336044312e-02 1.385930031538009644e-01 -7.854899764060974121e-02 -1.893630027770996094e-01 1.484649926424026489e-01 -2.250050008296966553e-01 -1.125520020723342896e-01 -3.876300156116485596e-02 9.051799774169921875e-02 -1.425870060920715332e-01 -5.589599907398223877e-02 1.538179963827133179e-01 2.456899918615818024e-02 -2.150049954652786255e-01 5.772300064563751221e-02 -8.324000239372253418e-02 -1.633519977331161499e-01 -2.928879857063293457e-01 2.855600044131278992e-02 5.919099971652030945e-02 -1.974000036716461182e-02 -9.345799684524536133e-02 -2.732850015163421631e-01 -3.720600157976150513e-02 1.075410023331642151e-01 3.532930016517639160e-01 4.523000214248895645e-03 6.715299934148788452e-02 -4.710179865360260010e-01 -3.192639946937561035e-01 5.028399825096130371e-02 1.720390021800994873e-01 -1.519149988889694214e-01 4.375199973583221436e-02 2.976529896259307861e-01 -8.874099701642990112e-02 2.182849943637847900e-01 6.221999879926443100e-03 4.928100109100341797e-02 8.361999876797199249e-03 1.107290014624595642e-01 -4.856200143694877625e-02 -1.089809983968734741e-01 5.616899952292442322e-02 6.593999918550252914e-03 4.747100174427032471e-02 -7.300200313329696655e-02 1.892219930887222290e-01 -3.943499922752380371e-02 2.165410071611404419e-01 -8.160199970006942749e-02 -8.598099648952484131e-02 1.257870048284530640e-01 -9.597799926996231079e-02 -1.709080040454864502e-01 -2.630769908428192139e-01 -8.011200278997421265e-02 -1.920949965715408325e-01 -1.463650017976760864e-01 3.350499868392944336e-01 -2.495999913662672043e-03 1.504900027066469193e-02 -1.834270060062408447e-01 -2.574810087680816650e-01 -1.094430014491081238e-01 1.108200009912252426e-02 -6.206699833273887634e-02 -1.156340017914772034e-01 2.482270002365112305e-01 -2.005989998579025269e-01 7.883899658918380737e-02 1.701849997043609619e-01 -7.164300233125686646e-02 6.639400124549865723e-02 2.755600027740001678e-02 4.733999818563461304e-02 1.211310029029846191e-01 7.151699811220169067e-02 -9.665600210428237915e-02 -8.368799835443496704e-02 1.215369999408721924e-01 3.271900117397308350e-02 -1.820099949836730957e-01 7.919699698686599731e-02 1.168200001120567322e-02 1.035000011324882507e-02 7.340000011026859283e-04 1.006309986114501953e-01 -2.891800105571746826e-01 -3.397800028324127197e-02 -2.300959974527359009e-01 2.314359992742538452e-01 -2.682270109653472900e-01 2.145960032939910889e-01 -8.529900014400482178e-02 -2.952539920806884766e-01 1.054529994726181030e-01 7.395000010728836060e-02 2.666589915752410889e-01 4.747499898076057434e-02 -3.624680042266845703e-01 8.808100223541259766e-02 7.353500276803970337e-02 -1.134890019893646240e-01 2.392649948596954346e-01 -3.802900016307830811e-02 1.402940005064010620e-01 -5.680000176653265953e-04 1.599369943141937256e-01 1.750699989497661591e-02 -7.528399676084518433e-02 1.543209999799728394e-01 -4.432089924812316895e-01 -3.978500142693519592e-02 -2.374619990587234497e-01 -3.067800030112266541e-02 -5.628700181841850281e-02 -2.823100052773952484e-02 2.228309959173202515e-01 -9.621500223875045776e-02 3.645739853382110596e-01 6.342200189828872681e-02 3.290759921073913574e-01 -5.921500176191329956e-02 1.091279983520507812e-01 2.102759927511215210e-01 -2.309329956769943237e-01 -9.988100081682205200e-02 7.383199781179428101e-02 1.801300048828125000e-01 -4.202400147914886475e-02 8.974900096654891968e-02 -2.494180053472518921e-01 2.280319929122924805e-01 6.686600297689437866e-02 1.608889997005462646e-01 -3.576499968767166138e-02 -4.376200139522552490e-01 2.610319852828979492e-01 -2.340899966657161713e-02 -1.629699952900409698e-02 -2.550419867038726807e-01 -1.064150035381317139e-01 1.231819987297058105e-01 -9.714099764823913574e-02 2.271919995546340942e-01 2.320300042629241943e-02 2.155259996652603149e-01 -1.267839968204498291e-01 -6.458400189876556396e-02 -8.124899864196777344e-02 -3.182000014930963516e-03 -1.133119985461235046e-01 3.934900090098381042e-02 -3.039869964122772217e-01 3.553799912333488464e-02 4.825099930167198181e-02 4.199999943375587463e-02 -3.079729974269866943e-01 1.221510022878646851e-01 1.236120015382766724e-01 -1.366300042718648911e-02 1.146200019866228104e-02 -2.377589941024780273e-01 -2.343999920412898064e-03 -2.344100028276443481e-01 -3.269299864768981934e-02 1.067200005054473877e-01 3.204520046710968018e-01 -1.255369931459426880e-01 -2.767490148544311523e-01 -2.394399940967559814e-01 -1.374939978122711182e-01 1.245660036802291870e-01 -8.946800231933593750e-02 -2.568410038948059082e-01 -9.087099879980087280e-02 2.384420037269592285e-01 -1.008260026574134827e-01 -1.057749986648559570e-01 3.606880009174346924e-01 -1.333730071783065796e-01 2.786859869956970215e-01 2.353879958391189575e-01 -1.490519940853118896e-01 -2.855500020086765289e-02 1.621479988098144531e-01 3.637399896979331970e-02 -1.233149990439414978e-01 3.948900103569030762e-02 -2.097470015287399292e-01 -2.260780036449432373e-01 -2.851399965584278107e-02 -2.523350119590759277e-01 -2.429019957780838013e-01 7.007499784231185913e-02 4.153450131416320801e-01 -5.018420219421386719e-01 -1.381330043077468872e-01 1.407539993524551392e-01 3.086180090904235840e-01 -8.018500357866287231e-02 -5.141900107264518738e-02 -2.854720056056976318e-01 6.528300046920776367e-02 3.562000114470720291e-03 -2.372359931468963623e-01 5.004199966788291931e-02 3.000300005078315735e-02 -4.052290022373199463e-01 2.784529924392700195e-01 1.679670065641403198e-01 -2.675729990005493164e-01 -1.142920032143592834e-01 -2.627370059490203857e-01 -1.954790055751800537e-01 -1.752019971609115601e-01 -2.012200057506561279e-01 3.229900002479553223e-01 4.096480011940002441e-01 -3.324150145053863525e-01 -1.223009973764419556e-01 -1.562800072133541107e-02 -5.506499856710433960e-02 9.428200125694274902e-02 -1.842209994792938232e-01 -1.280950009822845459e-01 -1.688430011272430420e-01 1.395339965820312500e-01 -1.592629998922348022e-01 3.527710139751434326e-01 -2.582530081272125244e-01 2.282099984586238861e-02 -1.221750006079673767e-01 -7.807999849319458008e-03 -1.107319965958595276e-01 3.875999944284558296e-03 3.631469905376434326e-01 9.551700204610824585e-02 1.620790064334869385e-01 1.272079944610595703e-01 -1.273529976606369019e-01 1.261609941720962524e-01 -2.678259909152984619e-01 4.396000131964683533e-02 -1.648889929056167603e-01 2.568629980087280273e-01 -9.027600288391113281e-02 5.338599905371665955e-02 1.108250021934509277e-01 -1.435980051755905151e-01 1.576679944992065430e-01 6.182600185275077820e-02 -1.158640012145042419e-01 5.361000075936317444e-02 -9.339299798011779785e-02 -3.131800144910812378e-02 2.608210146427154541e-01 -3.612700104713439941e-02 2.302179932594299316e-01 -1.036660000681877136e-01 2.648650109767913818e-01 5.822800099849700928e-02 2.442100048065185547e-01 -9.789100289344787598e-02 2.722300030291080475e-02 3.856379985809326172e-01 1.171249970793724060e-01 2.564699947834014893e-01 3.206549882888793945e-01 -4.213599860668182373e-02 2.128549963235855103e-01 -7.727500051259994507e-02 -1.089570000767707825e-01 -1.423539966344833374e-01 7.856500148773193359e-02 5.836300179362297058e-02 -1.582899987697601318e-01 2.638959884643554688e-01 -2.775129973888397217e-01 1.160399988293647766e-01 -1.322550028562545776e-01 1.831009984016418457e-01 -3.140339851379394531e-01 3.097400069236755371e-02 1.132239997386932373e-01 -2.114190012216567993e-01 2.135719954967498779e-01 -6.695500016212463379e-02 1.805610060691833496e-01 
cat 3.831920027732849121e-01 3.878200054168701172e-02 1.998000079765915871e-03 -1.787899993360042572e-02 -4.471100121736526489e-02 1.967930048704147339e-01 2.135490030050277710e-01 1.552910059690475464e-01 2.212260067462921143e-01 7.695899903774261475e-02 -2.935270071029663086e-01 1.319720000028610229e-01 -1.369220018386840820e-01 8.062000386416912079e-03 2.516599893569946289e-01 -6.765300035476684570e-02 1.350969970226287842e-01 -1.598159968852996826e-01 1.476300060749053955e-01 -1.189759969711303711e-01 -3.563979864120483398e-01 1.676049977540969849e-01 8.230099827051162720e-02 -4.239760041236877441e-01 -5.059799924492835999e-02 2.273599952459335327e-01 -8.762499690055847168e-02 -3.711960017681121826e-01 -5.574699863791465759e-02 1.805350035429000854e-01 -3.790500015020370483e-02 2.844999916851520538e-02 -4.687000066041946411e-03 1.111800000071525574e-01 1.043300032615661621e-01 1.675069928169250488e-01 3.428599983453750610e-02 2.661240100860595703e-01 -1.276330053806304932e-01 -1.910440027713775635e-01 3.928299993276596069e-02 2.355580031871795654e-01 -2.848299965262413025e-02 1.786420047283172607e-01 2.379499971866607666e-01 -1.585080027580261230e-01 8.174700289964675903e-02 1.066310033202171326e-01 4.838999826461076736e-03 -5.078599974513053894e-02 9.467200189828872681e-02 -9.592799842357635498e-02 6.535000167787075043e-03 9.688899666070938110e-02 3.313519954681396484e-01 -2.486629933118820190e-01 6.940000224858522415e-03 6.413699686527252197e-02 -2.672510147094726562e-01 3.842800110578536987e-02 -2.519730031490325928e-01 -2.542899921536445618e-02 -1.132209971547126770e-01 -5.884199962019920349e-02 -1.732050031423568726e-01 -3.523000050336122513e-03 -9.980700165033340454e-02 7.859099656343460083e-02 -1.657300069928169250e-02 9.285199642181396484e-02 -1.980960071086883545e-01 2.276750057935714722e-01 1.316609978675842285e-01 -1.900669932365417480e-01 1.918260008096694946e-01 -1.430439949035644531e-01 3.379890024662017822e-01 -1.348900049924850464e-01 2.392410039901733398e-01 -2.239290028810501099e-01 5.893399938941001892e-02 1.772560030221939087e-01 2.266589999198913574e-01 1.226579993963241577e-01 -1.640720069408416748e-01 2.982899919152259827e-02 2.411340028047561646e-01 2.242709994316101074e-01 -9.086599946022033691e-02 -7.349199801683425903e-02 5.474599823355674744e-02 1.855120062828063965e-01 -1.582069993019104004e-01 1.449320018291473389e-01 9.309999877586960793e-04 -1.286790072917938232e-01 -1.603299938142299652e-02 8.051899820566177368e-02 -4.477719962596893311e-01 2.132979929447174072e-01 3.859000047668814659e-03 1.058819964528083801e-01 2.191399969160556793e-02 -1.571410000324249268e-01 -6.839700043201446533e-02 -1.387130022048950195e-01 -1.064670011401176453e-01 3.590099886059761047e-02 2.066539973020553589e-01 -7.152199745178222656e-02 1.001169979572296143e-01 -3.704290091991424561e-01 1.078270003199577332e-01 1.485299970954656601e-02 9.256500005722045898e-02 9.664800018072128296e-02 -1.439709961414337158e-01 -3.877799957990646362e-02 3.209860026836395264e-01 6.344299763441085815e-02 3.509190082550048828e-01 -2.559500001370906830e-02 -2.572000026702880859e-03 -4.468199983239173889e-02 -1.707800030708312988e-01 -2.260970026254653931e-01 -2.125730067491531372e-01 -6.218200176954269409e-02 -2.929200045764446259e-02 2.967300079762935638e-02 8.027300238609313965e-02 -1.827480047941207886e-01 -6.996800005435943604e-02 3.099899888038635254e-01 -8.379000239074230194e-03 -8.371400088071823120e-02 4.590599983930587769e-02 5.994400009512901306e-02 2.591999946162104607e-03 9.355000220239162445e-03 -3.002100065350532532e-02 -9.301999583840370178e-03 -2.960810065269470215e-01 1.585859954357147217e-01 8.464100211858749390e-02 1.587309986352920532e-01 5.679799988865852356e-02 -2.776000089943408966e-02 6.050499901175498962e-02 1.405930072069168091e-01 -6.917700171470642090e-02 5.989100039005279541e-02 2.229699939489364624e-01 -2.076999992132186890e-01 1.405220031738281250e-01 -7.593099772930145264e-02 1.066320016980171204e-01 2.430869936943054199e-01 1.097130030393600464e-01 -5.985999945551156998e-03 6.358899921178817749e-02 -2.248400002717971802e-01 -1.137140020728111267e-01 1.415320038795471191e-01 -1.159099955111742020e-02 2.234549969434738159e-01 -1.031140014529228210e-01 5.671599879860877991e-02 -2.200479954481124878e-01 2.170879989862442017e-01 1.463789939880371094e-01 1.354549974203109741e-01 -9.290499985218048096e-02 -1.471900045871734619e-01 1.310400012880563736e-02 4.158100113272666931e-02 -7.367599755525588989e-02 -9.703599661588668823e-02 2.302599996328353882e-01 1.668900065124034882e-02 -1.833560019731521606e-01 7.879699766635894775e-02 -4.785199835896492004e-02 -2.762700058519840240e-02 2.782600000500679016e-02 -2.549160122871398926e-01 1.498129963874816895e-01 2.301110029220581055e-01 7.887399941682815552e-02 1.530079990625381470e-01 -5.229799821972846985e-02 4.104200005531311035e-02 3.219130039215087891e-01 2.132700011134147644e-02 4.424000158905982971e-03 2.263520061969757080e-01 9.222699701786041260e-02 -6.081299856305122375e-02 6.755200028419494629e-02 3.494200110435485840e-02 -1.095509976148605347e-01 3.198799863457679749e-02 1.073400005698204041e-01 -1.130419969558715820e-01 -1.029279977083206177e-01 2.616960108280181885e-01 3.762600123882293701e-01 -1.114590018987655640e-01 -1.759389936923980713e-01 -9.720000438392162323e-03 8.283399790525436401e-02 1.426330059766769409e-01 2.094929963350296021e-01 -3.359400108456611633e-02 9.636899828910827637e-02 1.932599954307079315e-02 -4.703700169920921326e-02 -1.595830023288726807e-01 2.310039997100830078e-01 -1.524060070514678955e-01 1.022119969129562378e-01 -3.410600125789642334e-01 -1.103530004620552063e-01 6.158899888396263123e-02 -2.257779985666275024e-01 -3.526400029659271240e-02 -5.423900112509727478e-02 -7.201299816370010376e-02 1.118440032005310059e-01 1.912470012903213501e-01 4.761999938637018204e-03 -1.061130017042160034e-01 -1.523540019989013672e-01 -1.176590025424957275e-01 1.908300071954727173e-02 -2.797729969024658203e-01 -1.372990012168884277e-01 8.454400300979614258e-02 8.822400122880935669e-02 -2.103909999132156372e-01 -5.466800183057785034e-02 -5.058399960398674011e-02 1.550099998712539673e-02 -3.030860126018524170e-01 -8.347799628973007202e-02 -1.454229950904846191e-01 -7.387000322341918945e-02 -1.130400039255619049e-02 6.179400160908699036e-02 -6.316500157117843628e-02 1.210720017552375793e-01 -1.109299995005130768e-02 -3.864400088787078857e-02 6.486999802291393280e-03 -4.103949964046478271e-01 -8.023499697446823120e-02 9.014199674129486084e-02 -5.861400067806243896e-02 1.193599998950958252e-01 1.153969988226890564e-01 -1.655219942331314087e-01 3.796310126781463623e-01 1.977599970996379852e-02 -9.230799973011016846e-02 1.550759971141815186e-01 -3.610400110483169556e-02 -1.856790035963058472e-01 2.660549879074096680e-01 1.413400005549192429e-02 6.764099746942520142e-02 2.382999984547495842e-03 -1.153509989380836487e-01 -2.458900026977062225e-02 6.340199708938598633e-02 1.090980023145675659e-01 1.180030032992362976e-01 1.805370002985000610e-01 -1.643469929695129395e-01 5.229210257530212402e-01 3.800239861011505127e-01 8.183900266885757446e-02 3.052999973297119141e-01 7.809999864548444748e-03 -5.768999923020601273e-03 -1.163510009646415710e-01 3.323499858379364014e-02 5.433500185608863831e-02 -2.051260024309158325e-01 1.338479965925216675e-01 -2.900519967079162598e-01 6.853300333023071289e-02 -3.621110022068023682e-01 1.401460021734237671e-01 -1.026849970221519470e-01 1.783419996500015259e-01 3.309400007128715515e-02 -2.566690146923065186e-01 3.570900112390518188e-02 -5.068400129675865173e-02 1.886519938707351685e-01 
