20 300
uno -1.105509996414184570e-01 9.477700293064117432e-02 3.271999955177307129e-02 -3.734639883041381836e-01 -4.962399974465370178e-02 6.096800044178962708e-02 -3.497200086712837219e-02 -7.580299675464630127e-02 -2.305780053138732910e-01 3.037399984896183014e-02 -1.362410038709640503e-01 2.524420022964477539e-01 9.408500045537948608e-02 -1.673370003700256348e-01 -8.943200111389160156e-02 2.401899918913841248e-02 -1.070640012621879578e-01 2.020870000123977661e-01 -1.564449965953826904e-01 1.400749981403350830e-01 -8.892899751663208008e-02 -1.060110032558441162e-01 -8.315499871969223022e-02 2.785980105400085449e-01 -3.359999954700469971e-01 1.247479990124702454e-01 -9.182699769735336304e-02 -1.750040054321289062e-01 -1.194700039923191071e-02 -2.003770023584365845e-01 2.500100061297416687e-02 -6.559299677610397339e-02 2.129299938678741455e-02 -1.643330007791519165e-01 2.357040047645568848e-01 7.093299925327301025e-02 -1.813800036907196045e-01 -1.151980012655258179e-01 1.235499978065490723e-01 3.614300116896629333e-02 -4.945000167936086655e-03 2.767499908804893494e-02 -8.490999788045883179e-02 -3.068199940025806427e-02 1.355150043964385986e-01 -5.919000133872032166e-02 -1.974249929189682007e-01 -1.901300065219402313e-02 5.373099818825721741e-02 -7.814399898052215576e-02 4.281599819660186768e-02 1.200200021266937256e-01 -2.313599921762943268e-02 3.840800002217292786e-02 -3.067499957978725433e-02 9.747499972581863403e-02 2.316360026597976685e-01 -2.523930072784423828e-01 8.110000053420662880e-04 1.401560008525848389e-01 -1.231279969215393066e-01 -2.241529971361160278e-01 2.936399914324283600e-02 -3.592399880290031433e-02 -2.779639959335327148e-01 1.988109946250915527e-01 1.251800060272216797e-01 6.647000089287757874e-03 2.447949945926666260e-01 2.701000077649950981e-03 -1.479469984769821167e-01 -2.143069952726364136e-01 2.018399909138679504e-02 2.368749976158142090e-01 -9.729900211095809937e-02 8.870000019669532776e-03 -2.394000068306922913e-03 -5.868799984455108643e-02 -1.688760071992874146e-01 -1.106320023536682129e-01 -1.521909981966018677e-01 3.102600015699863434e-02 4.273000173270702362e-03 6.963200122117996216e-02 -8.534000068902969360e-02 -1.762129962444305420e-01 2.307839989662170410e-01 -1.239330023527145386e-01 -2.280409932136535645e-01 7.888799905776977539e-02 3.829599916934967041e-02 1.675709933042526245e-01 8.715000003576278687e-03 -2.057499997317790985e-02 -8.175700157880783081e-02 -1.041830033063888550e-01 8.093100041151046753e-02 -7.543499767780303955e-02 1.636839956045150757e-01 1.879329979419708252e-01 2.346999943256378174e-01 1.137510016560554504e-01 7.030499726533889771e-02 -1.722459942102432251e-01 -2.460159957408905029e-01 -1.189569979906082153e-01 -1.484199985861778259e-02 -1.246109977364540100e-01 -7.703900337219238281e-02 -2.273910045623779297e-01 -7.068599760532379150e-02 8.908899873495101929e-02 3.972399979829788208e-02 8.957000449299812317e-03 1.593369990587234497e-01 -1.041909977793693542e-01 5.521799996495246887e-02 1.528500020503997803e-02 -7.500000065192580223e-04 -2.265099994838237762e-02 -2.329590022563934326e-01 3.347500041127204895e-02 1.920000067912042141e-04 -1.722140014171600342e-01 8.192899823188781738e-02 1.937900036573410034e-01 -2.764889895915985107e-01 1.314159929752349854e-01 3.961000125855207443e-03 1.625549942255020142e-01 8.520200103521347046e-02 -9.434999898076057434e-03 -3.002420067787170410e-01 -1.238199975341558456e-02 -4.585000127553939819e-02 -2.182479947805404663e-01 -1.434209942817687988e-01 -4.285499826073646545e-02 2.590800076723098755e-02 3.432799875736236572e-02 -6.443499773740768433e-02 5.239799991250038147e-02 2.799910008907318115e-01 2.378450036048889160e-01 9.632299840450286865e-02 1.673009991645812988e-01 1.186980009078979492e-01 -6.155199930071830750e-02 1.512250006198883057e-01 1.302569955587387085e-01 1.459320038557052612e-01 -9.717900305986404419e-02 -7.166899740695953369e-02 1.177330017089843750e-01 -6.883200258016586304e-02 -1.684959977865219116e-01 -2.322549968957901001e-01 -3.564399853348731995e-02 7.427199929952621460e-02 -5.000799894332885742e-02 1.789560019969940186e-01 1.326999976299703121e-03 1.110899969935417175e-01 4.892899841070175171e-02 -2.565680146217346191e-01 4.041920006275177002e-01 -2.165240049362182617e-01 9.056600183248519897e-02 -5.614899843931198120e-02 -8.905100077390670776e-02 -6.460399925708770752e-02 -3.231439888477325439e-01 -2.250770032405853271e-01 -1.060030013322830200e-01 1.526959985494613647e-01 1.953100040555000305e-02 -7.242199778556823730e-02 1.810840070247650146e-01 2.943300083279609680e-02 -8.188100159168243408e-02 -2.138220071792602539e-01 4.682400077581405640e-02 4.609800130128860474e-02 3.815500065684318542e-02 -5.090000107884407043e-02 -2.209500074386596680e-01 1.147909983992576599e-01 -2.489230036735534668e-01 -1.099999994039535522e-02 5.182600021362304688e-02 -1.189030036330223083e-01 -1.068980023264884949e-01 -2.303200028836727142e-02 2.666400000452995300e-02 -1.152419969439506531e-01 9.420999884605407715e-02 -2.339890003204345703e-01 -1.492500007152557373e-01 -7.406900078058242798e-02 -1.702419966459274292e-01 4.091500118374824524e-02 1.459400057792663574e-01 8.527100086212158203e-02 1.135879978537559509e-01 -3.450300171971321106e-02 -2.995200082659721375e-02 7.965300232172012329e-02 -1.389950066804885864e-01 6.089700013399124146e-02 -4.710799828171730042e-02 -4.100299999117851257e-02 1.620119959115982056e-01 5.368899926543235779e-02 -8.989699929952621460e-02 1.425900030881166458e-02 -4.750299826264381409e-02 -2.041379958391189575e-01 1.105400025844573975e-01 -8.100900053977966309e-02 -4.103700071573257446e-02 -1.742899976670742035e-02 -2.549130022525787354e-01 -1.109950020909309387e-01 5.676599964499473572e-02 2.949250042438507080e-01 -9.326700121164321899e-02 1.069969981908798218e-01 -2.894699946045875549e-02 2.291619926691055298e-01 2.130270004272460938e-01 3.704499825835227966e-02 1.950599998235702515e-02 2.458900026977062225e-02 8.221100270748138428e-02 2.237000036984682083e-03 -8.341799676418304443e-02 -1.301659941673278809e-01 -1.354579925537109375e-01 1.967599987983703613e-02 -1.103039979934692383e-01 -1.052419990301132202e-01 4.138499870896339417e-02 2.189699932932853699e-02 -1.953999977558851242e-03 -1.258960068225860596e-01 1.119100023061037064e-02 -1.081200037151575089e-02 -4.133000038564205170e-03 -2.238709926605224609e-01 -2.135300077497959137e-02 1.762460023164749146e-01 -4.811999853700399399e-03 3.156599998474121094e-01 2.599380016326904297e-01 2.401169985532760620e-01 -3.112800046801567078e-02 7.251399755477905273e-02 -3.061600029468536377e-02 2.270220071077346802e-01 -1.274639964103698730e-01 -6.967200338840484619e-02 2.042530030012130737e-01 6.347399950027465820e-02 -1.392779946327209473e-01 -2.224610000848770142e-01 -1.005999967455863953e-01 2.483000047504901886e-02 1.589999999850988388e-03 -2.713399939239025116e-02 4.437899962067604065e-02 8.354000002145767212e-02 4.784899950027465820e-02 -1.350580006837844849e-01 -7.152699679136276245e-02 4.085300117731094360e-02 3.624499961733818054e-02 -1.346990019083023071e-01 3.305099904537200928e-02 -3.212200105190277100e-02 1.342729926109313965e-01 2.104610055685043335e-01 -6.442999932914972305e-03 -3.545299917459487915e-02 3.994499891996383667e-02 1.772499978542327881e-01 -9.614799916744232178e-02 -4.571500048041343689e-02 1.327529996633529663e-01 2.993899956345558167e-02 -1.192549988627433777e-01 -1.811610013246536255e-01 2.291199937462806702e-02 7.092200219631195068e-02 3.258950114250183105e-01 -3.556700050830841064e-02 -8.715000003576278687e-02 -4.995000082999467850e-03 1.141999964602291584e-03 1.652950048446655273e-01 -3.259399905800819397e-02 
due 1.406770050525665283e-01 4.322500154376029968e-02 -1.309200003743171692e-02 -1.919060051441192627e-01 1.838659942150115967e-01 1.285209953784942627e-01 -2.005919963121414185e-01 1.810750067234039307e-01 -8.646100014448165894e-02 5.748200044035911560e-02 -2.125220000743865967e-01 2.067939937114715576e-01 -1.690180003643035889e-01 6.717199832201004028e-02 -5.042700096964836121e-02 1.204219982028007507e-01 -1.388220041990280151e-01 4.635600000619888306e-02 -8.662000298500061035e-03 -3.856100142002105713e-02 -2.088360041379928589e-01 -2.054349929094314575e-01 -5.570400133728981018e-02 -3.306199982762336731e-02 -9.057399630546569824e-02 1.298979967832565308e-01 2.701699919998645782e-02 5.672499909996986389e-02 -1.638800054788589478e-01 -1.185579970479011536e-01 -1.597470045089721680e-01 2.232719957828521729e-01 1.000900007784366608e-02 -3.626210093498229980e-01 2.183810025453567505e-01 -5.082400143146514893e-02 7.574900239706039429e-02 7.432200014591217041e-02 2.153539955615997314e-01 -1.216899976134300232e-01 1.028100028634071350e-01 -8.500599861145019531e-02 9.401600062847137451e-02 1.061789989471435547e-01 5.744399875402450562e-02 -4.325899854302406311e-02 -6.815499812364578247e-02 -2.204300090670585632e-02 -5.192000046372413635e-02 -3.679399937391281128e-02 1.906740069389343262e-01 5.279299989342689514e-02 -1.564970016479492188e-01 -1.296160072088241577e-01 6.992000341415405273e-02 -3.419800102710723877e-02 3.219690024852752686e-01 -1.588480025529861450e-01 2.530499920248985291e-02 1.086520031094551086e-01 6.349600106477737427e-02 -1.056260019540786743e-01 -9.332200139760971069e-02 -1.300439983606338501e-01 -8.469999884255230427e-04 -6.404200196266174316e-02 1.118220016360282898e-01 -4.314599931240081787e-02 1.059399992227554321e-01 2.116349935531616211e-01 1.418869942426681519e-01 -2.491500042378902435e-02 -5.426099896430969238e-02 1.118170022964477539e-01 -4.901700094342231750e-02 2.351330071687698364e-01 2.827100083231925964e-02 -2.061999961733818054e-02 -4.086500033736228943e-02 -3.510199859738349915e-02 1.083069965243339539e-01 2.235890030860900879e-01 2.540000015869736671e-03 -7.914000004529953003e-02 -1.663300022482872009e-02 4.605700075626373291e-02 2.625799924135208130e-02 1.009889990091323853e-01 -1.455000042915344238e-01 4.518900066614151001e-02 -2.064269930124282837e-01 -9.296300262212753296e-02 6.886299699544906616e-02 4.885600134730339050e-02 -1.141820028424263000e-01 7.652799785137176514e-02 -4.173000156879425049e-02 3.532600030303001404e-02 1.757580041885375977e-01 -9.285599738359451294e-02 6.330800056457519531e-02 2.971399948000907898e-02 1.399810016155242920e-01 -6.604000180959701538e-02 -4.935700073838233948e-02 -3.126500174403190613e-02 -1.638319939374923706e-01 -1.331400033086538315e-02 -4.890000075101852417e-02 2.615999989211559296e-02 -2.769299969077110291e-02 -2.580999955534934998e-02 -6.311900168657302856e-02 1.239500008523464203e-02 2.449769973754882812e-01 -1.882610023021697998e-01 -6.190599873661994934e-02 -8.689299970865249634e-02 -1.084439978003501892e-01 -1.363929957151412964e-01 -4.422900080680847168e-02 1.638779938220977783e-01 1.678200066089630127e-02 -1.557080000638961792e-01 1.125409975647926331e-01 -5.042599886655807495e-02 -1.477970033884048462e-01 9.923899918794631958e-02 9.362100064754486084e-02 -7.373899966478347778e-02 6.659200042486190796e-02 -4.972700029611587524e-02 -1.892260015010833740e-01 -4.079499840736389160e-02 -6.014800071716308594e-02 1.057500019669532776e-02 -1.750169992446899414e-01 5.220099911093711853e-02 1.616919934749603271e-01 -9.711799770593643188e-02 -2.262300066649913788e-02 -1.063319966197013855e-01 2.827299945056438446e-02 1.739969998598098755e-01 -1.509820073843002319e-01 4.062300175428390503e-02 4.040899872779846191e-02 1.250859946012496948e-01 1.692100018262863159e-01 2.869490087032318115e-01 1.627199947834014893e-01 -4.120400175452232361e-02 1.118670031428337097e-01 -1.388719975948333740e-01 -7.941900193691253662e-02 9.429100155830383301e-02 -6.771100312471389771e-02 8.374000340700149536e-02 4.110000096261501312e-03 6.452400237321853638e-02 5.012299865484237671e-02 -5.387499928474426270e-02 5.544500052928924561e-02 4.782000184059143066e-02 -1.023610010743141174e-01 1.676280051469802856e-01 -4.799999878741800785e-04 2.758000046014785767e-03 -6.748200207948684692e-02 2.008119970560073853e-01 -1.048799976706504822e-02 -1.818599924445152283e-02 1.015330031514167786e-01 -1.368830054998397827e-01 8.882600069046020508e-02 5.598000064492225647e-02 -3.175999969244003296e-03 -9.016399830579757690e-02 5.237900093197822571e-02 2.543379962444305420e-01 1.787899993360042572e-02 4.295599833130836487e-02 -2.015189975500106812e-01 -2.568100020289421082e-02 -2.643599919974803925e-02 9.974700212478637695e-02 6.717400252819061279e-02 -1.636599935591220856e-02 -9.922699630260467529e-02 -3.706189990043640137e-01 -4.019299894571304321e-02 6.492699682712554932e-02 9.552799910306930542e-02 7.343900203704833984e-02 -7.232400029897689819e-02 3.192999958992004395e-02 -1.538420021533966064e-01 -5.880000069737434387e-03 -1.067359969019889832e-01 -9.663199633359909058e-02 2.621029913425445557e-01 5.096000060439109802e-02 -8.676599711179733276e-02 -5.696700140833854675e-02 5.800000144517980516e-05 7.699800282716751099e-02 2.095510065555572510e-01 -1.259720027446746826e-01 -9.289000183343887329e-02 1.527419984340667725e-01 6.726399809122085571e-02 1.169750019907951355e-01 2.032310068607330322e-01 4.937100037932395935e-02 9.482000023126602173e-03 -6.630000192672014236e-03 -1.294180005788803101e-01 2.297780066728591919e-01 -1.797080039978027344e-01 -1.088280007243156433e-01 1.197800040245056152e-02 -2.104340046644210815e-01 -1.113999984227120876e-03 1.601639986038208008e-01 2.302139997482299805e-01 1.167109981179237366e-01 -3.868100047111511230e-02 -3.497600182890892029e-02 -1.087000011466443539e-03 -3.537400066852569580e-02 1.318099945783615112e-01 -3.313999995589256287e-02 9.625999629497528076e-02 1.383430063724517822e-01 -7.157900184392929077e-02 2.042070031166076660e-01 -7.166100293397903442e-02 9.128899872303009033e-02 -2.204599976539611816e-02 5.773299932479858398e-02 -5.241499841213226318e-02 7.180999964475631714e-02 -3.793200105428695679e-02 3.118699975311756134e-02 6.863900274038314819e-02 4.895599931478500366e-02 5.668900161981582642e-02 8.787299692630767822e-02 9.387999773025512695e-03 -7.999499887228012085e-02 2.171700075268745422e-02 4.533499851822853088e-02 -6.169100105762481689e-02 1.216140016913414001e-01 1.652700006961822510e-01 1.497949957847595215e-01 1.434309929609298706e-01 1.170400008559226990e-01 -9.217900037765502930e-02 -8.933999575674533844e-03 6.143600121140480042e-02 8.372999727725982666e-03 5.197700113058090210e-02 1.159090027213096619e-01 -3.427329957485198975e-01 -2.039359956979751587e-01 1.559520065784454346e-01 1.350509971380233765e-01 -6.914699822664260864e-02 1.610659956932067871e-01 2.507999911904335022e-02 1.077899988740682602e-02 -2.927700057625770569e-02 1.158350035548210144e-01 1.102539971470832825e-01 1.590069979429244995e-01 -1.062159985303878784e-01 7.230599969625473022e-02 -7.956100255250930786e-02 8.316200226545333862e-02 9.129499644041061401e-02 3.195999888703227043e-03 2.280309945344924927e-01 1.033380031585693359e-01 1.230880022048950195e-01 -1.485100015997886658e-02 6.587799638509750366e-02 5.278500169515609741e-02 -8.287700265645980835e-02 -5.767099931836128235e-02 8.974900096654891968e-02 -1.008999999612569809e-02 6.875599920749664307e-02 1.392250061035156250e-01 8.635999634861946106e-03 -2.310100011527538300e-02 -8.972999639809131622e-03 -8.826600015163421631e-02 2.352599985897541046e-02 1.783419996500015259e-01 
tre 1.336809992790222168e-01 8.114799857139587402e-02 -8.692000061273574829e-03 -8.047299832105636597e-02 1.111629977822303772e-01 1.484729945659637451e-01 -3.643000125885009766e-02 9.789700061082839966e-02 1.573600061237812042e-02 4.670299962162971497e-02 -1.409810036420822144e-01 1.435389965772628784e-01 -1.951999962329864502e-01 5.727700144052505493e-02 -3.955300152301788330e-02 7.996600121259689331e-02 -1.079820021986961365e-01 -8.450999855995178223e-02 -1.265549957752227783e-01 -3.460700064897537231e-02 -1.174819990992546082e-01 -1.777040064334869385e-01 -9.233999997377395630e-03 1.189050003886222839e-01 -9.861200302839279175e-02 1.150579974055290222e-01 3.644900023937225342e-02 7.916999980807304382e-03 -8.952300250530242920e-02 -3.685399889945983887e-02 -6.980600208044052124e-02 1.810040026903152466e-01 7.054500281810760498e-02 -2.843160033226013184e-01 1.795150041580200195e-01 -5.620000138878822327e-02 7.113499939441680908e-02 1.395999938249588013e-01 2.418330013751983643e-01 -1.397500038146972656e-01 6.048100069165229797e-02 1.249200012534856796e-02 1.300709992647171021e-01 1.313720047473907471e-01 -3.342900052666664124e-02 8.401100337505340576e-02 3.820999991148710251e-03 -1.318799983710050583e-02 -6.395299732685089111e-02 -3.663900122046470642e-02 1.993750035762786865e-01 3.146500140428543091e-02 -5.095800012350082397e-02 -2.163829952478408813e-01 5.475600063800811768e-02 -8.635800331830978394e-02 2.981230020523071289e-01 -1.393489986658096313e-01 1.913800090551376343e-02 1.434240043163299561e-01 7.273200154304504395e-02 -8.101300150156021118e-02 -9.876699745655059814e-02 -8.788199722766876221e-02 -5.335700139403343201e-02 -1.230869963765144348e-01 2.124180048704147339e-01 -4.868200048804283142e-02 1.035379990935325623e-01 1.644739955663681030e-01 8.184599876403808594e-02 -8.907999843358993530e-02 7.211399823427200317e-02 2.074999921023845673e-02 -8.391900360584259033e-02 1.532499939203262329e-01 -2.462900057435035706e-02 4.976000171154737473e-03 -4.777999967336654663e-02 -7.276599854230880737e-02 2.812300063669681549e-02 2.192589938640594482e-01 1.567300036549568176e-02 -9.391699731349945068e-02 1.385900005698204041e-02 7.976900041103363037e-02 2.264099940657615662e-02 1.929430067539215088e-01 -2.469539940357208252e-01 -4.450299963355064392e-02 -1.512430012226104736e-01 -3.893600031733512878e-02 4.582799971103668213e-02 1.169599965214729309e-01 -1.106880009174346924e-01 -7.089999853633344173e-04 5.464699864387512207e-02 9.432599693536758423e-02 2.102770060300827026e-01 -1.503400038927793503e-02 6.700800359249114990e-02 -1.847900077700614929e-02 1.801089942455291748e-01 1.027499977499246597e-02 -8.247999846935272217e-02 5.301100015640258789e-02 -2.005919963121414185e-01 -2.013700082898139954e-02 3.181499987840652466e-02 -8.113600313663482666e-02 9.486000053584575653e-03 -5.202899873256683350e-02 9.760300070047378540e-02 2.811999991536140442e-03 3.968130052089691162e-01 -1.419329941272735596e-01 -2.227599918842315674e-02 -2.314499951899051666e-02 -1.064890027046203613e-01 -8.687700331211090088e-02 -7.521899789571762085e-02 1.686570048332214355e-01 -2.820100076496601105e-02 -1.965470016002655029e-01 2.903800085186958313e-02 -3.662599995732307434e-02 -1.287100017070770264e-01 1.911399960517883301e-01 1.783680021762847900e-01 -9.438200294971466064e-02 6.240599974989891052e-02 3.383100032806396484e-02 -1.413500010967254639e-01 -5.105499923229217529e-02 1.499000005424022675e-03 1.415199972689151764e-02 -1.127469986677169800e-01 -5.433999933302402496e-03 1.233640015125274658e-01 3.998999949544668198e-03 -3.561599925160408020e-02 -1.225709989666938782e-01 1.579399965703487396e-02 1.611869931221008301e-01 -2.639659941196441650e-01 -7.716300338506698608e-02 -1.006070002913475037e-01 1.739419996738433838e-01 1.529169976711273193e-01 1.682959944009780884e-01 1.472039967775344849e-01 4.659700021147727966e-02 -6.180000025779008865e-03 -1.204280033707618713e-01 1.054900046437978745e-02 4.475200176239013672e-02 -1.480260044336318970e-01 1.281000021845102310e-02 7.648999802768230438e-03 4.688800126314163208e-02 -2.562700025737285614e-02 3.262399882078170776e-02 7.219699770212173462e-02 1.359020024538040161e-01 -7.339400053024291992e-02 2.306469976902008057e-01 -8.880000095814466476e-04 2.886199951171875000e-02 -5.197700113058090210e-02 2.065880000591278076e-01 -2.373999916017055511e-02 -2.944100089371204376e-02 8.268799632787704468e-02 -1.469569951295852661e-01 1.371449977159500122e-01 -1.226000022143125534e-02 -1.208660006523132324e-01 -5.180700123310089111e-02 6.909400224685668945e-02 1.369780004024505615e-01 -1.123999943956732750e-03 1.184200029820203781e-02 -1.522780060768127441e-01 8.351000025868415833e-03 -4.256900027394294739e-02 1.580339968204498291e-01 9.612999856472015381e-03 2.764900028705596924e-02 -1.372189968824386597e-01 -2.400909960269927979e-01 3.218099847435951233e-02 1.690129935741424561e-01 1.252759993076324463e-01 1.246789991855621338e-01 -3.568400070071220398e-02 3.611199930310249329e-02 -1.905239969491958618e-01 -6.847800314426422119e-02 1.862500049173831940e-02 -1.354610025882720947e-01 3.161889910697937012e-01 1.100199967622756958e-01 -9.746400266885757446e-02 -3.151199966669082642e-02 7.823000103235244751e-02 1.432539969682693481e-01 2.718389928340911865e-01 -1.753080040216445923e-01 -8.900099992752075195e-02 2.168149948120117188e-01 -8.276999928057193756e-03 2.293699979782104492e-01 1.079080030322074890e-01 -9.774000383913516998e-03 2.988000027835369110e-02 -1.538699958473443985e-02 -1.022659987211227417e-01 2.577849924564361572e-01 -1.713500022888183594e-01 -5.699900165200233459e-02 9.037200361490249634e-02 -2.090390026569366455e-01 4.945899918675422668e-02 2.434989959001541138e-01 2.105509936809539795e-01 1.609369963407516479e-01 -3.966299816966056824e-02 7.521999999880790710e-03 -6.060900166630744934e-02 -2.841399982571601868e-02 1.271079927682876587e-01 -2.717999974265694618e-03 5.241800099611282349e-02 1.188860014081001282e-01 -1.872999942861497402e-03 2.110150009393692017e-01 -3.237000107765197754e-02 1.299120038747787476e-01 -4.120799899101257324e-02 9.417899698019027710e-02 -2.975999936461448669e-02 1.734199933707714081e-02 -1.241089999675750732e-01 1.192899979650974274e-02 4.869300127029418945e-02 8.236099779605865479e-02 1.917439997196197510e-01 1.071230024099349976e-01 6.898199766874313354e-02 -1.412820070981979370e-01 -8.955100178718566895e-02 -6.563200056552886963e-02 -2.928999951109290123e-03 1.893000006675720215e-01 1.238529980182647705e-01 4.676299914717674255e-02 8.784600347280502319e-02 4.693400114774703979e-02 -1.180810034275054932e-01 -6.162000074982643127e-02 -4.128599911928176880e-02 -1.297959983348846436e-01 3.549300134181976318e-02 4.640199989080429077e-02 -2.571609914302825928e-01 -1.978619992733001709e-01 1.912889927625656128e-01 1.837770044803619385e-01 2.330200001597404480e-02 1.133849993348121643e-01 -1.015190035104751587e-01 6.213299930095672607e-02 -3.614699840545654297e-02 1.085909977555274963e-01 9.966400265693664551e-02 2.288579940795898438e-01 -8.990500122308731079e-02 1.262999954633414745e-03 -4.458900168538093567e-02 1.228360012173652649e-01 2.049499936401844025e-02 1.039730012416839600e-01 2.567409873008728027e-01 -4.930699989199638367e-02 9.568399935960769653e-02 1.364549994468688965e-01 -2.482000039890408516e-03 2.527999924495816231e-03 -3.375500068068504333e-02 -8.231800049543380737e-02 4.581000190228223801e-03 -1.629999955184757710e-03 7.889200001955032349e-02 1.295859962701797485e-01 2.034009993076324463e-01 -4.721799865365028381e-02 -5.172700062394142151e-02 -2.196840047836303711e-01 5.842199921607971191e-02 2.154140025377273560e-01 
quattro 4.651600122451782227e-02 4.845299944281578064e-02 1.987499929964542389e-02 -1.681739985942840576e-01 1.387290060520172119e-01 1.352979987859725952e-01 -1.169029995799064636e-01 1.010489985346794128e-01 -2.846200019121170044e-02 9.062699973583221436e-02 -1.938879936933517456e-01 1.164480000734329224e-01 -2.375320047140121460e-01 3.478299826383590698e-02 -9.973999857902526855e-02 1.323499977588653564e-01 -1.406359970569610596e-01 -1.539109945297241211e-01 -1.963170021772384644e-01 -1.440329998731613159e-01 -1.039099972695112228e-02 -2.290180027484893799e-01 1.514200028032064438e-02 9.771999716758728027e-02 -7.012700289487838745e-02 6.482999771833419800e-02 -5.028299987316131592e-02 2.409099973738193512e-02 -8.052100241184234619e-02 1.831500045955181122e-02 -9.932500123977661133e-02 1.712599992752075195e-01 1.464200019836425781e-02 -2.211699932813644409e-01 1.245580017566680908e-01 -1.102840006351470947e-01 2.704999968409538269e-02 1.636089980602264404e-01 2.083790004253387451e-01 -2.045660018920898438e-01 -5.458100140094757080e-02 -2.479399926960468292e-02 1.431539952754974365e-01 1.737370043992996216e-01 4.846800118684768677e-02 7.673499733209609985e-02 2.992700040340423584e-02 -2.780300006270408630e-02 -6.713899970054626465e-02 8.393199741840362549e-02 2.114900052547454834e-01 1.068700011819601059e-02 -9.488999843597412109e-02 -2.646549940109252930e-01 4.673000052571296692e-02 -2.252599969506263733e-02 2.333119958639144897e-01 -2.356660068035125732e-01 -4.605299979448318481e-02 7.708299905061721802e-02 7.057999819517135620e-02 -4.641500115394592285e-02 -1.628759950399398804e-01 -1.158700045198202133e-02 -1.222729980945587158e-01 -5.572000145912170410e-02 1.262609958648681641e-01 -4.997399821877479553e-02 2.318159937858581543e-01 1.248079985380172729e-01 2.089989930391311646e-01 -3.374199941754341125e-02 5.044399946928024292e-02 3.993700072169303894e-02 -1.289319992065429688e-01 -8.900000248104333878e-04 -9.095799922943115234e-02 5.527599900960922241e-02 -7.822699844837188721e-02 -8.878000080585479736e-03 -1.910999999381601810e-03 1.684899926185607910e-01 7.808999717235565186e-02 -8.543999865651130676e-03 -8.697400242090225220e-02 1.018410027027130127e-01 -7.100799679756164551e-02 1.125930026173591614e-01 -1.953130066394805908e-01 4.931300133466720581e-02 -1.395290046930313110e-01 -1.252400036901235580e-02 3.298600018024444580e-02 5.595700070261955261e-02 -1.316680014133453369e-01 -1.009699981659650803e-02 8.893100172281265259e-02 1.273030042648315430e-01 1.707579940557479858e-01 -5.322400107979774475e-02 4.623400047421455383e-02 8.430000161752104759e-04 2.960239946842193604e-01 5.496399849653244019e-02 -2.008499950170516968e-02 1.772999949753284454e-02 -2.712500095367431641e-01 2.177399955689907074e-02 -2.247199974954128265e-02 -4.876799881458282471e-02 -5.900099873542785645e-02 -8.224699646234512329e-02 1.970729976892471313e-01 -1.075130030512809753e-01 3.946779966354370117e-01 -1.005099993199110031e-02 5.089999758638441563e-04 -1.177159994840621948e-01 -8.872699737548828125e-02 -1.885900087654590607e-02 -1.947299949824810028e-02 1.733849942684173584e-01 -7.504399865865707397e-02 -1.434389948844909668e-01 2.851900085806846619e-02 -9.826400130987167358e-02 -1.052279993891716003e-01 1.220389977097511292e-01 2.034610062837600708e-01 -3.322799876332283020e-02 9.280099719762802124e-02 -1.265999954193830490e-02 -1.341360062360763550e-01 1.199999969685450196e-04 5.150000099092721939e-03 4.800000041723251343e-02 -1.127969995141029358e-01 1.071500033140182495e-02 1.190489977598190308e-01 -8.562199771404266357e-02 3.176200017333030701e-02 -6.141500174999237061e-02 9.306299686431884766e-02 1.478150039911270142e-01 -2.016289979219436646e-01 -7.763399928808212280e-02 -1.182959973812103271e-01 1.619119942188262939e-01 6.188299879431724548e-02 2.359430044889450073e-01 1.105640009045600891e-01 1.194700039923191071e-02 -1.690600067377090454e-02 -1.507340073585510254e-01 2.043999964371323586e-03 6.747300177812576294e-02 -1.899860054254531860e-01 -3.283699974417686462e-02 -8.132299780845642090e-02 5.784400179982185364e-02 4.521000199019908905e-03 3.454599902033805847e-02 5.600399896502494812e-02 -5.263499915599822998e-02 -1.622219979763031006e-01 2.612940073013305664e-01 2.263199910521507263e-02 5.358700081706047058e-02 -5.312300100922584534e-02 1.291310042142868042e-01 6.493800133466720581e-02 -3.414199873805046082e-02 2.269459962844848633e-01 -1.695179939270019531e-01 1.547220051288604736e-01 -5.316499993205070496e-02 -8.936399966478347778e-02 -7.587199658155441284e-02 7.596199959516525269e-02 1.298400014638900757e-01 -2.640499919652938843e-02 -6.538800150156021118e-02 -1.518779993057250977e-01 -1.687000039964914322e-03 5.167299881577491760e-02 8.779300004243850708e-02 -2.976699918508529663e-02 1.933100074529647827e-02 -1.820199936628341675e-01 -2.309959977865219116e-01 1.260100025683641434e-02 1.763769984245300293e-01 1.419959962368011475e-01 1.116179972887039185e-01 -2.566199935972690582e-02 -7.155000232160091400e-03 -1.866900026798248291e-01 -1.242889985442161560e-01 5.526300147175788879e-02 -5.331299826502799988e-02 3.601740002632141113e-01 1.010740026831626892e-01 -2.065059989690780640e-01 -5.882599949836730957e-02 4.512599855661392212e-02 4.549799859523773193e-02 1.703979969024658203e-01 -1.111700013279914856e-01 -2.825400047004222870e-02 1.943109929561614990e-01 9.592200070619583130e-02 2.015729993581771851e-01 1.117149963974952698e-01 5.147499963641166687e-02 4.517999943345785141e-03 -2.872800081968307495e-02 -5.835900083184242249e-02 2.866590023040771484e-01 -1.715330034494400024e-01 -1.691280007362365723e-01 1.338350027799606323e-01 -1.624300032854080200e-01 1.164690032601356506e-01 1.462949961423873901e-01 2.138559967279434204e-01 9.382999688386917114e-02 -5.995199829339981079e-02 -2.434399910271167755e-02 -5.183700099587440491e-02 8.509399741888046265e-02 1.305519938468933105e-01 -5.640999972820281982e-02 2.877900004386901855e-02 6.235000118613243103e-02 -4.017399996519088745e-02 2.296569943428039551e-01 1.621000003069639206e-03 1.467639952898025513e-01 -3.294400125741958618e-02 6.983099877834320068e-02 5.198799818754196167e-02 7.493899762630462646e-02 -1.235660016536712646e-01 3.379999892786145210e-03 9.490799903869628906e-02 1.618400029838085175e-02 2.251040041446685791e-01 8.565700054168701172e-02 4.591599851846694946e-02 -1.120890006422996521e-01 5.342000164091587067e-03 9.647899866104125977e-02 4.800000169780105352e-05 1.798779964447021484e-01 1.353570073843002319e-01 7.412599772214889526e-02 1.689199917018413544e-02 4.608500003814697266e-02 -1.234209984540939331e-01 -1.660400070250034332e-02 -2.835300005972385406e-02 -1.895730048418045044e-01 -4.729500040411949158e-02 1.823000027798116207e-03 -2.643460035324096680e-01 -2.761839926242828369e-01 2.096650004386901855e-01 1.924889981746673584e-01 2.308199927210807800e-02 1.148839965462684631e-01 -1.214910000562667847e-01 1.023769974708557129e-01 -4.508199915289878845e-02 1.843860000371932983e-01 1.141370013356208801e-01 3.002609908580780029e-01 -9.392599761486053467e-02 2.460899949073791504e-02 -6.654000282287597656e-02 1.911430060863494873e-01 -1.399799995124340057e-02 8.718899637460708618e-02 1.866730004549026489e-01 -1.681100018322467804e-02 3.833900019526481628e-02 -1.348000019788742065e-03 -2.085099928081035614e-02 3.513999981805682182e-03 -4.861300066113471985e-02 2.177900075912475586e-02 -2.040000073611736298e-02 2.063200064003467560e-02 1.316689997911453247e-01 2.398129999637603760e-01 1.612419933080673218e-01 -4.454100131988525391e-02 -9.627199918031692505e-02 -2.779360115528106689e-01 7.444500178098678589e-02 2.818489968776702881e-01 
cinque 4.112299904227256775e-02 7.541400194168090820e-02 9.010000154376029968e-03 -7.187200337648391724e-02 1.003429964184761047e-01 1.509500015527009964e-02 -1.125799957662820816e-02 -1.548399962484836578e-02 -5.097100138664245605e-02 -3.018999937921762466e-03 -2.780799940228462219e-02 1.918019950389862061e-01 -1.956100016832351685e-01 1.384640038013458252e-01 -1.031960025429725647e-01 1.733050048351287842e-01 -1.709380000829696655e-01 -1.550039947032928467e-01 -8.666499704122543335e-02 -2.616100013256072998e-02 2.762999944388866425e-02 -2.473269999027252197e-01 -3.742599859833717346e-02 1.245940029621124268e-01 -1.584600061178207397e-01 6.684400141239166260e-02 -1.016500033438205719e-02 -4.411699995398521423e-02 -1.079579964280128479e-01 -1.927000004798173904e-03 -9.189800173044204712e-02 1.931139975786209106e-01 -4.494599997997283936e-02 -1.396140009164810181e-01 1.700350046157836914e-01 -5.981999915093183517e-03 2.114599943161010742e-01 1.539029926061630249e-01 2.274100035429000854e-01 -8.599799871444702148e-02 6.885000318288803101e-02 -1.774100027978420258e-02 -2.418000018224120140e-03 7.874900102615356445e-02 -1.118199992924928665e-02 1.593929976224899292e-01 -2.422899939119815826e-02 5.025599896907806396e-02 6.486000120639801025e-02 5.628899857401847839e-02 1.403799951076507568e-01 -4.219000041484832764e-02 -1.048130020499229431e-01 -1.557500064373016357e-01 -9.230300039052963257e-02 -1.421689987182617188e-01 2.329210042953491211e-01 -3.240439891815185547e-01 -7.142499834299087524e-02 1.428779959678649902e-01 1.799760013818740845e-01 -1.033720001578330994e-01 -1.089169979095458984e-01 -3.126800060272216797e-02 -1.395509988069534302e-01 -2.531399950385093689e-02 2.064879983663558960e-01 1.268200017511844635e-02 1.671749949455261230e-01 1.231660023331642151e-01 1.931609958410263062e-01 -1.429000049829483032e-01 1.149069964885711670e-01 5.016300082206726074e-02 -6.951099634170532227e-02 -9.017600119113922119e-02 5.861400067806243896e-02 1.178359985351562500e-01 -1.725759953260421753e-01 -4.260899871587753296e-02 -9.732899814844131470e-02 1.732970029115676880e-01 7.848100364208221436e-02 -1.387799978256225586e-01 -3.121200017631053925e-02 1.406500022858381271e-02 -2.397200092673301697e-02 1.494480073451995850e-01 -3.133670091629028320e-01 -3.847499936819076538e-02 -2.051500044763088226e-02 9.499099850654602051e-02 1.033999957144260406e-02 -6.259900331497192383e-02 -1.455069929361343384e-01 4.115499928593635559e-02 6.332000344991683960e-02 7.339499890804290771e-02 1.776240020990371704e-01 5.179999861866235733e-04 7.391499727964401245e-02 2.122600004076957703e-02 2.050630003213882446e-01 -1.670899987220764160e-02 -9.429000318050384521e-02 6.183600053191184998e-02 -1.619540005922317505e-01 -1.875899918377399445e-02 -4.590199887752532959e-02 -8.355700224637985229e-02 -1.245570033788681030e-01 -6.191800162196159363e-02 2.392430007457733154e-01 3.728900104761123657e-02 2.708890140056610107e-01 -9.999000281095504761e-02 5.464800074696540833e-02 -1.431799959391355515e-02 -9.221100062131881714e-02 -6.268099695444107056e-02 -2.984599955379962921e-02 2.048429995775222778e-01 -6.312499940395355225e-02 -2.016829997301101685e-01 1.275029927492141724e-01 2.469399943947792053e-02 -1.216090023517608643e-01 1.382160037755966187e-01 1.369349956512451172e-01 -1.435479968786239624e-01 1.802590042352676392e-01 -1.306600030511617661e-02 -1.467130035161972046e-01 -3.279099985957145691e-02 7.073000073432922363e-02 1.361040025949478149e-01 -4.044599831104278564e-02 -2.172400057315826416e-02 1.831540018320083618e-01 -4.778999835252761841e-03 -3.036800026893615723e-02 4.149000160396099091e-03 1.280499994754791260e-01 1.263950020074844360e-01 -2.056799978017807007e-01 1.188999973237514496e-03 -8.926399797201156616e-02 2.167399972677230835e-01 1.171640008687973022e-01 1.322939991950988770e-01 1.183400005102157593e-01 -9.883999824523925781e-03 -6.307700276374816895e-02 -2.069460004568099976e-01 -5.956000089645385742e-02 6.425199657678604126e-02 -1.240700036287307739e-01 2.957299910485744476e-02 -8.586400002241134644e-02 4.846000112593173981e-03 -1.127969995141029358e-01 1.714520007371902466e-01 -1.202669963240623474e-01 -6.281899660825729370e-02 -1.064210012555122375e-01 1.828979998826980591e-01 1.058709993958473206e-01 7.021500170230865479e-02 -1.367499958723783493e-02 1.191729977726936340e-01 -8.111000061035156250e-03 -1.562709957361221313e-01 1.312330067157745361e-01 -2.176889926195144653e-01 1.403640061616897583e-01 5.352099984884262085e-02 -1.070630028843879700e-01 -7.951900362968444824e-02 6.246199831366539001e-02 1.550900042057037354e-01 8.570300042629241943e-02 3.378099948167800903e-02 -1.626970022916793823e-01 -8.064799755811691284e-02 2.634000033140182495e-02 1.790840029716491699e-01 -1.095580011606216431e-01 8.156400173902511597e-02 -1.587159931659698486e-01 -1.404729932546615601e-01 3.188300132751464844e-02 2.974939942359924316e-01 2.170339971780776978e-01 2.101889997720718384e-01 5.859000142663717270e-03 2.032800018787384033e-02 -9.764900058507919312e-02 -7.394000142812728882e-02 4.991099983453750610e-02 -7.344499975442886353e-02 3.526430130004882812e-01 1.726929992437362671e-01 -2.075600028038024902e-01 8.099099993705749512e-02 2.990199998021125793e-02 5.366799980401992798e-02 2.277880012989044189e-01 -1.651490032672882080e-01 -5.029400065541267395e-02 2.360299974679946899e-01 6.937900185585021973e-02 1.791869997978210449e-01 7.280299812555313110e-02 9.168399870395660400e-02 5.971999838948249817e-03 -9.181000292301177979e-03 -8.729899674654006958e-02 2.672879993915557861e-01 -1.405670046806335449e-01 -2.036419957876205444e-01 1.332580000162124634e-01 -1.785099953413009644e-01 5.488099902868270874e-02 2.566640079021453857e-01 1.629700064659118652e-01 1.477639973163604736e-01 -1.098710000514984131e-01 1.344770044088363647e-01 -4.584499821066856384e-02 5.532899871468544006e-02 1.827650070190429688e-01 -9.726099669933319092e-02 3.936000168323516846e-02 1.833470016717910767e-01 -2.332199923694133759e-02 2.055090069770812988e-01 2.973899990320205688e-02 1.353909969329833984e-01 -2.104399912059307098e-02 2.212399989366531372e-02 -7.450900226831436157e-02 8.910299837589263916e-02 -1.647309958934783936e-01 4.661199823021888733e-02 -7.151999976485967636e-03 8.010099828243255615e-02 3.726530075073242188e-01 9.729199856519699097e-02 2.674099989235401154e-02 -6.602299958467483521e-02 -8.632499724626541138e-02 5.739700049161911011e-02 6.729699671268463135e-02 1.560570001602172852e-01 1.306370049715042114e-01 4.155600070953369141e-02 5.639699846506118774e-02 -3.184299916028976440e-02 -8.970099687576293945e-02 1.683000009506940842e-03 -8.558599650859832764e-02 -1.511169970035552979e-01 4.815800115466117859e-02 9.079500287771224976e-02 -2.874430119991302490e-01 -2.454670071601867676e-01 2.171559929847717285e-01 1.488379985094070435e-01 2.223400026559829712e-02 9.730599820613861084e-02 -5.325499922037124634e-02 1.791499927639961243e-02 -3.959999885410070419e-03 1.023219972848892212e-01 -1.669600047171115875e-02 2.160120010375976562e-01 -4.850900173187255859e-02 -6.246999837458133698e-03 -5.187400057911872864e-02 1.785299926996231079e-01 3.758100047707557678e-02 1.763599961996078491e-01 1.268240064382553101e-01 -8.115600049495697021e-02 6.005899980664253235e-02 6.098899990320205688e-02 -4.452100023627281189e-02 3.120199963450431824e-02 -1.145040020346641541e-01 3.350900113582611084e-02 -8.720000088214874268e-02 1.084999996237456799e-03 1.634050011634826660e-01 2.315469980239868164e-01 1.902160048484802246e-01 -7.565200328826904297e-02 2.552700042724609375e-02 -2.782509922981262207e-01 1.356489956378936768e-01 2.052190005779266357e-01 
sei 1.862020045518875122e-01 1.546850055456161499e-01 -1.394080072641372681e-01 -4.315299913287162781e-02 7.415100187063217163e-02 -4.303999990224838257e-02 -5.765699967741966248e-02 -7.232400029897689819e-02 1.931199990212917328e-02 1.915369927883148193e-01 -1.099790036678314209e-01 2.701799944043159485e-02 -4.774099960923194885e-02 5.883499979972839355e-02 -4.312900081276893616e-02 1.518180072307586670e-01 1.953710019588470459e-01 -1.376049965620040894e-01 -2.233130037784576416e-01 3.040600009262561798e-02 -3.635700047016143799e-02 -6.112299859523773193e-02 1.258189976215362549e-01 2.061650007963180542e-01 6.777600198984146118e-02 -1.201919987797737122e-01 -3.409210145473480225e-01 1.076930016279220581e-01 -5.554699897766113281e-02 1.224730014801025391e-01 -7.156399637460708618e-02 1.941799931228160858e-02 -8.437799662351608276e-02 -1.396380066871643066e-01 -1.489100009202957153e-01 2.144300006330013275e-02 -7.561999838799238205e-03 1.904999953694641590e-03 3.594799935817718506e-01 -1.176239997148513794e-01 1.468240022659301758e-01 -4.381199926137924194e-02 1.422629952430725098e-01 2.269999980926513672e-01 7.655200362205505371e-02 3.071800060570240021e-02 -7.390400022268295288e-02 8.714199811220169067e-02 2.124820053577423096e-01 -5.251200124621391296e-02 2.018039971590042114e-01 9.406200051307678223e-02 7.088500261306762695e-02 -1.715729981660842896e-01 -1.085250005125999451e-01 2.998000010848045349e-02 2.462009936571121216e-01 -2.888030111789703369e-01 -2.393240034580230713e-01 1.229379996657371521e-01 1.211050003767013550e-01 -2.493920028209686279e-01 -1.513639986515045166e-01 -7.821699976921081543e-02 -1.366010010242462158e-01 1.013469994068145752e-01 4.123499989509582520e-02 3.354580104351043701e-01 8.135099709033966064e-02 1.050209999084472656e-01 -4.731800034642219543e-02 -1.345629990100860596e-01 3.284479975700378418e-01 8.596300333738327026e-02 -1.311360001564025879e-01 -1.930059939622879028e-01 -5.660299956798553467e-02 1.001930013298988342e-01 -2.056200057268142700e-01 -4.051100090146064758e-02 -1.131239980459213257e-01 -3.650000086054205894e-03 1.009149998426437378e-01 1.282439976930618286e-01 6.182799860835075378e-02 -1.023939996957778931e-01 3.036110103130340576e-01 7.825300097465515137e-02 -3.207789957523345947e-01 -8.378200232982635498e-02 -1.626159995794296265e-01 -7.223399728536605835e-02 9.197899699211120605e-02 -9.770999848842620850e-02 -5.524599924683570862e-02 -4.615699872374534607e-02 -2.602429986000061035e-01 3.203599900007247925e-02 1.995369940996170044e-01 4.035700112581253052e-02 -1.896319985389709473e-01 -8.821500092744827271e-02 3.307599946856498718e-02 -6.485600024461746216e-02 -5.052800104022026062e-02 2.673040032386779785e-01 -1.112880036234855652e-01 -3.243799880146980286e-02 2.385099977254867554e-02 -1.283469945192337036e-01 8.374600112438201904e-02 5.374300107359886169e-02 2.067369967699050903e-01 -1.029689982533454895e-01 4.446189999580383301e-01 -1.559610068798065186e-01 8.133800327777862549e-02 2.007170021533966064e-01 -2.617230117321014404e-01 4.637499898672103882e-02 -2.645530104637145996e-01 3.719860017299652100e-01 -8.652400225400924683e-02 1.297760009765625000e-01 3.679599985480308533e-02 -7.812300324440002441e-02 -1.313620060682296753e-01 1.884510070085525513e-01 3.977620005607604980e-01 1.317599974572658539e-02 1.165549978613853455e-01 2.034250050783157349e-01 -3.180220127105712891e-01 -3.585100173950195312e-02 -9.426400065422058105e-02 3.644499927759170532e-02 1.417160034179687500e-01 -6.109099835157394409e-02 -3.465000167489051819e-02 -8.591800183057785034e-02 3.852400183677673340e-02 1.477990001440048218e-01 2.402469962835311890e-01 1.756709963083267212e-01 -2.295819967985153198e-01 8.692800253629684448e-02 -5.799899995326995850e-02 -8.911599963903427124e-02 1.238759979605674744e-01 -3.570999950170516968e-03 -1.049899980425834656e-01 -1.349660009145736694e-01 2.175300009548664093e-02 -1.502000028267502785e-03 3.667600080370903015e-02 -5.897599831223487854e-02 -2.651399970054626465e-01 -1.415699999779462814e-02 -6.798899918794631958e-02 5.265200138092041016e-02 1.194799970835447311e-02 6.201500073075294495e-02 9.258200228214263916e-02 -6.676399707794189453e-02 -1.443410068750381470e-01 2.345460057258605957e-01 -6.909999996423721313e-02 -1.789999939501285553e-02 -6.122099980711936951e-02 1.660470068454742432e-01 3.031089901924133301e-01 -9.150999598205089569e-03 8.524800091981887817e-02 -3.181599825620651245e-02 -5.779900029301643372e-02 1.180669963359832764e-01 -5.317000206559896469e-03 2.068150043487548828e-01 6.597299873828887939e-02 1.824879944324493408e-01 -3.321399912238121033e-02 -5.575799942016601562e-02 -7.238499820232391357e-02 1.030100043863058090e-02 -6.041000131517648697e-03 2.785559892654418945e-01 7.355400174856185913e-02 2.543999999761581421e-02 -2.885049879550933838e-01 -8.296900242567062378e-02 2.152499929070472717e-02 9.941700100898742676e-02 1.386190056800842285e-01 2.647869884967803955e-01 -8.399499952793121338e-02 1.641820073127746582e-01 -1.665299944579601288e-02 -4.961099848151206970e-02 -4.608099907636642456e-02 -3.188199922442436218e-02 3.874689936637878418e-01 6.733900308609008789e-02 -3.997679948806762695e-01 8.833900094032287598e-02 -6.337500363588333130e-02 6.680300086736679077e-02 3.045539855957031250e-01 -2.793259918689727783e-01 -4.183200001716613770e-02 3.360449969768524170e-01 -1.140700001269578934e-02 1.611119955778121948e-01 5.234700068831443787e-02 -6.100599840283393860e-02 6.358800083398818970e-02 -2.250490039587020874e-01 -1.823370009660720825e-01 2.671279907226562500e-01 -8.160299807786941528e-02 -1.157829985022544861e-01 1.968560069799423218e-01 -1.032529994845390320e-01 1.662899926304817200e-02 1.826940029859542847e-01 4.438599944114685059e-02 2.645099908113479614e-02 2.237379997968673706e-01 -4.138699918985366821e-02 -1.270619928836822510e-01 -9.752099961042404175e-02 -9.593999944627285004e-03 1.085589975118637085e-01 5.590000073425471783e-04 1.678490042686462402e-01 -1.760060042142868042e-01 -8.882600069046020508e-02 -7.667600363492965698e-02 -1.557399984449148178e-02 -6.673999875783920288e-02 1.036930009722709656e-01 1.883199997246265411e-02 2.894620001316070557e-01 2.464500069618225098e-02 -8.243499696254730225e-02 2.365660071372985840e-01 1.665440052747726440e-01 1.935539990663528442e-01 -2.142689973115921021e-01 3.355700150132179260e-02 3.013700060546398163e-02 3.560800105333328247e-02 8.434700220823287964e-02 -8.516299724578857422e-02 -3.613800182938575745e-02 5.873800069093704224e-02 -3.473500162363052368e-02 -2.036470025777816772e-01 1.664099991321563721e-01 -2.045309990644454956e-01 -1.488910019397735596e-01 1.164830029010772705e-01 -1.231779977679252625e-01 2.469210028648376465e-01 -4.570199921727180481e-02 -1.576890051364898682e-01 -1.247939988970756531e-01 1.098420023918151855e-01 7.101099938154220581e-02 -2.351099997758865356e-02 -1.389990001916885376e-01 -2.342669963836669922e-01 2.314029932022094727e-01 4.973899945616722107e-02 8.325000293552875519e-03 2.515400014817714691e-02 1.123569980263710022e-01 1.428000032901763916e-01 9.951400011777877808e-02 1.973769962787628174e-01 2.987300045788288116e-02 -9.268300235271453857e-02 1.572699993848800659e-01 1.365109980106353760e-01 -1.016269996762275696e-01 1.053499989211559296e-02 1.241640001535415649e-01 1.313959956169128418e-01 2.296320050954818726e-01 1.521040052175521851e-01 1.088299974799156189e-01 -1.508370041847229004e-01 1.825110018253326416e-01 6.123699992895126343e-02 1.044839993119239807e-01 2.603399939835071564e-02 -2.848420143127441406e-01 -8.482900261878967285e-02 -1.414580047130584717e-01 1.750279963016510010e-01 1.921119987964630127e-01 
sette 1.434729993343353271e-01 7.033900171518325806e-02 1.101759970188140869e-01 -1.138620004057884216e-01 2.081400007009506226e-01 1.513379961252212524e-01 -1.386899966746568680e-02 -1.595100015401840210e-02 -7.329399883747100830e-02 1.543529927730560303e-01 -9.655100107192993164e-02 4.044700041413307190e-02 -2.505779862403869629e-01 7.246199995279312134e-02 -9.061300009489059448e-02 1.360190063714981079e-01 -2.387080043554306030e-01 -5.145600065588951111e-02 -1.802629977464675903e-01 -1.620589941740036011e-01 4.811099916696548462e-02 -7.070600241422653198e-02 3.484600037336349487e-02 8.955699950456619263e-02 -4.913499951362609863e-02 6.034199893474578857e-02 3.112399950623512268e-02 -4.570600017905235291e-02 -1.677560061216354370e-01 2.224599942564964294e-02 -3.588600084185600281e-02 1.046160012483596802e-01 -2.222900092601776123e-02 -1.671780049800872803e-01 2.002299949526786804e-02 3.271099925041198730e-02 1.131379976868629456e-01 2.079720050096511841e-01 2.506160140037536621e-01 -1.619050055742263794e-01 1.373009979724884033e-01 3.618400171399116516e-02 1.280930042266845703e-01 1.895940005779266357e-01 6.466999650001525879e-02 1.112810000777244568e-01 1.039839982986450195e-01 4.036999773234128952e-03 -3.613800182938575745e-02 9.063699841499328613e-02 1.281429976224899292e-01 4.736600071191787720e-02 4.581499844789505005e-02 -1.095260009169578552e-01 -5.235200002789497375e-02 -7.534199953079223633e-02 1.353109925985336304e-01 -3.173109889030456543e-01 8.395399898290634155e-02 1.443739980459213257e-01 1.927579939365386963e-01 -6.348299980163574219e-02 -9.367799758911132812e-02 2.735299989581108093e-02 -1.337330043315887451e-01 -1.476449966430664062e-01 8.685500174760818481e-02 6.092299893498420715e-02 1.284859925508499146e-01 9.933099895715713501e-02 1.878339946269989014e-01 -1.220159977674484253e-01 1.987980008125305176e-01 -5.805699899792671204e-02 3.260999917984008789e-02 -4.561600089073181152e-02 -3.835000097751617432e-02 2.326100021600723267e-01 -1.489350050687789917e-01 -9.933900088071823120e-02 -4.377400130033493042e-02 7.662700116634368896e-02 1.711429953575134277e-01 -1.567450016736984253e-01 4.986099898815155029e-02 5.026600137352943420e-02 -3.993799909949302673e-02 6.766100227832794189e-02 -3.474200069904327393e-01 -1.099400036036968231e-02 -1.336009949445724487e-01 -1.230529993772506714e-01 1.041119992733001709e-01 1.197450011968612671e-01 -1.549910008907318115e-01 9.438499808311462402e-02 2.359100058674812317e-02 2.569249868392944336e-01 1.645469963550567627e-01 -5.003999918699264526e-03 1.071199998259544373e-01 -2.903700061142444611e-02 2.315499931573867798e-01 2.598199993371963501e-02 -1.399870067834854126e-01 4.410700127482414246e-02 -8.800700306892395020e-02 1.211600005626678467e-02 7.124300301074981689e-02 -1.366250067949295044e-01 -3.340800106525421143e-02 -7.735099643468856812e-02 1.210739985108375549e-01 -7.616099715232849121e-02 3.765600025653839111e-01 -3.766800090670585632e-02 -7.211100310087203979e-02 -2.373299933969974518e-02 -1.855120062828063965e-01 -7.199999876320362091e-03 1.093970015645027161e-01 2.698040008544921875e-01 -6.932400166988372803e-02 -2.852579951286315918e-01 9.846799820661544800e-02 -1.104300003498792648e-02 -1.938789933919906616e-01 1.833399981260299683e-01 2.110159993171691895e-01 -6.720499694347381592e-02 2.631100118160247803e-01 7.789699733257293701e-02 -1.101000010967254639e-01 -1.212819963693618774e-01 -3.150799870491027832e-02 6.836199760437011719e-02 -1.190949976444244385e-01 -6.844899803400039673e-02 1.221110001206398010e-01 -3.604499995708465576e-02 4.449300095438957214e-02 -8.828900009393692017e-02 1.324959993362426758e-01 8.395700156688690186e-02 -2.406439930200576782e-01 -1.392060071229934692e-01 1.881800033152103424e-02 1.873320043087005615e-01 1.077729985117912292e-01 1.107719987630844116e-01 -3.656899929046630859e-02 -1.170390024781227112e-01 2.218399941921234131e-02 -1.590780019760131836e-01 -1.392199993133544922e-01 -4.739899933338165283e-02 -2.133429944515228271e-01 -2.523499913513660431e-02 -2.123299986124038696e-02 1.585209965705871582e-01 2.603000029921531677e-02 1.577699929475784302e-01 6.090699881315231323e-02 6.563500314950942993e-02 -5.206000059843063354e-02 2.375150024890899658e-01 3.218699991703033447e-02 8.309400081634521484e-02 8.337000384926795959e-03 1.365679949522018433e-01 -7.184500247240066528e-02 -3.313300013542175293e-02 2.512229979038238525e-01 -1.161829978227615356e-01 1.205559968948364258e-01 -4.606000147759914398e-03 -4.429600015282630920e-02 -1.069319993257522583e-01 -7.169199734926223755e-02 4.335099831223487854e-02 -5.059799924492835999e-02 7.810500264167785645e-02 -7.578899711370468140e-02 -7.642299681901931763e-02 7.910999655723571777e-02 1.753190010786056519e-01 -7.288700342178344727e-02 1.362490057945251465e-01 -1.920900046825408936e-01 -1.307490020990371704e-01 -1.231499984860420227e-01 1.566189974546432495e-01 2.594060003757476807e-01 1.728260070085525513e-01 -1.815270036458969116e-01 -2.032300084829330444e-02 -6.446000188589096069e-03 -1.221800036728382111e-02 6.798599660396575928e-02 -1.032989993691444397e-01 3.517040014266967773e-01 1.108789965510368347e-01 -1.581220030784606934e-01 9.157399833202362061e-02 1.268849968910217285e-01 1.460029929876327515e-01 2.510580122470855713e-01 -1.699209958314895630e-01 -4.877000115811824799e-03 1.177870035171508789e-01 1.034699976444244385e-01 2.890219986438751221e-01 9.308200329542160034e-02 6.330499798059463501e-02 2.830499969422817230e-02 -1.552110016345977783e-01 7.700999826192855835e-02 1.708749979734420776e-01 -8.567799627780914307e-02 -2.153800055384635925e-02 -8.144999854266643524e-03 2.571000019088387489e-03 1.021260023117065430e-01 1.494410037994384766e-01 1.449809968471527100e-01 1.990280002355575562e-01 -1.895689964294433594e-01 6.614600121974945068e-02 -4.827199876308441162e-02 1.171199977397918701e-02 1.412380039691925049e-01 -1.301070004701614380e-01 -1.290619969367980957e-01 1.832769960165023804e-01 -7.764899730682373047e-02 1.278460025787353516e-01 1.317649930715560913e-01 1.466919928789138794e-01 -1.121359989047050476e-01 3.030800074338912964e-02 -8.369900286197662354e-02 -1.499440073966979980e-01 -1.436949968338012695e-01 -2.259700000286102295e-02 8.095899969339370728e-02 8.958400040864944458e-02 1.974450051784515381e-01 4.370000096969306469e-04 -2.599699981510639191e-02 -1.612579971551895142e-01 -1.177019998431205750e-01 -8.015000075101852417e-02 7.277499884366989136e-02 1.915600001811981201e-01 4.545899853110313416e-02 6.452199816703796387e-02 8.877599984407424927e-02 2.437759935855865479e-01 -9.606800228357315063e-02 -3.115300089120864868e-02 -2.022900059819221497e-02 -2.312140017747879028e-01 7.338300347328186035e-02 1.087990030646324158e-01 -1.642439961433410645e-01 -1.911730021238327026e-01 1.628849953413009644e-01 8.350600302219390869e-02 -9.356900304555892944e-02 6.587900221347808838e-02 -1.440179944038391113e-01 6.529200077056884766e-02 -2.012650072574615479e-01 1.063790023326873779e-01 7.697399705648422241e-02 3.940900042653083801e-02 8.990000002086162567e-03 1.143810003995895386e-01 4.343099892139434814e-02 1.981980055570602417e-01 1.204520016908645630e-01 1.855230033397674561e-01 8.436899632215499878e-02 1.167200040072202682e-02 -9.245000034570693970e-02 1.728270053863525391e-01 7.206500321626663208e-02 5.402600020170211792e-02 -1.743299961090087891e-01 -5.863900110125541687e-02 -1.506229937076568604e-01 -7.351599633693695068e-02 7.429800182580947876e-02 2.826460003852844238e-01 1.307529956102371216e-01 -7.732100039720535278e-02 -3.964500129222869873e-02 -1.969940066337585449e-01 1.494379937648773193e-01 2.163670063018798828e-01 
otto 1.320369988679885864e-01 1.641600020229816437e-02 6.165799871087074280e-02 -1.292760074138641357e-01 1.684850007295608521e-01 1.311109960079193115e-01 2.061000093817710876e-03 4.189499840140342712e-02 2.453000051900744438e-03 -2.797299996018409729e-02 -1.555349975824356079e-01 1.691300049424171448e-02 -2.706960141658782959e-01 -1.353699993342161179e-02 -9.377200156450271606e-02 1.105270013213157654e-01 -1.017249971628189087e-01 -4.786999896168708801e-02 -2.013790011405944824e-01 3.714999929070472717e-02 5.748200044035911560e-02 -1.084330007433891296e-01 1.129200011491775513e-01 1.387629956007003784e-01 -2.728889882564544678e-01 1.544969975948333740e-01 4.337000194936990738e-03 -4.630399867892265320e-02 -2.252900041639804840e-02 1.169359982013702393e-01 -5.283499881625175476e-02 1.595840007066726685e-01 3.407900035381317139e-02 -2.303099930286407471e-01 1.982029974460601807e-01 -6.289999932050704956e-03 1.784929931163787842e-01 1.521240025758743286e-01 1.971890032291412354e-01 -9.789600223302841187e-02 4.595300182700157166e-02 -9.703000076115131378e-03 1.088699977844953537e-02 2.196550071239471436e-01 8.713999763131141663e-03 -1.775499992072582245e-02 -1.133100036531686783e-02 1.433770060539245605e-01 -6.713400036096572876e-02 7.484000176191329956e-02 6.442800164222717285e-02 2.322099916636943817e-02 2.998699992895126343e-02 -2.073940038681030273e-01 1.577799953520298004e-02 -4.085100069642066956e-02 2.317990064620971680e-01 -3.586849868297576904e-01 -6.348499655723571777e-02 2.766140103340148926e-01 2.392479926347732544e-01 -7.351200282573699951e-02 -5.814100056886672974e-02 4.344600066542625427e-02 -1.390929967164993286e-01 -1.376789957284927368e-01 1.016419976949691772e-01 2.579100057482719421e-02 -2.521199919283390045e-02 1.810760051012039185e-01 1.565960049629211426e-01 -4.778999835252761841e-02 1.336960047483444214e-01 -3.621299937367439270e-02 -4.492900148034095764e-02 2.924199961125850677e-02 2.237300015985965729e-02 1.281400024890899658e-01 -6.751500070095062256e-02 -5.503499880433082581e-02 7.716099917888641357e-02 7.180699706077575684e-02 1.194619983434677124e-01 -1.173399984836578369e-01 -9.007000364363193512e-03 2.205099910497665405e-02 7.876200228929519653e-02 1.224120035767555237e-01 -2.838909924030303955e-01 -4.377000033855438232e-03 -6.628000177443027496e-03 6.557399779558181763e-02 -8.445999585092067719e-03 3.240400180220603943e-02 -1.913769990205764771e-01 1.237939968705177307e-01 -4.253799840807914734e-02 3.607200086116790771e-01 1.195290014147758484e-01 -1.188379973173141479e-01 4.651200026273727417e-02 6.997799873352050781e-02 2.365729957818984985e-01 -1.483399979770183563e-02 -7.456500083208084106e-02 2.365200035274028778e-02 -6.221399828791618347e-02 2.724100090563297272e-02 1.555799972265958786e-02 -7.792600244283676147e-02 -1.923600025475025177e-02 -1.347250044345855713e-01 2.176429927349090576e-01 -2.052900008857250214e-02 3.445459902286529541e-01 4.545899853110313416e-02 -6.349100172519683838e-02 -4.095000214874744415e-03 -2.288099974393844604e-01 -6.223500147461891174e-02 -3.460500016808509827e-02 2.560940086841583252e-01 1.271000038832426071e-02 -6.395599991083145142e-02 3.348299860954284668e-02 7.015000283718109131e-02 -2.285369932651519775e-01 1.091600023210048676e-02 1.294230073690414429e-01 -1.101579964160919189e-01 2.641809880733489990e-01 3.891900181770324707e-02 -1.664980053901672363e-01 -5.822000093758106232e-03 -9.901000186800956726e-03 1.789280027151107788e-01 -6.961800158023834229e-02 -1.205350011587142944e-01 1.801200024783611298e-02 2.002299949526786804e-02 1.385099999606609344e-02 1.102109998464584351e-01 1.386809945106506348e-01 8.364599943161010742e-02 -2.651470005512237549e-01 -6.424800306558609009e-02 -4.187700152397155762e-02 1.635099947452545166e-01 5.877999961376190186e-02 3.361000120639801025e-02 4.129999876022338867e-02 -8.341799676418304443e-02 -4.697600007057189941e-02 -6.024900078773498535e-02 -2.099030017852783203e-01 -3.727100044488906860e-02 -7.540900260210037231e-02 -4.821000155061483383e-03 -7.681000232696533203e-02 7.263699918985366821e-02 2.167000062763690948e-02 7.855100184679031372e-02 -1.661100052297115326e-02 1.920099928975105286e-02 -2.220589965581893921e-01 1.670069992542266846e-01 4.325300082564353943e-02 1.188319995999336243e-01 -3.623700141906738281e-02 1.672299951314926147e-01 1.285000005736947060e-03 2.571200020611286163e-02 1.693789958953857422e-01 -2.265059947967529297e-01 1.582140028476715088e-01 1.402049958705902100e-01 -1.624760031700134277e-01 -1.713919937610626221e-01 -9.549500048160552979e-02 6.510200351476669312e-02 -8.551900088787078857e-02 -4.360299929976463318e-02 -3.559299930930137634e-02 -7.918799668550491333e-02 2.366900071501731873e-02 1.792919933795928955e-01 5.709299817681312561e-02 2.633699961006641388e-02 -2.709789872169494629e-01 -9.914600104093551636e-02 -1.390829980373382568e-01 1.391450017690658569e-01 1.817570030689239502e-01 1.402350068092346191e-01 -7.948599755764007568e-02 4.142700135707855225e-02 -4.319600015878677368e-02 -8.942899852991104126e-02 2.239000052213668823e-02 -1.985519975423812866e-01 4.439780116081237793e-01 7.910200208425521851e-02 -8.677799999713897705e-02 7.465100288391113281e-02 2.110000059474259615e-04 1.951950043439865112e-01 7.502000033855438232e-02 -7.107099890708923340e-02 -2.210500091314315796e-02 2.123280018568038940e-01 1.820340007543563843e-01 2.665379941463470459e-01 1.304209977388381958e-01 6.510899960994720459e-02 1.071510016918182373e-01 -6.106400117278099060e-02 -5.578500032424926758e-02 1.186679974198341370e-01 -1.369199994951486588e-02 -1.616220027208328247e-01 1.046179980039596558e-01 9.972999803721904755e-03 1.023079976439476013e-01 1.807290017604827881e-01 2.004099935293197632e-01 1.871179938316345215e-01 5.754800140857696533e-02 1.813939958810806274e-01 1.373299956321716309e-02 -8.665000088512897491e-03 1.688109934329986572e-01 -1.997150033712387085e-01 6.110100075602531433e-02 2.800709903240203857e-01 -5.088999867439270020e-03 1.435749977827072144e-01 -8.806200325489044189e-02 1.699600070714950562e-01 1.181209981441497803e-01 -1.307700015604496002e-02 -1.268399972468614578e-02 -8.390799909830093384e-02 -1.093410030007362366e-01 3.305900096893310547e-02 6.961700320243835449e-02 8.745899796485900879e-02 2.249290049076080322e-01 7.138299942016601562e-02 3.678499907255172729e-02 -1.734000071883201599e-02 1.997599937021732330e-02 -9.439600259065628052e-02 8.495900034904479980e-02 1.909170001745223999e-01 1.683890074491500854e-01 -6.606099754571914673e-02 7.674200087785720825e-02 7.266899943351745605e-02 -1.905799955129623413e-01 4.283300042152404785e-02 -9.350699931383132935e-02 -2.495370060205459595e-01 7.028999924659729004e-02 -4.612999968230724335e-03 -2.385479956865310669e-01 -1.236630007624626160e-01 1.807889938354492188e-01 2.393800020217895508e-02 -1.222500018775463104e-02 1.330270022153854370e-01 -2.248400077223777771e-02 3.306600078940391541e-02 -3.978000022470951080e-03 1.184870004653930664e-01 6.112400069832801819e-02 2.185630053281784058e-01 -4.134999960660934448e-02 -8.099199831485748291e-02 -4.866100102663040161e-02 2.109680026769638062e-01 2.201399952173233032e-02 1.398629993200302124e-01 1.766999950632452965e-03 -4.886899888515472412e-02 -1.479649990797042847e-01 1.386860013008117676e-01 -3.101699985563755035e-02 5.867699906229972839e-02 4.262400045990943909e-02 9.840399771928787231e-02 -7.180699706077575684e-02 -5.993999913334846497e-02 5.104700103402137756e-02 1.131519973278045654e-01 1.975339949131011963e-01 -3.561399877071380615e-02 -4.652800038456916809e-02 -2.171519994735717773e-01 7.769899815320968628e-02 1.078409999608993530e-01 
nove 2.449080049991607666e-01 1.620510071516036987e-01 1.361050009727478027e-01 -4.976600036025047302e-02 7.134400308132171631e-02 4.716499894857406616e-02 7.954499870538711548e-02 1.507609933614730835e-01 -4.455300047993659973e-02 -1.096099987626075745e-02 -5.745999887585639954e-02 7.864599674940109253e-02 -1.762440055608749390e-01 2.024099975824356079e-01 -2.828249931335449219e-01 -5.119000095874071121e-03 -9.035900235176086426e-02 -8.165299892425537109e-02 -2.272900007665157318e-02 -4.633799940347671509e-02 5.454700067639350891e-02 -1.679919958114624023e-01 1.605439931154251099e-01 2.012050002813339233e-01 -2.086829990148544312e-01 1.309600025415420532e-01 1.697999984025955200e-02 -2.112309932708740234e-01 -2.227340042591094971e-01 9.273199737071990967e-02 -7.732199877500534058e-02 2.023870050907135010e-01 -1.207400020211935043e-02 -1.111169978976249695e-01 1.324580013751983643e-01 -1.691289991140365601e-01 1.796330064535140991e-01 2.061340063810348511e-01 3.192009925842285156e-01 -8.569099754095077515e-02 2.392089962959289551e-01 5.258100107312202454e-02 1.460819989442825317e-01 2.033350020647048950e-01 5.455699935555458069e-02 1.282210052013397217e-01 -2.795499935746192932e-02 -3.052599914371967316e-02 -1.636620014905929565e-01 1.475819945335388184e-01 5.762099847197532654e-02 8.503299951553344727e-02 -3.395299986004829407e-02 -2.163179963827133179e-01 6.389100104570388794e-02 -1.801490038633346558e-01 3.587960004806518555e-01 -2.137670069932937622e-01 -1.476799976080656052e-02 9.508500248193740845e-02 2.253540009260177612e-01 -1.479219943284988403e-01 -1.084970012307167053e-01 4.114799946546554565e-02 -7.869499921798706055e-02 -2.877799980342388153e-02 9.517700225114822388e-02 1.259970068931579590e-01 4.377299919724464417e-02 1.348550021648406982e-01 1.384059935808181763e-01 -9.128700196743011475e-02 1.021580025553703308e-01 -2.495200000703334808e-02 -1.085269972681999207e-01 -1.113680005073547363e-01 3.838700056076049805e-02 1.370559930801391602e-01 -6.449799984693527222e-02 -1.612550020217895508e-01 -1.300889998674392700e-01 2.573299966752529144e-02 1.453000009059906006e-01 2.532199956476688385e-02 1.202120035886764526e-01 -3.528900071978569031e-02 -4.524800181388854980e-02 1.127749979496002197e-01 -3.135010004043579102e-01 9.677999652922153473e-03 -1.503939926624298096e-01 7.675100117921829224e-02 2.572799921035766602e-01 2.263469994068145752e-01 -1.670109927654266357e-01 4.999800026416778564e-02 -2.409199997782707214e-02 2.918109893798828125e-01 1.409150063991546631e-01 -6.843599677085876465e-02 3.913100063800811768e-02 -5.960699915885925293e-02 5.598400160670280457e-02 7.828500121831893921e-02 -8.038700371980667114e-02 -1.308609992265701294e-01 -1.553130000829696655e-01 -1.012399978935718536e-02 -1.067619994282722473e-01 -7.761999964714050293e-02 -1.345700025558471680e-02 -4.312799870967864990e-02 1.805170029401779175e-01 -9.841000288724899292e-02 4.282810091972351074e-01 6.684199720621109009e-02 3.629299998283386230e-02 -2.623900026082992554e-02 -1.878259927034378052e-01 -1.331090033054351807e-01 -1.576279997825622559e-01 2.020090073347091675e-01 -7.662799954414367676e-02 -2.186689972877502441e-01 -3.198700025677680969e-02 -3.104699961841106415e-02 -1.013420000672340393e-01 1.629730015993118286e-01 1.665740013122558594e-01 -1.690520048141479492e-01 8.300700038671493530e-02 -5.926999822258949280e-02 -1.899019926786422729e-01 -2.178760021924972534e-01 -1.426799967885017395e-02 1.471180021762847900e-01 -6.145099923014640808e-02 -3.310000058263540268e-03 9.533099830150604248e-02 -1.062529981136322021e-01 8.457600325345993042e-02 3.605999983847141266e-03 2.227990031242370605e-01 5.740699917078018188e-02 -3.709189891815185547e-01 -5.188500136137008667e-02 -5.834599956870079041e-02 1.510960012674331665e-01 -1.673000049777328968e-03 4.290400072932243347e-02 6.187200173735618591e-02 -8.547099679708480835e-02 9.604999795556068420e-03 -9.156399965286254883e-02 -4.304900020360946655e-02 8.351000025868415833e-03 -7.654599845409393311e-02 2.196500077843666077e-02 2.251799963414669037e-02 2.405900061130523682e-01 2.440699934959411621e-02 1.364669948816299438e-01 5.155900120735168457e-02 -6.982299685478210449e-02 -2.230390012264251709e-01 2.092619985342025757e-01 1.763579994440078735e-01 -2.526099979877471924e-02 -6.801699846982955933e-02 1.173259988427162170e-01 -6.213299930095672607e-02 -2.238820046186447144e-01 1.484169960021972656e-01 -1.656360030174255371e-01 1.610700041055679321e-02 5.574800074100494385e-02 -1.509159952402114868e-01 -1.956779956817626953e-01 -6.788399815559387207e-02 1.308159977197647095e-01 1.808100007474422455e-02 5.821299925446510315e-02 -1.894939988851547241e-01 2.785000018775463104e-03 -7.532600313425064087e-02 1.811700016260147095e-01 -1.171159967780113220e-01 -5.940000060945749283e-03 -1.727360039949417114e-01 -9.495200216770172119e-02 -1.415269970893859863e-01 2.524769902229309082e-01 4.492300003767013550e-02 7.451699674129486084e-02 -5.143399909138679504e-02 8.222799748182296753e-02 -8.903799951076507568e-02 -5.580800026655197144e-02 1.216809973120689392e-01 1.623470038175582886e-01 3.249990046024322510e-01 9.980999678373336792e-02 -2.443069964647293091e-01 8.786199986934661865e-02 1.037029996514320374e-01 7.435999810695648193e-02 1.640550047159194946e-01 -2.273949980735778809e-01 -2.618860006332397461e-01 1.305959969758987427e-01 -7.605499774217605591e-02 2.432080060243606567e-01 2.631030082702636719e-01 7.955999672412872314e-02 9.391500055789947510e-02 -1.830469965934753418e-01 -2.116500027477741241e-02 2.557739913463592529e-01 -1.127220019698143005e-01 -7.999300211668014526e-02 -9.336499869823455811e-02 -1.657200045883655548e-02 6.585899740457534790e-02 1.826290041208267212e-01 2.257609963417053223e-01 1.133920028805732727e-01 5.132599920034408569e-02 1.631940007209777832e-01 1.909100078046321869e-02 4.781400039792060852e-02 2.929239869117736816e-01 -1.859540045261383057e-01 3.427499905228614807e-02 1.071190014481544495e-01 -1.082660034298896790e-01 1.358509957790374756e-01 7.502800226211547852e-02 1.735289990901947021e-01 -5.938100069761276245e-02 3.281100094318389893e-02 1.363369971513748169e-01 -1.474300026893615723e-02 1.879899948835372925e-02 -2.471699938178062439e-02 -1.935300044715404510e-02 2.947599999606609344e-02 2.139820009469985962e-01 1.271799951791763306e-01 -7.238700240850448608e-02 2.331699989736080170e-02 2.066999906674027443e-03 2.935199998319149017e-02 4.234699904918670654e-02 1.111190021038055420e-01 2.080820053815841675e-01 1.234299968928098679e-02 -9.011399745941162109e-02 2.455590069293975830e-01 -1.611199975013732910e-01 -1.175229996442794800e-01 -1.315300017595291138e-01 -2.580890059471130371e-01 1.887020021677017212e-01 4.077500104904174805e-02 -1.542010009288787842e-01 -2.000209987163543701e-01 1.084410026669502258e-01 4.524299874901771545e-02 7.195500284433364868e-02 4.718799889087677002e-02 -7.164000067859888077e-03 1.043599992990493774e-01 6.721999961882829666e-03 8.221600204706192017e-02 7.253800332546234131e-02 1.994549930095672607e-01 -5.939200147986412048e-02 -7.181899994611740112e-02 1.027679964900016785e-01 1.885869950056076050e-01 1.861199922859668732e-02 1.423889994621276855e-01 8.728300034999847412e-02 6.890299916267395020e-02 -1.195880025625228882e-01 7.625500112771987915e-02 8.749900013208389282e-02 1.164159998297691345e-01 1.853399910032749176e-02 1.401560008525848389e-01 -1.157910004258155823e-01 -8.970099687576293945e-02 1.215929985046386719e-01 1.002010032534599304e-01 2.439759969711303711e-01 -1.387770026922225952e-01 -4.896400123834609985e-02 -1.601539999246597290e-01 -3.164999932050704956e-02 2.050130069255828857e-01 
dieci 9.988400340080261230e-02 2.124339938163757324e-01 -1.951700076460838318e-02 -7.538100332021713257e-02 7.276199758052825928e-02 4.682099819183349609e-02 5.015600100159645081e-02 3.456699848175048828e-02 2.432700060307979584e-02 8.391999639570713043e-03 -1.664800010621547699e-02 6.816300004720687866e-02 -1.184040009975433350e-01 1.121269986033439636e-01 -1.136149987578392029e-01 8.978699892759323120e-02 -2.279389947652816772e-01 -1.091480031609535217e-01 -1.988600045442581177e-01 -1.171100046485662460e-02 -1.063660010695457458e-01 -1.547069996595382690e-01 1.930949985980987549e-01 1.241089999675750732e-01 -2.555719912052154541e-01 2.646300010383129120e-02 -3.334000008180737495e-03 -7.039500027894973755e-02 -6.941399723291397095e-02 1.586499996483325958e-02 -2.050299942493438721e-02 2.967900037765502930e-02 -1.012200023978948593e-02 -1.200660020112991333e-01 1.298950016498565674e-01 6.095900014042854309e-02 2.069080024957656860e-01 1.114519983530044556e-01 2.534509897232055664e-01 -6.266000121831893921e-02 2.225909978151321411e-01 1.940499991178512573e-02 3.320699930191040039e-02 1.617880016565322876e-01 1.044140011072158813e-01 1.562069952487945557e-01 2.840100042521953583e-02 1.225880011916160583e-01 1.039580032229423523e-01 1.612610071897506714e-01 8.005899935960769653e-02 -1.366810053586959839e-01 -1.157170012593269348e-01 -1.076280027627944946e-01 -1.063390001654624939e-01 -9.361200034618377686e-02 3.361940085887908936e-01 -3.279649913311004639e-01 -5.534899979829788208e-02 1.195899955928325653e-02 1.741880029439926147e-01 -1.550039947032928467e-01 2.746200002729892731e-02 -1.209750026464462280e-01 -2.329590022563934326e-01 -1.428859978914260864e-01 1.523160040378570557e-01 7.657500356435775757e-02 6.842199712991714478e-02 1.237210035324096680e-01 2.542940080165863037e-01 -1.456210017204284668e-01 2.150620073080062866e-01 8.241499960422515869e-02 -9.816700220108032227e-02 -1.149910017848014832e-01 1.076579988002777100e-01 -2.007099986076354980e-02 -1.594920009374618530e-01 -1.006949990987777710e-01 -5.835599824786186218e-02 7.819999754428863525e-02 7.704699784517288208e-02 -5.522599816322326660e-02 4.223499819636344910e-02 1.149709969758987427e-01 -7.110000005923211575e-04 2.145709991455078125e-01 -3.042339980602264404e-01 -1.189640015363693237e-01 -4.219999909400939941e-02 2.767840027809143066e-01 7.621999830007553101e-02 -4.635800048708915710e-02 -1.393810063600540161e-01 7.762599736452102661e-02 -1.298770010471343994e-01 1.402049958705902100e-01 1.340849995613098145e-01 -6.643400341272354126e-02 7.650399953126907349e-02 -7.822100073099136353e-02 1.554269939661026001e-01 -1.508599985390901566e-02 -5.064899846911430359e-02 6.433399766683578491e-02 -1.176310032606124878e-01 -2.741499990224838257e-02 5.493099987506866455e-02 -1.461029946804046631e-01 -1.525329947471618652e-01 -1.762290000915527344e-01 2.790539860725402832e-01 6.645599752664566040e-02 1.678690016269683838e-01 -1.043220013380050659e-01 1.432999968528747559e-02 -3.319999959785491228e-04 -1.173610016703605652e-01 -1.111619994044303894e-01 -9.734100103378295898e-02 1.675069928169250488e-01 -3.167200088500976562e-02 -1.936780065298080444e-01 1.009870022535324097e-01 1.139449998736381531e-01 -2.304310053586959839e-01 1.786800026893615723e-01 1.177340000867843628e-01 -1.470720022916793823e-01 2.198089957237243652e-01 1.203399989753961563e-02 -5.077299848198890686e-02 3.332699835300445557e-02 1.576700061559677124e-02 1.001119986176490784e-01 -7.963400334119796753e-02 -7.707300037145614624e-02 1.086250022053718567e-01 -7.847099751234054565e-02 6.167700141668319702e-02 -6.204099953174591064e-02 1.906200051307678223e-01 9.262199699878692627e-02 -3.962599858641624451e-02 -1.115899998694658279e-02 -8.013000339269638062e-02 5.861499905586242676e-02 1.800299994647502899e-02 3.007699921727180481e-02 1.184500008821487427e-01 -4.688800126314163208e-02 -1.608629971742630005e-01 -2.063670009374618530e-01 -8.676899969577789307e-02 -1.659500040113925934e-02 -2.094780057668685913e-01 5.441600084304809570e-02 4.549299925565719604e-02 -4.267900064587593079e-02 -1.011179983615875244e-01 2.841930091381072998e-01 -1.696089953184127808e-01 -9.957999736070632935e-02 -1.134580001235008240e-01 1.148609966039657593e-01 2.298060059547424316e-01 3.287899866700172424e-02 -3.359900042414665222e-02 4.921000078320503235e-02 -9.803800284862518311e-02 -1.814379990100860596e-01 1.354700028896331787e-01 -3.084799945354461670e-01 6.685700267553329468e-02 1.447889953851699829e-01 -1.717009991407394409e-01 -1.965100020170211792e-01 1.102870032191276550e-01 -8.255999535322189331e-03 -1.860999967902898788e-03 3.700000047683715820e-02 -9.558799862861633301e-02 -1.359180063009262085e-01 -1.314700022339820862e-02 2.281589955091476440e-01 -9.601200371980667114e-02 1.666920036077499390e-01 -2.356040030717849731e-01 -1.298460066318511963e-01 8.078999817371368408e-03 2.255910038948059082e-01 2.904720008373260498e-01 1.919720023870468140e-01 -4.310400038957595825e-02 -6.706699728965759277e-02 -1.308110058307647705e-01 4.581000190228223801e-03 2.095769941806793213e-01 -8.662199974060058594e-02 3.759700059890747070e-01 1.353999972343444824e-01 -1.228500008583068848e-01 1.250050067901611328e-01 -5.183300003409385681e-02 3.901800140738487244e-02 9.394499659538269043e-02 -1.230600029230117798e-01 -6.363800168037414551e-02 2.674379944801330566e-01 7.370200008153915405e-02 2.214449942111968994e-01 -1.565999910235404968e-02 1.123140007257461548e-01 3.993399813771247864e-02 -1.044389978051185608e-01 -1.061910018324851990e-01 2.075150012969970703e-01 -1.080560013651847839e-01 -2.202440053224563599e-01 -4.606000147759914398e-03 -2.749699912965297699e-02 9.699200093746185303e-02 2.031739950180053711e-01 1.192810013890266418e-01 2.140190005302429199e-01 -8.323899656534194946e-02 3.175200149416923523e-02 3.463400155305862427e-02 1.701679974794387817e-01 -3.171699866652488708e-02 -1.986249983310699463e-01 1.481799967586994171e-02 2.752789855003356934e-01 5.839100107550621033e-02 9.486600011587142944e-02 -8.178999647498130798e-03 1.655849963426589966e-01 -4.300199821591377258e-02 -5.155000090599060059e-02 -4.896999802440404892e-03 3.531799837946891785e-02 -7.379200309514999390e-02 -1.065200008451938629e-02 -1.906500011682510376e-02 2.002000063657760620e-02 2.428880035877227783e-01 1.419609934091567993e-01 -2.705400064587593079e-02 -5.088600143790245056e-02 -1.125200018286705017e-01 1.350499968975782394e-02 1.407130062580108643e-01 2.375440001487731934e-01 7.202800363302230835e-02 5.176899954676628113e-02 5.969199910759925842e-02 8.756999857723712921e-03 -1.390540003776550293e-01 -9.170199930667877197e-02 -8.322700113058090210e-02 -2.911919951438903809e-01 -4.769200086593627930e-02 5.845300108194351196e-02 -2.231110036373138428e-01 -9.280300140380859375e-02 1.508499979972839355e-01 1.037399992346763611e-01 -7.506299763917922974e-02 2.279499918222427368e-02 -7.581300288438796997e-02 -4.360000044107437134e-02 -3.550599887967109680e-02 1.743309944868087769e-01 1.660400070250034332e-02 1.417720019817352295e-01 9.698799997568130493e-02 -1.305039972066879272e-01 1.121500041335821152e-02 2.236129939556121826e-01 1.250080019235610962e-01 1.450629979372024536e-01 1.612910032272338867e-01 -1.398050040006637573e-01 -3.826300054788589478e-02 1.591619998216629028e-01 -1.085700001567602158e-02 6.558699905872344971e-02 -3.296000137925148010e-02 1.008159965276718140e-01 -8.383599668741226196e-02 -6.822700053453445435e-02 2.332800067961215973e-02 9.325899928808212280e-02 7.163699716329574585e-02 -7.468800246715545654e-02 1.238000020384788513e-01 -2.326930016279220581e-01 1.144199967384338379e-01 2.871069908142089844e-01 
cane -9.584199637174606323e-02 3.684430122375488281e-01 1.073990017175674438e-01 -4.641990065574645996e-01 3.561689853668212891e-01 -3.067879974842071533e-01 -5.447300150990486145e-02 4.398899897933006287e-02 1.051689982414245605e-01 3.137289881706237793e-01 -9.935300052165985107e-02 2.755099907517433167e-02 2.827500104904174805e-01 -1.429640054702758789e-01 1.107199955731630325e-02 1.490619927644729614e-01 3.655340075492858887e-01 -1.731220036745071411e-01 -1.987369954586029053e-01 -3.359960019588470459e-01 6.794000044465065002e-03 -1.012099999934434891e-02 -1.442200038582086563e-02 9.850899875164031982e-02 -1.190489977598190308e-01 -3.490110039710998535e-01 -2.346220016479492188e-01 8.984999731183052063e-03 2.408459931612014771e-01 -7.467299699783325195e-02 -5.531900003552436829e-02 -1.112409979104995728e-01 -2.302299998700618744e-02 1.008879989385604858e-01 1.778469979763031006e-01 -1.563690006732940674e-01 -7.829000055789947510e-02 -1.092429980635643005e-01 1.714989989995956421e-01 -1.127339974045753479e-01 1.550070047378540039e-01 7.345099747180938721e-02 -1.541659981012344360e-01 2.634750008583068848e-01 -2.141959965229034424e-01 -1.564999967813491821e-01 -6.144999992102384567e-03 1.586199924349784851e-02 -2.832849919795989990e-01 -5.541799962520599365e-02 7.039300352334976196e-02 4.355950057506561279e-01 -2.137539982795715332e-01 3.706600144505500793e-02 3.792909979820251465e-01 -2.831000089645385742e-01 1.230020001530647278e-01 -2.430620044469833374e-01 -1.101009994745254517e-01 -1.941799931228160858e-02 5.955500155687332153e-02 -2.681269943714141846e-01 -4.898799955844879150e-02 -3.147999942302703857e-02 -3.033600002527236938e-02 -4.195719957351684570e-01 -1.412799954414367676e-01 -6.868000142276287079e-03 1.389710009098052979e-01 1.138079985976219177e-01 -1.737129986286163330e-01 -1.932169944047927856e-01 -3.904999932274222374e-03 -1.907150000333786011e-01 1.376039981842041016e-01 -1.203309968113899231e-01 -1.983910053968429565e-01 1.572909951210021973e-01 -3.503499925136566162e-02 3.431470096111297607e-01 -1.514479964971542358e-01 -1.694699935615062714e-02 1.312890052795410156e-01 -1.515560001134872437e-01 -5.396800115704536438e-02 6.140200048685073853e-02 -7.207699865102767944e-02 2.803069949150085449e-01 3.324100002646446228e-02 1.543360054492950439e-01 -1.593330055475234985e-01 1.889780014753341675e-01 2.288610041141510010e-01 -2.665669918060302734e-01 -2.072339951992034912e-01 -3.560699895024299622e-02 -2.600359916687011719e-01 5.541999824345111847e-03 -7.783800363540649414e-02 -1.656300015747547150e-02 6.977800279855728149e-02 -3.859550058841705322e-01 -3.436000086367130280e-03 -2.221900038421154022e-02 -1.023039966821670532e-01 -1.829000003635883331e-02 -3.011209964752197266e-01 -2.650859951972961426e-01 -1.023000013083219528e-02 2.809990048408508301e-01 -3.938960134983062744e-01 -4.411900043487548828e-02 -2.257679998874664307e-01 1.152829974889755249e-01 -1.229989975690841675e-01 -3.744199872016906738e-02 2.281280010938644409e-01 6.757599860429763794e-02 -3.376000095158815384e-03 3.742200136184692383e-02 -1.350540071725845337e-01 1.075420007109642029e-01 -2.076330035924911499e-01 -1.526219993829727173e-01 -4.965599998831748962e-02 -3.002919852733612061e-01 3.397069871425628662e-01 9.593699872493743896e-02 -2.017620056867599487e-01 6.466999650001525879e-02 -3.416689932346343994e-01 1.385210007429122925e-01 1.492299977689981461e-02 -1.631029993295669556e-01 2.737000025808811188e-02 2.051090002059936523e-01 -3.590419888496398926e-01 -6.355699896812438965e-02 -1.111840009689331055e-01 -1.151299998164176941e-01 -2.699300087988376617e-02 7.611700147390365601e-02 1.444699987769126892e-02 1.571960002183914185e-01 1.337999943643808365e-03 4.559060037136077881e-01 -2.631349861621856689e-01 -6.835999898612499237e-03 -2.408239990472793579e-01 1.409579962491989136e-01 1.676100045442581177e-01 8.260200172662734985e-02 -5.929299816489219666e-02 -1.349859982728958130e-01 3.379699960350990295e-02 7.387000136077404022e-03 -2.456099987030029297e-01 4.928699880838394165e-02 4.847399890422821045e-02 3.400849997997283936e-01 -1.920710057020187378e-01 2.226970046758651733e-01 1.717730015516281128e-01 -2.180800028145313263e-02 1.318459957838058472e-01 1.443890035152435303e-01 -1.163119971752166748e-01 1.660639941692352295e-01 9.505300223827362061e-02 5.784000083804130554e-02 7.254800200462341309e-02 9.754800051450729370e-02 -1.985049992799758911e-01 1.963880062103271484e-01 -1.945780068635940552e-01 9.426700323820114136e-02 1.347270011901855469e-01 1.671549975872039795e-01 1.197429969906806946e-01 -2.806299924850463867e-02 -1.493709981441497803e-01 -1.737930029630661011e-01 6.180600076913833618e-02 6.661300361156463623e-02 5.998599901795387268e-02 -6.538300216197967529e-02 2.207770049571990967e-01 1.441379934549331665e-01 -1.866919994354248047e-01 -1.504289954900741577e-01 -3.330810070037841797e-01 3.438889980316162109e-01 -4.134200140833854675e-02 1.707870066165924072e-01 3.815180063247680664e-01 1.631239950656890869e-01 4.292359948158264160e-01 -1.893430054187774658e-01 3.297590017318725586e-01 2.382739931344985962e-01 -9.226199984550476074e-02 -6.184599921107292175e-02 -1.017450019717216492e-01 3.539200127124786377e-02 -1.125650033354759216e-01 3.807719945907592773e-01 2.827499993145465851e-02 7.258500158786773682e-02 1.805530041456222534e-01 3.912099823355674744e-02 -2.758539915084838867e-01 -2.896399982273578644e-02 -1.141379997134208679e-01 -9.418900310993194580e-02 -3.944169878959655762e-01 6.855600327253341675e-02 1.604599952697753906e-01 1.958500035107135773e-02 4.931000061333179474e-03 1.887599937617778778e-02 -2.038599923253059387e-02 4.554319977760314941e-01 -1.673080027103424072e-01 1.239020004868507385e-01 2.110649943351745605e-01 4.766499996185302734e-02 3.164600133895874023e-01 1.704199984669685364e-02 -1.187649965286254883e-01 4.480000119656324387e-03 -1.184739992022514343e-01 -2.061460018157958984e-01 -4.201000183820724487e-02 -3.749499842524528503e-02 1.389539986848831177e-01 1.429339945316314697e-01 -2.688699960708618164e-01 -2.563180029392242432e-01 1.957979947328567505e-01 -1.873400062322616577e-02 -5.626399815082550049e-02 2.430039942264556885e-01 9.251000359654426575e-03 1.231560036540031433e-01 2.339050024747848511e-01 9.805999696254730225e-03 -7.001200318336486816e-02 4.246300086379051208e-02 -3.572649955749511719e-01 7.016299664974212646e-02 1.456239968538284302e-01 -6.145750284194946289e-01 2.122820019721984863e-01 -2.273299917578697205e-02 1.120750010013580322e-01 1.833830028772354126e-01 -3.136549890041351318e-01 7.303799688816070557e-02 -2.546999976038932800e-02 -1.975339949131011963e-01 -1.042789965867996216e-01 -2.438000030815601349e-02 -2.247119992971420288e-01 -3.412680029869079590e-01 8.786299824714660645e-02 -6.043300032615661621e-02 -2.993400022387504578e-02 3.802349865436553955e-01 -8.728999644517898560e-03 -1.246230006217956543e-01 2.343759983777999878e-01 1.154960021376609802e-01 -3.071100078523159027e-02 8.395300060510635376e-02 1.977750062942504883e-01 2.135940045118331909e-01 2.166319936513900757e-01 5.604999884963035583e-02 8.934699743986129761e-02 8.498600125312805176e-02 -3.304780125617980957e-01 1.530790030956268311e-01 -2.517499960958957672e-02 -1.562359929084777832e-01 -1.696099936962127686e-01 -7.367199659347534180e-02 -2.563600055873394012e-02 2.444999990984797478e-03 -9.576500207185745239e-02 6.402300298213958740e-02 5.217700079083442688e-02 -8.487399667501449585e-02 -1.418479979038238525e-01 -2.984599955379962921e-02 -2.906360030174255371e-01 -5.188879966735839844e-01 -2.995100021362304688e-01 -1.272660046815872192e-01 1.815400086343288422e-02 2.053530067205429077e-01 
maiale -2.038999944925308228e-01 6.999440193176269531e-01 3.538599982857704163e-02 -2.776629924774169922e-01 -1.358020007610321045e-01 3.924520015716552734e-01 3.910300135612487793e-02 5.431099981069564819e-02 4.016540050506591797e-01 4.853770136833190918e-01 -1.088529974222183228e-01 2.471670061349868774e-01 1.150719970464706421e-01 2.874720096588134766e-01 -1.776620000600814819e-01 1.833260059356689453e-01 -3.428199887275695801e-02 4.854900017380714417e-02 -5.503800138831138611e-02 -3.164330124855041504e-01 -9.327100217342376709e-02 3.122439980506896973e-01 7.995799928903579712e-02 1.483900006860494614e-02 -1.013590022921562195e-01 1.054999977350234985e-02 -1.158810034394264221e-01 2.606100030243396759e-02 4.021599888801574707e-02 1.714089959859848022e-01 6.563399732112884521e-02 1.588999992236495018e-03 -2.408259958028793335e-01 -8.076000027358531952e-03 2.550759911537170410e-01 -2.211340069770812988e-01 -1.258440017700195312e-01 -2.109909951686859131e-01 -1.092599984258413315e-02 -2.058569937944412231e-01 -3.970099985599517822e-02 2.055799961090087891e-02 -4.452000185847282410e-02 3.564000129699707031e-01 -5.133299902081489563e-02 -1.141889989376068115e-01 -5.161499977111816406e-02 -2.313060015439987183e-01 -4.635779857635498047e-01 1.356720030307769775e-01 3.397560119628906250e-01 -1.019920036196708679e-01 -2.466749995946884155e-01 -2.130140066146850586e-01 1.544910073280334473e-01 1.423799991607666016e-01 2.928199991583824158e-02 -3.402209877967834473e-01 -4.495449960231781006e-01 2.163299918174743652e-02 -3.700619935989379883e-01 -2.081249952316284180e-01 -1.033900007605552673e-01 -1.250530034303665161e-01 -5.247610211372375488e-01 -5.337479710578918457e-01 -2.329480051994323730e-01 -1.990990042686462402e-01 -1.044799983501434326e-01 1.964749991893768311e-01 -1.316339969635009766e-01 -8.700899779796600342e-02 -2.931270003318786621e-01 -1.508339941501617432e-01 -2.336570024490356445e-01 8.966799825429916382e-02 -3.162429928779602051e-01 4.435789883136749268e-01 -9.069999796338379383e-04 6.676600128412246704e-02 -3.773750066757202148e-01 -1.862500011920928955e-01 -2.736259996891021729e-01 -9.185499697923660278e-02 -1.815080046653747559e-01 2.863549888134002686e-01 -1.492429971694946289e-01 3.888599947094917297e-02 -3.979040086269378662e-01 -1.321489959955215454e-01 1.852570027112960815e-01 2.627460062503814697e-01 -2.389390021562576294e-01 -3.867479860782623291e-01 -2.699800021946430206e-02 -5.352799966931343079e-02 -4.741000011563301086e-03 -4.151299968361854553e-02 3.353219926357269287e-01 2.246540039777755737e-01 -2.308820039033889771e-01 -3.128170073032379150e-01 -1.248259991407394409e-01 -1.336000044830143452e-03 -1.320430040359497070e-01 -9.882400184869766235e-02 -6.990000139921903610e-03 -6.291399896144866943e-02 5.609900131821632385e-02 -5.318000167608261108e-02 8.408799767494201660e-02 -3.491500020027160645e-02 -6.359499692916870117e-02 4.610599949955940247e-02 2.759949862957000732e-01 -1.424729973077774048e-01 8.860199898481369019e-02 -1.704999990761280060e-02 4.800400137901306152e-02 -1.346099972724914551e-01 2.037229984998703003e-01 2.530750036239624023e-01 -1.129850000143051147e-01 3.155599907040596008e-02 -1.623679995536804199e-01 4.610799998044967651e-02 1.931599974632263184e-01 2.034070044755935669e-01 -3.403799980878829956e-02 1.323570013046264648e-01 -4.218330085277557373e-01 -1.123499963432550430e-02 1.745679974555969238e-01 -2.775959968566894531e-01 1.317899953573942184e-02 3.934200108051300049e-02 -4.821369946002960205e-01 -2.807860076427459717e-01 7.219000160694122314e-02 -1.938599944114685059e-01 1.436370015144348145e-01 6.022289991378784180e-01 -2.639929950237274170e-01 -8.430399745702743530e-02 -1.749069988727569580e-01 2.114890068769454956e-01 -8.969800174236297607e-02 -4.818980097770690918e-01 3.308039903640747070e-01 2.031729966402053833e-01 -2.224349975585937500e-01 -1.828909963369369507e-01 -3.086070120334625244e-01 -3.061929941177368164e-01 -4.545399919152259827e-02 1.301700025796890259e-01 1.475149989128112793e-01 1.132979989051818848e-01 1.564449965953826904e-01 -1.230980008840560913e-01 -5.169000029563903809e-01 -4.015899896621704102e-01 2.797389924526214600e-01 9.488800168037414551e-02 5.556000024080276489e-02 -4.376000165939331055e-02 -7.603599876165390015e-02 2.458810061216354370e-01 2.204580008983612061e-01 1.526349931955337524e-01 2.495680004358291626e-01 1.656509935855865479e-01 -2.742640078067779541e-01 2.459820061922073364e-01 1.694099977612495422e-02 9.936100244522094727e-02 -1.003350019454956055e-01 3.700299933552742004e-02 2.273939996957778931e-01 -8.543999865651130676e-03 -1.594469994306564331e-01 2.401890009641647339e-01 7.866299897432327271e-02 1.113070026040077209e-01 -7.672899961471557617e-02 1.635259985923767090e-01 1.059219986200332642e-01 -1.113360002636909485e-01 -2.307769954204559326e-01 2.079400047659873962e-02 -3.818900138139724731e-02 -1.839599944651126862e-02 -3.255470097064971924e-01 8.136299997568130493e-02 6.309500336647033691e-02 -9.952899813652038574e-02 3.683649897575378418e-01 -1.063409969210624695e-01 -4.780200123786926270e-02 -5.507199838757514954e-02 -6.805600225925445557e-02 1.008279994130134583e-01 2.007779926061630249e-01 -5.741700157523155212e-02 -7.761999964714050293e-03 -7.224400341510772705e-02 -8.695899695158004761e-02 1.492539942264556885e-01 1.392699927091598511e-01 -1.397739946842193604e-01 -4.211200028657913208e-02 1.140580028295516968e-01 -5.104099959135055542e-02 -5.087900161743164062e-02 4.727200046181678772e-02 -1.938550025224685669e-01 -7.426799833774566650e-02 7.753299921751022339e-02 -8.449900150299072266e-02 -1.105519980192184448e-01 -1.619260013103485107e-01 5.263010263442993164e-01 -2.988030016422271729e-01 5.391300097107887268e-02 1.041560024023056030e-01 -2.966560125350952148e-01 -6.467899680137634277e-02 -2.714610099792480469e-01 5.464899912476539612e-02 9.129700064659118652e-02 -4.117009937763214111e-01 6.365200132131576538e-02 -2.368450015783309937e-01 2.797969877719879150e-01 4.603709876537322998e-01 -2.452030032873153687e-01 -2.490620017051696777e-01 1.114739999175071716e-01 -8.159999852068722248e-04 1.130850017070770264e-01 -2.452169954776763916e-01 8.782699704170227051e-02 -1.228530034422874451e-01 -1.320309937000274658e-01 2.327300012111663818e-01 4.537700116634368896e-02 1.693859994411468506e-01 3.982670009136199951e-01 -1.393979936838150024e-01 -9.305600076913833618e-02 1.301590055227279663e-01 -1.699200086295604706e-02 1.417630016803741455e-01 2.525480091571807861e-01 -2.542490065097808838e-01 1.102830022573471069e-01 1.898130029439926147e-01 6.826899945735931396e-02 -1.000199988484382629e-01 -1.338779926300048828e-01 -3.887099921703338623e-01 -2.893970012664794922e-01 -2.989749908447265625e-01 -6.812299787998199463e-02 7.099600136280059814e-02 -4.553100094199180603e-02 1.044410020112991333e-01 4.791099950671195984e-02 -8.586599677801132202e-02 -1.121639981865882874e-01 1.878959983587265015e-01 -2.701529860496520996e-01 -7.918900251388549805e-02 -2.016890048980712891e-01 3.247590065002441406e-01 -1.606689989566802979e-01 1.887769997119903564e-01 1.460109949111938477e-01 -2.132499963045120239e-02 -1.435869932174682617e-01 -2.426899969577789307e-01 5.563399940729141235e-02 1.084150001406669617e-01 -3.897219896316528320e-01 -1.093180030584335327e-01 -4.296750128269195557e-01 1.499239951372146606e-01 2.614920139312744141e-01 3.611000021919608116e-03 -4.005900025367736816e-02 -6.597100198268890381e-02 -4.926000162959098816e-02 2.650580108165740967e-01 1.881639957427978516e-01 2.180750072002410889e-01 -2.529709935188293457e-01 -2.284760028123855591e-01 3.233309984207153320e-01 -7.187300175428390503e-02 -1.101889982819557190e-01 
gatto -6.385300308465957642e-02 3.576999902725219727e-01 1.793400011956691742e-02 -7.251100242137908936e-02 5.944349765777587891e-01 1.438099984079599380e-02 -8.167999796569347382e-03 -1.336279958486557007e-01 6.965000182390213013e-02 3.317329883575439453e-01 -5.137100070714950562e-02 3.006669878959655762e-01 3.514220118522644043e-01 3.108200058341026306e-02 -4.011299833655357361e-02 2.131620049476623535e-01 2.136919945478439331e-01 -8.712299913167953491e-02 -2.524200081825256348e-01 -5.555019974708557129e-01 -5.548999831080436707e-02 1.342809945344924927e-01 -5.798099935054779053e-02 2.325830012559890747e-01 -4.704400151968002319e-02 -2.081480026245117188e-01 1.528900023549795151e-02 -1.131879985332489014e-01 5.502700060606002808e-02 -1.699000038206577301e-02 8.113399893045425415e-02 -2.037550061941146851e-01 9.871999733150005341e-03 1.606449931859970093e-01 1.481589972972869873e-01 -5.765600129961967468e-02 -2.566210031509399414e-01 2.720000036060810089e-02 6.196200102567672729e-02 -2.929200045764446259e-02 1.554239988327026367e-01 1.009029969573020935e-01 4.146999865770339966e-02 2.042589932680130005e-01 -3.116700053215026855e-02 -6.779199838638305664e-02 -2.216500043869018555e-01 7.393100112676620483e-02 -3.590610027313232422e-01 5.807000212371349335e-03 1.036129966378211975e-01 4.307450056076049805e-01 -3.177390098571777344e-01 -2.597320079803466797e-01 2.714219987392425537e-01 -1.966730058193206787e-01 7.765500247478485107e-02 -2.287369966506958008e-01 -5.119699984788894653e-02 3.133339881896972656e-01 -2.705099880695343018e-01 -4.984979927539825439e-01 2.626680135726928711e-01 -1.374849975109100342e-01 -1.438820064067840576e-01 -3.119800090789794922e-01 -1.197000034153461456e-03 -2.807120084762573242e-01 8.792500197887420654e-02 8.856400102376937866e-02 1.727070063352584839e-01 -1.487800031900405884e-01 -4.472099989652633667e-02 -1.739290058612823486e-01 2.348839938640594482e-01 1.120529994368553162e-01 -4.205600172281265259e-02 -9.107000194489955902e-03 -1.590269953012466431e-01 4.074319899082183838e-01 -9.381800144910812378e-02 1.374180018901824951e-01 2.389429956674575806e-01 -1.605730056762695312e-01 -1.035720035433769226e-01 2.993999980390071869e-03 3.529800102114677429e-02 5.329899862408638000e-02 -1.225050017237663269e-01 6.967200338840484619e-02 -1.352349966764450073e-01 2.097810059785842896e-01 3.484179973602294922e-01 1.782600022852420807e-02 -8.185400068759918213e-02 -9.081000462174415588e-03 -2.949729859828948975e-01 8.806400001049041748e-02 -2.162590026855468750e-01 1.930759996175765991e-01 3.912900015711784363e-02 -9.315399825572967529e-02 -1.040579974651336670e-01 -8.354400098323822021e-02 -1.105310022830963135e-01 9.797699749469757080e-02 -2.096730023622512817e-01 -1.075809970498085022e-01 -8.725900202989578247e-02 3.506459891796112061e-01 -1.496440023183822632e-01 7.671699672937393188e-02 -1.700180023908615112e-01 -1.359039992094039917e-01 -7.785800099372863770e-02 -8.960399776697158813e-02 2.279499918222427368e-02 -9.182900190353393555e-02 9.166300296783447266e-02 -9.578199684619903564e-02 -7.747700065374374390e-02 -1.019799988716840744e-02 -2.448749989271163940e-01 9.874399751424789429e-02 -2.867879867553710938e-01 -3.427450060844421387e-01 2.322340011596679688e-01 1.732400059700012207e-01 -3.557769954204559326e-01 7.767900079488754272e-02 -2.085810005664825439e-01 2.122060060501098633e-01 -2.874900028109550476e-02 6.423600018024444580e-02 5.761399865150451660e-02 5.530299991369247437e-02 -8.690399676561355591e-02 -1.730699986219406128e-01 -2.890309989452362061e-01 -2.179599925875663757e-02 6.628199666738510132e-02 1.888529956340789795e-01 -1.339869946241378784e-01 2.842999994754791260e-03 4.359199851751327515e-02 2.352360039949417114e-01 -1.086430028080940247e-01 -1.400119960308074951e-01 -8.436200022697448730e-02 2.354020029306411743e-01 -4.736499860882759094e-02 -1.914599910378456116e-02 -2.337280064821243286e-01 -1.261139959096908569e-01 -8.389499783515930176e-02 1.855179965496063232e-01 -4.120900109410285950e-02 3.507199883460998535e-02 -2.721529901027679443e-01 2.636339962482452393e-01 -1.118459999561309814e-01 -1.979199983179569244e-02 1.405590027570724487e-01 -1.244719997048377991e-01 -7.716999854892492294e-03 5.384400114417076111e-02 -8.340000361204147339e-02 5.729699879884719849e-02 4.381600022315979004e-02 3.208039999008178711e-01 1.156599968671798706e-01 9.077399969100952148e-02 -2.297599986195564270e-02 2.499510049819946289e-01 -1.097889989614486694e-01 -2.924899943172931671e-02 -2.387900091707706451e-02 1.085629984736442566e-01 1.531590074300765991e-01 1.569460034370422363e-01 -1.564970016479492188e-01 -7.329600304365158081e-02 4.411600157618522644e-02 -1.408189982175827026e-01 2.016000002622604370e-01 8.833900094032287598e-02 7.685999851673841476e-03 2.531979978084564209e-01 -1.205299980938434601e-02 1.301500014960765839e-02 -2.977980077266693115e-01 3.141539990901947021e-01 1.722400076687335968e-02 -5.379000212997198105e-03 6.640399992465972900e-02 -8.314999751746654510e-03 2.250390052795410156e-01 -1.865610033273696899e-01 1.994840055704116821e-01 7.630900293588638306e-02 4.097099974751472473e-02 -5.345800146460533142e-02 -9.945499897003173828e-02 1.046099979430437088e-02 -8.986499905586242676e-02 4.720050096511840820e-01 1.639419943094253540e-01 -1.616300083696842194e-02 -1.666129976511001587e-01 1.488600019365549088e-02 -3.217999935150146484e-01 -1.392589956521987915e-01 -1.662379950284957886e-01 -1.006779968738555908e-01 -1.811749935150146484e-01 -3.005129992961883545e-01 2.169030010700225830e-01 -7.064700126647949219e-02 6.113000214099884033e-03 1.020610034465789795e-01 -9.692399948835372925e-02 2.658329904079437256e-01 -3.022139966487884521e-01 1.572299934923648834e-02 2.473269999027252197e-01 1.312209963798522949e-01 1.592400074005126953e-01 5.369000136852264404e-03 4.140700027346611023e-02 -4.541800171136856079e-02 -7.286900281906127930e-02 -2.331050038337707520e-01 8.182999677956104279e-03 4.226399958133697510e-02 6.562300026416778564e-02 4.627500101923942566e-02 -1.342079937458038330e-01 1.006400026381015778e-02 -1.779879927635192871e-01 1.529130041599273682e-01 2.483009994029998779e-01 9.691300243139266968e-02 1.380500011146068573e-02 -2.453600056469440460e-02 8.481100201606750488e-02 1.428689956665039062e-01 -3.024869859218597412e-01 7.226000074297189713e-03 -1.873400062322616577e-01 -6.231899932026863098e-02 -2.047600038349628448e-02 -1.687079966068267822e-01 1.960000023245811462e-02 -1.997909992933273315e-01 -1.071840003132820129e-01 -1.481999992392957211e-03 -1.635210067033767700e-01 2.850300073623657227e-02 3.172309994697570801e-01 -1.964990049600601196e-01 -3.450309932231903076e-01 -2.217520028352737427e-01 -2.227080017328262329e-01 -2.757799923419952393e-01 7.804799824953079224e-02 1.974859982728958130e-01 1.585479974746704102e-01 1.428000032901763916e-01 -1.822180002927780151e-01 -6.928999908268451691e-03 7.840199768543243408e-02 -5.250399932265281677e-02 1.599999959580600262e-03 -1.221870034933090210e-01 2.628830075263977051e-01 1.511469930410385132e-01 1.864760071039199829e-01 6.319800019264221191e-02 8.967799693346023560e-02 1.848119944334030151e-01 -2.676680088043212891e-01 -1.716100051999092102e-02 9.660299867391586304e-02 7.503000088036060333e-03 -1.271370053291320801e-01 -1.749410033226013184e-01 7.898999750614166260e-02 1.622730046510696411e-01 -2.342170029878616333e-01 1.192620024085044861e-01 1.723359972238540649e-01 6.171299889683723450e-02 -2.400009930133819580e-01 2.139999996870756149e-03 1.233170032501220703e-01 -3.937230110168457031e-01 -2.213609963655471802e-01 5.870100110769271851e-02 -3.188000060617923737e-03 2.327529937028884888e-01 
