1763 10
the -0.33022 -0.31812 0.10051 -1.0401 0.087806 -0.76704 0.39969 -0.19609 -0.13398 0.30554 
to -0.31987 0.1434 -0.091811 -0.843 -0.88571 -0.61017 0.48257 0.044776 -0.37158 0.36873 
of -0.40452 -0.17903 0.16196 -0.77842 -0.10352 -0.83879 0.57681 -0.027571 -0.21793 0.32038 
in -0.48886 -0.26498 0.044217 -0.9284 0.77722 -1.2153 0.58476 0.069224 -0.022603 -0.33941 
and -0.18378 -0.10715 0.0021384 -0.90693 -0.11685 -0.97686 0.28666 0.118 -0.26708 0.088453 
a -0.33519 -0.29483 -0.035565 -0.8615 0.041433 -1.0078 0.46877 0.016823 -0.047888 0.2902 
is -0.15199 0.30374 0.28534 -0.91076 -0.98414 -0.44665 0.32348 0.23459 -0.52628 0.62149 
for -0.22979 -0.13901 -0.015729 -0.8383 0.16051 -1.1942 0.38129 0.14235 -0.19877 -0.16216 
The -0.203 0.11324 0.099092 -0.86532 0.10771 -0.9537 0.51709 -0.013929 -0.35589 -0.091968 
on -0.20967 -0.19373 0.048881 -0.78054 -0.066953 -1.0141 0.45248 0.12231 -0.13282 0.20771 
he -0.65305 0.05148 -0.15596 -0.99271 -0.90892 -0.69412 0.28682 -0.37462 -0.16706 0.41628 
has -0.1483 -0.32801 0.34937 -1.0249 0.1493 -0.82411 0.37246 0.20367 -0.012695 0.29427 
says -0.20093 -0.28266 0.3047 -0.93661 -0.40017 -0.75988 0.24951 0.12185 -0.23146 0.37119 
was -0.049137 -0.05114 0.22581 -0.99179 0.1735 -0.9129 0.36463 0.097124 -0.19442 0.059312 
have -0.29204 0.045827 0.13382 -1.0406 -0.014144 -0.76245 0.3981 0.045299 -0.25308 0.10293 
that -0.37507 -0.22137 0.23466 -1.0205 -1.0564 -0.34831 0.25409 -0.13757 -0.32117 0.77917 
be -0.74752 -0.034953 0.10615 -1.0751 0.18641 -0.79894 0.42422 -0.5107 -0.15459 -0.0026315 
are 0.1874 -0.36622 0.54514 -1.2728 -0.014307 -0.43794 0.17535 0.059977 -0.25114 0.45772 
will -0.50062 -0.1738 0.050607 -0.8865 -0.19088 -0.78701 0.4637 0.030464 -0.27489 0.33913 
with 0.034973 0.026743 -0.015003 -0.97088 0.21784 -0.9557 0.45493 0.12413 -0.31648 -0.044328 
Mr -0.21121 -0.12407 0.15874 -0.76779 0.10648 -1.1075 0.3834 0.17831 -0.10013 0.20325 
said. -0.46169 -0.25106 0.25167 -0.96973 -0.40777 -0.68279 0.30918 -0.16919 -0.09165 0.50847 
</s> -0.20078 -0.10337 0.060461 -0.91415 0.1093 -0.90508 0.5017 0.12717 -0.31144 0.15824 
at -0.019143 -0.017879 0.25241 -1.2375 0.81273 -1.2265 0.16146 -0.14443 0.21601 -0.25264 
from -0.09197 -0.012729 -0.0060296 -0.9388 -0.10932 -0.83526 0.49825 0.030485 -0.26831 0.23417 
by -0.33604 -0.2464 0.29963 -0.94804 0.098661 -0.92171 0.32177 -0.0036779 -0.071185 0.048951 
been -0.25494 -0.074667 0.19737 -0.96355 0.0032124 -0.87794 0.34561 -0.10455 -0.16332 -0.050892 
not -0.19936 -0.24242 0.52563 -1.0341 -0.88076 -0.56225 0.13903 -0.015902 -0.11776 0.59915 
as -0.21367 -0.22472 0.12267 -1.0727 0.18493 -0.81337 0.44497 -0.045123 -0.14549 0.2321 
his -0.48603 0.025464 0.12305 -0.91551 -0.22244 -0.86314 0.35775 -0.092713 -0.23615 0.039325 
an -0.48816 -0.23777 0.21673 -0.89387 -0.085778 -0.95051 0.22186 0.051467 -0.054749 0.14937 
it 0.088151 0.06808 0.18461 -0.99546 -1.0999 -0.44344 0.18492 0.12933 -0.57249 0.66995 
were -0.3996 -0.35245 0.11363 -1.0223 -0.30912 -0.69173 0.16747 0.107 -0.19961 0.47033 
had -0.28349 -0.12388 0.22009 -1.0286 0.10782 -0.84988 0.45542 0.0085547 -0.24302 -0.0012204 
after -0.34786 0.045636 -0.023854 -0.82463 0.16736 -1.013 0.56963 0.027898 -0.20699 0.033479 
but -0.20207 -0.2405 0.19077 -0.8589 -0.5069 -0.81368 0.31668 0.39135 -0.29938 0.41487 
they -0.1298 -0.31476 0.38336 -1.1176 -0.15058 -0.56061 0.28551 -0.20703 -0.29367 0.34014 
said -0.39474 -0.36102 0.3086 -0.93279 -0.26217 -0.81679 0.25929 -0.16438 0.027083 0.45336 
this -0.092812 -0.10551 0.35124 -0.96899 -0.40498 -0.68296 0.30468 0.0917 -0.38239 0.35388 
who -0.20105 -0.095276 0.32085 -0.91372 -0.16938 -0.79356 0.38023 0.0038929 -0.37117 0.027668 
Australian -0.28387 -0.070388 0.13034 -0.80433 0.13356 -0.9253 0.67532 0.22014 -0.4056 -0.10834 
we -0.43378 -0.024427 -0.047516 -1.1312 -0.57399 -0.59072 0.2059 -0.40156 -0.31484 0.4411 
Palestinian -0.11929 -0.0022232 -0.3722 -1.021 1.0886 -1.3694 0.71574 -0.21566 0.077381 -0.28098 
their -0.18141 -0.17626 0.16614 -0.92324 -0.40464 -0.69394 0.26769 -0.055062 -0.30801 0.40075 
which -0.19957 -0.11257 0.22569 -0.88656 -0.070622 -0.89995 0.36561 -0.0093768 -0.28029 0.11368 
people 0.040337 -0.13309 0.12374 -0.90381 0.11218 -0.88308 0.48656 0.18849 -0.36103 0.23864 
two -0.10355 0.0031566 0.1133 -1.0841 0.44068 -0.84927 0.50567 -0.067127 -0.30814 -0.0035397 
up -0.25718 -0.099621 0.096818 -0.97874 0.13418 -0.89428 0.35766 -0.09086 -0.20867 0.14024 
there -0.20937 -0.37056 0.45481 -1.1153 -0.99885 -0.32444 0.14491 0.17278 -0.36451 0.87714 
about -0.28995 -0.19368 0.29839 -0.85869 0.072993 -0.97997 0.39695 0.28764 -0.28723 0.023871 
also -0.064228 -0.073123 0.15672 -0.89139 0.23014 -0.98076 0.5608 0.14038 -0.23721 0.099119 
its -0.094794 -0.0089572 -0.061089 -0.92513 0.15797 -0.89387 0.53339 0.099649 -0.25874 0.08474 
South 0.29405 0.3306 0.29858 -0.98334 0.3158 -0.82364 0.64126 0.40047 -0.65075 -0.17298 
out -0.48574 -0.13048 0.083028 -0.80023 -0.57943 -0.77788 0.37554 0.28506 -0.37562 0.32881 
into -0.36937 -0.17606 -0.13391 -0.94078 0.34168 -0.99665 0.64295 -0.11696 -0.1669 -0.0054359 
would -0.28577 -0.23793 0.18882 -0.95394 -0.58257 -0.59028 0.37692 0.12538 -0.2183 0.64066 
US -0.24584 -0.41715 0.18146 -0.92122 0.72152 -1.1306 0.47029 0.012934 0.053693 -0.0086742 
when -0.4617 -0.29113 0.1645 -1.0117 -0.043739 -0.84131 0.34338 -0.1758 -0.0047467 0.28804 
against -0.24538 0.078647 -0.056364 -0.85907 0.29025 -1.0199 0.58317 0.11893 -0.27324 -0.1253 
more 0.31973 -0.055314 0.46665 -0.98215 0.10186 -0.77057 0.36613 0.61176 -0.47173 0.26166 
I -0.3498 -0.20172 -0.020818 -1.0454 -1.1019 -0.45334 0.42848 -0.012756 -0.25491 0.65215 
last -0.18243 -0.29531 0.23062 -0.99804 0.62399 -1.0047 0.51393 0.31862 -0.26751 -0.041609 
first -0.13614 0.093762 0.13683 -0.96666 0.43209 -1.0278 0.54946 0.12433 -0.24603 -0.069502 
New 0.25543 0.27318 0.18001 -1.058 0.24951 -0.82687 0.54174 0.3602 -0.52094 -0.14335 
A -0.31209 0.011631 0.22446 -0.92899 0.067243 -0.93878 0.49181 0.0034494 -0.14883 -0.012253 
He -0.75237 -0.67949 0.049378 -0.93605 -0.078393 -0.99741 0.23349 0.020627 0.027144 0.28656 
Israeli -0.26379 -0.10594 -0.41009 -1.0794 1.2779 -1.3504 0.68809 -0.53596 0.089812 -0.21142 
Australia -0.21157 0.022314 0.07604 -0.78834 0.15132 -0.90568 0.72975 0.28225 -0.51305 -0.1799 
one 0.1261 -0.099178 0.15185 -1.06 0.17422 -0.92321 0.3207 0.11182 -0.13747 0.0563 
if -0.48178 -0.23325 0.025306 -0.92117 -0.29508 -0.82477 0.49644 -0.049607 -0.15429 0.30857 
United -0.42223 -0.26833 0.26968 -0.98168 0.49726 -1.0389 0.36316 -0.083795 -0.01649 -0.10937 
over -0.26667 -0.11149 0.37049 -0.90953 0.12751 -0.97556 0.35257 0.17014 -0.22273 0.17052 
Government -0.29815 -0.43747 0.24994 -0.82199 0.34598 -1.0416 0.54893 0.34044 -0.087492 0.035292 
or -0.27575 -0.096525 0.20245 -0.89668 -0.91115 -0.61982 0.16335 0.0376 -0.42491 0.53103 
than -0.33 -0.21229 0.19697 -1.0063 0.00041447 -0.6629 0.4611 0.093545 -0.33235 0.3079 
all -0.26628 -0.14896 0.24025 -0.89538 -0.16143 -0.8923 0.30807 0.12912 -0.084696 0.32484 
no -0.40013 -0.16031 0.15533 -0.84239 -0.20989 -0.87639 0.52505 0.050859 -0.22787 0.15883 
could -0.49695 -0.36794 0.25997 -0.88439 -0.49008 -0.65626 0.40343 0.15186 -0.16664 0.51918 
before -0.3407 -0.058254 0.0596 -0.95199 0.08027 -0.8974 0.41102 0.020095 -0.24425 0.012549 
three -0.26678 -0.015288 -0.047869 -0.95902 0.50998 -1.122 0.43916 -0.010073 -0.22936 -0.22466 
say -0.032002 -0.26703 0.19972 -0.94938 0.079993 -1.0376 0.34252 -0.020494 -0.10124 0.080242 
told -0.42438 -0.20704 -0.0056567 -0.90714 -0.24315 -0.75983 0.41709 -0.090443 -0.13259 0.37537 
new -0.54038 -0.21066 0.05754 -0.91031 0.2118 -0.8609 0.47213 -0.12175 -0.28987 0.020162 
some -0.20853 -0.07386 0.15236 -0.97983 -0.019563 -0.69457 0.50208 0.087262 -0.38281 0.18132 
any -0.22956 -0.25756 0.27368 -0.85082 -0.871 -0.73584 0.17203 0.35347 -0.39229 0.48237 
"We -0.24137 -0.11195 0.16273 -1.0519 0.15123 -0.91253 0.33623 -0.34671 -0.076989 0.071385 
bin -1.1369 -0.19739 0.43403 -1.2298 1.1812 -1.1997 0.2993 -0.53082 0.32635 -0.62403 
attacks -0.3315 -0.046235 0.0059848 -1.189 1.2997 -1.355 0.46851 -0.31042 0.00050552 -0.73975 
very -0.24525 -0.18 0.24736 -1.0176 -1.009 -0.44592 0.27645 -0.0046416 -0.3104 0.80213 
still -0.48843 -0.23529 0.18375 -0.91555 0.030518 -0.81222 0.49447 -0.10733 -0.12523 0.2623 
now -0.22925 -0.28336 0.41243 -0.96635 -0.11287 -0.77443 0.3012 0.037946 -0.20964 0.2162 
just -0.26101 -0.088722 0.26512 -0.96292 -0.06783 -0.72943 0.47772 0.24115 -0.38367 0.21506 
security -0.30075 -0.16487 -0.15123 -0.92988 0.50471 -1.1198 0.58145 -0.1661 -0.028197 0.014528 
police -0.1127 -0.1825 0.039113 -0.96865 -0.027693 -0.90584 0.39815 0.076821 -0.062821 0.37022 
our -0.14584 -0.04477 -0.14099 -0.80127 -0.90416 -0.79821 0.27668 -0.15629 -0.43345 0.38823 
killed -0.18154 -0.19708 0.10268 -0.97047 0.42065 -1.1094 0.34835 -0.076757 0.01084 -0.098382 
Arafat -0.52927 -0.03356 -0.17259 -0.96235 0.71803 -1.2615 0.49958 -0.55362 0.26507 -0.15125 
"I -0.39736 0.13625 -0.023159 -0.98296 -1.4491 -0.42356 0.37467 -0.19728 -0.26311 0.77596 
them -0.16723 -0.29989 0.2555 -1.0339 -0.59839 -0.57582 0.26505 -0.13065 -0.33663 0.47831 
being -0.29334 -0.13715 0.11571 -0.90582 -0.42662 -0.83744 0.29407 -0.0085566 -0.33293 -0.079894 
Minister -0.77857 -0.041647 0.055757 -0.78251 0.35742 -1.1563 0.62952 -0.24813 0.18156 0.0074797 
forces -0.31611 -0.26023 0.13476 -0.95077 0.68984 -1.1688 0.46259 0.055986 -0.04458 -0.18726 
States -0.21613 -0.22527 0.2876 -0.8926 0.5769 -1.0471 0.57627 0.048655 -0.192 -0.17265 
But -0.04944 -0.13106 0.14496 -0.89226 -0.10263 -0.82114 0.51183 0.072984 -0.2451 0.28737 
fire 0.4593 -0.2163 0.63263 -1.1762 0.35455 -0.69784 0.27687 0.50648 -0.33031 0.23918 
other -0.29501 -0.42237 0.33144 -1.0263 0.19114 -0.78719 0.38055 -0.11142 -0.1256 0.24444 
what -0.28618 -0.23335 0.4351 -1.0115 -0.54005 -0.5525 0.27984 -0.11731 -0.2719 0.50848 
man -0.2559 0.24893 0.065557 -0.8362 0.024539 -1.0033 0.51622 0.11164 -0.35693 -0.20309 
around -0.31284 -0.16331 0.21767 -1.0888 0.29451 -0.89781 0.24964 -0.052161 -0.10537 -0.017295 
where -0.3501 -0.35727 0.47376 -1.063 -0.22067 -0.68804 0.12911 0.058005 -0.1445 0.34572 
can -0.055922 0.030927 0.058761 -1.0212 0.14008 -0.88066 0.367 -0.07038 -0.22231 0.073602 
think -0.1731 -0.1926 0.32029 -1.0495 -0.84012 -0.48107 0.28456 0.059164 -0.4043 0.52989 
per -0.35812 0.11215 -0.18332 -0.80901 0.1944 -1.0827 0.57297 -0.26525 -0.10867 0.11525 
day 0.012601 0.1896 0.095068 -0.86566 0.34808 -1.0604 0.52837 0.19571 -0.52749 -0.26127 
next -0.31571 -0.060529 -0.0075701 -0.86395 0.11404 -0.95719 0.53605 -0.029668 -0.22698 0.14434 
Al -1.3353 -0.092465 0.39203 -1.0874 0.63041 -1.0789 0.35236 -0.71515 0.2539 -0.46528 
company -0.19165 -0.28963 0.25913 -0.84085 -0.2211 -0.83681 0.36584 0.31188 -0.30592 0.29555 
It -0.284 -0.11323 0.36562 -0.93056 -0.60506 -0.65385 0.23822 0.0019475 -0.25188 0.54004 
four 0.037041 0.084169 -0.089042 -0.91625 0.064523 -1.0705 0.28069 -0.05684 -0.33851 -0.033145 
Qaeda -0.91306 -0.15476 0.19559 -1.0222 0.77476 -1.1154 0.47116 -0.39111 0.024283 -0.52145 
"The -0.38686 -0.023665 0.048808 -0.95457 0.36467 -1.0604 0.50549 -0.097076 -0.02866 0.014342 
take -0.4219 -0.03483 0.0012477 -0.72079 -0.21566 -1.0017 0.52492 0.13763 -0.22839 0.072995 
you -0.087751 -0.16713 0.16542 -1.0399 -1.0658 -0.64585 0.15991 0.045301 -0.22861 0.5694 
officials -0.32051 -0.21077 0.037937 -0.95437 0.60363 -1.1237 0.57537 -0.21206 0.067605 -0.1028 
suicide -0.28618 -0.10063 -0.22642 -0.9794 0.79137 -1.1419 0.51294 -0.19923 -0.065382 -0.14762 
so -0.13635 -0.30147 -0.081736 -1.0996 0.067797 -0.51032 0.70453 -0.16876 -0.39209 0.58863 
Afghan -1.1706 -0.3155 0.067356 -1.0196 1.0935 -1.2534 0.6789 -0.43071 0.18712 -0.46391 
under -0.48811 -0.067802 0.0057148 -0.87174 -0.12285 -1.0058 0.40118 -0.17195 -0.19471 0.070437 
President -0.32441 -0.2851 0.16182 -0.85866 0.1776 -1.0136 0.41405 0.19381 -0.16785 -0.043423 
Federal -0.25055 -0.4163 0.36037 -0.87956 0.020906 -0.89772 0.38427 0.23415 -0.11237 0.12181 
In -0.56293 0.22817 0.088029 -0.71931 0.010781 -1.0672 0.64169 -0.25677 -0.24875 -0.038812 
time -0.52833 -0.056916 0.043438 -0.85557 -0.29898 -0.82812 0.40698 -0.15416 -0.31113 0.056874 
Taliban -0.74078 -0.31884 0.16068 -0.96942 0.53735 -1.053 0.48127 -0.18015 0.10536 -0.23858 
made -0.37549 0.23968 0.0083349 -0.85004 -0.51914 -0.76553 0.45113 0.21039 -0.44265 0.10979 
number -0.12057 -0.15317 0.18722 -0.90501 0.45588 -1.1197 0.42543 0.019829 -0.21294 -0.10256 
days -0.072485 0.027079 0.1092 -0.93477 0.11575 -0.9536 0.45806 0.2372 -0.4375 0.059927 
Laden -0.90037 -0.18422 0.36881 -1.1109 0.78784 -1.0523 0.24214 -0.38333 -0.059544 -0.4559 
down -0.072217 -0.12778 0.054756 -1.1118 0.34834 -0.82644 0.47349 -0.12034 -0.22186 0.052777 
through -0.25441 -0.033393 0.18056 -1.0011 0.15407 -0.97571 0.37446 0.020637 -0.20062 -0.072035 
those -0.21808 -0.19675 0.40513 -0.99374 -0.42841 -0.66267 0.22048 0.09974 -0.20575 0.43765 
meeting -0.45894 -0.0097337 -0.18976 -0.83278 0.23521 -1.156 0.46863 -0.13151 -0.10006 -0.19093 
including -0.22074 -0.15843 0.069876 -0.88368 0.28899 -1.0397 0.517 0.10314 -0.33756 -0.23928 
Hamas -0.18186 -0.22878 0.11349 -0.90034 0.53257 -1.0775 0.49148 0.10502 -0.13666 -0.042208 
Gaza 0.097114 0.057388 -0.021218 -0.92321 0.58338 -1.0238 0.54903 -0.006679 -0.42196 -0.066572 
workers -0.53701 -0.18398 0.14693 -0.95833 -0.065438 -0.76921 0.48484 0.010138 -0.10631 0.090272 
Sydney 0.42337 0.17773 0.41603 -1.1125 0.11717 -0.67133 0.60738 0.33638 -0.49206 0.19372 
she -0.74477 -0.083015 0.31348 -0.95676 0.12699 -0.94792 0.40537 -0.48402 0.0428 0.17063 
military -0.55691 -0.17432 0.019327 -0.91594 0.56586 -1.1349 0.52516 -0.18514 -0.013428 -0.18002 
should -0.44619 -0.28481 0.20766 -0.89841 -0.39622 -0.70786 0.38093 0.17609 -0.25709 0.38403 
called -0.18626 -0.18218 0.13878 -0.91435 0.2147 -1.1208 0.34494 0.16412 0.0060132 0.0092137 
since -0.36396 -0.0063352 -0.12582 -0.94967 0.46389 -0.94729 0.57313 -0.069767 -0.20223 -0.085856 
cent -0.1494 -0.15155 0.26716 -0.73245 -0.010617 -1.0085 0.59429 0.60725 -0.18189 0.039498 
second -0.22516 0.037361 -0.049318 -0.94383 -0.014107 -0.87578 0.54721 0.015513 -0.31377 0.16859 
Test -0.033719 0.34239 -0.17324 -0.83923 0.14746 -0.98619 0.72496 0.045624 -0.65275 -0.21728 
Wales 0.053656 0.28324 0.055285 -0.96671 0.22785 -0.81622 0.68125 0.21636 -0.27924 0.10288 
Islamic -0.22614 -0.19205 -0.016994 -0.91469 0.66012 -1.0559 0.57151 0.075808 -0.17611 -0.018144 
today -0.11086 -0.080891 0.070837 -0.83169 0.40189 -1.0907 0.53966 0.13669 -0.29179 -0.083567 
get -0.26654 0.11655 -0.0089127 -0.88745 -0.87471 -0.70857 0.35412 -0.061572 -0.26976 0.58908 
World -0.19331 -0.044139 0.28748 -0.94014 -0.073753 -0.8746 0.34228 0.15011 -0.2833 0.16732 
between -0.49888 -0.17084 0.071969 -0.98188 0.49201 -1.0247 0.51424 -0.14237 -0.085301 -0.17244 
September -0.18975 -0.064982 0.19584 -0.94499 0.34528 -0.98927 0.44114 -0.020988 -0.18947 -0.095848 
back -0.27283 -0.059433 0.13938 -0.94367 -0.15244 -0.87978 0.41035 0.014452 -0.19059 0.13653 
because -0.43831 -0.10384 0.093664 -1.0154 -0.2803 -0.67246 0.3828 -0.14649 -0.17899 0.40723 
members -0.30101 -0.18809 0.17142 -0.9703 0.73091 -1.1413 0.5201 -0.084871 -0.074367 -0.25823 
while -0.20608 -0.041047 0.18854 -0.90223 0.20482 -0.97908 0.46448 0.00026892 -0.23846 0.022349 
- -0.3817 -0.435 0.20958 -1.1556 -0.43852 -0.68643 0.37675 -0.36924 0.10648 0.5545 
Bank -0.19756 -0.18417 0.055352 -1.025 0.69146 -1.0088 0.56631 -0.15637 -0.20305 -0.22032 
staff -0.25389 -0.26152 0.32648 -0.85727 -0.22542 -0.81737 0.31717 0.039845 -0.20685 0.30589 
report -0.20298 -0.29043 0.13439 -0.86815 -0.22312 -0.77922 0.42075 0.2256 -0.22305 0.39632 
near 0.063087 -0.13746 0.04948 -0.97593 0.57767 -1.0817 0.54532 0.017656 -0.20763 -0.052598 
going -0.34285 -0.30352 0.10319 -0.94297 -0.59234 -0.6944 0.36893 -0.084732 -0.22855 0.39174 
further -0.21702 -0.11672 0.28065 -1.0878 -0.19926 -0.5478 0.38098 -0.15962 -0.2667 0.40168 
world -0.34496 -0.2073 0.31545 -0.97096 0.096099 -0.83532 0.37357 0.10556 -0.23433 0.10518 
him -0.68234 -0.058697 -0.16187 -0.83721 0.057589 -1.017 0.49891 -0.32563 0.050758 0.069657 
local -0.38225 -0.29285 0.21606 -0.9377 0.07638 -0.939 0.34291 0.045473 -0.044331 0.19069 
former -0.42283 -0.13981 0.18794 -0.81396 -0.11717 -0.9734 0.34292 0.087346 -0.16579 0.048752 
Australia's -0.25338 -0.06371 0.16415 -0.81694 0.052229 -0.90036 0.64271 0.22495 -0.4157 -0.061322 
end -0.15889 0.24558 -0.055311 -0.83453 -0.043634 -0.96825 0.43326 0.15381 -0.34587 -0.053832 
attack -0.17126 -0.013473 0.045089 -1.1729 1.0639 -1.2619 0.4447 -0.2385 -0.085905 -0.58779 
Israel -0.35389 -0.13604 -0.40936 -1.0228 1.3653 -1.4265 0.73706 -0.53007 0.19975 -0.26019 
West 0.23361 0.22398 -0.15368 -0.9687 0.64233 -0.98961 0.6875 -0.029865 -0.54572 -0.15117 
hours -0.043814 -0.041619 0.30682 -0.97939 -0.025469 -0.8232 0.25673 0.19288 -0.27147 0.15032 
government -0.30304 -0.35389 0.19802 -0.82989 0.28777 -1.0482 0.59923 0.34018 -0.12011 0.092391 
international -0.48173 -0.17748 0.049294 -0.75205 0.53984 -1.1959 0.64301 0.21821 -0.16932 -0.14384 
Afghanistan -1.1966 -0.44437 0.15186 -1.0763 1.0313 -1.1843 0.59815 -0.42975 0.27204 -0.37176 
leader -0.77413 -0.10514 -0.06776 -0.8829 0.21361 -1.121 0.39473 -0.36839 0.12408 -0.001276 
like -0.50088 -0.28038 0.22604 -0.99886 0.02199 -0.83443 0.38421 0.014473 -0.057847 0.098137 
only -0.23106 0.07436 -0.044206 -0.79498 -0.98372 -0.62288 0.41626 0.080259 -0.44068 0.59421 
do -0.36461 -0.098158 -0.041925 -1.0584 -0.58619 -0.52612 0.47479 -0.20727 -0.26433 0.47595 
off -0.35971 -0.31598 0.18306 -1.0005 0.46072 -1.01 0.54209 -0.072324 0.022646 0.030194 
make -0.30113 0.049585 -0.073341 -0.891 -0.5538 -0.77719 0.42122 -0.023962 -0.29509 0.41399 
claims -0.36885 -0.26892 0.27832 -0.92341 0.031652 -0.83457 0.3885 -0.014591 -0.22142 0.17689 
another -0.20017 -0.37784 0.34455 -0.99432 -0.22374 -0.69401 0.30434 -0.0451 -0.16091 0.41697 
expected -0.26527 -0.079034 0.15499 -0.94017 -0.033431 -0.92758 0.37691 0.090954 -0.22083 0.12863 
it's -0.14742 -0.21869 0.0124 -1.1749 -0.38998 -0.56266 0.50493 -0.11677 -0.22547 0.50131 
many 0.057404 0.085441 0.17244 -0.87545 -0.25314 -0.8043 0.35708 0.27594 -0.41464 0.18643 
spokesman -0.10824 -0.084093 0.24338 -1.0036 0.37949 -1.0592 0.44724 0.10272 -0.095293 -0.069468 
given -0.43047 0.071514 0.0050702 -0.82036 -0.12134 -1.0035 0.50737 0.094394 -0.21531 -0.032985 
five -0.16969 0.029744 0.15184 -0.97348 0.25694 -0.95445 0.43115 0.071704 -0.24367 -0.043415 
go 0.078374 -0.19796 0.088563 -1.1733 -0.30378 -0.71145 0.24977 0.049791 -0.22449 0.48565 
good -0.15264 -0.054147 0.08512 -0.93805 -0.23591 -0.88373 0.4757 -0.030068 -0.34181 0.23762 
looking -0.34264 -0.11517 0.12333 -0.91539 -0.50244 -0.80002 0.422 0.03678 -0.32918 0.2594 
Osama -0.72648 -0.056445 0.38 -0.94188 0.057955 -0.91816 0.26583 -0.19597 -0.10273 -0.14943 
left -0.35945 -0.33987 0.4253 -1.0454 0.20377 -0.83701 0.36679 0.091791 -0.042632 0.10899 
group -0.3377 -0.11551 0.16781 -0.90786 0.28475 -0.99937 0.36675 0.016636 -0.304 -0.17077 
saying -0.13771 -0.21288 0.22513 -0.85351 -0.53943 -0.84151 0.33804 0.1424 -0.37602 0.18033 
Tora -0.9356 -0.25858 0.31026 -1.0856 0.4355 -0.96089 0.36838 -0.35437 0.1891 -0.12649 
Qantas -0.65939 -0.30487 0.28702 -0.902 -0.1617 -0.80426 0.37087 0.018263 -0.0082757 0.099808 
work -0.47285 -0.073762 0.35523 -1.0526 -0.31577 -0.55673 0.26701 0.084506 -0.16215 0.26032 
Prime -0.46482 0.1016 0.027213 -0.77844 -0.26784 -0.9513 0.5403 -0.21129 -0.1866 0.029596 
put -0.1248 -0.16775 0.41894 -1.0333 -0.583 -0.44898 0.27078 0.20875 -0.49565 0.57485 
know -0.59676 -0.37725 0.34874 -1.1539 -0.45241 -0.53131 0.22397 -0.29578 0.012399 0.39678 
during -0.21109 -0.10078 0.039143 -0.76322 0.25825 -1.179 0.54879 0.27295 -0.27751 -0.26122 
most 0.13793 0.04456 0.22526 -0.98488 -0.36391 -0.65328 0.40291 0.42988 -0.60882 0.25216 
air 0.26741 -0.074068 0.29465 -1.0677 0.15293 -0.85312 0.1924 -0.0063716 -0.39769 -0.0064085 
action -0.75958 -0.37306 0.11814 -0.88526 -0.14207 -0.83496 0.34372 0.20376 -0.090856 0.1885 
Indian -0.52359 0.00096827 0.19522 -0.90832 0.41361 -1.1591 0.5906 -0.22471 0.025619 -0.19738 
these -0.40536 -0.37146 0.31893 -1.0205 -0.58433 -0.45952 0.29835 -0.0078722 -0.31221 0.56102 
way -0.043924 -0.17663 0.024529 -1.0232 -0.037238 -0.90182 0.28442 0.025983 -0.18049 0.087988 
Yasser -0.55153 0.097803 -0.13613 -0.90587 0.54645 -1.1794 0.63655 -0.20578 0.077585 -0.14809 
found -0.29833 -0.023452 0.13144 -1.0503 0.34796 -0.98793 0.32726 -0.12611 -0.15783 -0.18491 
support -0.3308 -0.052304 0.051654 -0.93353 0.072362 -0.84319 0.49866 0.040403 -0.26077 0.12345 
died -0.29559 -0.13104 -0.025482 -0.9058 0.30137 -1.1359 0.33124 0.014805 -0.038687 -0.14306 
whether -0.4517 -0.20994 0.25801 -0.89994 -0.60469 -0.66229 0.33923 -0.060431 -0.19682 0.57263 
years -0.11243 -0.15501 0.057288 -1.009 0.33752 -0.83704 0.64005 0.12612 -0.21893 0.1085 
national -0.32425 -0.18239 0.0956 -0.66453 0.46247 -1.1941 0.63184 0.46011 -0.27304 -0.11904 
metres -0.0024676 -0.017324 0.34124 -0.92656 0.13016 -1.0326 0.44193 0.43597 -0.22321 0.11957 
Afghanistan. -1.0575 -0.4603 0.2064 -1.0681 0.91871 -1.0909 0.54211 -0.34105 0.23903 -0.29086 
come -0.28172 -0.26435 0.032234 -0.82914 -0.27653 -0.82745 0.48779 0.29357 -0.29068 0.23432 
set -0.54167 -0.095208 -0.075166 -0.82243 -0.09791 -0.8961 0.59911 -0.017329 -0.092535 0.13694 
six -0.49273 -0.098289 -0.13952 -0.86139 0.18714 -1.1441 0.54307 -0.063048 -0.10221 -0.088211 
year. -0.02107 -0.076537 0.025904 -0.88686 0.28219 -0.8883 0.62195 0.1519 -0.30504 0.083323 
interim -0.55091 -0.063612 -0.098585 -0.75635 0.36788 -1.1661 0.75483 0.019867 -0.26509 -0.16353 
team -0.23807 0.076507 0.10539 -0.84693 0.44473 -1.1163 0.69508 0.094907 -0.054019 -0.16245 
power -0.36772 -0.052696 0.19511 -0.89868 -0.34209 -0.84353 0.38587 -0.047361 -0.21216 0.3796 
Foreign -0.42638 -0.33748 0.13848 -0.87259 0.047046 -0.92526 0.46018 -0.0052589 -0.023769 0.1715 
terrorist -0.48168 -0.18911 0.20601 -0.90702 0.50172 -1.0465 0.52332 0.0094234 -0.23281 -0.23079 
how -0.01793 -0.1927 0.35889 -1.0481 -0.16997 -0.64969 0.38255 0.078809 -0.21499 0.39838 
arrested -0.24013 -0.030285 0.077353 -0.99602 0.77287 -1.1554 0.5164 -0.05334 0.0040569 -0.19586 
11 -0.22958 0.060746 0.23076 -1.0176 0.38595 -0.94242 0.46941 0.048733 -0.25515 -0.10744 
trying -0.35715 -0.17342 0.086758 -0.82987 0.054978 -1.0587 0.47409 0.0037893 -0.21448 -0.1188 
don't 0.054365 0.057473 0.0429 -1.0606 -0.8671 -0.48444 0.41769 0.11095 -0.55092 0.47744 
start -0.12029 -0.16384 0.22578 -1.0056 -0.23547 -0.64488 0.49944 0.068158 -0.33384 0.32661 
Africa -0.24422 0.33216 -0.17724 -0.96404 0.15966 -0.93151 0.67632 -0.058485 -0.47762 -0.23633 
official -0.27807 -0.27393 0.050194 -0.95618 0.68695 -1.1649 0.52643 -0.1773 0.10471 -0.11005 
part -0.34295 -0.38945 -0.008875 -0.8628 0.13704 -1.0347 0.53515 0.22521 -0.10832 0.0017831 
Bora -0.761 -0.16929 0.2101 -1.1157 0.74454 -1.1218 0.47463 -0.29481 0.17755 -0.29277 
force -0.43796 -0.28804 -0.086755 -0.91122 0.42819 -1.1881 0.41628 0.079343 -0.11514 -0.073932 
us -0.27594 -0.071172 -0.20932 -0.96433 0.67585 -1.2376 0.37581 -0.30314 -0.14262 -0.33753 
John -0.23649 0.10085 -0.032482 -0.76448 -0.44261 -0.85056 0.49864 0.14196 -0.2002 0.32642 
early -0.27264 0.025757 0.10665 -0.91027 0.36301 -1.0546 0.51371 -0.058836 -0.30955 -0.20738 
groups -0.36844 -0.17499 0.19636 -0.95065 0.53639 -1.0072 0.3913 -0.11098 -0.19514 -0.15957 
third -0.010789 0.10851 0.11942 -0.86795 -0.41811 -0.78002 0.41311 0.31304 -0.47069 0.19831 
week -0.3272 -0.23908 0.076761 -0.98408 0.073715 -0.74294 0.37483 -0.016686 -0.19666 0.20611 
Meanwhile, -0.34793 -0.12484 0.015576 -0.82154 0.21952 -1.0105 0.49337 -0.031845 -0.23596 0.0039735 
several -0.29225 -0.38715 0.37939 -0.87924 -0.10337 -0.82511 0.32297 0.17878 -0.12513 0.21207 
area 0.051532 -0.079689 0.48495 -1.1795 0.40117 -0.7519 0.39812 -0.12376 -0.091419 0.2226 
believe -0.79137 -0.19282 0.30649 -1.0801 -0.20069 -0.65642 0.28836 -0.38646 -0.090604 0.1288 
war -0.072243 -0.19775 0.16679 -0.94965 0.23958 -0.99727 0.35177 0.22279 -0.092642 0.1017 
authorities -0.30937 -0.19796 0.20576 -1.0058 0.10396 -0.80331 0.4773 0.098594 -0.19382 0.21115 
yesterday -0.28142 0.068957 0.0015726 -0.86612 0.43597 -1.0735 0.69558 -0.018298 -0.23959 -0.10578 
50 -0.0055131 0.080877 0.11533 -1.0507 -0.39545 -0.64091 0.43053 0.24701 -0.28416 0.40795 
100 -0.16565 0.06535 -0.018297 -0.87717 -0.23263 -0.92046 0.48097 0.33465 -0.40374 0.057434 
troops -0.36922 -0.29548 0.19338 -0.87142 0.10742 -0.94169 0.4159 0.10247 -0.18104 0.051702 
few -0.16567 0.076985 0.16912 -0.88033 -0.37245 -0.86022 0.42284 0.21798 -0.42656 0.18659 
does -0.13963 0.10813 0.28804 -0.99911 -0.79363 -0.50716 0.35456 0.10862 -0.4552 0.42702 
Defence -0.33275 -0.25229 0.073641 -0.92387 0.25551 -0.8613 0.59302 0.015404 -0.076559 0.048157 
Arafat's -0.4413 -0.043291 -0.081289 -0.97458 0.29104 -0.9891 0.52851 -0.36433 0.084934 0.11324 
Dr 0.16032 0.22758 0.71706 -0.94864 -0.35815 -0.64197 0.41628 0.65847 -0.48944 0.11823 
Minister, -0.70766 -0.14913 0.079326 -0.81266 0.38258 -1.1154 0.59941 -0.16916 0.14987 -0.007826 
peace -0.40619 -0.10977 -0.29056 -0.8501 0.38124 -1.085 0.66782 0.041173 -0.11891 0.071098 
best -0.27665 -0.072405 -0.094569 -1.0096 0.1308 -0.86547 0.53475 -0.20991 -0.53823 -0.085448 
following -0.050905 0.051095 -0.0067287 -0.87015 -0.10041 -0.9497 0.49073 0.17642 -0.31966 0.035212 
areas -0.10445 -0.21987 0.52734 -1.1521 0.12014 -0.59408 0.40009 0.0093 -0.16673 0.35121 
leaders -0.67576 -0.26126 -0.010294 -1.0261 0.66205 -1.0784 0.4177 -0.33904 0.10604 -0.17319 
weather -0.3792 -0.21008 0.34221 -1.0772 -0.26225 -0.60824 0.28774 -0.069025 -0.24615 0.40984 
match -0.117 0.17501 -0.069883 -0.81983 -0.32765 -0.87824 0.53774 0.20668 -0.56704 -0.036571 
militants -0.40722 -0.23625 -0.014737 -0.91665 0.84706 -1.1936 0.56538 -0.074623 -0.067505 -0.24198 
eight -0.062936 -0.11716 0.24904 -0.90097 0.28141 -0.97546 0.4945 0.33458 -0.26289 -0.054645 
want -0.40733 -0.26792 0.10897 -0.84382 -0.76376 -0.80675 0.35178 0.14463 -0.20792 0.12911 
need -0.27294 -0.12376 0.088059 -1.0434 0.055144 -0.95699 0.26591 -0.15744 -0.16685 0.1328 
confirmed -0.45606 -0.34261 0.15985 -1.0169 0.38209 -0.9086 0.42904 -0.030701 0.025065 0.054046 
Christmas -0.42346 -0.20059 0.11211 -0.95636 0.26371 -0.97323 0.45247 -0.045015 -0.040042 0.050131 
close -0.38157 -0.17253 0.1743 -0.9326 0.27512 -0.97731 0.53688 -0.076656 -0.15657 0.030634 
state -0.017015 -0.26476 0.50601 -1.0991 0.40481 -0.83473 0.3761 0.065668 -0.24655 0.11798 
came -0.037252 -0.09478 0.041212 -0.91742 0.24824 -1.0215 0.38391 0.092885 -0.28134 -0.13021 
Pakistan -1.0344 -0.55098 0.11778 -1.0003 0.79482 -1.3063 0.43674 -0.25713 0.10226 -0.45291 
must -0.3736 -0.19977 0.10201 -0.80054 -0.0041245 -0.89754 0.58479 0.23427 -0.44577 0.069285 
months -0.047902 0.014662 0.089159 -0.83993 0.14977 -1.0455 0.43782 0.33566 -0.41078 -0.15639 
agreement -0.42855 -0.30447 0.23283 -0.90504 0.33957 -1.0427 0.55064 0.21444 -0.030315 -0.019234 
Sharon -0.69808 0.10407 -0.08883 -0.79992 0.5812 -1.3704 0.55518 -0.65019 0.26103 -0.22204 
fighters -0.39655 -0.19813 0.39436 -1.0541 0.8874 -1.0215 0.56892 0.041546 -0.087308 -0.36139 
12 -0.061409 0.12732 0.26817 -0.92274 -0.4023 -0.67929 0.46967 0.30867 -0.55092 0.21683 
help -0.21131 -0.05732 0.10325 -0.8906 0.01684 -0.99759 0.36714 0.14182 -0.34479 0.019159 
reports -0.088877 -0.17663 0.053594 -0.84656 0.040128 -0.8556 0.52898 0.23915 -0.24587 0.21702 
East -0.13076 -0.14889 0.23242 -0.90461 0.3774 -0.84839 0.49526 0.35142 -0.45245 -0.023691 
They -0.13025 -0.011063 0.16687 -1.0313 0.29914 -0.87881 0.45788 -0.13691 -0.2807 -0.09322 
brought -0.26909 -0.16135 0.31796 -0.95253 0.0753 -0.92622 0.39879 0.19852 -0.20287 0.016761 
city 0.18714 0.034228 -0.02816 -1.0117 0.45029 -0.99585 0.50922 0.12603 -0.26503 -0.035275 
Peter -0.28762 0.030569 0.17909 -0.83232 0.16319 -0.98571 0.45237 0.033855 -0.16878 0.0051439 
pay -0.19245 -0.22097 0.087784 -0.78108 -0.016373 -1.1001 0.29659 0.24276 -0.19958 -0.0072483 
hit -0.029509 -0.098019 0.2516 -1.0285 -0.30607 -0.86616 0.22168 0.18218 -0.26614 0.24156 
pressure -0.35528 -0.19301 0.12892 -0.89867 -0.22716 -0.77736 0.37761 0.095688 -0.28776 0.3276 
then -0.35176 -0.12039 -0.031151 -0.97461 -0.50257 -0.66456 0.3705 -0.16971 -0.25899 0.4849 
taken -0.57664 -0.13542 0.028271 -0.78419 0.30666 -1.1149 0.5694 -0.046325 -0.076419 -0.10462 
better -0.59077 -0.0051027 0.019789 -1.0218 0.16008 -0.91138 0.47098 -0.33228 -0.1158 0.07229 
believed -0.60145 -0.22611 0.30478 -1.1601 0.07217 -0.74924 0.26245 -0.33365 0.0025145 0.072238 
did -0.3958 -0.38905 0.18655 -1.0382 0.16038 -1.1677 0.057599 -0.20014 0.19879 -0.0073938 
took -0.10839 0.15146 -0.15541 -0.81116 -0.44431 -0.89837 0.53021 0.16957 -0.40483 0.11652 
senior -0.38855 -0.17306 0.11395 -0.94729 0.3511 -0.99365 0.53431 -0.10283 0.043805 0.069495 
held -0.41108 -0.37821 0.22226 -0.99807 0.42861 -0.94562 0.37285 -0.16397 -0.086166 -0.051732 
got -0.11397 -0.15438 0.13865 -0.97647 -0.35867 -0.73659 0.31706 0.14362 -0.24058 0.4386 
talks -0.49931 -0.24516 -0.034256 -0.92318 0.021433 -0.91349 0.44587 -0.16768 -0.11938 0.10184 
British -0.22552 -0.16832 0.169 -0.97782 -0.012919 -0.7888 0.42968 0.070682 -0.23556 0.22442 
her -0.56598 0.055176 0.047555 -0.94216 -0.24176 -0.80909 0.40857 -0.51021 -0.30132 0.29705 
without -0.25886 0.032211 0.1553 -0.93582 -0.25533 -0.85048 0.38057 0.20898 -0.3702 0.15656 
injured 0.00074489 -0.19117 0.18654 -0.98108 0.79047 -1.1871 0.46141 0.30228 -0.15298 -0.24834 
Northern -0.39826 -0.15638 0.18488 -1.0521 0.46062 -0.85188 0.52095 -0.034399 -0.10565 0.060159 
well -0.48799 -0.12225 0.032829 -1.0237 -0.50361 -0.5965 0.29598 -0.28021 -0.44472 0.27521 
maintenance -0.61375 -0.15998 -0.027396 -0.85445 0.032333 -0.9155 0.50017 0.058579 -0.084606 0.031407 
Melbourne -0.066233 0.013403 0.13338 -0.98869 -0.047375 -0.90083 0.39517 0.051843 -0.37869 0.085985 
lot -0.41807 -0.029617 0.20499 -1.028 -1.1215 -0.49001 0.24849 -0.1816 -0.20683 0.79841 
both -0.25871 -0.12474 0.18061 -1.0886 0.4581 -0.94714 0.46536 -0.34784 -0.017741 0.008381 
much -0.23254 -0.44972 0.19097 -0.92214 -0.70927 -0.51109 0.40323 0.2331 -0.29684 0.75299 
south 0.14374 -0.010507 0.36496 -1.127 0.7505 -0.80757 0.644 0.12086 -0.45496 0.0085237 
cut -0.20004 -0.091944 0.12072 -0.73048 -0.74231 -0.68913 0.36247 0.32306 -0.43043 0.42861 
accused -0.33038 -0.23776 0.13033 -0.92194 0.54449 -1.2079 0.43274 -0.019504 0.057967 -0.24631 
earlier -0.41149 -0.010543 0.10353 -0.90578 0.39562 -1.0189 0.52437 -0.15676 -0.17788 -0.17027 
asylum -0.11538 -0.20893 0.10297 -0.86109 -0.50573 -0.62727 0.37326 0.067346 -0.33961 0.6031 
10 -0.49438 -0.050398 -0.16229 -0.73428 0.53319 -1.2559 0.65049 -0.10158 -0.056939 -0.27456 
see -0.45122 -0.12177 -0.070854 -0.87715 0.040913 -0.86575 0.49731 -0.13756 -0.12492 0.24944 
too 0.18287 0.10614 0.18846 -0.96015 -0.44039 -0.75929 0.37792 0.27915 -0.43332 0.24308 
armed -0.45016 -0.20113 0.10785 -1.0627 0.9071 -1.2118 0.48822 -0.21134 0.16624 -0.29639 
across -0.075699 -0.19022 0.3084 -0.9353 0.038318 -0.82468 0.41577 0.25869 -0.37853 0.1539 
family -0.33615 -0.3111 0.19088 -0.97136 -0.15573 -0.72959 0.43323 -0.12522 -0.099185 0.41385 
such -0.26143 -0.21594 -0.064741 -0.88669 0.069956 -0.83751 0.53223 0.10565 -0.3756 0.13515 
Royal -0.27418 -0.14938 0.23725 -0.83529 -0.044903 -0.91108 0.41084 0.21683 -0.15486 0.22923 
court -0.29437 -0.34959 0.23248 -0.80349 -0.42829 -0.74289 0.328 0.19074 -0.2465 0.34028 
children -0.13545 -0.1111 0.18071 -0.91423 -0.18138 -0.891 0.37643 0.22425 -0.2165 0.20958 
shot -0.43351 -0.030061 0.041995 -1.0517 0.018698 -0.88439 0.39441 -0.18968 -0.093336 0.14719 
that's -0.32107 -0.31654 0.20442 -1.0791 -0.60048 -0.50862 0.31307 -0.054204 -0.17481 0.64328 
won -0.24805 -0.090059 0.23784 -1.0392 -0.25679 -0.82697 0.40986 0.015292 -0.13416 0.47716 
Labor -0.28452 -0.016484 0.13024 -0.82394 -0.092419 -0.88592 0.36317 0.10737 -0.36493 0.10804 
lead -0.6846 -0.14887 0.018467 -0.89821 -0.15861 -0.89749 0.43335 -0.21159 -0.091138 0.16415 
There -0.12561 -0.18585 0.26807 -1.0295 -0.14237 -0.65248 0.3227 0.12425 -0.29543 0.31737 
economy -0.13179 -0.041875 0.16667 -0.94119 -0.19573 -0.78074 0.54168 0.26438 -0.43674 0.28742 
change -0.24467 -0.17946 0.32127 -0.92869 -0.58275 -0.69887 0.24735 0.21868 -0.29403 0.5092 
Authority -0.42217 -0.25264 0.022447 -0.9286 0.28218 -0.95497 0.52786 0.025805 -0.13965 0.068731 
despite -0.27543 -0.041766 0.18001 -0.89649 -0.11945 -0.94989 0.47286 0.19412 -0.37398 0.012583 
Commission -0.53551 -0.17218 0.0092348 -0.83712 0.11043 -0.99994 0.50412 0.058624 -0.050097 0.075623 
return -0.36737 0.11555 -0.16405 -0.92815 0.37975 -1.0945 0.55478 -0.1456 -0.05689 -0.03853 
David -0.29403 -0.2399 0.18094 -0.8574 0.5962 -1.0227 0.5455 0.081132 -0.16507 -0.11859 
commission -0.50002 -0.21257 -0.037708 -0.77535 0.21794 -1.0495 0.53008 0.13119 -0.0026982 0.026108 
call -0.43877 -0.13721 0.060423 -0.79857 -0.11072 -1.0173 0.41725 0.10147 -0.11236 0.098438 
statement -0.26195 -0.34525 0.2732 -0.99823 0.61947 -1.0717 0.46618 0.012719 -0.010397 -0.12125 
past -0.28915 -0.24112 0.17668 -0.87909 0.27451 -1.0496 0.47349 0.31347 -0.22181 -0.047715 
information -0.45086 -0.23671 0.13233 -0.80661 -0.14774 -0.91442 0.46415 0.22982 -0.20506 0.13103 
even -0.27058 0.048198 0.1213 -1.0117 0.10055 -0.90405 0.63489 -0.07906 -0.12025 0.057478 
arrest -0.086376 -0.058381 0.046312 -0.99876 0.7556 -1.1305 0.61311 0.063976 -0.18774 -0.18132 
place -0.4674 -0.10882 -0.080005 -0.83937 -0.094726 -0.98055 0.49015 -0.032161 -0.28943 0.15186 
year 0.27039 -0.007233 0.012092 -0.95417 0.52353 -0.99487 0.63841 0.25306 -0.25799 0.010371 
play -0.27862 0.060327 -0.093838 -0.85528 -0.30116 -0.93001 0.49092 -0.0087302 -0.35281 0.2132 
asked -0.35223 -0.14514 -0.012209 -1.0488 0.58157 -1.2223 0.42761 -0.20006 0.052649 -0.1946 
public -0.18334 -0.1192 0.10097 -0.97386 -0.028791 -0.84513 0.43904 0.045472 -0.2538 0.19906 
working -0.4241 -0.18273 0.19895 -0.99109 -0.27194 -0.70348 0.3491 -0.006734 -0.17877 0.17169 
Union -0.70263 -0.24755 0.16509 -0.7781 -0.16795 -0.91712 0.41789 0.088135 -0.013141 -0.040677 
night 0.3338 -0.081474 0.50338 -1.0528 0.50759 -0.95374 0.4198 0.65809 -0.2817 -0.074874 
key -0.20595 0.18618 0.12332 -0.91346 -0.035322 -0.8324 0.40848 0.15421 -0.45605 -0.01563 
north 0.20955 0.088155 0.17457 -1.0621 0.55754 -0.98414 0.57941 0.19041 -0.20828 -0.012402 
continuing -0.32642 -0.11595 0.059364 -0.91338 0.023336 -0.87647 0.44437 0.19161 -0.25225 0.02376 
morning 0.11553 -0.086749 0.34038 -0.89217 -0.11287 -0.90697 0.4043 0.25783 -0.49138 0.012475 
leading -0.40523 -0.14475 0.0038426 -0.85295 0.21737 -1.0282 0.50669 -0.020732 -0.21039 -0.12723 
George -0.26592 -0.074049 0.13953 -0.91944 0.27929 -0.92697 0.43571 0.043364 -0.22461 -0.017088 
Police -0.15652 -0.10478 0.25991 -0.99124 0.11237 -0.88833 0.36961 0.1514 -0.1261 0.27155 
used -0.18958 -0.30279 0.24588 -1.0075 0.61903 -1.1353 0.33997 -0.018343 0.050965 -0.15997 
An -0.73566 -0.74929 -0.083344 -0.85408 1.1541 -1.4149 0.54669 -0.041512 0.28698 -0.33833 
southern -0.19998 -0.22607 0.29311 -1.0376 0.53842 -0.77811 0.56998 0.045338 -0.23899 0.16733 
captured -0.32281 0.002107 0.028081 -0.98009 0.4448 -1.0749 0.43451 -0.10775 -0.11066 -0.18329 
fighting -0.4162 -0.16521 0.11722 -0.96955 0.39053 -1.0457 0.48753 -0.038334 -0.084151 -0.24748 
released -0.22014 -0.23812 0.27713 -1.0124 0.2663 -0.93555 0.38565 0.0074626 -0.11337 -0.023907 
Waugh -0.22164 0.31172 -0.15097 -0.9313 -0.1693 -0.91597 0.56799 0.0009978 -0.40726 -0.1532 
Bush -0.21058 -0.060153 0.13604 -0.93105 -0.019194 -0.84492 0.35936 -0.12177 -0.25703 0.039739 
crew -0.25699 -0.1299 0.11452 -0.96782 0.51338 -1.0019 0.54531 -0.18658 -0.11839 -0.057076 
Pentagon -0.50376 -0.14918 0.27364 -0.93791 0.11913 -0.87984 0.36275 0.073624 -0.18463 0.011025 
At -0.040947 0.050582 0.15598 -0.94083 -0.22792 -0.76664 0.49245 0.17632 -0.43636 0.22072 
possible -0.18651 -0.11057 0.16929 -0.87023 -0.24695 -0.88211 0.36847 0.13555 -0.31755 0.19685 
December -0.30598 -0.10927 0.042717 -0.92013 0.52984 -1.1102 0.5527 -0.040006 -0.15978 -0.17016 
major -0.44952 -0.12188 0.14541 -0.92805 -0.015055 -0.9586 0.41725 0.020641 -0.19495 -0.050842 
economic -0.1941 -0.053602 0.18002 -0.87354 -0.12584 -0.75682 0.49391 0.26234 -0.40212 0.21214 
least -0.4078 -0.10687 0.12923 -1.0402 0.62992 -0.99161 0.53722 -0.11336 -0.11638 -0.14722 
head -0.26216 -0.18496 0.23588 -1.0013 0.25817 -0.88177 0.3235 0.0361 -0.21237 0.069663 
"If -0.31976 -0.32386 0.082281 -0.95444 -0.43486 -0.67138 0.38064 0.081474 -0.24689 0.43899 
eastern -0.68697 -0.16474 0.29965 -1.0627 0.81823 -1.0332 0.50845 -0.20251 0.10151 -0.2734 
American -0.1649 0.027856 0.083113 -0.93408 0.087311 -0.90684 0.49512 0.053134 -0.26319 0.060772 
win -0.32446 0.17796 -0.062549 -0.98462 -0.17157 -0.72011 0.52971 -0.15452 -0.46296 0.22632 
Queensland 0.016527 0.044988 0.066651 -0.98336 0.13892 -0.92871 0.43538 0.28002 -0.28573 0.070304 
winds -0.025473 -0.0088529 0.28802 -1.0519 0.037637 -0.7839 0.40417 0.21201 -0.39116 0.16377 
final -0.17817 0.037405 0.10366 -0.84472 0.24134 -1.0356 0.50595 0.20273 -0.2776 -0.029239 
Australians -0.17072 -0.092185 0.14527 -0.85526 0.19707 -0.95961 0.64503 0.21698 -0.453 -0.11382 
received -0.23806 -0.34423 0.38949 -1.0045 0.07478 -0.92204 0.20017 0.28745 -0.14465 0.1326 
give -0.304 0.094438 0.14191 -0.81612 -0.71065 -0.79482 0.35153 0.23877 -0.35483 0.26816 
Hill -0.59047 -0.42286 0.35883 -1.0262 -0.15735 -0.52297 0.46119 -0.056186 -0.089813 0.56627 
charged -0.11786 -0.16061 0.1471 -0.92866 0.27995 -1.1529 0.23516 0.0059955 -0.097249 -0.033219 
unions -0.51975 -0.38418 0.23387 -0.82299 -0.13937 -0.86892 0.37861 0.32471 -0.13947 0.16578 
behind -0.28614 -0.042677 0.25453 -0.93283 -0.42581 -0.7827 0.30868 -0.013495 -0.30824 0.3429 
within -0.076887 -0.09889 0.20743 -1.003 -0.54968 -0.64844 0.32648 0.1392 -0.52967 0.41043 
use -0.27491 -0.19348 0.06734 -0.99719 -0.31027 -0.82378 0.36823 0.011094 -0.27744 0.27496 
detainees -0.22612 -0.050389 0.22689 -0.88058 0.086684 -0.97112 0.49411 0.20803 -0.16081 0.12214 
fires 0.32144 -0.1585 0.72934 -1.1739 0.13582 -0.74533 0.26257 0.40625 -0.28486 0.26694 
director -0.16241 -0.20705 0.25557 -0.91044 -0.081741 -0.91521 0.2435 0.21604 -0.21635 0.12319 
Afghanistan, -1.0889 -0.40139 0.15554 -1.0654 0.87947 -1.1022 0.55014 -0.39719 0.21156 -0.28073 
Two 0.039483 0.10582 0.0092365 -0.86606 0.25223 -1.0646 0.52589 0.044008 -0.14283 0.068588 
large 0.060472 -0.077479 0.43381 -1.0201 0.17983 -0.93253 0.278 0.23135 -0.31978 0.12265 
your -0.017639 -0.13241 0.012114 -1.0383 -0.67943 -0.81817 0.1693 -0.11422 -0.35786 0.36868 
far -0.064217 -0.017994 0.13792 -1.0614 0.68439 -1.1755 0.46011 0.17765 -0.15849 -0.33652 
Williams -0.40211 -0.099452 0.039003 -0.94621 0.13136 -0.90192 0.449 -0.10279 -0.20152 0.032541 
India -0.48269 0.028407 0.23908 -0.9185 0.78234 -1.3202 0.63529 -0.1195 -0.045859 -0.58352 
damage -0.071572 -0.053924 0.26836 -0.91188 -0.25969 -0.78529 0.3703 0.42384 -0.40989 0.28618 
known -0.34469 -0.33091 0.15857 -1.096 0.087767 -0.74902 0.34905 -0.19035 -0.035211 0.20957 
child -0.022981 -0.24182 0.31703 -0.8507 -0.24837 -0.86491 0.27661 0.40675 -0.14529 0.28148 
million -0.68378 -0.34192 0.10969 -0.83539 0.16323 -1.0869 0.3785 0.039167 -0.029955 -0.029096 
legal -0.3215 -0.2221 0.14686 -0.88873 -0.33615 -0.78393 0.38696 0.15758 -0.22108 0.29789 
able -0.37697 -0.13266 0.22291 -0.95258 -0.20151 -0.85636 0.33762 -0.17219 -0.15911 0.36692 
stop -0.41403 -0.08617 0.19544 -0.98944 0.12766 -0.91673 0.31749 -0.10126 -0.1994 0.037702 
high -0.034964 -0.0018303 0.032594 -0.95032 0.40361 -1.1331 0.54806 0.02092 -0.12699 -0.16178 
may -0.088139 0.17051 -0.11849 -0.83318 -0.21708 -0.98455 0.50248 0.20886 -0.60238 -0.1351 
long -0.58904 -0.29478 0.20529 -1.0233 0.20982 -0.93275 0.38765 -0.3167 -0.12836 -0.037084 
soldiers -0.54631 -0.24664 -0.0013115 -0.98134 0.50507 -0.97717 0.5551 -0.23703 -0.051598 -0.064674 
centre -0.16357 -0.088873 0.23781 -0.91368 0.50806 -1.0944 0.56083 0.43539 -0.15288 -0.12649 
water 0.0163 0.15115 0.20899 -0.90915 -0.17346 -0.85685 0.42673 0.20662 -0.37154 0.3471 
process -0.3912 -0.33273 0.13729 -0.98103 -0.18425 -0.71818 0.32323 -0.064817 -0.20143 0.42002 
interest -0.22889 -0.10378 -0.04432 -0.77426 0.41609 -1.0316 0.66139 0.07026 -0.27459 -0.038257 
remain -0.33546 -0.041843 0.19591 -0.98053 0.27623 -0.93689 0.51675 0.089744 -0.15228 -0.088631 
Cup -0.39222 0.20582 -0.19441 -1.04 0.49042 -1.0834 0.74202 -0.31475 -0.10536 -0.2315 
forced -0.26048 -0.20505 0.033136 -0.93682 0.54523 -1.2521 0.37319 0.11684 -0.073001 -0.23612 
cricket -0.079899 0.23933 0.080047 -0.87499 0.057947 -0.94591 0.57732 0.27945 -0.42145 -0.17575 
Centre -0.098491 -0.098919 0.29968 -0.88787 0.36578 -0.91792 0.519 0.44358 -0.24666 -0.097863 
there's -0.14267 -0.37116 0.43398 -1.1361 -0.58011 -0.43721 0.23176 -0.046849 -0.2551 0.63644 
services -0.027633 -0.11073 0.24148 -0.94517 0.099167 -0.81618 0.48252 0.27186 -0.22543 0.21946 
role -0.25075 -0.14711 -0.016529 -0.84185 -0.30629 -0.91197 0.4177 0.0034674 -0.28862 0.18281 
morning. -0.13115 -0.12871 0.30529 -0.93988 0.13057 -0.9026 0.42958 0.10169 -0.33749 -0.0042525 
seen -0.25503 -0.14886 -0.0071094 -0.96396 0.29621 -0.96718 0.52247 -0.13596 -0.084971 0.042143 
might -0.12136 -0.015283 0.34012 -0.99759 0.18655 -0.90543 0.46259 0.18435 -0.22641 -0.00030777 
radio -0.31587 -0.025496 0.12696 -0.90522 0.19487 -1.0003 0.47502 -0.046322 -0.19526 -0.051484 
15 -0.0027815 -0.010627 0.35139 -0.91984 0.031506 -1.0024 0.38359 0.30927 -0.34202 -0.027485 
failed -0.28408 -0.13997 0.13126 -0.95783 0.23679 -1.0263 0.38851 0.03713 -0.10962 -0.058015 
"It -0.2127 0.0065145 0.15431 -0.9023 -0.72538 -0.57713 0.47729 0.13848 -0.30031 0.56853 
conditions -0.30619 -0.33596 0.28766 -0.97664 0.16578 -0.84737 0.39348 0.24603 -0.24549 0.12226 
heard -0.036849 -0.13805 0.32521 -0.96742 -0.21658 -0.76473 0.27268 0.16032 -0.36014 0.33078 
training -0.33004 -0.10865 0.19393 -0.90618 0.15863 -1.0472 0.41182 0.043335 -0.24102 -0.12324 
Palestinians -0.084665 -0.042344 -0.32423 -1.0157 0.99253 -1.327 0.65852 -0.17126 0.014889 -0.21945 
already -0.23222 -0.17401 0.1536 -0.9142 0.0067545 -0.88513 0.39916 0.076321 -0.14774 0.19729 
taking -0.34111 -0.083927 -0.076089 -0.8193 -0.3044 -0.88678 0.43857 0.010839 -0.37356 -0.063635 
towards -0.24141 -0.067541 0.1225 -0.93239 0.29631 -1.0728 0.46656 0.034587 -0.15042 -0.10345 
dead -0.30904 -0.2196 0.0068343 -1.0166 0.67039 -1.0183 0.52865 -0.24931 0.014482 0.069926 
same -0.28721 -0.05681 0.067372 -0.89551 -0.75304 -0.62097 0.23121 -0.10415 -0.427 0.42835 
Lee -0.57065 0.287 -0.31648 -0.79795 0.079652 -1.0968 0.48908 -0.042647 -0.30256 -0.36131 
board -0.085416 -0.21346 0.17409 -0.90036 0.13884 -0.87745 0.48846 0.12395 -0.19114 0.17559 
latest -0.1553 -0.098918 0.045245 -0.85515 0.51157 -1.0497 0.60468 0.062235 -0.3672 -0.13693 
However, -0.35929 -0.23019 0.23856 -1.0014 0.3696 -1.105 0.36722 -0.010449 0.081887 -0.039713 
due 0.26217 0.15237 0.08374 -0.82533 0.73949 -1.1983 0.7406 0.44587 -0.39938 -0.33752 
rates -0.23545 -0.052488 0.23878 -0.89587 0.30736 -0.91888 0.59585 0.16932 -0.24906 0.027702 
thought -0.34475 -0.14509 0.32866 -0.99768 -0.054778 -0.80094 0.37854 0.053205 -0.15685 0.18667 
Alliance -0.74028 -0.15661 -0.045948 -1.0052 0.34901 -0.97857 0.50019 -0.30252 -0.01314 -0.063821 
canyoning 0.00096151 -0.12593 0.14691 -0.81281 0.069324 -1.097 0.39818 0.10198 -0.35588 -0.11744 
offer -0.50201 -0.24419 -0.022542 -0.82268 0.15344 -1.0637 0.50403 -0.11537 -0.020506 -0.019694 
strikes -0.13813 -0.10681 0.082023 -0.95404 0.37004 -0.9642 0.49136 -0.0023333 -0.20633 0.023301 
half -0.29326 -0.17483 0.10851 -0.99788 0.093941 -0.83061 0.39508 -0.13702 -0.15929 0.11612 
Shane -0.40518 0.13598 -0.035674 -0.97505 0.06794 -1.0409 0.40337 -0.10238 -0.069763 -0.0046095 
storm 0.022854 -0.01158 0.37061 -1.0505 0.087099 -0.8141 0.37323 0.10991 -0.26812 0.23018 
I'm -0.21456 -0.013578 -0.085031 -0.91216 -0.49315 -0.83478 0.57767 -0.052232 -0.30253 0.2994 
aircraft 0.042737 -0.070513 0.23712 -1.0473 0.20835 -0.94714 0.36037 0.081297 -0.24822 0.043258 
bowler -0.34089 0.33838 -0.0016996 -0.93128 0.025725 -0.98494 0.49746 -0.047297 -0.2425 -0.10725 
Adelaide -0.044939 0.079867 0.074706 -0.9117 -0.040047 -0.9078 0.47254 0.1713 -0.47185 -0.026522 
great -0.071226 0.030578 0.21264 -1.0573 -0.11088 -0.70531 0.4732 0.026426 -0.30536 0.34767 
army -0.42827 -0.206 -0.03653 -1.0522 0.77898 -1.1822 0.52938 -0.39546 0.2095 -0.16596 
position -0.57825 -0.26886 0.043969 -0.81203 0.15898 -1.0362 0.46842 0.12703 -0.12563 0.07192 
administration -0.58092 -0.22505 0.080669 -0.81091 0.26554 -1.035 0.53144 0.077576 -0.095358 0.10347 
control -0.050748 -0.17503 0.22343 -0.97335 0.094469 -0.84336 0.42982 0.27929 -0.24484 0.24974 
violence -0.2323 -0.070436 -0.0079771 -0.94813 0.36988 -0.97238 0.48493 0.013139 -0.16171 -0.021263 
continue -0.28833 -0.014519 0.15639 -0.97033 0.23828 -0.90154 0.47412 0.29717 -0.22186 0.0051712 
news -0.59215 -0.15621 0.017262 -0.94796 0.27223 -0.91985 0.42573 -0.12415 -0.18765 -0.061016 
After -0.33253 0.14233 0.075992 -0.78174 -0.0085916 -0.97334 0.50921 0.097841 -0.27502 0.032031 
series -0.2891 -0.085626 0.17297 -0.90951 -0.092798 -0.70652 0.57757 -0.022069 -0.20133 0.29959 
York -0.23988 0.20609 0.11751 -1.0175 0.17168 -0.82336 0.44681 0.045135 -0.14793 -0.023503 
ago -0.37093 -0.35865 0.10456 -1.0275 -0.18844 -0.77547 0.29485 0.23651 -0.19287 0.21604 
strong -0.12487 -0.19973 0.31163 -0.93742 -0.26036 -0.73653 0.34761 0.14708 -0.36251 0.34623 
likely -0.5693 -0.3563 0.11266 -1.0417 0.012559 -0.80848 0.34499 -0.17244 -0.031366 0.24764 
later -0.54452 -0.075866 0.11857 -0.81861 0.2648 -1.0883 0.51375 -0.080365 -0.077602 0.030132 
today. -0.17828 -0.08966 0.19215 -0.86792 0.20829 -0.98452 0.53873 0.094942 -0.31039 0.004548 
Australia, -0.19928 -0.043556 0.17708 -0.80673 0.045817 -0.89914 0.66936 0.28328 -0.47921 -0.097498 
along -0.35875 -0.23487 0.13841 -0.99281 0.28109 -0.96264 0.46829 -0.088655 -0.25587 -0.18575 
Blue -0.32921 0.17929 0.14827 -0.96856 0.19427 -0.97128 0.51554 0.15698 -0.37641 -0.024242 
line -0.25023 -0.10539 0.15418 -0.97211 0.24883 -1.0799 0.38552 0.039534 0.052945 -0.069131 
right -0.10617 -0.11315 0.23144 -0.97867 0.33221 -1.0104 0.52065 0.12385 -0.14311 -0.133 
claimed -0.35025 -0.17717 0.27294 -0.95935 0.34933 -0.97263 0.38423 -0.025992 -0.20119 -0.17129 
Nations -0.46612 -0.40396 0.13747 -0.84393 0.28359 -0.93601 0.51385 0.24839 -0.26527 0.10986 
risk -0.16904 -0.17755 0.30726 -0.98054 -0.065309 -0.8264 0.33338 0.11302 -0.1219 0.21404 
own -0.014097 -0.26602 0.11106 -0.89549 0.46691 -0.89507 0.45256 -0.030322 -0.22677 0.04712 
buildings -0.061143 -0.0047946 -0.025975 -0.89984 0.095714 -0.994 0.49 0.15945 -0.31889 0.022768 
hospital -0.037349 -0.12998 0.18955 -0.95268 0.21243 -0.91339 0.46714 0.13491 -0.21672 0.073965 
chief -0.36788 -0.1658 0.11414 -0.84898 -0.033546 -0.87442 0.46921 0.15726 -0.25923 0.1799 
matter -0.54564 0.006823 -0.029043 -0.86175 0.077958 -1.0526 0.52024 -0.086473 -0.3017 -0.070833 
concerned -0.1732 -0.20173 0.32926 -1.0133 0.084236 -0.86609 0.36841 0.20493 -0.10091 0.17977 
campaign -0.40699 -0.27161 0.025515 -0.89658 0.24313 -0.98682 0.44068 0.035115 -0.091242 0.032817 
show -0.21416 -0.27701 0.3153 -1.0321 -0.15971 -0.67999 0.3832 0.09236 -0.17343 0.30864 
Adventure -0.040517 -0.13532 0.353 -0.95168 0.023476 -0.93465 0.30689 0.23992 -0.28893 0.11019 
guilty -0.20216 -0.043522 0.083572 -0.92687 0.20071 -0.92099 0.43184 -0.067119 -0.3179 0.00091516 
African -0.2024 0.35056 -0.066211 -0.93961 0.14744 -0.97384 0.62526 -0.010557 -0.41916 -0.24435 
envoy -0.67473 -0.14806 -0.046447 -0.81502 0.33356 -1.1331 0.44533 -0.16175 0.05812 -0.085223 
homes 0.14088 -0.034475 0.39976 -1.0534 0.10088 -0.71782 0.52129 0.29373 -0.34711 0.14863 
boat 0.0086287 -0.10716 0.22524 -0.98937 -0.10005 -0.61566 0.41495 -0.068118 -0.2481 0.32673 
rate -0.39919 -0.069286 0.0034546 -0.84483 0.2335 -0.92006 0.62933 0.1589 -0.31521 0.08722 
month -0.091638 -0.071536 0.12925 -0.9252 0.43046 -1.0922 0.45127 0.1197 -0.20081 -0.17437 
west 0.0094504 0.022666 -0.043279 -1.0138 0.60269 -0.97813 0.59047 0.02209 -0.39855 -0.031355 
launched -0.28076 0.0035345 0.09612 -1.0289 0.55087 -1.0934 0.46398 -0.030732 -0.08573 -0.20215 
Ms -0.1693 -0.024214 0.2036 -1.065 -0.48284 -0.8086 0.24235 -0.10775 -0.33241 0.33664 
move -0.12252 -0.17686 0.078811 -0.85205 -0.16308 -0.942 0.38466 0.059054 -0.22594 0.2758 
industrial -0.51341 -0.1521 0.060852 -0.82769 -0.37555 -0.86717 0.37908 0.13903 -0.1444 0.093291 
special -0.24727 -0.25317 0.05622 -0.88789 0.0026893 -0.82646 0.35959 0.20746 -0.21304 0.23176 
Downer -0.58852 -0.22938 0.35931 -0.94535 -0.29586 -0.76081 0.32812 -0.16499 -0.045356 0.26698 
Kandahar -0.29682 -0.11128 0.13414 -0.92091 0.58496 -1.0662 0.5407 0.041656 -0.14686 -0.16771 
plans -0.26949 -0.17732 0.129 -0.91765 0.26921 -0.93932 0.51331 0.029577 -0.18829 0.081238 
officers -0.28559 -0.22919 0.1258 -0.93854 0.61275 -1.151 0.53171 -0.063958 0.03405 -0.1115 
town -0.035656 -0.22186 0.089919 -1.04 0.84213 -1.14 0.45628 -0.166 -0.035811 -0.095347 
firefighters -0.12692 -0.19933 0.46779 -1.0823 0.31873 -0.84548 0.45963 0.24173 -0.21691 0.042936 
decision -0.48339 -0.020654 0.030877 -0.85514 0.19915 -1.0503 0.51939 0.055609 -0.1193 0.00057066 
flight -0.17949 -0.1495 0.18775 -0.88991 0.39984 -1.0605 0.47715 0.15983 -0.10361 -0.20439 
death 0.057547 -0.13383 0.095832 -0.95011 0.12673 -0.86911 0.37013 0.14583 -0.21993 0.17032 
Swiss -0.25035 -0.17656 0.15292 -0.85423 -0.50274 -0.69927 0.32663 0.21845 -0.31788 0.43299 
me -0.35403 -0.10642 -0.16637 -0.77878 -0.60913 -0.94614 0.47597 -0.023491 -0.16753 0.2014 
Trade -0.21383 0.019332 0.046942 -0.93263 0.30361 -1.0082 0.44523 0.032281 -0.26381 -0.049947 
men -0.08405 -0.17308 -0.12009 -0.97632 0.90007 -1.2422 0.57854 -0.26449 0.020887 -0.25508 
today, -0.13313 -0.11522 0.17201 -0.90986 0.29172 -0.96278 0.53729 0.11652 -0.26396 0.079324 
captain -0.33279 0.11211 0.05412 -0.91826 0.17814 -0.98857 0.53571 -0.015231 -0.25209 -0.11477 
really -0.35473 -0.097594 0.19306 -0.91792 -0.78484 -0.678 0.38567 0.20476 -0.3916 0.50253 
planning -0.24482 -0.083709 0.097347 -0.85534 -0.10172 -0.92347 0.36516 0.0084243 -0.38041 -0.081162 
jobs -0.14945 -0.047958 0.27719 -0.84695 -0.48319 -0.70103 0.48378 0.16802 -0.35257 0.43338 
Laden's -0.84876 -0.22134 0.40069 -1.1128 0.73137 -1.0188 0.2719 -0.36349 0.013102 -0.33474 
event -0.024604 -0.072418 0.23616 -0.96716 0.32212 -0.99293 0.64446 0.38017 -0.13658 0.0059757 
enough -0.32023 0.098302 0.0096032 -0.85613 -0.16518 -0.99403 0.48051 -0.030379 -0.2096 0.080321 
bus -0.71213 -0.079262 -0.25133 -0.92337 1.0806 -1.4162 0.78796 -0.48473 0.078979 -0.33458 
UN -0.54816 -0.048432 0.12611 -0.86137 0.27431 -1.0655 0.59413 -0.031415 -0.13637 -0.003523 
Zinni -0.50128 0.017488 -0.1918 -0.93632 0.22123 -0.94346 0.60073 -0.18784 0.0024587 0.066372 
important -0.22451 -0.2042 0.18431 -0.9583 0.047671 -0.85765 0.44231 0.11295 -0.27287 0.10683 
health -0.10558 -0.17499 0.2288 -0.94858 0.22865 -0.97927 0.37151 0.10052 -0.10578 0.02896 
others -0.28787 -0.395 0.34208 -1.0667 0.40654 -0.84971 0.45401 0.0066727 -0.10223 0.083959 
Industrial -0.57372 -0.09693 0.02127 -0.83164 -0.49892 -0.89496 0.39075 0.063725 -0.16263 0.13486 
Mark -0.36877 0.27568 -0.03104 -0.90449 -0.48173 -0.91208 0.40797 0.147 -0.29862 0.023239 
union -0.6202 -0.28923 0.21896 -0.77973 -0.28947 -0.94769 0.37978 0.32314 -0.027591 0.07152 
"He -0.45909 -0.21562 0.058993 -0.84483 -0.099631 -0.87833 0.43008 0.078521 -0.29326 0.10338 
late -0.3475 -0.25341 0.25738 -0.9397 0.35775 -1.0721 0.51631 0.10118 -0.22909 -0.032748 
sure -0.14035 -0.058039 0.11566 -0.92932 -0.49738 -0.66551 0.38233 0.16903 -0.45261 0.49004 
side -0.31318 -0.055371 -0.13075 -0.93074 -0.095578 -0.98997 0.42557 -0.00036938 -0.31781 0.0050635 
weapons -0.4718 -0.2076 0.10377 -0.92709 0.22634 -0.9232 0.38295 -0.13678 -0.20357 -0.015071 
Service 0.10996 -0.18879 0.25716 -1.0271 -0.25646 -0.64395 0.33704 0.37956 -0.33758 0.45461 
jail -0.37638 0.026194 -0.025368 -0.92421 0.23885 -0.87398 0.55937 -0.048547 -0.18372 0.054618 
Zealand 0.0043498 0.13487 0.09079 -0.8991 -0.030375 -0.8348 0.50432 0.36604 -0.35552 0.095627 
International -0.3996 -0.14946 0.11295 -0.73793 0.39268 -1.1519 0.57884 0.2536 -0.20171 -0.08369 
probably -0.33818 -0.12145 0.18426 -0.95942 -0.076147 -0.75996 0.4724 0.059822 -0.3102 0.21379 
network -0.76982 -0.14867 0.29491 -1.0421 0.31272 -0.82967 0.35551 -0.3277 -0.070193 -0.056567 
Australia. -0.22091 -0.017653 0.187 -0.80241 0.0045872 -0.84669 0.65882 0.30617 -0.49004 -0.096869 
find -0.3074 0.13148 0.22503 -0.90008 -0.27705 -0.77319 0.38533 -0.092883 -0.28932 0.13818 
my -0.55451 0.12144 -0.0093719 -0.97671 -0.62483 -0.66736 0.48245 -0.25872 -0.50878 0.077701 
station -0.53447 -0.29584 0.13297 -0.85269 0.32235 -1.0057 0.42896 0.17143 -0.1653 0.042014 
Bichel -0.40509 -0.044277 -0.0088616 -0.88798 0.24663 -1.1217 0.52461 0.015741 -0.17843 -0.15178 
1999 -0.18455 0.069741 0.18764 -0.8856 0.53729 -1.1298 0.46995 0.0017765 -0.30787 -0.26738 
life -0.24612 -0.33524 0.18092 -0.93094 0.15349 -0.92696 0.32574 0.04259 -0.15932 0.10387 
National -0.32576 -0.18403 0.13924 -0.69377 0.30312 -1.1257 0.63131 0.3921 -0.2447 0.010923 
prepared -0.21991 -0.20488 0.12785 -0.885 0.14089 -0.97711 0.3799 0.14702 -0.18668 0.038318 
home -0.17758 -0.073843 -0.056814 -0.9827 0.25884 -0.88551 0.56779 -0.03591 -0.26311 -0.022736 
Sydney, 0.38089 0.10582 0.37774 -1.1327 0.37215 -0.75697 0.59491 0.24816 -0.40122 0.19168 
political -0.23895 -0.17101 0.093477 -0.8838 0.17914 -0.98695 0.50693 0.25728 -0.17116 0.046091 
14 -0.31575 -0.076226 0.018773 -0.82727 0.83066 -1.2612 0.6004 -0.37257 0.009522 -0.22477 
helicopters -0.23121 -0.12721 0.081126 -0.9841 0.62077 -1.0337 0.47125 0.0061639 -0.20141 -0.12253 
wants -0.39181 -0.28013 0.16434 -0.88982 0.34146 -1.0773 0.43535 0.0763 -0.12478 -0.13743 
General -0.33731 -0.36169 0.34625 -0.91321 -0.25595 -0.83866 0.32095 0.27438 -0.14076 0.26922 
carrying -0.37832 -0.025182 -0.028287 -0.89457 0.22042 -1.0354 0.52053 -0.11677 -0.2781 -0.29793 
Middle -0.40746 -0.1289 -0.089367 -0.91371 0.2377 -0.95979 0.52702 -0.015126 -0.079519 0.1346 
using -0.26039 -0.19974 0.0027378 -0.85818 0.07639 -0.91421 0.45785 -0.044387 -0.19986 0.036548 
northern -0.1314 -0.10187 0.16731 -1.0625 0.51044 -0.84401 0.53194 0.10286 -0.16342 0.10458 
operations -0.4037 -0.3316 0.025667 -0.89908 0.47275 -1.0024 0.56941 0.22835 -0.24424 -0.031465 
defence -0.34835 -0.2211 0.050224 -0.95564 0.17038 -0.8682 0.51416 -0.0026649 -0.068871 0.15956 
carried -0.26137 -0.13546 -0.019057 -0.94378 0.33946 -1.0995 0.42136 0.014035 -0.021979 -0.016227 
Hollingworth -0.030212 0.07015 0.23553 -0.96126 -0.022018 -0.89547 0.47997 0.25544 -0.2351 0.065736 
comes -0.12515 -0.21734 0.30096 -0.96863 0.091718 -0.82099 0.52801 0.28297 -0.21324 0.20068 
person -0.31443 -0.073895 -0.07208 -0.99595 0.39315 -1.0454 0.47549 -0.15756 -0.21276 -0.042487 
Unions -0.58393 -0.34103 0.16019 -0.85448 -0.010625 -0.86669 0.40667 0.13006 -0.11536 0.059159 
Jihad -0.25044 -0.1311 0.11354 -0.91889 0.56741 -1.0475 0.54933 -0.036782 -0.07521 -0.13064 
every -0.23024 -0.18855 0.20065 -0.97747 -0.54483 -0.62561 0.38552 0.046008 -0.21172 0.57272 
Israelis -0.3279 -0.092185 -0.3384 -1.0311 0.98386 -1.3114 0.63479 -0.45063 0.025191 -0.21609 
years. -0.071905 -0.16077 0.028975 -0.98995 0.16042 -0.80394 0.58575 0.14118 -0.29376 0.15611 
Relations -0.47999 -0.22928 0.007061 -0.82066 0.38031 -1.0734 0.60641 0.2529 -0.34925 -0.099694 
abuse -0.41617 -0.17554 0.11074 -0.97323 -0.09883 -0.84307 0.39191 0.030254 -0.13567 0.22793 
kilometres -0.23393 -0.077966 0.26269 -0.95865 0.21062 -0.98748 0.44364 0.1892 -0.14065 0.021218 
until -0.36532 -0.015918 0.015624 -0.91358 0.06594 -0.95147 0.50103 -0.04358 -0.14284 0.088419 
tried -0.3707 -0.23133 0.098954 -0.93306 0.34043 -1.1061 0.2772 0.037984 0.050213 -0.051578 
become -0.30943 -0.1512 0.041733 -0.94765 -0.16194 -0.72357 0.51597 0.0077977 -0.36744 0.21203 
Fire 0.44447 -0.19245 0.64022 -1.2496 -0.43456 -0.4926 0.11751 0.48495 -0.56266 0.60643 
alleged -0.13987 -0.14386 0.23963 -0.96288 0.2887 -1.1934 0.18076 0.18774 0.023957 -0.033033 
policy -0.23414 -0.14868 0.037421 -0.92876 -0.17332 -0.80174 0.47739 0.083862 -0.1634 0.30527 
job -0.29817 0.15863 -0.011452 -0.73014 -0.44408 -0.80389 0.59752 0.047052 -0.40874 0.17 
race -0.23623 0.12272 -0.12789 -0.87828 0.12137 -1.0007 0.55153 0.084974 -0.30908 -0.056355 
raids -0.4405 0.055256 0.062423 -0.97207 0.59969 -1.1253 0.52018 -0.20184 -0.073733 -0.19791 
Security -0.25179 -0.26211 0.012311 -0.99779 0.54335 -1.0733 0.49651 -0.13276 -0.044672 0.03434 
each -0.25856 0.074421 0.05647 -0.83658 -0.083764 -0.9344 0.56955 0.26072 -0.35617 0.015302 
said, -0.25902 -0.23099 0.28328 -1.0505 -0.28032 -0.65906 0.29252 -0.11605 -0.18789 0.41448 
deal -0.17886 -0.34216 0.20539 -0.84713 -0.13152 -0.9213 0.3724 0.21342 -0.14918 0.36828 
making -0.28803 -0.08816 0.0096906 -0.82431 -0.64894 -0.738 0.39803 0.1298 -0.52578 0.13695 
emergency -0.26612 -0.1099 0.065147 -0.91568 0.41001 -1.0744 0.52717 0.037593 -0.18953 -0.10363 
sent -0.19357 -0.27141 0.29263 -0.77914 -0.046579 -0.91439 0.52573 0.31398 -0.057896 0.13753 
plane -0.34638 -0.1023 0.082522 -0.96101 0.2565 -1.0639 0.36914 -0.16762 -0.031945 -0.043187 
McGrath -0.17043 -0.051306 -0.020217 -0.9169 0.27615 -1.0228 0.48797 0.020804 -0.22426 -0.031734 
seekers -0.48644 -0.44184 0.13376 -0.96734 0.12767 -0.66738 0.49504 -0.098521 -0.095709 0.32882 
immediately -0.36355 -0.227 0.043711 -0.96031 0.26305 -1.0306 0.46492 0.039272 -0.097878 0.042057 
opening -0.17873 0.038679 0.038125 -0.85227 0.24574 -1.1265 0.48156 -0.01966 -0.35637 -0.31265 
financial -0.30118 -0.27108 0.12209 -0.83559 0.11444 -1.009 0.40422 0.124 -0.10492 0.10687 
opposition -0.52953 -0.28352 0.024003 -0.82079 0.18808 -1.0265 0.48246 0.12408 -0.16336 0.077984 
beat -0.44952 0.047498 -0.059399 -1.057 -0.36293 -0.67571 0.42371 -0.24185 -0.28456 0.22016 
HIH -0.47638 -0.30372 0.11696 -0.78749 -0.012724 -0.80612 0.40415 0.14367 -0.23078 0.29014 
am -0.46544 0.14943 -0.027456 -0.98103 0.27046 -0.88687 0.48696 -0.33832 -0.11751 -0.088589 
proposed -0.22032 -0.21796 0.32289 -0.90467 -0.45117 -0.7144 0.30345 0.28281 -0.27091 0.30881 
evidence -0.40336 -0.16851 0.057301 -0.99487 0.063628 -0.8195 0.45084 -0.0023912 -0.15993 0.12882 
issue -0.20286 0.14266 0.12136 -0.92091 -0.2528 -0.76598 0.39263 0.30105 -0.31183 0.19294 
community -0.23492 -0.37318 0.25533 -0.91363 0.059018 -0.88329 0.39885 0.32284 -0.1588 0.23015 
suspected -0.34525 -0.10702 0.18567 -1.0473 0.27441 -0.84641 0.39509 -0.14546 -0.14767 -0.013768 
bombing -0.27627 -0.12407 -0.025868 -0.8967 0.11571 -0.88214 0.44439 -0.13446 -0.24008 -0.0067358 
deaths -0.080647 -0.10233 0.13786 -0.92447 0.033617 -0.85785 0.36213 0.16064 -0.30454 0.10584 
radical -0.14642 -0.02874 0.0063376 -0.8976 0.41309 -1.0202 0.49822 0.15056 -0.23713 -0.13541 
laws -0.21059 -0.044915 0.19047 -0.93203 0.11675 -0.97785 0.42655 0.20573 -0.3067 -0.03825 
went -0.45038 -0.11098 0.18192 -0.94314 -0.014208 -0.95047 0.4455 0.14278 -0.11996 0.082557 
allow -0.090794 -0.074926 0.1755 -0.97726 0.088112 -0.94784 0.37043 0.15258 -0.090754 0.18805 
result -0.29583 -0.18522 0.2357 -0.91104 0.0054902 -0.92295 0.34697 0.17311 -0.19238 0.17041 
"It's -0.37833 -0.11473 -0.013531 -1.0353 0.011208 -0.81535 0.59501 -0.086298 -0.14879 0.24644 
Senator -0.36911 -0.24955 0.33815 -1.0253 0.043189 -0.81357 0.30949 0.046325 -0.17431 0.24162 
Department -0.30033 -0.34507 0.26669 -0.84222 -0.049876 -0.91746 0.46195 0.35211 -0.11222 0.14093 
warplanes -0.29239 -0.09469 0.18425 -0.94719 0.32186 -0.9657 0.37826 -0.04488 -0.047268 0.035734 
Council -0.35524 -0.3422 0.12564 -0.89316 0.2501 -0.97434 0.483 0.20005 -0.14954 0.0051255 
Ariel -0.48719 0.037788 0.031469 -0.74902 -0.10285 -0.97876 0.61608 -0.13939 -0.040404 0.20097 
different -0.098991 -0.16926 0.22102 -0.98309 0.02349 -0.91166 0.49676 0.16403 -0.161 0.13375 
"There -0.19236 -0.17333 0.25456 -1.0477 -0.0088454 -0.76699 0.321 0.086953 -0.15734 0.26294 
rejected -0.28531 -0.049575 0.055564 -0.89875 0.026118 -0.95553 0.38317 0.037622 -0.12241 0.067581 
reported -0.19702 -0.19608 0.18906 -0.91063 -0.021168 -0.88541 0.3912 0.13244 -0.17061 0.17465 
One -0.1883 -0.021232 0.32823 -1.0043 0.34116 -1.0373 0.30109 -0.0078587 0.017532 -0.097623 
details -0.2459 -0.0043803 0.17589 -0.8699 -0.030403 -0.96819 0.41229 0.11994 -0.21326 0.03971 
hundreds -0.1179 -0.098527 0.14361 -0.99988 0.28367 -0.97639 0.47041 0.074146 -0.18637 -0.08792 
Secretary -0.35576 -0.20606 0.075651 -0.93688 0.191 -0.90759 0.51749 -0.11536 -0.036384 0.024759 
full -0.12038 0.14044 0.20748 -0.92319 -0.29811 -0.66853 0.4504 0.078529 -0.33246 0.34165 
calls -0.29975 -0.15709 0.15753 -0.84773 -0.14706 -0.86039 0.36401 0.27873 -0.19795 0.14575 
drop -0.42159 -0.13677 0.080038 -0.94191 0.11131 -1.0293 0.42309 -0.16101 -0.19606 0.01346 
growth -0.07259 -0.28981 0.27615 -1.0298 0.29384 -0.78796 0.46195 0.11602 -0.19833 0.19302 
hard -0.20498 -0.02465 0.1661 -0.9054 0.0013864 -0.94509 0.44938 -0.043615 -0.14109 0.10793 
fight -0.25409 -0.15276 0.3869 -1.0736 0.57205 -0.94709 0.49104 0.060624 -0.061899 -0.23552 
Woomera -0.24158 -0.055035 0.19377 -0.91819 -0.016829 -0.87466 0.50685 0.29162 -0.17826 0.2253 
allegations -0.30052 -0.30396 0.21668 -0.86851 -0.016164 -0.94555 0.37399 0.33265 -0.20512 0.17885 
caught -0.28616 -0.038503 0.10752 -0.95922 0.27824 -1.0011 0.51716 0.058671 -0.05291 -0.085257 
opened -0.16128 -0.099327 0.041465 -0.97883 0.51974 -1.1129 0.40655 -0.14017 -0.0966 -0.24245 
getting -0.60234 -0.078298 -0.16695 -0.90073 0.0048955 -0.99791 0.46585 -0.19268 -0.1735 -0.077584 
bombings -0.18144 -0.045621 -0.08839 -0.93942 0.35837 -0.94121 0.53292 -0.071254 -0.24936 -0.024677 
although -0.39983 -0.086445 0.2458 -1.0253 -0.13943 -0.83683 0.36993 -0.12281 -0.076385 0.21606 
building -0.17313 -0.06911 0.02497 -0.86335 -0.10145 -0.91135 0.46626 0.11933 -0.34054 -0.01262 
always -0.099338 -0.16392 0.23017 -0.99304 -0.091784 -0.71582 0.35264 0.086487 -0.2496 0.3216 
2 -0.15545 0.035836 -0.0077972 -0.98733 0.25396 -1.0182 0.48962 -0.015344 -0.22089 -0.24752 
look -0.20214 -0.12049 0.13222 -0.91602 -0.7254 -0.70241 0.40645 0.13836 -0.3255 0.44921 
Jewish -0.056948 -0.041342 0.04173 -0.94601 0.38495 -0.97229 0.52959 0.0022186 -0.2429 -0.076027 
source -0.33497 -0.087328 -0.1113 -0.9172 0.34065 -0.9776 0.57745 -0.1448 -0.21374 -0.012633 
flights -0.22701 -0.10587 0.22915 -0.90944 0.37374 -1.0377 0.47777 0.1837 -0.14216 -0.19452 
quite -0.25175 -0.22422 0.27164 -1.0326 -0.18216 -0.74256 0.33936 0.06437 -0.28912 0.29318 
killing -0.25686 -0.14649 -0.00014256 -0.90274 -0.12336 -0.98858 0.44911 0.0068644 -0.20173 -0.040376 
Strip -0.1356 -0.26696 0.18214 -0.98423 0.82974 -1.1219 0.42037 0.036817 -0.078735 -0.12709 
bid -0.37077 -0.23103 0.19757 -1.0146 0.81412 -1.2049 0.28057 -0.12465 0.22361 -0.28075 
understand -0.37883 -0.15315 0.098055 -0.94035 -0.0089921 -0.86651 0.40035 0.027029 -0.22866 0.048836 
year's -0.0078248 -0.09619 0.17557 -0.97446 0.1173 -0.83811 0.59289 0.18105 -0.29963 0.17022 
innings -0.17982 0.076362 -0.15785 -0.92241 0.49047 -1.13 0.59651 0.023168 -0.32511 -0.32717 
access -0.35938 -0.23449 0.048085 -0.88403 0.11329 -0.97133 0.5078 -0.035407 -0.18539 0.068704 
ago. -0.16745 -0.11987 0.047255 -0.98502 0.091684 -0.94066 0.48054 0.059722 -0.26523 0.11259 
young -0.052772 -0.1533 0.21176 -0.98047 -0.1703 -0.86867 0.28618 0.16079 -0.2614 0.1791 
himself -0.41513 -0.01386 -0.013133 -0.96159 -0.03035 -0.83948 0.4415 -0.073896 -0.18098 0.13272 
meet -0.6892 0.12278 -0.059613 -0.82415 0.1907 -1.1716 0.49659 -0.23193 -0.034196 -0.17992 
On -0.24926 0.2477 -0.054523 -0.80452 -0.51011 -0.76588 0.50566 0.037485 -0.20762 0.23825 
Commonwealth -0.23119 -0.14886 0.14519 -0.90128 -0.0035436 -0.92767 0.44947 0.10889 -0.23743 0.18265 
Bureau -0.16077 -0.021117 0.24038 -0.91542 0.17771 -0.8947 0.5087 -0.02436 -0.29051 0.085372 
targets -0.14882 -0.11944 0.053442 -0.94995 0.34197 -0.88971 0.48677 -0.026809 -0.26734 0.032219 
"We're -0.086301 -0.012208 0.073553 -0.97498 0.04867 -0.88478 0.40897 0.088269 -0.24305 0.13491 
militant -0.4391 -0.29585 0.026277 -0.95421 0.69054 -1.1851 0.54031 -0.11661 -0.024484 -0.18447 
running -0.079897 0.05711 0.038853 -0.91501 -0.13324 -1.0015 0.39354 0.18559 -0.45126 -0.18506 
caves -0.28691 0.11883 0.066076 -1.0442 0.57614 -0.99247 0.55009 -0.031571 -0.032725 -0.20788 
declared -0.052889 -0.05141 0.15401 -0.96843 0.46864 -1.0297 0.46719 0.10203 -0.21326 -0.12957 
reached -0.44212 -0.16723 0.12568 -0.91301 0.024306 -0.90236 0.39833 0.062853 -0.08777 0.046893 
18 0.054921 -0.11309 0.11605 -0.77062 -0.060609 -0.92333 0.35447 0.30628 -0.45244 0.18787 
20 -0.22533 -0.1106 0.14139 -0.8831 0.4986 -1.1438 0.49541 0.11371 -0.20783 0.0040105 
among -0.49796 -0.27051 0.11415 -0.94687 0.47517 -0.96776 0.47731 -0.12582 -0.13888 -0.090727 
based -0.25069 -0.22415 0.25071 -0.98506 0.13426 -0.90901 0.29891 0.037888 -0.048462 0.078416 
Howard -0.094855 0.025978 0.21725 -1.0421 -0.22107 -0.83696 0.3628 0.026865 -0.2639 0.11659 
try -0.46085 -0.26442 0.20995 -0.99564 0.10121 -0.90349 0.35863 -0.057345 -0.12138 0.15032 
believes -0.67137 -0.17036 0.26685 -1.0768 0.14739 -0.72407 0.35888 -0.36828 -0.040496 -0.0035927 
July -0.32955 -0.36062 0.39482 -0.94008 -0.14972 -0.71303 0.32794 0.19853 -0.2126 0.25866 
actually -0.2289 -0.073151 0.14274 -0.93537 -0.43631 -0.73256 0.33608 0.085956 -0.31936 0.35602 
currently -0.30254 -0.11033 0.17194 -0.84159 -0.084001 -0.8061 0.50987 0.17284 -0.28415 0.13813 
announced -0.42028 -0.18456 0.18197 -0.9778 0.14524 -0.92541 0.39784 -0.054199 -0.044202 0.042121 
clear -0.01766 -0.14938 0.25252 -1.0235 -0.07958 -0.72622 0.41753 -0.029375 -0.27612 0.2745 
State -0.37626 -0.24598 0.14162 -0.87221 0.56295 -1.087 0.61413 0.022581 -0.19923 -0.25108 
Parliament -0.46191 -0.25638 0.23833 -0.90053 0.43435 -0.99233 0.53144 0.1489 -0.10922 -0.11228 
here -0.29754 -0.28154 0.27744 -1.0449 -0.3836 -0.61764 0.23703 0.12542 -0.27986 0.43399 
Britain -0.41509 -0.16547 0.19246 -0.93156 0.4166 -1.0847 0.5131 0.12528 -0.23074 -0.25184 
year, -0.10651 -0.013289 0.075046 -0.9704 0.31971 -0.93009 0.60224 0.21259 -0.30398 0.0022467 
executive -0.15144 0.032854 0.10856 -0.85138 -0.23817 -0.86353 0.43772 0.14153 -0.40333 0.21818 
surrender -0.39416 -0.1037 0.12542 -0.92244 0.022295 -0.92797 0.50559 0.03057 -0.17871 0.13987 
Alexander -0.39375 -0.070985 0.019329 -0.82865 0.25753 -1.1342 0.5418 -0.13856 -0.035291 -0.0044781 
flying -0.12358 -0.085658 0.0039751 -0.90072 -0.052444 -0.98421 0.44649 0.076044 -0.35365 -0.11421 
weekend -0.27191 -0.20531 0.14953 -1.0588 0.21455 -0.8166 0.39648 -0.052563 -0.24843 0.1731 
time. -0.27678 -0.035373 0.015089 -0.85877 -0.17774 -0.82998 0.40956 0.0045983 -0.29376 0.14535 
human -0.325 0.040529 0.1051 -0.91902 0.32687 -1.0524 0.5324 0.015324 -0.20708 -0.086047 
Immigration -0.62166 -0.32346 0.16311 -0.83192 0.17072 -0.95213 0.47813 0.17228 -0.11817 0.084171 
days. -0.21962 -0.072669 0.16506 -0.92774 0.24268 -1.0086 0.4454 0.040181 -0.32095 -0.066109 
airline -0.23745 -0.10759 0.25576 -1.0061 -0.017262 -0.93116 0.33664 0.060348 -0.14106 0.0597 
river -0.31547 -0.14686 0.24461 -0.79813 -0.53261 -0.88609 0.33665 0.082408 -0.27995 0.35627 
annual -0.07151 -0.0082519 0.10891 -0.90364 0.13375 -0.95719 0.39925 0.14119 -0.27644 0.024862 
yet 0.032871 0.011395 0.30045 -0.93906 -0.21429 -0.78424 0.52674 0.21043 -0.27387 0.25205 
we're -0.11724 -0.2325 0.16908 -1.0447 -0.12363 -0.72712 0.359 0.076173 -0.26036 0.31823 
travel -0.24645 -0.12484 0.29633 -0.85444 -0.19344 -0.84535 0.40432 0.08839 -0.29996 0.27319 
sex -0.12885 -0.17146 0.17803 -0.94059 0.29546 -0.91931 0.50233 0.047885 -0.077329 0.21403 
expect -0.24927 -0.091875 0.0239 -0.89745 -0.25451 -0.82458 0.39189 0.11725 -0.31161 0.24229 
outside -0.29979 -0.087116 0.094266 -0.8943 0.00045409 -0.93309 0.41995 0.077897 -0.32089 0.0948 
gave -0.20511 0.10134 0.27444 -1.0108 -0.50872 -0.68088 0.28404 0.065595 -0.31698 0.37159 
future -0.13391 -0.038217 0.22378 -1.0037 0.1114 -0.96022 0.29762 0.099481 -0.26009 0.013145 
people, -0.12077 -0.13285 0.064225 -0.89586 0.20543 -0.92167 0.52999 0.11773 -0.3363 0.041737 
Kallis -0.22297 0.042648 0.024925 -0.89704 -0.25563 -0.93736 0.43078 0.055985 -0.2876 0.061194 
arrived -0.20971 -0.11303 0.15902 -1.0245 0.44714 -1.0242 0.40287 -0.048344 -0.0052894 -0.069317 
responsibility -0.10669 -0.19514 0.24343 -1.0107 0.27539 -0.92534 0.34749 0.13125 -0.22071 -0.023336 
Chief -0.21446 -0.028111 0.10836 -0.85874 0.050764 -0.97388 0.51436 0.1159 -0.30729 0.038645 
sources -0.26177 -0.10926 0.082926 -0.91144 0.37326 -0.96432 0.54344 -0.004703 -0.21427 -0.05484 
expressed -0.29158 -0.1309 0.084792 -0.89884 0.067026 -0.92867 0.46335 -0.021058 -0.17247 0.10516 
again -0.28054 0.10503 -0.031662 -0.87632 0.13049 -1.0395 0.5817 0.1995 -0.31702 -0.13758 
needs -0.69947 -0.16154 0.12364 -1.0156 0.20539 -0.97623 0.36055 -0.27137 -0.10422 -0.095865 
times -0.19059 -0.082645 0.23329 -0.95971 -0.10218 -0.79772 0.4028 0.085123 -0.26922 0.19396 
leader, -0.63614 -0.15872 -0.021229 -0.97841 0.23224 -1.0678 0.37307 -0.24234 0.069236 0.059875 
media -0.36359 -0.33511 0.11944 -0.96789 0.53827 -1.1395 0.51612 0.081919 -0.025864 -0.17633 
overnight 0.0026782 -0.16337 0.5379 -1.0077 0.30795 -0.95688 0.40591 0.4137 -0.20355 0.067067 
caused -0.32583 -0.15928 0.24236 -1.1669 0.65764 -1.1243 0.40977 -0.038673 0.019246 -0.15685 
investigation -0.24167 -0.16591 0.095002 -0.84671 0.093706 -0.96468 0.47883 0.28363 -0.23212 0.12051 
victory -0.14237 -0.031346 -0.040868 -0.86656 0.10501 -0.99638 0.47517 0.052506 -0.37078 0.020271 
cost -0.33531 -0.31573 0.21847 -0.93661 0.098379 -0.70413 0.42365 0.12404 -0.28671 0.21083 
means -0.21139 -0.21608 0.035407 -0.95129 0.066174 -0.84813 0.46002 0.059957 -0.26126 0.21452 
guides -0.195 -0.11011 0.1319 -0.89564 0.31203 -1.038 0.43995 0.011187 -0.29771 -0.16936 
Afghanistan's -1.0852 -0.42476 0.11174 -1.0582 1.0038 -1.1647 0.58459 -0.38897 0.24901 -0.34677 
Test. -0.35461 0.17268 -0.081656 -0.87091 -0.061653 -0.94691 0.54565 -0.035941 -0.46732 -0.15517 
parties -0.25651 -0.23092 0.10005 -0.87591 -0.013637 -0.92388 0.46985 0.22713 -0.19787 0.16205 
November -0.15432 -0.02002 -0.035073 -0.88768 0.66978 -1.2153 0.60292 -0.031687 -0.15572 -0.21273 
away -0.026386 -0.011804 0.03243 -0.95371 0.010804 -0.85442 0.58628 0.049947 -0.38244 0.091771 
Glenn -0.2025 0.10252 -0.18489 -0.82056 -0.064589 -0.94112 0.5735 0.08154 -0.16768 0.098507 
night. 0.14726 -0.13411 0.43348 -0.98423 0.48031 -1.0034 0.48321 0.56319 -0.26636 -0.052575 
less -0.34774 -0.087851 0.020444 -0.975 0.24762 -0.89823 0.53689 -0.19108 -0.17694 0.10416 
gives -0.30648 0.00095754 0.12032 -0.87802 -0.081254 -0.92676 0.50007 0.22389 -0.18439 -0.0023295 
refused -0.20994 -0.12008 0.043993 -0.95577 0.43249 -1.1323 0.47532 0.082949 -0.042781 -0.082605 
decided -0.25164 -0.15128 0.14698 -0.93189 0.42 -1.1056 0.4041 0.03367 -0.13229 -0.021897 
wage -0.15918 -0.18509 0.15199 -0.94062 0.094331 -0.86955 0.37411 0.32563 -0.27524 0.11126 
certainly -0.36459 -0.25731 0.20807 -0.96518 -0.3249 -0.76573 0.36741 0.088155 -0.2325 0.37688 
face -0.41217 -0.10768 0.014726 -0.9521 0.52086 -1.1 0.50755 0.03151 -0.021106 -0.17162 
having -0.21479 -0.094558 0.02323 -0.92666 -0.26909 -0.80156 0.35772 -0.052212 -0.30304 0.14079 
bombers -0.25448 -0.24683 -0.018675 -1.0088 0.98883 -1.1495 0.57514 -0.24854 0.0085853 -0.30157 
13 -0.2514 -0.17806 0.23568 -0.97128 0.20978 -0.84804 0.46292 0.032578 -0.44878 -0.12467 
More -0.17663 -0.063707 0.21824 -0.97878 0.1765 -0.85505 0.40461 0.18004 -0.35206 0.12186 
Musharraf -0.31525 -0.17799 0.15549 -0.96105 0.086704 -0.96223 0.36748 -0.010628 -0.14574 0.11553 
Sir -0.079121 -0.16903 0.152 -0.92032 -0.10546 -0.7863 0.37201 0.1975 -0.27092 0.33351 
Western -0.35848 -0.0024335 0.15828 -1.0712 0.76845 -1.0325 0.61841 -0.21278 -0.080128 -0.20051 
Warne -0.17762 0.088479 0.051883 -0.98411 0.27026 -1.0481 0.45843 0.04756 -0.20877 -0.23601 
we've -0.27202 -0.062883 0.079416 -1.1073 -0.22395 -0.74813 0.32714 -0.062417 -0.18222 0.27504 
returned -0.25684 -0.014633 -0.013888 -0.9261 0.34609 -1.0596 0.40779 -0.1468 -0.081473 -0.062052 
house -0.25438 -0.19207 0.098137 -1.08 0.3123 -0.92787 0.35562 0.0027978 -0.076825 0.14032 
figures -0.24194 -0.11312 0.34844 -0.95948 -0.0096087 -0.81971 0.48248 0.17377 -0.29287 0.066865 
soon -0.50325 -0.24627 0.077906 -0.85691 -0.057127 -0.89574 0.49108 -0.072185 -0.13845 0.16944 
Opposition -0.55172 -0.28795 0.025411 -0.82279 0.15422 -1.0296 0.43879 0.087711 -0.12644 0.081617 
Energy -0.52219 0.0083993 0.13363 -0.99076 0.077371 -0.91272 0.46538 -0.10207 -0.15002 -0.045709 
appeared -0.07688 -0.12422 0.15721 -0.98941 0.32351 -1.022 0.33754 0.039885 -0.14885 -0.028518 
"What -0.11813 -0.12509 0.11716 -0.96938 0.18886 -0.96622 0.43089 -0.085791 -0.11728 0.12231 
parts -0.15738 -0.13451 -0.028285 -0.92109 0.36979 -1.0102 0.59461 0.23022 -0.24569 -0.019808 
point -0.31625 -0.15522 0.11486 -0.85343 -0.091388 -0.86706 0.49356 0.15778 -0.21028 0.15196 
weeks -0.31093 -0.12954 0.15842 -1.0454 0.14362 -0.78349 0.3397 -0.15216 -0.18535 0.086455 
step -0.24769 -0.085087 0.14128 -1.0074 -0.053275 -0.74336 0.48037 -0.027143 -0.17706 0.29505 
Hicks -0.7295 -0.27189 -0.031627 -1.0161 0.38705 -1.0018 0.4731 -0.20284 0.079142 -0.086215 
ended -0.46385 -0.18155 -0.094221 -0.89408 0.8742 -1.3229 0.50061 -0.12044 0.0057563 -0.33374 
big -0.10401 0.029808 -0.11517 -1.132 0.90247 -1.2428 0.42649 -0.23731 -0.041625 -0.43859 
run -0.026621 0.058854 0.23927 -0.88576 0.22445 -0.97455 0.42719 0.25457 -0.43438 -0.13246 
Robert -0.18885 -0.24728 0.16502 -0.98001 0.23693 -0.83256 0.53339 0.0054403 -0.14761 0.18343 
rather -0.3921 -0.18474 0.26465 -1.0403 -0.1311 -0.66115 0.3769 -0.095472 -0.27836 0.36664 
dispute -0.38151 -0.13673 -0.055228 -0.96796 0.28504 -0.99155 0.46686 -0.097563 -0.17168 -0.066103 
thousands -0.20815 -0.052841 0.13491 -1.0094 0.16653 -0.96091 0.44757 0.058202 -0.20876 0.060942 
countries -0.30045 -0.16149 0.20757 -0.9137 0.050078 -0.93056 0.44059 0.26011 -0.20321 0.065365 
Reserve -0.12533 -0.037669 0.16344 -0.95301 0.48337 -0.99076 0.5605 0.14818 -0.23771 -0.18154 
biggest -0.17696 -0.16626 0.0047131 -0.98654 0.71474 -1.1002 0.51817 -0.038413 -0.11861 -0.14601 
can't -0.14316 -0.038243 0.029441 -0.95136 -0.084281 -0.90605 0.38663 0.036244 -0.27861 0.048795 
region -0.67664 -0.11581 0.1894 -0.92088 0.14594 -1.015 0.44602 0.078378 0.019968 -0.07271 
issues -0.18967 0.2033 0.15594 -0.96702 -0.22947 -0.86135 0.43302 0.28347 -0.29927 0.10877 
beyond -0.31479 -0.26768 0.24727 -1.0479 -0.071206 -0.80629 0.36612 -0.041367 -0.24782 0.18122 
huge -0.081257 0.32418 0.050619 -0.83504 -0.26709 -0.95097 0.45568 0.19193 -0.39068 0.031293 
them. -0.22048 -0.31103 0.13912 -0.97638 -0.10318 -0.75878 0.42885 -0.033493 -0.25774 0.35585 
break -0.034984 -0.16235 0.10839 -0.87804 -0.10658 -0.79174 0.56585 0.22224 -0.2667 0.28082 
ensure -0.13504 -0.10694 0.22563 -0.9484 -0.052151 -0.80939 0.35235 0.16253 -0.32167 0.21016 
ground -0.23677 -0.18518 0.27125 -1.0726 0.19723 -0.85167 0.26207 -0.030968 -0.17042 0.04772 
tourists -0.36032 -0.11573 0.067654 -0.80911 0.14706 -1.072 0.548 0.14094 -0.24755 -0.11331 
shortly -0.22155 -0.017607 0.093779 -1.0259 0.31995 -0.92463 0.50257 0.045857 -0.19887 0.016661 
something -0.21869 -0.1265 0.17115 -0.92387 -0.29442 -0.71776 0.42465 0.14374 -0.37656 0.23146 
terms -0.45899 -0.1411 0.16535 -0.99854 -0.086348 -0.81406 0.37841 -0.10845 -0.26085 0.059 
top -0.52027 0.15306 -0.28095 -0.71283 -0.35815 -1.0341 0.46039 -0.13882 -0.28352 0.043035 
safety -0.1443 -0.1671 0.089085 -0.86247 0.047306 -0.9441 0.42246 0.14677 -0.2587 0.1754 
whose -0.15884 -0.16834 0.28541 -0.90295 0.061624 -0.948 0.33678 0.10392 -0.17018 0.067711 
order -0.61937 -0.18925 -0.087087 -0.87335 0.32193 -1.1745 0.53799 -0.12251 -0.097608 -0.11936 
21 -0.35252 -0.3032 0.19308 -0.73447 0.1381 -1.053 0.5186 0.49776 -0.37451 -0.02863 
seven -0.32449 -0.090214 0.01174 -0.86455 0.13791 -0.91959 0.56921 -0.12242 -0.083617 0.06326 
worst -0.093513 0.13321 0.21029 -0.89142 -0.16556 -0.82448 0.47646 0.23528 -0.4839 0.10489 
200 -0.07257 0.050468 0.089691 -0.95671 -0.28409 -0.75853 0.45668 0.16083 -0.44957 0.24796 
changes -0.23516 -0.19769 0.32922 -0.90195 -0.31492 -0.78549 0.30952 0.20265 -0.23301 0.35419 
Mountains -0.52557 -0.0070327 0.1814 -1.1009 0.42383 -0.93624 0.50681 0.024818 -0.13433 -0.11177 
1,000 -0.13408 -0.0031082 -0.0071555 -1.0484 0.062027 -0.81847 0.46957 0.075143 -0.34528 0.0069611 
attempt -0.21777 -0.13646 0.037072 -0.99718 0.42526 -1.057 0.46832 -0.007266 -0.13694 -0.073133 
wave -0.1237 0.06939 0.13382 -0.97782 -0.31499 -0.75068 0.31747 0.15389 -0.31235 0.26425 
She -0.57889 0.024528 0.29046 -0.75118 -0.40824 -0.97542 0.2939 -0.14587 -0.20861 0.24839 
heavy -0.25764 -0.17552 0.18984 -0.94983 0.12568 -0.86752 0.3063 -0.017535 -0.095908 0.13068 
banks -0.21874 -0.1408 0.14122 -0.9399 0.16793 -0.85874 0.41583 0.11357 -0.21469 0.05204 
struck -0.21501 -0.12046 0.25122 -0.90835 0.044797 -0.91014 0.40803 0.11327 -0.32215 0.14165 
bill -0.51599 -0.271 -0.00073813 -0.9119 0.64295 -1.1705 0.52009 0.043544 0.089397 -0.25129 
massive -0.32483 -0.06258 -0.013938 -0.83339 -0.061484 -0.86455 0.4527 0.091288 -0.25824 0.15906 
foreign -0.4108 -0.35808 0.051144 -0.92501 0.25962 -1.0232 0.3764 0.024047 -0.0070203 -0.0068743 
Monday -0.30755 0.021482 0.19795 -0.85557 0.11402 -0.9588 0.44421 0.17013 -0.24844 -0.019671 
residents -0.18282 -0.17343 0.16833 -0.89066 0.055371 -0.95199 0.4216 0.31978 -0.299 0.0037635 
Detention -0.39476 -0.14458 0.15996 -0.82447 0.041516 -0.93888 0.51081 0.35091 -0.20424 0.057306 
protect -0.15792 -0.18836 0.083067 -0.88514 -0.20558 -0.83509 0.45219 0.19162 -0.32459 0.25114 
crash -0.37378 -0.15719 0.27305 -0.95702 0.087902 -0.82382 0.34335 0.042488 -0.15859 0.054763 
Kabul -0.26443 -0.16481 0.3114 -0.94373 -0.19575 -0.79068 0.40535 0.15031 -0.24102 0.28756 
Jacques -0.16548 0.058804 0.152 -0.97539 0.056449 -0.92379 0.45371 0.11116 -0.24996 -0.015329 
gunmen -0.063602 -0.13022 0.0073489 -0.93044 0.24926 -1.0779 0.53094 -0.0072605 -0.221 -0.029566 
River -0.34144 -0.19561 0.22203 -0.75358 -0.077981 -1.023 0.34737 0.094786 -0.17132 0.1026 
denied -0.38527 -0.30648 0.16933 -0.94346 0.72253 -1.2464 0.36061 -0.068193 0.098559 -0.25226 
Governor-General -0.32618 -0.34426 0.26649 -0.91605 0.058059 -0.92269 0.40493 0.17553 -0.14275 0.17862 
act -0.50422 -0.27666 0.10494 -1.0576 0.42009 -1.0005 0.3776 -0.14642 -0.01395 -0.10325 
Safety 0.075012 -0.13791 0.25712 -0.92599 0.1798 -0.91217 0.42602 0.34453 -0.34069 0.074462 
he's -0.76149 -0.25187 0.16369 -1.0071 -0.25816 -0.7671 0.30205 -0.32931 0.036876 0.21559 
general -0.34393 -0.29248 0.27743 -0.82782 -0.18493 -0.88201 0.34027 0.26915 -0.13627 0.16395 
inside -0.18642 -0.14043 0.18562 -0.95672 -0.01729 -0.88924 0.36219 0.24348 -0.22756 0.077796 
"In -0.37246 0.014417 -0.04582 -0.72871 -0.92338 -0.67055 0.44785 0.30004 -0.49557 0.20112 
feel -0.18015 -0.17165 0.10289 -1.0476 -0.39224 -0.67754 0.40273 0.046544 -0.27883 0.51188 
beginning -0.31562 -0.040915 0.044385 -0.94139 0.12054 -0.97017 0.45147 -0.047391 -0.3183 -0.19903 
it, -0.058407 0.022432 0.35018 -0.94972 -0.4629 -0.56738 0.37619 0.096636 -0.4813 0.30966 
Israel, -0.31752 -0.079865 -0.38344 -0.98436 0.97659 -1.2919 0.65736 -0.39128 0.072302 -0.12737 
Pakistani -0.88321 -0.48353 0.10139 -0.98664 0.71346 -1.2353 0.44264 -0.25487 0.059342 -0.40104 
decide -0.18269 -0.13465 0.062756 -0.90553 0.10744 -0.99522 0.40557 0.15254 -0.20989 0.15111 
though -0.43559 -0.026187 0.16191 -0.99179 -0.087738 -0.82109 0.37879 -0.17426 -0.10786 0.15234 
Russian -0.41079 -0.094812 -0.0072505 -0.90948 0.27982 -1.0214 0.55015 -0.10899 -0.13083 -0.074736 
trees -0.045673 -0.030206 0.30045 -0.91687 -0.1976 -0.84275 0.45741 0.4433 -0.34606 0.24949 
giving -0.11861 0.065388 -0.08762 -0.88097 0.031239 -1.0487 0.46707 -0.0079952 -0.36886 -0.17169 
attacks. -0.25392 -0.032236 0.016311 -1.1569 1.1794 -1.3267 0.5168 -0.23359 -0.076471 -0.64156 
commanders -0.46258 -0.24119 0.10232 -0.96894 0.4164 -1.0378 0.4784 -0.054836 -0.077072 -0.14536 
president -0.33677 -0.30219 0.11797 -0.84533 0.16699 -1.0107 0.424 0.19408 -0.20011 0.0065484 
witnesses -0.14075 -0.027639 0.11048 -0.9081 0.07699 -0.87359 0.48174 0.018874 -0.28779 0.079268 
"They -0.2338 -0.139 0.11731 -1.0643 0.39083 -0.97842 0.42528 -0.15528 -0.069783 -0.059073 
fact -0.60335 -0.19652 0.11474 -1.006 -0.10808 -0.7693 0.35506 -0.13315 -0.030147 0.2337 
longer -0.55887 -0.24209 0.29306 -0.99047 0.18211 -0.94771 0.3721 -0.19865 -0.02897 0.17724 
Powell -0.51358 -0.10002 0.075846 -1.0233 -0.023909 -0.83873 0.41738 -0.22141 -0.25485 0.096454 
collapse -0.19438 -0.084022 0.080058 -0.90043 0.00063324 -0.83945 0.49146 0.062255 -0.23982 0.1335 
boy -0.16384 -0.11246 0.014311 -1.1305 0.25015 -0.68509 0.4744 -0.26999 -0.076922 0.1922 
involved -0.23396 -0.1966 0.18392 -1.0082 0.052488 -0.92838 0.3691 0.11502 -0.10534 0.17506 
forward -0.23214 -0.14703 0.15094 -0.98371 -0.23519 -0.98797 0.36629 0.099242 -0.22711 0.1875 
militia -0.43077 -0.22653 -0.067671 -0.92817 0.68308 -1.1518 0.55044 -0.1347 -0.026065 -0.12228 
situation -0.5339 -0.14488 0.032761 -0.79896 0.25281 -1.0406 0.50343 0.18194 -0.12588 0.0018157 
ASIO -0.23567 -0.30546 0.39225 -0.89077 -0.5876 -0.67046 0.27892 0.33283 -0.21739 0.49707 
response -0.1571 -0.087453 0.26491 -0.95863 -0.086937 -0.78355 0.31053 0.20016 -0.26188 0.041097 
As -0.34266 -0.024876 0.19252 -0.9934 0.56732 -1.1094 0.45626 0.15147 -0.27764 -0.42731 
disease -0.030411 0.047909 0.062412 -0.95125 0.2199 -0.95773 0.42018 0.080438 -0.22037 0.027476 
placed -0.31413 -0.078587 0.059193 -0.94205 -0.040332 -0.99733 0.36912 -0.054451 -0.2258 0.095615 
chance -0.52828 -0.12485 0.095101 -1.0493 -0.17369 -0.78443 0.39704 -0.036474 -0.14919 0.25015 
address -0.21817 0.010137 0.092077 -0.89644 -0.15827 -0.90724 0.42719 0.10645 -0.30291 0.22053 
States. -0.16341 -0.15763 0.15576 -0.92377 0.64676 -1.1334 0.57526 -0.03691 -0.25793 -0.2704 
party -0.35005 -0.18344 -0.040608 -0.96678 0.11393 -0.97366 0.46049 -0.010412 -0.17804 0.11221 
entered -0.19469 -0.22309 0.15619 -0.87189 0.35959 -0.97711 0.5195 0.14584 -0.16542 -0.056635 
Day -0.26448 -0.067392 -0.0062925 -0.9677 0.62361 -1.1215 0.65933 -0.16353 -0.13543 -0.27834 
short -0.29861 -0.096258 0.051112 -0.99715 0.2501 -0.87024 0.50111 0.013569 -0.15373 0.040428 
Boxing -0.17312 0.25159 -0.16338 -0.84506 -0.1219 -1.0209 0.54002 0.042375 -0.49181 -0.31169 
Martin -0.23051 0.14617 -0.1226 -0.81136 -0.39254 -0.929 0.4845 0.17899 -0.31655 0.10688 
Donald -0.3668 -0.31585 0.18055 -0.88702 -0.082501 -0.83075 0.43068 0.057527 -0.060287 0.3466 
Local -0.4166 -0.31576 0.13843 -0.79674 -0.091945 -0.97806 0.37698 0.074839 -0.084672 0.20961 
followed -0.068441 0.044316 0.091602 -0.93525 0.32473 -1.0785 0.4884 0.17029 -0.1689 -0.057822 
warned -0.27548 -0.099088 0.13718 -0.94938 0.18932 -0.9183 0.2788 -0.048953 -0.1141 -0.11389 
48 -0.84419 -0.18653 0.29293 -0.83778 0.3217 -0.97718 0.43714 -0.17774 0.010283 -0.20241 
serious -0.32479 -0.19952 0.01172 -0.87772 0.61493 -1.0947 0.58385 -0.10002 -0.019106 -0.014508 
inquiry -0.29588 -0.25489 0.087912 -0.87935 0.29723 -1.0276 0.47503 -0.048841 -0.10658 -0.055423 
sort -0.051322 -0.15173 0.14363 -0.88693 -0.18115 -0.69567 0.41564 0.012624 -0.30785 0.38157 
prevent -0.17982 -0.1031 0.17494 -0.90397 -0.22325 -0.77348 0.48222 0.2477 -0.2021 0.29359 
strike -0.26249 -0.10207 0.077732 -0.93117 0.2996 -0.95785 0.51303 0.083574 -0.1658 0.014509 
Anglican -0.1808 -0.056134 0.25429 -1.002 -0.16747 -0.79432 0.39045 0.19596 -0.15251 0.22658 
cancer -0.2918 -0.14501 0.19404 -0.87255 0.014863 -0.88379 0.3752 0.15281 -0.1911 0.11058 
bring -0.082268 0.0039916 -0.0066104 -0.83081 -0.13348 -0.92132 0.54214 0.17418 -0.4141 -0.034829 
available -0.32264 -0.075275 0.033305 -0.98118 0.086585 -0.90595 0.42473 -0.20275 -0.16315 0.13557 
morning, 0.071681 -0.084214 0.37602 -0.92478 -0.07168 -0.85084 0.41671 0.25985 -0.39865 0.13377 
Brett -0.39988 0.12227 -0.14695 -0.84352 0.26524 -1.0828 0.5565 -0.031347 -0.19666 -0.13479 
money 0.10693 -0.24461 0.33205 -0.98638 -0.26491 -0.85389 0.28839 0.2983 -0.35361 0.30637 
Muslim -0.37519 -0.1731 0.21203 -0.97612 -0.01014 -0.85301 0.41571 0.0089575 -0.18362 0.096238 
mountains -0.52235 -0.0313 0.19906 -1.0696 0.45976 -0.95238 0.44859 -0.0063259 -0.10718 -0.17352 
main -0.4307 -0.096279 0.18151 -0.87066 -0.3373 -0.87146 0.37781 0.24209 -0.3128 0.046284 
overnight. -0.05978 -0.17425 0.50098 -0.97825 0.32724 -0.98814 0.44684 0.38269 -0.20557 0.056648 
border -0.61028 -0.14578 0.017971 -0.95586 0.41711 -1.0875 0.48467 -0.21194 0.0062121 -0.20204 
current -0.15874 -0.1446 0.20205 -0.79474 -0.091161 -0.85191 0.54808 0.33502 -0.32097 0.15464 
AFP -0.43069 -0.06174 0.041412 -1.035 0.36056 -0.91176 0.55137 -0.32412 0.032452 -0.011461 
Daryl -0.49073 -0.11078 0.0059247 -0.9298 0.20923 -0.97749 0.41212 -0.31057 -0.061639 -0.028531 
level -0.23517 -0.16461 0.18845 -1.0032 0.53353 -0.97729 0.52615 -0.16901 -0.1271 0.019749 
never -0.47821 -0.085864 0.14045 -0.78639 0.063474 -1.027 0.46941 -0.1867 -0.1437 0.026296 
cannot -0.32269 -0.13929 0.24225 -1.0206 -0.03028 -0.9009 0.3505 -0.049398 -0.092678 0.139 
royal -0.54 -0.23168 0.16237 -0.86746 0.082618 -0.9545 0.37876 -0.044377 -0.038106 0.020396 
calling -0.27627 -0.10037 0.003318 -0.8251 -0.072697 -1.0253 0.38615 0.12013 -0.18733 -0.10744 
Anthony -0.29676 -0.056315 -0.14688 -0.86255 0.1869 -0.96764 0.48321 0.04497 -0.19118 0.084065 
lives -0.33202 -0.28284 0.25269 -1.0548 0.70137 -1.1561 0.44864 -0.04875 0.078248 -0.23948 
according -0.36104 -0.20245 0.088021 -0.90923 0.24059 -1.0262 0.48457 0.03779 -0.21451 -0.22357 
Geoff -0.18856 -0.29532 0.25044 -1.0282 -0.25594 -0.67297 0.33488 0.17971 -0.23647 0.43254 
state's -0.18054 -0.27202 0.37814 -1.1113 0.30717 -0.89957 0.35238 -0.019664 -0.18023 0.1016 
"This -0.42224 -0.05965 0.14074 -0.88887 -0.14413 -0.90186 0.42267 -0.049023 -0.23884 0.11355 
movement -0.15536 -0.36437 0.16587 -0.91736 0.45287 -1.0791 0.48025 0.20168 -0.027551 -0.036841 
Justice -0.16172 -0.08131 0.01455 -0.8468 -0.25169 -0.91213 0.50762 0.17318 -0.24023 0.29564 
Vaughan -0.52576 -0.039893 0.10583 -0.93523 0.36761 -1.0281 0.5194 0.0068841 -0.16615 -0.14374 
deadly -0.20142 -0.12306 -0.062067 -0.97255 0.40423 -0.8879 0.50728 -0.052048 -0.19292 0.084739 
ruled -0.071221 -0.070779 0.19589 -0.96566 0.27633 -1.0952 0.38484 0.27097 -0.084554 -0.013572 
fast -0.37751 0.026316 -0.011812 -0.89545 0.23886 -1.0078 0.54184 0.22559 -0.32299 -0.14724 
led -0.35603 -0.40632 0.26926 -1.1032 0.86261 -1.1361 0.38627 -0.12178 0.28368 -0.1525 
insurance -0.28391 -0.13389 0.054707 -0.92632 0.23121 -0.92442 0.46559 0.15454 -0.19599 0.050628 
burning -0.16641 -0.098378 0.33981 -0.95832 -0.2186 -0.84922 0.37866 0.13416 -0.35948 0.076853 
fired 0.24878 -0.16657 0.38399 -1.1783 0.50918 -0.91939 0.31095 0.27848 -0.22079 -0.022189 
anything -0.18968 -0.25379 0.13284 -0.87075 -0.4172 -0.75594 0.36244 0.088717 -0.29159 0.26666 
study 0.0016092 -0.019816 0.10753 -0.98043 0.24135 -0.87145 0.48581 0.057884 -0.26077 0.080121 
"These -0.45929 -0.19157 0.10329 -0.98596 0.10077 -0.87076 0.40393 -0.10262 -0.096417 0.082231 
trip -0.25091 -0.34149 0.097458 -0.86118 0.71392 -1.1633 0.39403 0.025984 -0.16656 -0.15394 
Workers -0.55923 -0.13892 0.13249 -0.86279 -0.048219 -0.84642 0.50666 -0.00838 -0.098121 0.067299 
speaking -0.37817 -0.098246 0.004995 -0.87793 -0.15698 -0.88181 0.432 0.067994 -0.26448 -0.022681 
White -0.60335 -0.1973 0.2229 -0.93662 0.36819 -0.92215 0.37535 -0.068352 -0.12827 -0.17589 
cent. -0.11218 -0.078002 0.27892 -0.91788 0.18222 -0.98627 0.5622 0.40077 -0.24635 0.040361 
difficult -0.25006 -0.2152 0.12371 -0.9856 0.1282 -0.83924 0.4174 0.041246 -0.22196 0.079786 
rule -0.2409 -0.055641 0.12339 -0.86898 0.12055 -1.0115 0.45835 0.22055 -0.09693 0.096909 
Allan -0.40569 0.11774 0.033441 -0.902 0.1465 -0.98182 0.5628 -0.15242 -0.18927 -0.010615 
costs -0.1733 -0.14964 0.12231 -0.90499 0.17765 -0.84202 0.45353 0.23073 -0.23502 0.14769 
yesterday. -0.28329 0.027702 0.053544 -0.87839 0.21135 -0.96857 0.65698 0.020271 -0.28429 0.020266 
fighter -0.41604 -0.095168 0.30198 -0.98387 0.47422 -0.99762 0.53228 -0.0050993 -0.15331 -0.15822 
member -0.2331 -0.095176 0.15376 -0.85168 0.52189 -1.1619 0.51991 -0.013982 -0.14735 -0.13126 
case -0.21558 -0.12124 0.05104 -1.0042 0.11426 -1.0545 0.31161 -0.022932 -0.089511 -0.034249 
tanks -0.27714 -0.19358 0.15383 -0.96794 0.59145 -1.0232 0.52408 0.015189 -0.18396 -0.13722 
"You -0.36109 0.037503 0.077384 -0.81445 -0.58514 -0.75906 0.41245 -0.0055023 -0.38252 0.27519 
If -0.29336 -0.078326 -0.023694 -0.89329 -0.38684 -0.77139 0.33765 0.068822 -0.23169 0.23285 
accept -0.15804 -0.22481 0.079074 -0.83507 0.0013924 -1.0224 0.49693 0.27896 -0.18544 0.070565 
week. -0.23583 -0.11154 0.093785 -1.0395 0.097095 -0.74529 0.41449 -0.011722 -0.31721 0.24879 
yacht -0.13359 -0.056216 0.28246 -0.86754 0.24431 -1.0462 0.56034 0.078065 -0.15967 0.027042 
receiving -0.18568 -0.19509 0.20359 -0.8793 0.040725 -0.95688 0.3492 0.18718 -0.21646 0.018865 
complex -0.27979 -0.20965 0.24597 -0.94615 0.11754 -0.85075 0.4135 0.11823 -0.18139 0.10872 
bomb -0.10411 -0.16758 0.027894 -1.0043 0.68615 -0.91996 0.59801 -0.17001 -0.11265 0.029732 
Islands 0.055929 -0.073953 0.089914 -0.98044 0.40534 -0.93344 0.52493 0.17405 -0.2064 0.14249 
nine -0.092495 -0.01118 0.22485 -1.0003 0.88985 -1.2477 0.49838 0.12774 -0.051487 -0.48241 
companies -0.18152 -0.18917 0.22312 -0.85622 0.056556 -0.93547 0.46695 0.18621 -0.24087 0.085655 
Rafter -0.38032 0.070217 0.086042 -0.96352 -0.19821 -0.90648 0.49956 -0.001303 -0.31352 0.15224 
front -0.24326 -0.077296 0.20992 -0.90475 -0.092187 -0.86735 0.41712 0.15823 -0.16778 0.25111 
population -0.50601 -0.19196 0.10535 -0.7761 0.1146 -1.0252 0.52991 0.15474 -0.13684 0.060423 
confident -0.24342 -0.31847 0.26516 -0.94511 0.12772 -0.8851 0.38657 0.19577 -0.10378 0.11863 
industry. -0.38611 -0.033498 0.04676 -0.89376 -0.12277 -0.9335 0.47413 0.060874 -0.19488 0.051604 
tour -0.22967 -0.033846 0.16736 -0.90689 -0.3228 -0.86314 0.43663 0.046934 -0.34227 0.14822 
Suharto -0.24116 -0.1497 0.069632 -0.99369 0.16442 -0.92596 0.47624 -0.030149 -0.1259 0.1019 
tomorrow. -0.12844 -0.063605 0.11452 -0.88008 -0.01359 -0.9403 0.44478 0.2316 -0.2995 0.089737 
Hobart -0.043345 -0.06854 0.18042 -0.99022 0.30043 -0.93527 0.54179 0.080807 -0.22913 -0.0052467 
yesterday, -0.24837 0.047107 0.070702 -0.89129 0.36037 -0.98175 0.671 0.0075154 -0.24511 -0.020356 
2,000 -0.060149 0.045672 0.04958 -0.92051 -0.3615 -0.87124 0.47828 0.18592 -0.39622 0.15934 
wicket -0.10815 0.3282 -0.048706 -0.92659 0.14362 -0.96174 0.6269 0.13785 -0.51049 -0.13903 
Reid -0.42345 -0.13997 0.12807 -0.84637 -0.38389 -0.78013 0.37707 0.08608 -0.19094 0.15275 
cabinet -0.51716 0.067514 0.12552 -0.9087 0.49022 -1.0966 0.54915 -0.089107 -0.054725 -0.30751 
provide -0.15278 -0.24973 0.16126 -0.98997 -0.21103 -0.76852 0.35432 0.21726 -0.33472 0.3697 
Richard -0.20802 -0.19244 0.17873 -0.94466 0.021598 -0.93777 0.41304 0.037062 -0.22068 0.15586 
share -0.086957 -0.23213 0.39035 -1.0906 0.10842 -0.72498 0.25639 0.076963 -0.26053 0.20299 
Hewitt -0.15998 -0.0096643 0.087519 -0.93864 -0.0011411 -0.87672 0.5044 0.16864 -0.36648 0.17587 
federal -0.28263 -0.29288 0.22994 -0.85214 0.06155 -1.0086 0.45926 0.17111 -0.12936 0.048581 
ever -0.38852 -0.040496 0.18186 -0.84779 0.11522 -0.97393 0.47106 -0.12381 -0.12139 0.069396 
tribal -0.40427 -0.20428 0.14494 -0.90537 0.092135 -0.83685 0.43331 -0.029453 -0.20316 0.086098 
country -0.46126 -0.22923 0.20224 -0.93519 0.028441 -0.87746 0.40873 0.12325 -0.18586 0.1082 
changed -0.27061 -0.23506 0.30103 -0.96906 -0.1871 -0.8849 0.22815 0.098739 -0.12629 0.2929 
starting -0.30591 -0.14842 0.045408 -0.88547 -0.10373 -0.86482 0.4751 0.059188 -0.25864 0.044166 
5,000 0.0012201 0.032442 -0.0054541 -0.9087 0.054951 -0.94923 0.46876 0.23447 -0.37541 -0.034613 
stage -0.2685 -0.26042 0.19196 -0.90154 0.15439 -0.93922 0.38876 0.05271 -0.20931 0.11808 
survey -0.068021 0.099633 0.14039 -0.91497 0.19726 -0.90641 0.52173 0.081349 -0.35895 -0.0089281 
absolutely -0.46804 -0.23809 0.14699 -0.95181 -0.1983 -0.86208 0.35705 0.084608 -0.27237 0.15851 
small -0.34361 -0.16832 0.17509 -0.93314 0.14324 -0.98891 0.43486 -0.013861 -0.064008 0.16603 
offices -0.18445 -0.099133 0.099574 -0.94606 0.59011 -1.1729 0.59228 -0.020341 0.012397 -0.098159 
global -0.42663 -0.18687 0.0884 -0.87023 0.11399 -0.91431 0.50815 0.0091142 -0.19424 0.1397 
nearly -0.2713 -0.088893 0.13328 -0.94283 0.27597 -0.9861 0.47448 -0.024321 -0.32087 -0.11705 
French -0.51021 -0.11283 0.034828 -0.87723 0.48862 -1.1731 0.55609 -0.14416 0.018067 -0.1416 
ministers -0.77847 -0.20559 0.04935 -0.89388 0.51098 -1.1126 0.58615 -0.26023 0.087819 -0.0047207 
secretary -0.40332 -0.13563 0.095235 -0.89046 -0.052473 -0.85771 0.49431 -0.084074 -0.11483 0.083349 
area. -0.069575 -0.1074 0.32267 -1.0579 0.074068 -0.7113 0.38478 0.023557 -0.25413 0.30862 
House -0.52806 -0.18135 0.26993 -1.1003 0.094986 -0.86281 0.36131 -0.048165 -0.020116 0.1606 
proposals -0.36694 -0.28187 0.27781 -0.93572 -0.45139 -0.71488 0.33804 0.18409 -0.24178 0.39308 
Steve -0.27019 0.21753 -0.072046 -0.91778 -0.060812 -0.91587 0.52003 -0.040411 -0.2842 -0.072086 
powers -0.29463 -0.19813 0.28684 -1.014 0.080471 -0.81738 0.36285 -0.052792 -0.21976 0.16303 
helicopter -0.25687 -0.064613 0.045338 -0.90035 0.38695 -1.0113 0.43999 0.0056159 -0.22388 -0.028703 
total -0.19574 -0.19443 0.19962 -0.90192 0.12229 -0.94611 0.41304 0.18708 -0.24157 0.10976 
well, -0.24042 -0.0048114 -0.10428 -0.98395 -0.24487 -0.74945 0.50611 -0.11992 -0.48088 0.26573 
terror -0.37502 -0.19371 0.22344 -0.89512 0.26076 -0.94791 0.40102 -0.02156 -0.27957 -0.12665 
list -0.31649 -0.10805 0.088525 -0.87109 0.39583 -0.94694 0.56579 -0.020434 -0.30059 -0.091529 
wickets -0.11094 0.25547 -0.028393 -0.98382 0.37106 -0.98481 0.64935 0.016147 -0.50319 -0.18784 
confidence -0.38178 -0.29464 0.069465 -1.0372 0.24086 -0.91127 0.42344 -0.060514 -0.059409 0.12219 
post -0.071096 -0.1008 0.19798 -0.95918 -0.16612 -0.8353 0.488 0.29332 -0.38116 0.10752 
base -0.21322 -0.1371 0.27562 -1.0178 -0.35491 -0.63268 0.34969 0.21059 -0.25413 0.38995 
commander -0.45147 -0.16981 0.063563 -0.87107 0.21224 -1.0843 0.49199 -0.015571 -0.080977 -0.022907 
increase -0.15533 -0.07075 0.19984 -0.90473 0.1906 -0.91756 0.4335 0.14786 -0.24569 0.043626 
moved -0.19785 -0.14604 0.12517 -1.0153 0.57268 -1.129 0.28721 -0.077822 0.065845 -0.14377 
Rural 0.10639 -0.29489 0.43193 -0.96248 -0.42105 -0.75275 0.23308 0.4188 -0.44515 0.33611 
Highway -0.25074 -0.13236 0.077874 -0.98353 0.16993 -0.94955 0.51033 -0.038909 -0.21028 0.021032 
overall -0.21224 -0.16805 0.365 -0.90428 -0.059735 -0.94327 0.37135 0.30456 -0.23009 0.17049 
coming -0.29379 -0.19742 0.12593 -0.80605 -0.24166 -0.93986 0.44044 0.10291 -0.2298 0.12655 
Tony -0.39816 -0.23335 0.021897 -0.85312 0.39238 -1.0179 0.43609 0.026345 -0.12991 -0.16952 
time, -0.26195 -0.045255 0.054461 -0.91151 0.019257 -0.91574 0.43555 0.0052445 -0.21838 0.060998 
Perth. -0.10565 -0.0084844 0.14234 -1.0362 0.054377 -0.90548 0.46144 0.083715 -0.19048 0.058815 
rights -0.20597 -0.081837 0.23318 -0.95121 0.41999 -1.0853 0.54029 0.19495 -0.12341 -0.20142 
Pacific -0.36132 -0.22185 0.15185 -0.91572 0.11814 -0.98048 0.49792 0.085878 -0.12503 0.16658 
Simon -0.11685 -0.038896 0.079094 -0.84486 -0.31179 -0.8822 0.37843 0.17594 -0.24671 0.21485 
fellow -0.45967 -0.043865 0.13649 -0.96167 0.12351 -0.86724 0.40706 -0.046775 -0.1364 -0.08718 
force, -0.34743 -0.29381 0.050942 -0.95045 0.59266 -1.2173 0.36728 0.035491 -0.18104 -0.20573 
freeze -0.49273 -0.15795 0.18215 -0.92833 0.079104 -0.90847 0.41997 0.11126 -0.19785 -0.084013 
damaged 0.0012511 -0.030074 0.25001 -0.92128 -0.0029533 -0.96183 0.34022 0.3789 -0.33441 0.096431 
mean -0.4804 -0.16951 0.048943 -0.8598 -0.24383 -0.88889 0.42948 -0.0015202 -0.15628 0.17191 
tennis -0.24646 -0.071839 0.15165 -0.98835 0.22813 -0.84679 0.51183 0.010715 -0.28158 0.15038 
him. -0.27782 -0.08642 0.096749 -0.80777 -0.36018 -0.76288 0.38563 0.046946 -0.23796 0.26555 
threat -0.26372 -0.050867 0.14379 -1.0282 0.031866 -0.79964 0.37458 -0.098354 -0.31621 0.17716 
significant -0.1301 -0.2203 0.23583 -0.98073 -0.03564 -0.90559 0.40939 0.090843 -0.18276 0.19704 
car -0.095605 0.10722 -0.013124 -0.82008 0.068251 -0.88256 0.50676 0.27472 -0.32002 -0.062105 
criticism -0.38729 -0.087101 0.10936 -0.88617 0.10806 -0.92521 0.51285 0.040669 -0.13519 0.046207 
anti-Taliban -0.56867 -0.17994 0.062338 -0.94939 0.29974 -0.98646 0.44749 -0.12485 -0.060586 -0.10028 
India. -0.44284 -0.081479 0.32682 -0.89064 0.10462 -0.9727 0.4773 -0.0348 -0.15041 -0.12865 
quickly -0.19946 -0.062956 0.1154 -0.90002 -0.20247 -0.82015 0.49506 0.11739 -0.27552 0.22045 
accident -0.20306 -0.20297 0.27341 -0.86218 -0.085632 -0.95416 0.39384 0.30935 -0.23489 0.046771 
months. -0.14498 0.0096728 0.084306 -0.88581 0.18665 -1.0543 0.50127 0.21423 -0.37771 -0.1417 
places -0.28233 -0.016887 0.11459 -0.98382 0.16488 -0.99112 0.47978 -0.0063082 -0.24797 0.044266 
hearings -0.072585 -0.033269 0.033601 -0.92202 0.20151 -0.98647 0.45259 0.17178 -0.35125 -0.016036 
control. -0.068946 -0.18804 0.15451 -0.96441 0.13366 -0.85439 0.44594 0.25796 -0.29269 0.21424 
began -0.50454 -0.24755 0.12876 -0.91359 0.13738 -0.95903 0.47035 -0.066543 -0.18543 0.0047818 
hour 0.045793 0.092578 0.14008 -0.95575 -0.041559 -0.93366 0.37378 0.18275 -0.45589 -0.011432 
airport -0.092699 -0.1598 0.17511 -0.98575 0.21607 -0.82413 0.43506 0.063688 -0.17872 0.20286 
management -0.30659 -0.33859 0.14841 -0.85527 0.066927 -0.95052 0.4215 0.204 -0.13698 0.074181 
areas. -0.051095 -0.24853 0.46468 -1.0684 0.18378 -0.69016 0.43616 0.13457 -0.18965 0.33674 
confirm -0.43539 -0.32098 0.1932 -1.0501 0.14579 -0.792 0.37887 -0.013652 -0.033518 0.20015 
direct -0.082884 -0.18384 0.26525 -0.93763 0.065223 -0.92336 0.21136 0.23335 -0.21433 -0.011837 
crackdown -0.33707 -0.15978 0.19845 -0.96674 0.18365 -0.92571 0.43693 0.018279 -0.18878 0.032471 
everything -0.28963 -0.19187 0.12756 -0.86967 -0.39614 -0.72188 0.42214 0.060443 -0.25329 0.29818 
Laden, -0.92949 -0.26304 0.38363 -1.1598 0.41546 -0.88893 0.15614 -0.41996 0.010165 -0.21182 
March -0.38713 0.086237 0.15301 -0.86982 -0.33435 -0.78235 0.48544 0.094351 -0.31309 0.13725 
Attorney-General -0.25057 -0.19638 0.18944 -0.93629 -0.090629 -0.86499 0.42347 0.20342 -0.21998 0.22308 
Endeavour -0.22169 -0.092432 0.035077 -0.8808 0.029427 -0.86335 0.45579 0.044855 -0.27194 0.15782 
Pakistan's -0.92088 -0.49816 0.079493 -1.014 0.8061 -1.2665 0.45884 -0.23544 0.10661 -0.39567 
Ian -0.3708 -0.067236 0.096163 -0.93513 0.45945 -1.062 0.56056 -0.14612 -0.066785 -0.0086675 
Bank, -0.26307 -0.19509 0.17071 -1.0483 0.64624 -1.0057 0.50766 -0.13061 -0.14266 -0.067282 
space -0.24785 0.031023 -0.20854 -0.93185 0.16903 -0.94983 0.57514 0.011342 -0.29523 0.03631 
remains -0.27094 0.020081 0.089926 -0.99737 0.34499 -0.91512 0.50734 0.072577 -0.15759 -0.05245 
explosives -0.36031 -0.15429 0.078313 -0.92549 0.08738 -0.9409 0.45157 0.0516 -0.18237 0.033363 
east -0.19675 0.12544 0.10072 -1.019 0.81313 -1.0884 0.62149 0.11888 -0.29042 -0.42242 
25 0.11895 -0.056397 0.090409 -1.0446 0.10077 -0.95928 0.33355 0.070212 -0.30139 0.21796 
battle -0.27846 -0.070352 0.15079 -0.98463 -0.38279 -0.72243 0.37669 -0.068275 -0.2686 0.37715 
Jason -0.187 -0.015456 0.11623 -0.84792 0.19114 -1.0272 0.57475 0.18859 -0.29507 -0.12471 
Lockett -0.46609 -0.11666 0.14205 -0.89711 -0.25063 -0.81773 0.36452 0.064722 -0.31159 0.10607 
capital -0.22541 -0.12107 0.028604 -0.9452 0.57696 -1.1292 0.53787 -0.050462 -0.10325 -0.17973 
