1762 10
the -0.65992 0.20966 0.47362 -0.87461 0.062743 -0.74622 -0.34091 0.4419 0.013037 0.099763 
to -0.097853 -0.72555 -0.1057 -0.54937 -0.19911 -1.2827 -0.26261 -0.024018 0.12265 0.57279 
of -0.4761 -0.0054098 0.34065 -0.66716 -0.12626 -0.84673 0.48347 0.33561 -0.012775 0.4091 
in -0.33929 0.10271 0.65001 -0.55763 -0.083656 -1.0887 0.26392 0.647 0.11335 0.21291 
and -0.63035 -0.32095 0.011733 -0.76918 0.073047 -0.67143 0.037338 0.46003 0.13792 0.39737 
a -0.65371 0.10735 0.064598 -0.69403 -0.048897 -1.0369 0.2553 0.13872 0.31532 0.20284 
is -0.29382 -0.60248 0.34807 -0.11852 -0.38725 -0.95276 -0.2835 0.47411 -0.21996 1.0093 
for -0.46493 -0.36724 -0.18703 -0.48171 -0.27477 -0.72579 0.062103 0.50666 0.30533 0.71774 
The -0.20032 0.29501 0.12587 -0.43894 -0.28088 -0.86096 0.58114 0.85559 0.081052 0.57715 
on -0.5935 0.08586 0.038493 -0.33272 0.13189 -1.2967 0.34137 0.49423 0.3093 0.35516 
he -0.32139 -0.4795 -0.46169 -0.9918 -0.66362 -1.0587 0.78749 -0.77487 0.0089589 0.38272 
has -0.70753 -0.39022 0.052936 -0.23359 0.063301 -1.1609 -0.45942 0.80495 0.40197 0.24512 
says -0.3077 -0.79638 0.31517 -0.39544 -0.063696 -1.094 -0.33513 0.47365 -0.13975 0.47382 
was -0.25575 -0.028458 -0.014038 -0.86381 -0.57587 -0.60973 -0.13564 0.55111 -0.15467 0.22388 
have -0.60726 -0.5843 0.22865 -0.81158 -0.26035 -0.64116 0.15884 0.5151 -0.04778 0.069658 
that 0.081022 -0.72776 -0.062971 -0.80496 0.11777 -1.2083 -0.38 -0.2604 0.034451 0.96105 
be -0.93269 -0.42985 0.41498 -1.2313 -0.21241 -0.59356 0.15885 -0.096531 -0.058616 -0.072819 
are -0.88506 -1.1428 0.58619 -0.67046 -0.19199 -0.58564 -1.0253 0.51718 -0.70528 0.0048747 
will -0.27809 -0.56061 0.58503 -0.52017 -0.044788 -1.014 0.077358 0.20714 -0.27633 0.67629 
with -0.28825 0.42005 -0.19122 -0.78206 -0.34148 -0.66814 -0.21883 0.85264 0.18633 0.44379 
Mr -0.19852 -0.10661 -0.23733 -0.65172 0.30057 -1.3513 -0.040147 0.32772 0.36151 0.52464 
said. -0.88431 -0.71521 0.44005 -0.75876 -0.17407 -0.84252 -0.087511 -0.19377 0.043917 0.1839 
</s> -0.60186 -0.025285 0.27166 -0.42792 0.015961 -0.88545 -0.13465 0.99508 0.17865 0.026863 
at -0.44439 -0.044336 0.94735 -0.45047 -0.80686 -0.67736 -0.14367 0.85683 -0.063424 0.051945 
from -0.32353 0.098347 0.032989 -0.74815 -0.24768 -0.75451 -0.13214 0.58659 -0.0068132 0.4217 
by -0.64103 -0.24767 0.51452 -0.49264 -0.099063 -1.0089 -0.05214 1.0161 0.44978 -0.1339 
been -0.54105 -0.27875 0.30843 -0.86142 -0.3812 -0.48836 0.0050966 0.76656 -0.12437 0.13884 
not -0.70636 -0.93432 0.73146 -0.56468 -0.32436 -0.79513 -0.54998 -0.25162 -0.45083 0.49174 
as -0.629 0.16945 -0.016585 -0.77883 -0.12501 -0.88216 -0.090549 0.3979 0.25293 0.29065 
his -0.33454 -0.34859 -0.035157 -0.65904 -0.13221 -0.97051 0.45943 0.50657 0.061321 0.39799 
an -0.87015 -1.0162 -0.098053 -0.53468 -0.079053 -0.89442 0.041957 -0.03558 0.32311 0.35879 
it 0.13211 -0.088515 0.11401 -0.78494 -0.67837 -0.92328 -0.63544 -0.5459 -0.28124 1.3688 
were -0.48655 -0.357 0.10011 -0.64865 0.32193 -0.86819 -0.86044 0.011769 0.29161 1.0207 
had -0.69421 -0.43481 0.055924 -0.8178 -0.4389 -0.63549 0.14114 0.37034 0.12145 0.088275 
after 0.018095 -0.014107 -0.40411 -0.56701 -0.10566 -1.487 0.092567 0.69517 0.32545 0.041638 
but 0.2276 -0.4163 -0.1807 -0.36103 0.19107 -1.4841 -0.55376 0.18097 0.1941 1.0915 
they -0.78658 -0.34004 0.69486 -0.9784 -0.14549 -0.39964 -0.63053 0.37237 -0.57613 0.12998 
said -1.0615 -0.35391 0.11855 -0.81942 0.09473 -1.1109 0.057863 0.055736 0.46843 -0.26099 
this -0.29528 0.078873 0.025695 -0.55934 -0.44801 -0.81393 -0.34166 0.50159 -0.018645 0.71595 
who -0.45395 -0.99574 -0.079535 -0.57639 -0.35986 -0.68507 0.1823 0.52764 -0.63036 0.23024 
Australian -0.087119 0.073164 0.10809 -0.52065 -0.14201 -0.85468 0.20503 1.0043 -0.35652 0.4995 
we -0.92667 -0.18961 -0.55937 -1.5353 -0.13464 -0.52488 0.0005592 -0.68596 0.22946 0.64247 
Palestinian -0.98458 0.93853 -0.51889 -1.2161 0.24995 -1.3182 0.372 1.076 0.94101 -0.66377 
their -0.52311 -0.15897 0.075389 -0.88562 -0.088284 -0.67524 -0.034784 0.30287 -0.1866 0.41139 
which -0.61737 0.00067111 0.161 -0.64174 -0.26342 -0.64661 0.21201 0.77086 0.014573 0.21927 
people -0.66972 0.2515 -0.034013 -0.8546 0.29833 -0.55255 -0.45313 0.92735 0.14288 0.61723 
two -0.77021 0.37598 0.44149 -0.81463 -0.23165 -0.57215 -0.13171 1.6421 0.566 -0.29208 
up -0.92106 0.087231 0.19433 -0.78957 -0.09922 -0.67807 -0.32201 0.59661 0.34887 0.20957 
there -0.6504 -0.69746 0.44682 -0.88043 0.29494 -0.88528 -1.2996 -0.63698 -0.44655 1.0224 
about -0.28794 -0.35562 -0.064526 -0.47061 -0.022382 -1.1371 -0.39905 0.56603 0.15282 0.44639 
also -0.45513 -0.16258 0.37223 -0.30564 -0.2377 -1.0731 -0.2135 0.776 -0.071584 0.28043 
its -0.42459 0.16452 -0.0077954 -0.86482 -0.17477 -0.8061 0.037299 0.97304 0.33194 -0.023239 
South -0.17951 -0.022643 0.59636 -0.41076 -1.2496 -0.28985 -0.3758 1.5986 -1.1057 0.55217 
out -0.013063 -0.54117 -0.052919 -0.56589 0.32481 -1.2768 0.063277 0.4627 0.20934 0.5455 
into -0.29934 0.28421 0.16018 -0.83519 0.32556 -0.97518 0.076533 0.7072 0.28471 0.32343 
would -0.37731 -0.50458 0.085721 -0.70857 0.094787 -1.1383 -0.35527 -0.32154 0.35552 0.71197 
US -1.419 -0.36611 0.023022 -0.52204 0.28036 -0.9022 -0.31012 1.2652 0.96427 -0.17639 
when -0.89318 -0.51448 0.10268 -0.78351 0.49609 -0.98216 -0.11279 0.49039 0.43879 0.011775 
against -0.30284 0.34874 -0.30644 -0.84575 -0.071445 -0.89353 0.57384 1.0193 0.4328 0.22225 
more -0.11677 -0.086034 0.12111 -0.37489 -0.28047 -0.68794 -0.88491 1.0895 -0.22755 0.85223 
I -0.2342 -0.18042 -0.4189 -1.5432 -0.18672 -0.75643 -0.040422 -0.9741 0.32856 1.3179 
last -0.50372 -0.38955 0.21613 -0.60822 -0.42559 -0.40254 -0.58713 0.94707 0.26143 0.60773 
first -0.4162 0.1081 0.15397 -0.77084 -0.58909 -0.59912 0.27145 0.86145 -0.02188 0.16302 
New -0.92001 -0.22188 0.48702 -0.19692 -1.1429 -0.20371 -0.47151 1.5009 -0.40581 0.13455 
A -0.57131 -0.36365 0.20852 -0.2569 -0.086202 -1.101 -0.12672 1.4998 0.40109 -0.13638 
He -0.64965 -1.2301 0.028085 -0.49222 0.51859 -1.7417 -0.61271 -0.0064811 0.85677 0.10672 
Israeli -1.3681 0.93487 -0.56042 -1.67 0.24798 -0.87392 0.52677 1.1218 1.1216 -0.77911 
Australia -0.039635 0.28634 0.11097 -0.637 -0.23509 -0.792 0.33393 0.98647 -0.4223 0.56188 
one -0.14824 0.25975 0.69107 -0.71903 -0.80539 -0.45456 0.063007 0.30401 -0.16153 0.63722 
if -0.52795 -0.13276 -0.10516 -0.91078 0.21009 -1.0576 0.0028838 -0.39178 0.47521 0.73838 
United -0.77929 -0.56912 -0.04027 -0.61907 0.13338 -1.1514 -0.07647 0.80217 0.6411 -0.23045 
over -0.52265 -0.41155 0.6011 -0.28166 -0.40453 -0.86871 -0.23573 0.93495 0.13346 0.21751 
Government -0.67531 -0.66461 -0.047882 -0.29791 0.45375 -1.3121 -0.40172 0.65055 0.91638 0.45566 
or -0.4167 0.038773 0.059513 -0.62443 -0.13206 -0.80274 -0.28627 -0.27881 0.0011235 1.2794 
than -0.14769 -0.68251 0.44977 -0.36286 -0.1027 -1.0483 -0.4978 0.72324 -0.069886 0.49087 
all -0.7938 -0.55706 0.094239 -0.59131 0.1483 -1.184 -0.09027 0.012086 0.15899 0.31021 
no -0.69811 -0.41424 0.78577 -0.51725 0.055025 -0.69056 -0.29608 0.33205 -0.34591 0.66131 
could -0.52674 -0.87081 -0.044251 -0.67416 0.39685 -1.3837 -0.27186 -0.25035 0.40571 0.51439 
before -0.40107 -0.084311 0.047102 -0.83787 0.0075912 -0.89444 0.19748 0.51604 0.06631 0.24204 
three -0.57121 0.50933 -0.28623 -0.99528 -0.1827 -0.79834 0.41689 1.0711 0.52016 -0.22901 
say -0.8868 -0.46615 -0.026296 -0.57772 -0.15754 -0.90469 -0.2249 0.72195 0.14146 -0.0055937 
told -0.35776 -0.46227 -0.03951 -0.57829 -0.066154 -1.5037 0.094859 0.042947 0.22843 -0.074584 
new -0.83839 -0.45291 0.31335 -0.92276 -0.15468 -0.6207 0.12539 0.46423 0.42647 -0.027691 
some -0.4697 -0.4802 0.64257 -0.66729 -0.13995 -0.58474 -0.20616 0.46207 -0.52497 0.43663 
any -0.47819 -1.264 0.034463 -0.35903 0.094574 -1.1883 -0.22278 -0.38716 -0.30842 0.92836 
"We -0.61404 -0.27699 0.14214 -1.1579 -0.25655 -0.65035 0.089285 0.40186 0.039534 -0.23666 
bin -1.7522 -1.2714 1.3569 -0.78994 -0.36976 -0.82653 0.5676 0.99451 0.36406 -1.0145 
attacks -1.0445 0.22895 0.096642 -1.3248 -0.2155 -0.6602 0.86781 1.0936 0.73309 -0.71481 
very -0.2122 -0.96739 0.21591 -0.69971 -0.38776 -1.0921 -0.36566 -0.80634 -0.29688 1.3906 
still -0.85555 -0.60178 0.40202 -0.66672 0.076061 -0.82908 0.084529 0.25208 0.061303 0.27135 
now -0.48601 -0.69013 0.87613 -0.43362 -0.38682 -0.6631 -0.2765 0.94004 -0.45266 0.28884 
just -0.39312 -0.6383 0.38595 -0.44656 -0.23742 -0.79764 -0.37511 0.67357 -0.12629 0.55253 
security -0.73803 0.23189 -0.41512 -0.8291 0.1642 -1.2212 0.12356 0.52445 0.83746 0.0095344 
police -0.47656 0.029717 -0.11584 -0.53978 0.010045 -1.1678 -0.23575 0.78915 0.18609 0.12052 
our 0.082598 0.47344 -0.89336 -1.3732 0.068766 -1.1864 0.14571 -0.3271 -0.1809 0.60087 
killed -0.77965 0.19876 0.17609 -0.95526 0.0091143 -0.66956 0.14288 1.121 0.4904 -0.2293 
Arafat -1.0782 0.22401 -0.7679 -1.536 0.50611 -1.3407 0.76271 0.66921 1.3723 -0.85286 
"I 0.019285 -0.40906 -0.26568 -1.41 -0.59785 -0.95479 0.3755 -1.285 -0.1256 1.2938 
them -0.7586 -0.097801 0.31367 -1.1945 0.066862 -0.46597 -0.44283 -0.065428 -0.2526 0.48577 
being -0.44004 -1.0091 -0.26426 -0.66948 0.0097409 -1.078 0.51648 0.35925 -0.53181 0.012962 
Minister -0.56888 -0.33359 -0.34435 -0.53559 0.58292 -1.793 0.079953 0.92637 0.67219 -0.39322 
forces -1.2525 -0.87598 0.26037 -0.6537 -0.060188 -0.6167 -0.26033 0.97265 0.45137 -0.27983 
States -0.81239 -0.30621 0.36652 -0.6227 0.22867 -0.87898 -0.0079506 1.1452 0.028991 -0.28669 
But -0.10237 0.32817 -0.0045548 -0.83439 -0.17393 -0.88078 -0.12066 0.46054 0.0040628 0.42441 
fire -0.59463 -0.35161 0.42974 -0.05583 -0.6233 -0.7511 -1.5725 1.2701 -0.58896 0.46574 
other -0.74519 -0.28777 0.31799 -0.71125 0.23537 -1.1112 -0.70587 0.32309 0.38116 -0.056005 
what -0.59619 -1.0892 0.30099 -0.71568 -0.12724 -0.83494 -0.24349 -0.32314 -0.22992 0.65597 
man -0.27748 -0.53131 0.095599 -0.23325 -0.54753 -1.0364 0.28325 0.82636 -0.49547 0.14762 
around -0.68661 -0.62512 0.41961 -0.70196 -0.1961 -0.63176 -0.1947 0.73682 -0.0052678 -0.041016 
where -1.118 -1.2554 0.54255 -0.43649 0.32699 -0.95938 -0.72175 0.10805 -0.14359 0.3109 
can -0.43169 -0.16535 -0.14654 -0.93753 -0.76703 -0.57501 0.26339 0.41388 -0.72539 0.056312 
think -0.50013 -0.35851 0.27575 -1.1729 -0.50119 -0.43753 -0.28833 -0.67099 -0.37054 1.0226 
per -0.36485 0.79573 -0.42592 -0.60424 0.16956 -1.2527 -0.14036 0.56757 0.25102 0.65031 
day -0.023018 0.3264 0.34014 -0.23645 -0.4913 -0.80463 -0.20179 1.5355 -0.39652 0.50319 
next -0.32941 0.24594 -0.26183 -0.79008 0.31644 -1.0412 -0.18511 0.78278 0.67157 0.42062 
Al -2.0216 -1.5134 0.44175 -1.2123 0.37446 -0.71743 0.5695 0.98277 0.84352 -0.90703 
company -0.30602 -0.51107 0.31664 -0.30331 0.41035 -1.1785 -0.51463 0.50933 0.14656 0.82746 
It -0.34495 0.076902 0.25 -0.47756 -0.29375 -0.89576 -0.57912 0.50628 0.18563 0.53949 
four -0.44745 0.50505 -0.052465 -0.92744 -0.42264 -0.61491 0.37132 0.99116 -0.040956 0.041462 
Qaeda -1.5196 -1.2207 0.41812 -1.0492 -0.12155 -0.55009 0.4758 0.92611 0.2057 -0.68957 
"The -0.24569 -0.24865 -0.21918 -0.61546 -0.049393 -1.1539 -0.0080969 0.5898 0.24306 0.29431 
take 0.057741 -0.13636 -0.49517 -0.73474 -0.011144 -1.3112 0.47806 -0.0018668 0.197 0.78428 
you -0.33139 -0.69241 -0.44329 -1.2714 -0.20975 -1.06 -0.21113 -1.0074 -0.17257 1.1047 
officials -0.90447 -0.060109 0.11655 -1.0067 0.22382 -1.1005 0.24116 0.50698 0.7403 -0.43567 
suicide -1.1217 0.26573 -0.44972 -1.2629 -0.025608 -0.86474 0.46456 0.95164 0.84658 -0.65194 
so -0.68647 -0.29235 0.6177 -1.0199 -0.20027 -0.54111 -0.62042 -0.2294 -0.75526 0.51257 
Afghan -1.4595 -1.0921 1.0268 -1.1128 -0.20219 -0.65921 0.80528 0.63648 0.17084 -0.92924 
under -0.60079 -0.38338 -0.17154 -0.91962 0.073851 -0.86359 0.20409 0.17644 0.26743 0.29266 
President -0.78329 -0.22324 -0.13722 -0.57682 0.23003 -0.91107 0.076038 0.72476 0.35985 0.23122 
Federal -0.58828 -0.70207 0.26985 -0.48421 0.063705 -1.0284 -0.20717 0.43697 0.27202 0.27914 
In 0.0207 0.27879 -0.33007 -0.3794 -0.28458 -1.7964 0.65712 0.89127 0.24724 -0.13207 
time -0.14081 -0.40959 0.015106 -0.85218 0.22366 -1.0718 0.2585 0.29709 0.12595 0.41131 
Taliban -1.2207 -1.2754 0.46967 -0.76596 0.29093 -1.1119 0.2689 0.93206 0.49781 -0.63921 
made -0.058175 -0.42346 0.0016195 -0.29621 -0.22107 -1.2233 0.2626 0.41887 -0.17363 0.92403 
number -0.68999 0.029794 0.17914 -0.60164 -0.057047 -0.97068 0.18882 0.8623 0.41418 0.073899 
days -0.21379 -0.045877 0.55982 -0.437 -0.2585 -0.84242 -0.24402 1.0259 -0.45863 0.39387 
Laden -1.8796 -1.0871 1.0373 -0.71766 0.064221 -0.51254 0.13406 1.0174 0.069871 -0.43618 
down -1.2342 0.46831 0.085725 -1.1638 -0.40552 -0.35729 -0.051911 0.3323 0.54352 -0.11867 
through -0.56392 -0.23436 0.47381 -0.88122 -0.60575 -0.38086 0.18504 0.51327 -0.28715 0.26662 
those -0.2806 -0.47493 0.273 -0.51217 -0.0033229 -0.8566 -0.48993 0.26367 -0.15441 0.85331 
meeting -0.72308 -0.14808 -0.71435 -0.96164 0.36546 -1.2014 0.72445 0.72694 0.53448 -0.27789 
including -0.59084 -0.10158 -0.15153 -0.75442 0.13851 -0.92193 0.12651 1.0708 -0.036954 -0.12909 
Hamas -0.72685 0.26446 -0.51169 -0.87733 0.17293 -1.1119 -0.080118 1.5827 1.1133 -0.40182 
Gaza -0.7503 1.0307 -0.12073 -0.74952 -0.14341 -0.70361 -0.026022 1.3662 0.33248 0.013443 
workers -0.19089 -1.3455 -0.28392 -0.31878 0.57639 -1.3722 -0.3846 0.82635 0.61106 0.78508 
Sydney 0.012116 -0.60439 0.78226 0.033483 -1.0541 -0.57488 -1.2066 1.6793 -0.94226 0.87002 
she -0.75484 -1.0084 0.36149 -0.48965 -0.32309 -1.2013 0.14716 -0.10004 0.0041762 0.086366 
military -1.0612 -0.18618 -0.36776 -1.1995 0.092626 -0.88623 0.42006 0.87667 0.9749 -0.61806 
should -0.31756 -0.60799 0.097129 -0.49526 0.3112 -1.4094 -0.22371 -0.056201 -0.016313 0.57731 
called -0.42779 -0.18329 -0.22582 -0.61573 0.12984 -1.1306 -0.14985 0.84428 0.65988 0.21934 
since -0.4182 0.042833 -0.021682 -1.0529 -0.0074222 -0.92628 0.44025 0.4235 0.2419 -0.029474 
cent -0.11347 0.20325 -0.11249 -0.092416 0.28491 -0.94213 -0.19778 0.75232 0.54514 1.9855 
second -0.28411 0.24599 -0.21845 -0.86518 -0.52226 -0.75159 0.3241 0.63539 -0.14275 0.26322 
Test 0.10634 0.7542 0.2673 -1.0154 -1.451 -0.41725 0.64857 0.74966 -0.83132 0.58286 
Wales -0.55466 -0.15487 0.24262 -0.26295 -0.76477 -0.67935 -0.62447 1.1325 -0.28991 0.47911 
Islamic -1.0494 0.17778 -0.22563 -1.0826 0.17949 -0.92629 0.3332 1.6107 1.1403 -0.64319 
today -0.10928 -0.24308 -0.016325 -0.091267 -0.25486 -1.3503 -0.50189 1.3605 0.14551 0.28068 
get 0.076895 -0.25407 -0.13501 -0.82899 -0.25101 -1.1446 0.17148 -0.36576 -0.28668 1.0925 
World -0.39123 -0.27539 0.23812 -0.17414 -0.18763 -1.0307 -0.19901 0.6711 0.24104 0.8682 
between -0.97856 -0.38978 0.27138 -0.77982 0.093515 -0.7818 0.1719 1.2473 0.27112 -0.4387 
September -0.69736 -0.013107 0.41396 -0.68583 -0.27664 -0.70185 0.38301 0.89168 0.3076 0.072856 
back -0.40102 -0.44811 0.023806 -0.66243 -0.16731 -0.86954 -0.11976 0.34698 -0.034909 0.58278 
because -0.58515 -0.8157 0.15152 -0.97422 -0.11593 -0.83416 -0.14451 -0.42621 -0.20768 0.43248 
members -0.79746 -0.27521 0.1136 -0.69346 0.13604 -0.73462 0.033085 1.1407 0.45743 0.041066 
while -0.60561 -0.16151 0.40303 -0.53139 -0.25444 -0.71222 0.011189 0.66452 -0.16734 0.3356 
- -0.7917 -0.085087 0.18656 -1.354 -0.021818 -0.73739 -0.14147 -0.25003 0.38593 -0.21359 
Bank -0.66465 0.45604 -0.024998 -0.81681 0.015598 -0.76633 -0.18803 1.3378 0.34846 -0.1912 
staff -0.24387 -0.3082 0.084324 -0.38925 0.16939 -1.1959 -0.67073 0.33904 0.19497 0.84322 
report -0.1234 -0.64832 0.21462 -0.39501 0.14328 -1.2223 -0.28168 0.39135 -0.066667 0.71139 
near -0.52507 0.25001 0.28865 -0.95011 -0.32487 -0.60166 -0.015595 1.0397 0.12322 -0.16364 
going -0.50938 -1.1598 -0.15283 -1.0634 0.16796 -0.9327 0.11185 -0.6033 -0.53932 0.72197 
further -0.4169 -0.46359 0.75087 -0.58801 -0.36317 -0.88794 -0.63963 0.14151 -0.45696 0.30813 
world -0.46261 -0.70255 0.17759 -0.35786 -0.13028 -0.7917 -0.35666 0.75023 0.49157 0.88465 
him -0.65548 -0.28169 -0.2491 -0.98937 0.1759 -1.0607 0.57174 0.17528 0.43788 -0.0017693 
local -0.8603 -0.91386 0.13687 -0.5997 0.21086 -1.1658 -0.22278 0.48709 0.41208 -0.070595 
former -0.41934 -0.79941 -0.015673 -0.40322 -0.02992 -0.96215 -0.049618 0.32896 0.2251 0.66025 
Australia's -0.12979 0.13782 0.078533 -0.45209 -0.039563 -0.92957 0.073216 0.97501 -0.23508 0.63014 
end -0.70054 0.31827 -0.10695 -0.91297 -0.60247 -0.59049 0.86449 0.50315 0.1275 -0.017981 
attack -0.75183 0.41738 0.0048384 -1.2446 -0.22952 -0.77919 0.77266 1.0173 0.5815 -0.54858 
Israel -1.3662 0.89547 -0.82179 -1.7576 0.45481 -1.126 0.73546 1.2744 1.5158 -1.0063 
West -0.41959 1.3907 -0.078426 -0.91238 -0.4224 -0.76447 -0.071813 1.5827 0.32263 -0.11685 
hours -0.67585 -0.21426 0.38871 -0.4651 -0.54381 -0.47923 -0.42992 0.77824 -0.29936 0.38887 
government -0.58262 -0.45703 0.098486 -0.30938 0.3175 -1.24 -0.40246 0.59677 0.77103 0.64592 
international -0.48536 -0.070679 0.067395 -0.32582 0.639 -1.6586 0.13819 0.93644 0.51291 0.12985 
Afghanistan -1.767 -1.5038 0.97374 -1.2155 -0.032915 -0.61796 0.4939 0.48943 0.32408 -0.95831 
leader -1.0493 -0.21479 -0.3141 -0.94643 0.39929 -1.3377 0.50609 0.047368 0.85335 -0.2651 
like -0.34878 -0.83259 0.26969 -0.70221 0.12068 -0.91505 -0.47273 0.054704 0.4163 0.91442 
only 0.041208 -0.21914 -0.24026 -0.87955 -0.45485 -0.99297 0.31729 -0.44117 -0.30165 1.1594 
do -0.21923 -0.18169 -0.479 -1.3698 0.010099 -1.1507 -0.072846 -0.98393 0.63156 0.76367 
off -0.55035 -0.41641 0.29285 -0.74186 0.075037 -1.216 -0.15726 0.27534 0.42986 -0.21272 
make -0.38948 0.028596 -0.46003 -1.1639 -0.21 -0.91753 0.29879 -0.5485 0.17177 0.82029 
claims -0.76823 -0.56572 0.20457 -0.39468 0.093284 -1.1261 0.020321 0.67535 0.10653 0.061994 
another -0.50845 -0.36222 0.12781 -0.70416 0.060921 -0.88007 -0.75213 0.082884 0.21881 0.60375 
expected -0.31527 -0.56359 0.26467 -0.37723 -0.44031 -1.0838 0.055226 0.43197 -0.14341 0.36135 
it's -0.26251 -0.54735 -0.24963 -1.2826 -0.19809 -0.93293 -0.2023 -0.82484 0.21512 0.92114 
many -0.54509 -0.16482 0.28417 -0.44995 -0.28348 -0.84635 -0.16364 0.60227 -0.35497 0.31012 
spokesman -0.44268 -0.17738 0.27786 -0.16616 -0.16294 -1.137 -0.32577 1.3599 0.19201 0.1325 
given -0.18727 -0.57462 0.034097 -0.33669 -0.0029499 -1.1036 0.18647 0.5996 -0.08619 0.663 
five -0.52618 -0.32271 0.27955 -0.68511 -0.44309 -0.76006 0.048544 0.73769 -0.1678 -0.03535 
go -0.38603 -0.42152 0.086151 -1.048 -0.59665 -0.42949 -0.35148 -0.51676 -0.077987 0.96176 
good -0.45372 -0.05472 0.17036 -1.4555 -0.98694 -0.15587 0.097085 -0.4515 -0.34416 0.7969 
looking -0.25992 -1.0744 -0.044517 -0.50939 -0.080338 -0.95731 -0.035028 0.068481 -0.30301 1.1335 
Osama -1.3173 -1.3766 0.60876 -0.54875 -0.14063 -0.75024 0.26782 0.73474 -0.049269 -0.27359 
left -0.97344 -1.0201 0.60727 -0.35745 -0.26593 -0.4772 -0.54796 0.74267 0.11704 0.41304 
group -0.74697 -0.074938 -0.18255 -0.82055 -0.31628 -0.60952 0.19878 0.83624 0.47741 0.0054978 
saying -0.28341 -0.84179 -0.26305 -0.55295 -0.087612 -0.99666 -0.066031 0.042391 -0.31525 0.71052 
Tora -1.7334 -1.3898 0.82044 -0.92711 0.33177 -0.84008 0.075793 0.84881 -0.02886 -0.81579 
Qantas -0.41852 -1.3101 -0.070934 -0.30058 0.76426 -1.5182 -0.40791 0.8918 0.66946 0.56566 
work -0.60008 -1.5544 0.36646 -0.41311 0.061109 -0.81497 -0.47714 0.2463 0.10484 0.81621 
Prime -0.13601 -0.040584 -0.73628 -1.0378 0.23325 -1.4728 0.79637 0.46325 0.54629 -0.089507 
put -0.027549 -1.1109 -0.0032175 -0.15283 0.010228 -1.2116 -0.84926 0.40421 -0.14195 1.0038 
know -0.87845 -1.3829 0.82515 -1.0833 -0.42331 -0.67686 -0.25304 -0.85533 -0.64843 0.40741 
during -0.30107 -0.055204 -0.36289 -0.49061 0.18916 -1.1968 0.4991 1.3336 0.27754 0.1342 
most 0.15429 -0.24077 -0.09123 -0.67236 -0.74137 -0.53879 -0.56463 0.61247 -0.41638 1.0991 
air -0.49138 0.29107 -0.27106 -0.74938 -0.33686 -0.64791 -0.29531 1.6003 -0.3485 -0.20943 
action -0.41041 -1.0655 -0.10245 -0.22243 0.98815 -1.7228 -0.55799 0.46977 0.42901 0.74965 
Indian -0.40164 -0.34166 0.048638 -0.66517 -0.2922 -1.1216 0.54946 0.73927 0.33236 -0.14377 
these -0.52369 -0.79932 0.2664 -0.81693 0.34246 -1.0675 -0.89186 -0.24827 -0.26786 0.78067 
way -0.56059 -0.20515 -0.21622 -1.0942 -0.84952 -0.39136 -0.078209 0.069718 -0.017699 0.39778 
Yasser -0.8312 -0.21251 -0.52121 -1.1792 0.13421 -1.241 0.74648 0.78563 0.84445 -0.64033 
found -0.9528 -0.17605 0.42756 -0.91157 -0.47011 -0.34723 0.17827 1.0004 -0.044632 -0.28011 
support -0.79259 -0.56971 0.17471 -0.72325 -0.010419 -0.89152 0.13958 0.26894 0.23996 0.17904 
died -0.17943 0.10702 -0.15292 -0.67238 0.13857 -1.1751 0.059696 0.7973 0.1888 0.30542 
whether -0.59531 -0.65689 0.13696 -0.49209 0.14526 -1.3459 -0.34307 -0.28211 0.18203 0.44204 
years 0.25553 0.076606 0.093443 -0.56835 0.056158 -0.97174 -0.29086 1.3464 0.40339 0.6688 
national -0.34161 0.13983 0.030073 0.041395 0.82297 -1.83 -0.1463 1.2795 0.57562 0.41718 
metres -0.42876 -0.55905 -0.0015857 -0.027042 -0.089685 -1.0625 -0.64026 0.98669 0.067155 0.81616 
Afghanistan. -1.6646 -1.5212 0.96074 -1.0187 0.040521 -0.68958 0.15189 0.57977 0.22271 -0.806 
come 0.10261 -0.43433 0.14007 -0.56078 0.49545 -1.2291 0.0039983 0.09038 -0.18933 1.2113 
set -0.16645 -0.54827 -0.25641 -0.45931 0.59879 -1.6362 0.25502 0.60444 0.70954 0.46183 
six -0.3767 0.251 -0.50542 -0.95235 -0.079426 -1.0184 0.51512 0.45809 0.3272 0.34507 
year. 0.096259 0.45726 0.10961 -0.63614 -0.30473 -0.85663 -0.083497 1.0813 0.12679 0.58579 
interim -0.15667 -0.071805 0.17796 -0.58557 0.031539 -1.2343 0.4404 0.75804 -0.062754 0.14969 
team -0.32475 0.017534 -0.080561 -0.87231 -0.25942 -0.7301 0.38501 0.81329 0.36921 0.35658 
power -0.13518 -0.75573 -0.087393 -0.31271 -0.2822 -1.4243 -0.37522 0.10818 -0.1257 0.65706 
Foreign -0.45158 -0.26139 -0.36619 -0.65439 0.60669 -1.4476 -0.20297 0.53209 0.58581 0.17178 
terrorist -0.99625 -0.30624 0.35654 -0.56556 0.19405 -0.90658 0.20493 0.97379 0.39424 -0.071066 
how -0.46591 -0.36281 0.32221 -0.73739 -0.56848 -0.6622 -0.52357 0.15221 -0.27868 0.56201 
arrested -0.69236 -0.26122 0.40426 -0.79325 -0.21549 -0.80726 0.20643 1.1282 0.41748 -0.43759 
11 -1.0506 -0.23158 0.38541 -0.7427 -0.35808 -0.45894 0.51527 1.0423 0.2 -0.17351 
trying -0.89205 -0.62828 -0.27612 -0.70656 0.23768 -1.0969 0.37074 0.82009 0.21709 -0.35544 
don't -0.2879 -0.374 0.15474 -1.1938 -1.0999 -0.50979 0.16365 -0.87466 -0.85244 1.0003 
start -0.61723 -0.27434 0.53796 -0.84617 -0.61808 -0.29592 -0.10896 -0.02763 -0.31186 0.5578 
Africa -0.26765 -0.045758 0.049531 -1.3015 -1.2375 -0.27521 1.0081 0.35808 -0.9179 0.31733 
official -1.0184 -0.067416 -0.010845 -1.0329 0.46519 -1.2363 0.24542 0.49122 0.91336 -0.49184 
part -0.61035 -0.86644 0.1574 -0.52042 0.16143 -1.149 -0.062988 -0.0018573 0.47237 0.52183 
Bora -1.9411 -0.97017 0.53901 -1.1868 -0.16171 -0.35699 0.26599 1.1449 0.030419 -0.99246 
force -0.89505 -0.59876 -0.15177 -0.59463 0.059526 -0.99895 -0.17857 0.61835 0.6644 0.071621 
us -0.67899 0.476 -0.53217 -2.0026 -0.13777 -0.091964 0.69173 0.15388 0.34322 0.059904 
John 0.25954 -0.62392 -0.31855 -0.26029 0.055571 -1.6113 0.22601 0.20654 -0.13666 0.89581 
early -0.55801 0.19887 0.4031 -0.8061 -0.65318 -0.552 0.46084 0.84632 -0.18134 -0.011376 
groups -1.1748 -0.13673 -0.076145 -0.84783 -0.15513 -0.71095 0.13553 1.1987 0.67721 -0.43508 
third 0.030361 -0.15453 0.14825 -0.67479 -0.42612 -0.79136 0.3499 0.40353 -0.52188 0.74718 
week -0.49618 -0.67112 -0.21401 -0.61913 -0.05918 -0.9616 -0.22276 0.46417 0.37302 0.25349 
Meanwhile, -0.59034 -0.035836 0.01824 -0.76116 0.14301 -1.0773 0.26013 0.67634 0.31495 0.0001765 
several -0.61026 -0.8232 0.37036 -0.40612 0.097125 -1.0811 -0.28675 0.56153 0.28992 0.19491 
area -0.87439 -1.1279 0.7688 -0.47475 -0.46116 -0.55317 -0.57027 1.1889 -0.64873 -0.31198 
believe -0.90343 -1.3166 0.7049 -0.94556 -0.35685 -0.78034 0.34501 -0.37737 -0.39215 0.064487 
war -0.44015 0.21052 -0.57846 -0.91587 0.31128 -1.0382 -0.26898 0.85068 0.87336 0.29179 
authorities -0.49627 -0.57005 0.40961 -0.47907 -0.15341 -1.027 -0.37063 0.64234 -0.14303 0.079381 
yesterday -0.15357 -0.004262 0.2361 -0.43453 -0.055803 -1.1173 -0.27918 1.2158 -0.025279 0.195 
50 -0.25288 -0.58635 0.49841 -0.47235 -0.73715 -0.46337 -0.32065 -0.064856 -0.19789 1.3178 
100 -0.020839 -1.0101 0.36536 0.00047539 -0.41463 -1.0491 0.0029062 0.73743 -0.29681 0.96319 
troops -0.69385 -0.63345 0.24536 -0.32661 0.13209 -1.2886 -0.12024 0.7966 0.30136 -0.10427 
few -0.35831 -0.19364 -0.36695 -0.43778 -0.34446 -1.2054 0.11829 0.30485 -0.14004 0.53606 
does -0.67408 -0.55749 0.52613 -0.75257 -0.63619 -0.56672 -0.28461 -0.61886 -0.75208 1.0148 
Defence -0.46159 -0.64764 0.39815 -0.77007 0.37294 -1.2958 0.34129 0.48371 0.35233 -0.23322 
Arafat's -0.90827 0.011032 -0.53796 -1.2593 0.27748 -1.1585 0.50159 0.36792 0.99854 -0.37243 
Dr -0.29173 -1.1254 0.54176 0.33224 -0.23124 -1.2843 -1.1971 0.98763 -1.1772 0.95797 
Minister, -0.70164 -0.55219 -0.15788 -0.42769 0.52234 -1.6758 0.033863 1.0039 0.49683 -0.35161 
peace -0.70255 0.016771 -0.28977 -1.0594 0.38948 -1.0253 0.51197 0.33425 0.87376 0.007541 
best -0.5457 0.31709 0.37834 -1.2706 -0.90475 -0.36645 0.32518 0.07283 -0.33494 0.44536 
following -0.05339 -0.046541 -0.2943 -0.37002 -0.18768 -1.1107 0.15942 1.0622 -0.074103 0.46237 
areas -0.54307 -1.317 0.81623 -0.35894 -0.23421 -0.86203 -0.70964 1.0145 -0.58493 0.044422 
leaders -1.2692 -0.70537 0.035643 -0.92879 0.28106 -1.0067 0.17077 0.40265 0.74136 -0.45327 
weather -0.56174 -0.76086 0.51976 -0.39843 -0.031527 -1.1155 -0.86244 0.21142 -0.46404 0.38564 
match -0.035244 -0.10915 -0.087465 -0.66146 -0.7367 -0.81647 0.37051 0.076567 -0.77985 1.0255 
militants -0.89194 -0.058112 -0.42205 -1.09 0.10882 -0.834 0.16236 1.3685 1.1443 -0.46492 
eight -0.24225 -0.45863 0.084472 -0.043065 -0.21404 -0.92276 -0.40986 1.5318 0.069376 0.59838 
want 0.25785 -0.54483 -0.66602 -0.95304 0.17214 -0.99428 -0.21568 -0.15975 0.47573 1.5829 
need -0.54695 -0.1708 0.35647 -0.96507 -0.44963 -0.66197 0.052761 -0.22027 0.068091 0.51947 
confirmed -0.81516 -0.82074 0.34505 -0.5823 0.072391 -0.92378 -0.43311 0.46341 0.46074 0.13247 
Christmas -0.65223 -0.4938 0.12768 -0.7379 0.046244 -1.0291 0.16661 0.67017 0.56725 -0.0068066 
close -0.83472 0.18558 -0.1873 -0.56891 0.18592 -0.95087 -0.19843 1.1268 0.34517 0.091199 
state -0.68015 -0.27654 0.29795 -0.50734 -0.27269 -0.54743 -0.69877 1.1251 0.23983 0.20109 
came -0.70763 0.37535 -0.088782 -1.063 -0.20559 -0.52497 0.26611 0.67986 0.18722 0.033146 
Pakistan -1.3318 -1.3947 0.32639 -0.85945 0.16158 -1.073 0.28094 0.59032 0.92589 -0.69049 
must -0.38494 -0.15823 -0.058072 -0.6255 0.19558 -1.056 0.15548 0.89614 0.2261 0.2924 
months -0.17883 0.15201 0.044637 -0.80258 -0.040122 -0.65442 0.29829 0.99611 -0.13946 0.55405 
agreement -0.61027 -0.62335 -0.063929 -0.53901 0.29287 -0.90358 -0.33506 0.76382 0.8535 0.61724 
Sharon -0.74348 0.29103 -0.68424 -1.2273 0.56141 -1.6646 0.88823 1.0925 1.0285 -0.83738 
fighters -1.1947 -1.3718 0.69448 -0.50499 -0.59746 -0.18688 -0.6479 1.6301 -0.026202 -0.3146 
12 0.23182 -0.14919 0.14789 -0.33761 -0.91023 -0.57786 0.026701 0.40579 -0.70283 1.3772 
help -0.37961 0.061422 -0.19696 -0.67603 -0.31828 -0.83777 0.041411 0.59386 -0.068594 0.33342 
reports -0.19715 -0.32463 0.21906 -0.62814 -0.072933 -0.9029 0.044611 0.76175 -0.03764 0.31311 
East -0.34464 0.049799 0.25139 -0.52523 0.18004 -0.83841 -0.22999 1.4062 0.21606 0.23943 
They -0.70403 -0.098593 0.31389 -0.78788 -0.31656 -0.53048 0.29565 1.0406 -0.16382 -0.072539 
brought -0.35989 -0.61552 0.28968 -0.54057 -0.27214 -0.63981 -0.35148 0.64469 -0.15067 0.79814 
city -0.46559 0.44848 -0.079394 -0.59195 -0.56997 -0.78175 0.28114 1.2756 0.19225 -0.077189 
Peter -0.40376 -0.020108 -0.23107 -0.29371 0.027794 -1.3727 -0.043921 0.93325 0.29605 0.23825 
pay -0.14958 -0.65925 -0.52671 -0.25702 0.052035 -1.1344 -0.23946 0.60482 0.58784 1.1166 
hit -0.041626 -0.2179 0.27513 -0.65484 -0.48527 -0.62948 -0.43836 0.31076 -0.16684 0.89458 
pressure -0.4429 -0.25875 -0.25105 -0.81854 0.34862 -1.1399 -0.26019 0.024923 0.53248 0.53565 
then -0.57005 0.35576 -0.1858 -1.3087 0.12014 -0.71252 -0.1902 -0.163 0.083345 0.45036 
taken -0.77921 -0.18083 -0.046781 -0.84994 0.069264 -0.90938 0.53208 0.61637 0.50008 -0.086209 
better -0.68678 -0.49127 0.20198 -0.88815 -0.31095 -1.0131 0.12747 0.051146 -0.12023 -0.18777 
believed -1.0787 -0.9033 0.90373 -0.84246 -0.44719 -0.58439 0.21246 0.072809 -0.31456 -0.11483 
did -0.6946 -0.1384 0.098471 -0.78517 -0.11537 -1.1678 0.36515 -0.1291 0.49469 -0.073071 
took -0.013868 0.13766 -0.37889 -0.89456 -0.64158 -0.60794 0.37464 -0.16676 -0.14429 1.1855 
senior -1.002 -0.21143 -0.2501 -0.8824 0.20683 -0.98043 -0.023129 0.87385 0.7035 -0.27248 
held -1.0192 -0.53609 0.33567 -0.61546 -0.045318 -0.90504 -0.19068 0.81521 0.33193 -0.45292 
got -0.012886 -0.45296 -0.23209 -0.6576 -0.14867 -1.1941 -0.48381 0.06551 0.52879 0.9271 
talks -0.54213 -0.22141 -0.30399 -0.97324 0.33305 -1.0402 0.22224 0.14762 0.58629 0.089938 
British -0.68118 -0.72686 0.25731 -0.504 -0.16736 -0.90855 -0.35149 0.2441 -0.06248 0.25507 
her -0.43271 -0.34793 -0.44924 -1.0473 -0.47684 -1.5511 0.46546 -0.55219 0.040008 -0.49672 
without -0.26237 -0.16182 0.049488 -0.61718 -0.35304 -0.7992 -0.050677 0.53168 0.094385 0.68274 
injured -0.74467 0.14269 0.32029 -0.46788 0.036096 -0.96596 -0.23667 1.5257 0.25125 -0.099577 
Northern -0.99596 -0.59264 0.94177 -0.64167 0.0084257 -0.95921 -0.22654 0.84211 0.11674 -0.39056 
well -0.73024 -0.2803 0.22054 -1.1778 -0.38589 -0.3865 0.31694 -0.39191 -0.43433 0.46925 
maintenance -0.061905 -0.76871 -0.08354 -0.34061 0.53507 -1.5891 -0.10503 0.70567 0.54568 0.60981 
Melbourne 0.11813 -0.10502 0.11759 -0.51038 -0.52224 -0.97079 0.087656 0.7436 -0.40694 0.54489 
lot 0.084477 -0.62616 0.074756 -0.59429 -0.65614 -1.1103 -0.65965 -0.45826 -0.22943 1.0858 
both -0.57062 -0.14521 0.032769 -1.1081 -0.27607 -0.73962 0.080179 0.48939 -0.0087046 -0.16222 
much -0.35687 -0.42036 0.19465 -0.7928 0.1415 -0.95848 -0.70733 -0.60649 -0.11321 1.2168 
south -0.84732 -0.31678 0.86564 -0.23698 -1.0299 -0.52402 -1.0061 1.6279 -0.69289 -0.20036 
cut 0.4844 -0.14772 -0.56578 -0.47174 0.24146 -1.3999 -0.0027247 0.11471 0.25118 1.385 
accused -0.70492 -0.31797 -0.20151 -0.62777 0.32624 -1.3889 0.26413 0.96575 0.75895 -0.35069 
earlier -0.57203 -0.028555 0.1044 -0.76587 -0.31357 -0.87034 0.28198 0.98364 0.015974 -0.28512 
asylum -0.23557 -0.18879 0.13857 -0.56551 0.51486 -1.0696 -0.52594 0.38954 0.027379 0.99728 
10 -1.1904 0.48209 -0.014925 -0.61033 0.45588 -1.0268 0.31808 1.4187 0.50758 -0.14912 
see -0.70231 -0.09911 0.19945 -0.65312 0.46945 -1.1945 0.10803 0.13659 0.34907 0.4572 
too 0.32704 -0.45224 -0.067426 -0.2892 -0.54321 -1.1154 -0.33093 0.35259 -0.83089 0.9051 
armed -1.0485 -0.36648 -0.054858 -1.0039 0.21011 -1.0188 0.24064 1.153 0.98275 -0.65277 
across -0.41487 -0.18814 -0.1877 -0.11968 0.18104 -1.1548 -0.86477 1.4828 0.3765 0.52218 
family -0.80344 -0.72547 -0.028143 -0.9264 0.21385 -0.99634 -0.37343 -0.26088 0.24315 0.21847 
such -0.095839 -0.1173 0.18094 -0.67177 0.15427 -1.0576 -0.12298 0.22129 -0.10582 0.63753 
Royal -0.27304 -0.72527 0.2732 -0.23171 0.33012 -1.3604 -0.43285 0.9234 -0.049449 0.40709 
court -0.27617 -0.27086 -0.1604 -0.54708 0.20127 -1.1778 -0.17008 0.15985 0.021025 0.64215 
children -0.3835 -0.18105 -0.040835 -0.48899 -0.046598 -0.95245 -0.18865 0.61153 0.017253 0.60402 
shot -0.88607 -0.039086 0.44237 -0.82507 -0.039356 -1.0871 0.43772 0.39725 0.10205 -0.329 
that's -0.18452 -0.77306 -0.023927 -0.97582 0.10659 -0.99983 -0.396 -0.60561 0.22774 1.1746 
won -0.48168 -0.70287 0.13708 -0.52628 -0.20806 -0.63254 -0.50982 -0.14828 0.22698 1.2969 
Labor -0.62064 -0.15999 -0.0023185 -0.68289 -0.036067 -0.81871 0.028163 0.4029 -0.027979 0.42304 
lead -0.77799 -0.72673 -0.18521 -0.81175 0.0020265 -1.1851 0.47395 -0.12069 0.0637 0.134 
There -0.56321 -0.3284 0.52963 -0.63054 0.022724 -0.67211 -0.81423 0.094691 -0.20388 0.7827 
economy -0.1678 0.2186 0.22977 -0.49105 -0.5058 -0.63813 0.039591 0.56317 -0.060645 0.95119 
change -0.28254 -1.0085 0.30606 -0.13612 -0.29405 -1.1634 -0.72194 0.12503 -0.3281 1.0419 
Authority -0.74054 -0.032563 -0.17736 -0.75836 0.27631 -1.1786 -0.037657 0.86744 0.66413 -0.14503 
despite -0.19018 -0.53536 0.12517 -0.46192 -0.19802 -1.1024 0.048952 0.84253 -0.12079 0.37944 
Commission 0.070007 -0.52696 -0.042793 -0.53269 0.83147 -1.7447 0.22284 0.562 0.1804 0.45221 
return -0.62171 0.090371 -0.10416 -0.99161 -0.078367 -0.95098 0.45949 0.70233 0.33063 -0.16487 
David -0.59587 -0.61308 0.55325 -0.27413 0.11026 -1.116 -0.16531 1.0974 0.051024 -0.09291 
commission 0.0071677 -0.57335 0.061264 -0.4567 0.99424 -1.7546 0.21145 0.79587 0.27961 0.37911 
call -0.50424 -0.039716 -0.43709 -0.7872 0.11115 -1.2216 0.3354 0.47928 0.3226 0.098032 
statement -0.80834 -0.16967 -0.22557 -0.72129 0.20067 -0.90829 -0.2194 1.2445 0.95545 -0.056764 
past -0.41143 -0.4651 0.005573 -0.56987 0.14199 -0.90064 -0.10446 1.1807 0.58598 0.33894 
information -0.41107 -0.71694 -0.10108 -0.23042 0.54074 -1.5373 -0.12735 0.51035 0.21809 0.61124 
even -0.82053 -0.54994 0.66961 -0.94057 -0.30427 -0.31552 0.30174 0.013383 -0.0087895 0.62419 
arrest -0.41396 0.049717 0.35631 -0.77322 -0.24277 -0.66458 -0.019335 1.371 0.39603 -0.081242 
place -0.26057 -0.37255 -0.13094 -1.03 0.074858 -1.1344 0.54891 -0.23369 0.16632 0.46767 
year 0.42428 0.79583 0.10831 -0.62574 -0.39503 -0.69417 -0.16007 1.704 0.17504 0.70724 
play -0.12659 -0.27308 -0.16631 -0.89111 -0.73029 -0.71427 0.40097 0.011432 -0.49262 0.85771 
asked -0.79829 0.34633 -0.18353 -1.0281 -0.028374 -0.98782 0.34902 0.57131 0.61686 -0.17583 
public -0.41016 -0.35135 0.16677 -0.7059 -0.13997 -0.85398 0.05682 0.37763 -0.037381 0.35303 
working -0.72762 -1.1621 0.018253 -0.51107 0.12189 -0.89796 -0.13558 0.24878 -0.15562 0.50285 
Union -0.33609 -1.0687 -0.37881 -0.17757 0.96458 -1.8819 -0.30459 0.73822 0.77113 0.67679 
night -0.23793 -0.71454 0.23078 0.26825 -0.57429 -0.63246 -1.3077 2.2359 -0.056361 0.94627 
key -0.75154 -0.45399 0.067091 -0.466 -0.25425 -0.75588 -0.24624 0.8407 0.41577 0.22054 
north -0.69809 0.20348 0.59745 -0.16207 -0.60081 -0.90438 -0.35185 1.5073 -0.19257 0.040497 
continuing -0.57968 -0.8628 -0.068909 -0.46156 0.45946 -1.1339 -0.056015 0.82326 0.21598 0.1514 
morning 0.18243 -0.20062 -0.00050079 -0.34925 -0.54847 -0.80326 -0.36216 1.2131 -0.88178 0.62118 
leading -0.63026 -0.49446 -0.36307 -0.48647 0.34765 -1.3704 0.18284 1.0267 0.37103 -0.27966 
George -0.99535 0.064395 0.071407 -0.69274 -0.018176 -0.49783 -0.1807 0.94948 0.35084 0.27191 
Police -0.54705 -0.47018 0.74012 -0.32019 -0.60715 -0.69525 -0.26696 0.88555 -0.39408 0.1394 
used -0.76964 -0.30412 0.23811 -0.55705 0.12175 -1.0625 -0.33614 0.76482 0.32569 -0.0001678 
An -1.1507 -0.77094 0.46468 -0.46106 1.2139 -2.0616 -0.02321 0.866 1.4646 -0.65564 
southern -1.1503 -0.37545 0.8517 -0.52343 -0.13323 -0.85168 -0.70604 1.0207 -0.017287 -0.46843 
captured -1.055 -0.53921 0.32435 -1.0267 -0.32701 -0.60603 0.52174 0.50007 0.0058553 -0.44003 
fighting -1.0116 -1.1419 0.1689 -0.78583 -0.38776 -0.44208 0.22411 0.96868 -0.1248 -0.37783 
released -0.69101 -0.11826 0.25697 -0.57115 -0.02559 -0.83574 -0.15256 0.78307 0.21107 0.24055 
Waugh -0.26778 0.20474 0.24984 -1.3067 -0.99249 -0.21375 0.96508 0.34263 -0.61975 0.43982 
Bush -1.0036 0.17866 -0.062649 -0.97523 -0.19644 -0.55542 0.36638 -0.14087 0.15045 0.2741 
crew -0.63809 -0.48328 0.30038 -0.84365 -0.071415 -0.81017 0.24451 1.1424 0.35811 -0.28765 
Pentagon -0.95862 -0.91072 0.54738 -0.45941 0.060762 -0.8452 0.015082 0.93611 0.22862 0.046989 
At -0.31825 -0.022423 0.41061 -0.41002 -0.25352 -0.75645 -0.27069 1.1582 -0.62565 0.4193 
possible -0.032493 -0.49685 -0.08242 -0.3351 0.042839 -1.341 -0.16138 0.47947 -0.15359 0.55053 
December -0.599 0.02103 0.21437 -0.77016 -0.093502 -0.81496 0.33215 0.92604 0.62389 0.039734 
major -0.55343 -0.72296 0.21001 -0.40781 0.12103 -1.098 -0.31006 0.63426 0.11679 0.35634 
economic -0.15578 0.12169 0.18432 -0.39866 -0.13381 -0.9395 -0.16923 0.72102 -0.066585 0.70827 
least -0.98638 -0.45329 0.8547 -0.73439 -0.35842 -0.37518 0.0085366 1.1456 -0.066937 -0.15925 
head -0.8864 -0.7454 0.17399 -0.65698 -0.16348 -0.73536 -0.053944 0.87158 0.051161 -0.22215 
"If -0.81443 -0.74536 0.096177 -0.81986 0.16787 -0.97913 -0.47273 -0.23728 0.43155 0.46518 
eastern -1.4041 -1.0364 0.81073 -0.67379 0.24018 -0.92066 -0.2534 1.2111 -0.068454 -0.83193 
American -0.44834 -0.43887 0.094475 -0.60847 -0.5154 -0.77152 0.37917 0.51648 -0.33744 0.22454 
win -0.41449 0.026231 0.46519 -1.1064 -1.2015 -0.40505 0.28917 -0.24232 -0.71529 0.43703 
Queensland -0.18194 -0.22721 -0.052472 -0.39079 -0.17862 -1.1065 -0.04182 0.88863 -0.076396 0.5202 
winds -0.52079 -0.5261 0.96827 -0.28433 -0.85084 -0.35655 -1.0396 1.0157 -0.73795 0.82049 
final -0.79737 0.04488 0.52759 -0.59034 -0.45434 -0.57276 0.34486 0.56794 -0.094921 0.20805 
Australians -0.2123 0.24266 0.10857 -0.59824 -0.17219 -0.81041 0.12508 1.1459 -0.43297 0.39134 
received -0.55067 -0.74342 0.39108 -0.30297 0.11295 -1.1043 -0.49155 0.64977 0.12258 0.3884 
give 0.16329 -0.73783 0.14656 -0.25244 -0.20528 -1.1891 -0.27504 0.063658 -0.47984 1.3378 
Hill -0.95389 -1.3845 1.088 -0.5353 -0.05911 -0.9435 -0.2977 -0.11343 -0.24921 0.024486 
charged -0.72893 0.33286 -0.13787 -0.9229 -0.030322 -0.9045 0.16459 0.58292 0.33758 -0.1565 
unions 0.061192 -1.2053 -0.50032 0.077738 1.1128 -2.3642 -1.0635 0.66053 0.54896 1.0517 
behind -0.26169 -0.31158 0.29749 -0.63428 -0.37407 -0.93953 -0.030982 -0.00586 -0.28644 0.54287 
within -0.15029 -0.23834 0.42724 -0.77667 -0.68735 -0.54912 -0.44133 -0.026733 -0.60526 0.94525 
use -0.48492 -0.23253 -0.29178 -0.91125 0.20545 -0.96474 -0.29103 -0.58332 -0.32849 0.96774 
detainees -0.59351 -0.3704 0.04143 -0.60794 -0.087831 -0.91193 -0.25839 0.68052 0.29428 0.30433 
fires -0.78729 -0.83538 0.66249 0.080049 -0.77631 -0.75399 -1.4453 1.4266 -0.60634 0.38322 
director -0.47604 -0.18207 -0.088845 -0.39158 -0.04782 -1.086 -0.30175 0.52711 -0.079592 0.5617 
Afghanistan, -1.6618 -1.3371 0.89591 -1.2447 -0.014917 -0.59961 0.36831 0.35737 0.20633 -0.75571 
Two -0.15863 0.61816 -0.046666 -0.66054 -0.19812 -0.98914 0.19458 1.1228 0.076695 0.25466 
large -0.81589 -0.43935 0.36848 -0.26517 -0.4856 -0.46655 -0.85019 1.4231 -0.35653 0.23352 
your -0.39649 0.072772 -0.63371 -1.2863 -0.56571 -0.83806 -0.031084 -0.89041 -0.35017 0.80359 
far -0.39198 0.30045 0.34202 -0.78537 -0.41256 -0.56723 -0.37051 0.96606 0.18969 0.26293 
Williams -0.54604 -0.43942 0.54829 -0.72868 -0.33323 -0.58533 0.50879 0.52385 -0.24425 0.22995 
India -0.38328 -0.19014 0.022085 -0.7417 -0.34512 -0.93654 0.70297 1.1913 0.36465 -0.26818 
damage -0.25608 -0.49715 0.4462 -0.070415 -0.15786 -1.1122 -0.89192 0.81955 -0.14369 0.81893 
known -0.8978 -0.616 0.24604 -0.95639 -0.062828 -0.8232 -0.30569 -0.25467 0.087087 0.27485 
child -0.21488 -0.35485 -0.19857 -0.083667 0.26968 -1.4161 -0.52179 0.72992 0.25425 0.81998 
million -0.53193 -0.57579 -0.3021 -0.57936 0.4669 -1.338 0.15252 0.66517 0.80183 0.258 
legal -0.24385 -0.78779 -0.1655 -0.48017 -0.048756 -1.3567 -0.037157 0.11681 -0.14698 0.63296 
able -0.3656 -0.65022 0.23204 -0.46248 -0.18012 -1.1131 -0.28009 0.06051 -0.25159 0.51656 
stop -0.82234 -0.74891 0.14791 -0.57715 -0.2217 -0.79317 0.16949 0.5964 0.15115 0.036027 
high -0.35974 -0.10441 0.070787 -0.56939 -0.43462 -0.54669 -0.23607 1.2844 0.00088041 0.50685 
may 0.1019 -0.020409 -0.099306 -0.51247 -0.76965 -0.70602 -0.21678 0.82434 -0.39388 0.87451 
long -1.0658 -0.94238 0.61225 -0.81746 -0.38065 -0.61538 0.021781 0.21315 -0.16181 -0.038354 
soldiers -0.93007 -0.48662 0.40175 -0.89352 0.23946 -0.78656 0.0997 0.9337 0.30368 -0.19248 
centre -0.55541 -0.065224 0.46376 0.013084 0.41239 -1.1798 -0.3124 1.6791 0.6106 0.67611 
water 0.080685 0.34468 -0.014335 -0.61451 -0.45636 -0.84615 -0.53109 0.58103 -0.2211 0.70376 
process -0.86768 -0.85835 0.22633 -0.72437 0.35437 -0.86816 -0.39279 -0.049917 0.32159 0.60752 
interest -0.072201 0.38646 0.16791 -0.67703 0.26312 -1.0434 -0.0066123 0.976 0.31169 0.39384 
remain -0.46788 -0.62955 0.26121 -0.30108 -0.15375 -1.0356 -0.23701 1.1991 0.099559 0.040569 
Cup -0.83669 0.14018 0.037594 -1.4101 -0.80083 -0.19369 0.82151 0.10025 0.2689 -0.070934 
forced -0.64914 -0.45271 0.1024 -0.45936 -0.24523 -0.87834 -0.11363 1.1029 0.47708 0.11867 
cricket -0.010351 0.032701 0.18386 -0.81425 -0.98703 -0.37259 0.52892 0.90717 -0.55818 0.52485 
Centre -0.4864 -0.48066 0.67247 0.13137 0.10465 -0.98253 -0.63484 1.4971 0.27457 0.88526 
there's -0.78561 -0.66226 0.28528 -0.99431 -0.089495 -0.66636 -0.98387 -0.51398 -0.17119 0.73888 
services -0.50605 -0.40867 0.34455 -0.37252 -0.15245 -0.87554 -0.61024 0.98077 -0.16938 0.38822 
role -0.40254 -0.18522 -0.47234 -0.62827 0.23753 -1.33 0.17237 0.14431 0.15706 0.38189 
morning. -0.098679 -0.35704 0.31893 -0.50725 -0.48569 -0.72812 -0.20686 1.2887 -0.58454 0.29072 
seen -0.63058 0.073394 0.379 -0.89226 0.14458 -0.79035 0.042785 0.5529 0.29962 0.21525 
might -0.521 -0.66053 0.10992 -0.46993 -0.69089 -0.34427 -0.27797 1.0884 -0.017293 0.48026 
radio -0.72553 0.0045671 -0.068454 -0.91345 -0.28325 -0.84357 0.13852 0.88475 0.33575 -0.22763 
15 -0.57685 0.018529 0.1735 -0.35809 -0.50334 -0.61582 -0.38853 1.2777 -0.30664 0.29365 
failed -0.48397 -0.22317 0.23876 -0.49805 -0.20091 -0.97036 0.1279 0.75869 -0.005624 0.016006 
"It -0.27584 -0.43878 0.24086 -0.93964 -0.38715 -0.69267 -0.19009 -0.27811 -0.018512 0.93824 
conditions -0.67829 -0.89271 0.38008 -0.095915 0.26273 -1.327 -0.79482 0.80325 -0.20283 0.2195 
heard -0.10058 -0.54804 0.31524 -0.45274 -0.2493 -1.0819 -0.23707 0.2448 -0.51415 0.58952 
training -0.63245 -0.52348 0.05718 -0.38575 -0.07268 -1.1958 0.13672 1.0122 -0.23555 -0.21107 
Palestinians -1.0009 0.93952 -0.45231 -1.1934 0.32664 -1.2565 0.28398 1.0975 0.84693 -0.53598 
already -0.53564 -0.52344 0.058472 -0.38313 0.085001 -1.0962 -0.24426 0.55359 -0.012979 0.32913 
taking -0.60071 -0.59405 -0.5803 -0.79192 0.079856 -1.0183 0.94837 0.49239 -0.095814 0.018428 
towards -0.7425 -0.44953 0.07339 -0.6311 -0.19862 -1.0553 0.13349 0.77409 0.19909 -0.33145 
dead -1.1503 0.10733 -0.025348 -1.4579 0.26469 -0.5863 0.25077 0.64749 0.98377 -0.35472 
same -0.50424 -0.0060851 -0.0072683 -0.95336 -0.16732 -0.66416 0.22317 -0.0043285 -0.069053 0.54449 
Lee -0.3627 -0.15021 0.13022 -0.85056 -0.78603 -0.56012 0.9336 0.1054 -0.3569 0.46271 
board -0.22992 -0.39402 0.099927 -0.43858 0.22769 -1.315 -0.22222 0.64946 0.16523 0.59282 
latest -0.25696 0.7329 -0.067493 -0.75847 -0.1531 -0.82711 -0.11337 0.89839 0.21549 0.45742 
However, -0.58614 -0.44705 0.12299 -0.3773 -0.0017754 -1.2715 0.030569 0.88727 0.40861 0.010686 
due 0.24023 0.40856 0.50431 0.38751 -0.34903 -1.3835 -0.30596 2.0727 -0.16174 0.5101 
rates -0.24219 0.014203 0.15854 -0.35796 0.47753 -1.3738 -0.30926 1.296 0.44868 0.33666 
thought -0.57146 -0.71325 0.49346 -0.75362 -0.29372 -0.48511 -0.21108 0.56619 -0.11915 0.49244 
Alliance -0.82629 -0.6662 0.34031 -0.89175 0.11527 -1.0522 0.50365 0.26517 0.53559 -0.18958 
canyoning -0.38207 0.45091 -0.60923 -0.7636 -0.057779 -1.0287 0.24395 1.0054 -0.43631 0.041659 
offer -0.30346 -0.27226 -0.33018 -0.94184 0.35899 -1.4318 0.39757 -0.082924 0.87995 0.17773 
strikes -0.94201 0.020513 -0.02925 -0.80904 0.29854 -0.86859 -0.255 1.1101 0.47707 -0.1824 
half -0.91874 -0.2223 0.24264 -1.1707 -0.38463 -0.46949 0.48049 0.26083 0.06784 -0.11328 
Shane -0.34624 -0.1109 0.62998 -0.79624 -0.71345 -0.83942 0.69893 0.36831 -0.039081 0.21627 
storm -0.74093 -0.7487 0.62071 -0.24746 -0.71883 -0.46792 -0.59744 0.92653 -0.38539 0.47237 
I'm -0.42868 -0.13632 -0.21505 -1.2836 -0.39802 -0.67602 0.14112 -0.85407 0.0055667 1.432 
aircraft -0.523 -0.097694 0.25433 -0.52812 -0.40616 -0.74713 -0.27245 1.1967 -0.18498 0.034387 
bowler 0.087235 -0.32476 0.60135 -0.85705 -0.99488 -0.79564 1.0296 0.57298 -0.70914 0.2021 
Adelaide -0.22125 0.25164 0.19661 -0.87011 -0.89991 -0.41045 0.49682 0.76216 -0.6865 0.44792 
great -0.49206 -0.43399 0.40813 -0.72073 -0.64671 -0.56241 -0.37986 0.36133 -0.5235 0.51871 
army -1.2652 -0.042439 0.27496 -0.97273 0.10286 -0.87134 0.31104 1.3556 0.87868 -0.77769 
position -0.65614 -0.79608 -0.10218 -0.35536 0.57628 -1.6235 -0.16899 0.40688 0.25684 0.32088 
administration -0.72808 -0.31083 -0.023139 -0.33378 0.67154 -1.5213 -0.13514 0.9227 0.60025 0.098774 
control -0.3702 -0.679 0.55691 -0.23697 -0.3106 -0.78244 -0.72516 0.99051 -0.30192 0.45149 
violence -0.7401 -0.032091 -0.078946 -1.0201 0.27221 -0.86934 0.17094 0.71442 0.55719 -0.053036 
continue -0.60759 -0.62512 0.30086 -0.18272 0.19991 -1.1495 -0.27244 1.0024 0.17054 0.30179 
news -0.91854 -0.3409 -0.15963 -0.97012 0.30741 -1.2341 0.29187 0.67785 0.92752 -0.59 
After 0.048149 0.039758 -0.087881 -0.5145 -0.35365 -1.1616 0.035752 0.81134 0.13566 0.39898 
series -0.62071 -0.3881 0.29707 -0.79292 -0.16433 -0.75934 -0.21945 -0.016517 -0.14894 0.37093 
York -0.50064 -0.59237 0.38603 -0.35495 -0.38729 -0.81828 0.12608 1.1164 0.086189 0.071574 
ago -0.55563 -0.62136 -0.067084 -0.81315 0.29961 -0.65487 -0.36957 0.09653 0.70311 1.3092 
strong -0.26592 -0.78119 0.38578 -0.11851 -0.19213 -1.0958 -0.8582 0.48999 -0.41195 0.81518 
likely -0.66414 -0.69419 0.10899 -0.80879 0.27875 -1.166 -0.32529 -0.22468 0.52807 0.24362 
later -0.20582 0.033315 -0.039962 -0.5435 0.18826 -1.374 -0.3558 0.61858 0.26541 0.28333 
today. -0.14241 -0.62556 0.21156 0.0041084 0.030983 -1.5068 -0.70103 1.1842 0.095198 0.33406 
Australia, -0.029663 0.07796 0.070592 -0.51127 -0.15017 -0.9102 0.1623 0.97046 -0.34834 0.54195 
along -0.81523 -0.78525 0.65317 -0.71013 -0.56669 -0.48664 0.21136 0.4547 -0.35832 -0.073548 
Blue -0.26869 -0.27447 0.48057 0.038791 -1.0478 -0.9429 -0.072283 0.96615 -0.61754 0.6064 
line -0.34623 -0.60121 0.068375 -0.5264 -0.17329 -0.93054 -0.22953 0.65381 0.54671 0.4184 
right -0.53223 -0.7736 0.04604 -0.5772 -0.52114 -0.5374 -0.22853 0.98971 -0.19126 0.42791 
claimed -0.70481 -0.53574 0.052068 -0.43 -0.15085 -0.94888 0.14687 1.0728 0.26165 -0.1281 
Nations -0.2984 -0.80868 -0.10609 0.010798 0.93185 -1.9671 -0.87557 0.81858 0.36745 0.5243 
risk -0.42662 -0.33986 0.5735 -0.21441 -0.34212 -0.87665 -0.40238 0.71035 -0.32503 0.50351 
own -0.92001 0.20989 0.23779 -0.53232 0.13932 -0.96969 -0.62607 0.60695 0.47332 0.028771 
buildings -0.29006 0.15576 -0.15677 -0.6484 0.026489 -0.98351 -0.0065875 1.1078 0.21982 0.26489 
hospital -0.4897 -0.1601 0.28973 -0.48503 -0.31808 -0.82374 -0.33532 1.2127 0.033319 0.0042096 
chief -0.4802 -0.25698 0.1093 -0.60201 0.25489 -1.0104 -0.051772 0.54011 0.19911 0.42034 
matter -0.3654 -0.39588 -0.22578 -0.78631 -0.15551 -1.0704 0.041897 0.11338 0.11672 0.42222 
concerned -0.58065 -0.78609 0.42793 -0.392 -0.034214 -1.102 -0.5253 0.26143 0.0062176 0.43083 
campaign -0.61377 -0.11788 -0.29097 -0.75901 0.35482 -1.2409 0.055358 0.52446 0.72025 0.17674 
show -0.53364 -0.5752 0.80285 -0.30655 -0.32285 -1.0655 -0.19097 0.16676 -0.37991 0.56001 
Adventure -0.38749 -0.029152 0.26728 -0.48096 -0.25312 -0.82748 -0.12992 0.7799 -0.28173 0.48875 
guilty -0.70105 0.33148 0.16239 -0.93789 -0.26293 -0.46665 0.16084 0.80134 -0.2464 0.17361 
African -0.23207 -0.18815 0.13664 -1.0743 -1.2549 -0.41248 1.0914 0.57307 -1.0135 0.098609 
envoy -1.3561 -0.041021 -0.31234 -1.0894 0.75589 -1.439 0.73495 0.35896 1.0433 -0.44858 
homes -0.71941 -0.4958 0.7584 -0.33887 -0.93034 -0.14547 -0.68773 0.97518 -0.57346 0.63845 
boat -0.28149 -0.65517 0.3416 -0.65662 -0.12655 -0.76859 -0.21065 0.50103 -0.14203 0.50361 
rate -0.068254 0.18204 -0.1936 -0.61722 0.62876 -1.2818 -0.10681 0.76339 0.5668 0.83699 
month -0.39031 0.11372 -0.010544 -0.90182 0.012079 -0.63087 -0.040589 0.94465 0.13823 0.35472 
west -0.64594 0.37148 0.43078 -0.51198 -0.69065 -0.69432 -0.64694 1.5857 -0.1824 -0.091366 
launched -0.78696 0.023103 0.37226 -0.74946 -0.13238 -0.7232 0.25225 1.0338 0.27765 -0.22912 
Ms -0.17338 -0.36611 -0.07251 -0.48648 0.0041691 -1.3262 -0.73753 0.2186 -0.022037 0.63297 
move -0.22394 0.00076851 -0.38792 -0.90756 0.069125 -0.9631 0.0030855 0.11261 0.61587 0.61873 
industrial 0.32131 -0.92061 -0.38571 -0.36084 0.7956 -2.0206 -0.12358 0.51213 0.27913 0.69504 
special -0.36558 -0.50073 -0.10826 -0.46475 0.61122 -1.4618 0.012307 0.33076 0.37667 0.4463 
Downer -0.4343 -0.82568 0.31953 -0.50804 0.18853 -1.3437 -0.37331 0.26001 -0.14184 0.23477 
Kandahar -1.0356 -0.17783 0.31826 -0.88705 -0.073734 -0.65799 0.10458 1.1016 0.32018 -0.49785 
plans -0.80875 -0.47801 0.23749 -0.77841 0.057889 -0.77774 0.1478 0.59142 0.15204 -0.0086819 
officers -0.97693 -0.32293 0.13781 -0.74961 0.14852 -0.90418 -0.083485 0.80867 0.61482 -0.18449 
town -1.5004 0.59635 -0.16331 -1.1013 0.1051 -1.0207 -0.072561 1.4501 1.1836 -0.97361 
firefighters -0.78436 -1.167 0.5045 -0.34055 -0.63924 -0.42906 -0.84594 1.168 -0.20406 0.30874 
decision -0.44046 -0.35392 0.10897 -0.41905 0.22458 -1.3142 0.37839 0.85906 0.28001 0.16187 
flight -0.43929 -0.36811 -0.1721 -0.47314 -0.38038 -0.74572 -0.14793 1.1142 0.45751 0.48258 
death -0.17869 0.1774 -0.26159 -0.89974 0.11258 -0.78674 -0.28321 0.62297 0.42166 0.57327 
Swiss -0.16938 -0.55154 -0.090852 -0.6693 -0.15725 -0.96962 -0.067985 0.097402 -0.25042 0.73511 
me -0.25292 0.37494 -0.79093 -1.2853 -0.042181 -0.82677 0.47125 -0.23926 0.38576 0.5854 
Trade -0.60567 0.15376 0.10811 -0.59561 -0.2047 -1.0132 0.31407 0.83114 0.44753 0.19536 
men -1.3012 0.75773 -0.26127 -1.3063 0.044626 -0.35547 0.20021 1.1814 0.74133 -0.4387 
today, -0.37616 -0.24243 0.33496 -0.24144 -0.13991 -1.1298 -0.64361 1.1033 0.088343 0.28653 
captain -0.60458 -0.22476 0.29979 -0.93237 -0.79467 -0.48244 0.41037 0.54179 -0.37523 0.10478 
really -0.27131 -0.51148 -0.14797 -0.69251 0.11657 -1.1363 -0.11512 -0.4058 -0.11068 1.1855 
planning -0.37444 -0.35096 -0.22629 -0.72642 -0.27902 -0.84185 0.5121 0.63653 -0.17228 0.014886 
jobs -0.075383 -0.45942 -0.18485 -0.33277 0.09144 -1.0817 -0.49616 0.28762 0.29686 1.1323 
Laden's -1.8251 -1.2759 0.90152 -0.63509 0.014917 -0.57005 -0.051552 0.97488 0.36446 -0.54641 
event -0.57786 -0.34915 0.17915 -0.25283 -0.023669 -0.66559 -0.14185 0.98961 0.58473 0.97094 
enough -0.42063 0.0079553 0.22603 -1.1017 -0.70316 -0.46149 0.61155 0.13017 -0.46447 0.49873 
bus -1.0091 0.62575 -0.31157 -1.2988 0.090137 -1.4394 1.229 1.6414 1.0508 -1.1275 
UN -0.93147 -0.40234 0.013446 -0.83414 0.28451 -1.1602 0.65587 0.675 0.27361 -0.3112 
Zinni -0.79386 -0.21884 -0.27232 -1.1239 0.10189 -1.175 0.81008 0.38801 0.73553 -0.40303 
important -0.58276 -0.40587 0.055311 -0.70731 -0.22103 -0.67163 -0.21858 0.35321 0.31546 0.62588 
health -0.17604 -0.18955 -0.21905 -0.29857 0.40286 -1.522 -0.60917 0.98845 0.26784 0.60277 
others -0.78475 -0.65671 0.40101 -0.50958 0.34688 -0.99014 -0.74403 0.85367 0.35966 0.025171 
Industrial 0.38719 -0.75607 -0.5954 -0.52922 0.79163 -2.1492 0.057242 0.3375 0.30421 0.64363 
Mark 0.4612 -0.55124 -0.26028 -0.65324 -0.34878 -1.2717 0.60872 0.51846 -0.2071 0.57502 
union 0.16386 -1.17 -0.69153 0.13276 1.1861 -2.5077 -0.72902 0.67668 0.67854 1.3063 
"He -0.58141 -0.98536 0.1733 -0.45247 -0.38913 -0.85749 -0.0054123 -0.23374 -0.091183 0.71005 
late -0.71043 0.13506 0.18965 -0.90154 -0.07813 -0.58031 -0.083807 0.57041 0.15001 0.41173 
sure -0.37556 -0.14225 0.23823 -0.97805 -0.32523 -0.77371 -0.010283 -0.27953 -0.32465 0.83795 
side -0.47876 -0.18964 -0.38552 -1.3797 -0.42347 -0.75286 0.92339 -0.065296 -0.61205 -0.013461 
weapons -0.96499 -0.41649 -0.058041 -0.82054 0.22552 -0.98538 -0.083552 0.51621 0.45087 -0.062753 
Service -0.17668 -0.64672 0.48198 0.060453 -0.3759 -1.0434 -0.86967 0.88657 -0.41806 0.95658 
jail -0.65303 -0.16414 -0.10281 -1.152 -0.028144 -0.72187 0.49894 0.511 0.36845 -0.13448 
Zealand -0.14594 -0.17746 0.3441 -0.23694 -0.58358 -0.67804 -0.29632 1.0437 -0.27844 0.71417 
International -0.50324 -0.019011 0.025154 -0.20458 0.60805 -1.6534 0.027406 1.0175 0.49012 0.19091 
probably -0.7012 -0.61617 0.52471 -0.78224 -0.28181 -0.53405 -0.31737 0.066488 -0.15505 0.61966 
network -1.3338 -1.2198 0.45862 -0.83667 0.036418 -0.72885 0.061159 0.68248 0.5477 -0.3737 
Australia. -0.052497 0.010537 0.16776 -0.50317 -0.16426 -0.8647 0.096584 0.94865 -0.48588 0.6191 
find -0.46522 -0.25826 0.5396 -0.78187 -0.65989 -0.64428 0.06709 0.085747 -0.5509 0.47829 
my -0.32659 -0.099868 0.19704 -1.3036 -1.2367 -0.19515 0.94038 -1.0892 -0.64319 1.4973 
station -0.6555 -0.52548 0.0049868 -0.11393 0.71984 -1.5652 -0.46604 0.99682 0.66934 0.25647 
Bichel -0.36584 -0.5715 0.48251 -0.70332 -0.30637 -0.93749 0.86163 0.71249 0.042964 0.027463 
1999 -0.91903 0.42252 -0.16834 -0.70814 -0.10227 -0.84216 0.093398 1.6042 0.091601 -0.37079 
life -0.43701 -0.45978 -0.055469 -0.41883 0.042671 -1.2146 -0.39344 0.35009 0.53758 0.46863 
National -0.19375 -0.095322 0.13467 0.12434 0.67662 -1.8318 -0.35596 1.0732 0.26486 0.56792 
prepared -0.42981 -0.24383 -0.21938 -0.70481 -0.050688 -0.93643 -0.066481 0.68848 0.36647 0.20772 
home -0.70365 0.065569 0.25082 -1.0529 -0.25906 -0.32379 0.35889 0.54541 0.02927 0.2097 
Sydney, -0.2705 -0.30314 0.55214 -0.18173 -0.88158 -0.52969 -1.0924 1.8134 -0.50252 0.61312 
political -0.54959 -0.49307 -0.097388 -0.54019 0.033088 -0.98798 0.099713 0.6683 0.3355 0.15789 
14 -0.95906 1.3365 -0.49945 -1.2109 0.35736 -1.1076 0.25237 1.5409 0.63218 -0.50263 
helicopters -0.95619 0.15144 0.065512 -0.71032 0.002183 -0.79136 -0.29334 1.5484 0.55967 -0.31632 
wants -0.54497 -0.59992 -0.27795 -0.60232 0.069125 -0.94358 -0.29061 0.91626 0.61299 0.30742 
General -0.39665 -0.83978 0.070244 -0.43172 0.10964 -1.1781 0.1191 0.33437 0.075456 0.453 
carrying -0.60339 -0.27139 -0.23733 -0.99748 -0.18447 -0.69829 0.67771 0.95702 0.059379 -0.41246 
Middle -0.7878 0.081022 -0.037295 -0.81139 0.44774 -1.197 0.31199 0.50255 0.71986 0.10635 
using -0.66728 -0.60399 -0.31289 -0.7278 0.42433 -1.1467 0.28624 0.66718 -0.037371 -0.081022 
northern -1.0565 -0.14339 0.92508 -0.41417 -0.12682 -0.96429 -0.43579 1.2516 0.058347 -0.46582 
operations -0.60723 -0.3258 -0.29231 -0.37547 0.88076 -1.6218 -0.51384 1.1459 0.71505 0.17048 
defence -0.55243 -0.39091 0.22121 -0.91747 0.33283 -1.2078 0.35199 0.36463 0.54001 -0.10552 
carried -0.31136 0.17138 -0.28952 -0.87574 0.15245 -1.0357 0.042821 0.94249 0.66649 0.030723 
Hollingworth -0.1876 -0.82884 -0.084383 -0.071406 -0.22235 -1.3935 -0.22427 0.85046 -0.30322 0.40924 
comes -0.45207 -0.46519 0.41875 -0.48789 -0.046664 -0.80369 -0.3967 0.48209 -0.14575 0.72589 
person -0.84722 -0.10508 0.14534 -0.88976 -0.21876 -0.64111 0.19588 0.7374 0.39244 0.0039654 
Unions -0.28972 -1.1459 -0.33448 -0.20605 0.97245 -1.9378 -0.75703 0.68462 0.69481 0.44552 
Jihad -1.0633 -0.24172 -0.045524 -0.8099 -0.016317 -0.7631 0.05294 1.2394 0.88761 -0.50125 
every -0.49461 -0.66964 -0.051212 -0.74048 -0.069483 -0.88857 -0.3109 -0.29672 0.36724 0.91367 
Israelis -1.2122 0.72988 -0.6623 -1.6012 0.20053 -0.86407 0.67692 0.86815 1.1743 -0.60779 
years. 0.15027 0.14719 -0.01994 -0.66435 0.088033 -1.0483 -0.2312 1.1518 0.4661 0.52981 
Relations -0.12747 -0.34088 -0.27063 -0.2597 0.79297 -1.8541 -0.39174 1.1937 0.36988 0.35353 
abuse -0.089845 -0.79271 -0.38767 -0.4727 0.28028 -1.5563 -0.2183 0.27022 0.088311 0.61072 
kilometres -0.6777 -0.40542 0.016424 -0.3362 0.14185 -1.0538 -0.28905 0.92755 0.27683 0.36221 
until -0.77723 -0.046877 0.13087 -1.0615 0.019683 -0.66292 0.035611 0.45329 0.15239 0.012031 
tried -0.81702 -0.29358 -0.097411 -0.75907 0.64891 -1.2949 -0.098903 0.85143 0.66645 -0.2686 
become -0.29507 -0.41345 0.25781 -0.93277 -0.18752 -0.75477 0.26696 0.12797 -0.24965 0.47456 
Fire -0.32094 -1.0155 0.62219 0.084966 -1.041 -0.64941 -1.7472 0.98133 -1.2807 1.3136 
alleged -0.46525 -0.28683 -0.13209 -0.48622 0.15078 -1.3678 0.049788 0.88644 0.60273 0.098416 
policy -0.29343 -0.32431 -0.15296 -0.31099 0.21889 -1.3105 -0.36737 0.84171 0.24224 0.48065 
job 0.14315 0.005904 -0.033223 -0.63074 -0.30046 -0.7841 -0.060014 0.39402 -0.43478 1.1179 
race -0.16553 -0.11146 0.11549 -0.86068 -0.31492 -0.75315 0.70162 0.66796 0.12767 0.17371 
raids -1.123 -0.12157 0.1454 -1.0121 -0.21877 -0.71491 0.51537 1.2299 0.36334 -0.79967 
Security -1.0957 -0.085353 -0.21859 -0.8144 0.052515 -1.0839 -0.08815 0.57181 0.7621 -0.24093 
each -0.22197 0.017361 0.23655 -0.34141 -0.36142 -0.79284 0.13503 0.78224 -0.18073 0.75507 
said, -0.95673 -0.57112 0.38615 -0.78432 -0.23003 -0.72174 -0.35972 -0.13908 -0.008194 -0.017992 
deal -0.38945 -0.75305 -0.1138 -0.82895 0.56327 -1.2298 -0.10863 -0.22684 0.47072 0.88338 
making -0.4437 -0.76727 -0.29108 -0.57252 0.096742 -0.99581 0.36718 0.20245 -0.4596 0.59391 
emergency -0.40236 -0.13588 0.096962 -0.59224 -0.11725 -0.98323 -0.16018 1.1126 0.22916 0.05206 
sent -0.32186 -0.2177 -0.39186 -0.31136 0.5671 -1.1728 -0.40704 0.93122 0.98656 1.0952 
plane -0.7503 -0.42093 0.35479 -0.95667 -0.32628 -0.7765 0.55467 0.42942 0.17493 -0.31811 
McGrath -0.6148 0.50888 -0.012444 -1.0572 -0.21922 -0.5642 0.28957 0.3419 0.26522 0.4605 
seekers -0.82228 -0.87583 0.30693 -0.65103 0.69125 -1.0411 -0.41996 0.42597 0.56641 0.47556 
immediately -0.58921 -0.25992 -0.12899 -0.9377 0.33201 -1.1122 0.0873 0.40632 0.57621 0.070031 
opening -0.4455 0.078867 -0.37854 -0.71892 -0.42194 -0.94667 0.74424 1.089 -0.30659 -0.25887 
financial -0.60068 -0.18581 0.069362 -0.51534 0.48891 -1.3944 0.057846 0.58449 0.47322 0.2561 
opposition -0.73038 -0.56596 -0.038142 -0.50887 0.5099 -1.3534 -0.0052417 0.19832 0.35965 0.34679 
beat -0.45838 -0.33904 0.13794 -1.3954 -0.66436 -0.38394 0.32504 -0.23399 -0.38251 0.40033 
HIH -0.46565 -0.81359 0.23243 -0.18379 0.72467 -1.5297 -0.27175 0.83442 0.49534 0.32466 
am -0.69464 -0.27521 -0.22422 -1.46 -0.50891 -0.55159 0.74428 -0.50162 0.35194 0.33515 
proposed -0.05514 -0.96457 0.1041 -0.21948 -0.074778 -1.1728 -0.678 0.36648 0.043006 1.113 
evidence -0.48521 -0.48455 0.21501 -0.80236 0.08654 -1.1061 0.0054186 0.29406 0.10278 0.094527 
issue -0.25763 -0.5849 -0.078907 -0.2578 -0.051302 -1.1948 -0.27948 0.45763 0.16243 0.7794 
community -0.40217 -0.61083 0.13502 -0.18515 0.41471 -1.4632 -0.4632 0.83543 0.4102 0.46553 
suspected -0.84215 -0.75264 0.68904 -0.61239 -0.37038 -0.77761 0.16311 0.65263 0.091325 -0.27493 
bombing -0.84422 -0.36656 -0.3544 -1.1734 0.21422 -0.69903 0.41962 0.75535 0.3286 -0.40122 
deaths -0.40319 -0.089651 0.11649 -0.79524 0.018207 -0.65779 -0.10201 0.69381 0.032381 0.37295 
radical -0.68651 0.20273 -0.43048 -0.86955 -0.022804 -0.9434 0.15295 1.0498 0.63196 -0.30239 
laws -0.53244 -0.32037 0.39718 -0.64837 -0.66888 -0.49683 -0.061385 0.69053 -0.16731 0.32548 
went -0.6016 -0.093009 -0.2456 -0.63003 -0.12586 -0.64032 -0.10781 0.34519 0.50836 1.2215 
allow -0.43687 -0.17231 -0.11169 -0.39856 -0.18952 -1.0403 -0.19991 0.57215 0.39431 0.45321 
result -0.43839 -0.28709 0.020614 -0.26024 0.30876 -1.1839 -0.43584 1.0808 0.44807 0.55668 
"It's -0.51705 -0.35741 0.15752 -1.1452 -0.35914 -0.70697 -0.01487 -0.257 -0.043595 0.51851 
Senator -0.8738 -0.82734 0.56193 -0.39848 -0.21774 -0.84248 -0.4813 0.43056 -0.15685 0.22311 
Department -0.43253 -0.7085 0.060573 -0.21004 0.25654 -1.1585 -0.49884 0.73491 0.49655 0.8628 
warplanes -1.2481 -0.40025 0.16377 -0.85278 0.13285 -0.65437 -0.08412 0.90396 0.45098 -0.35213 
Council -0.39988 -0.52196 0.069918 -0.4915 0.6238 -1.3515 -0.45727 0.62468 0.6594 0.45146 
Ariel -0.26593 0.14329 -0.53907 -0.76707 0.47603 -1.4868 0.53499 0.71937 0.65622 0.059121 
different -0.30243 -0.22101 0.11829 -0.85625 -0.1597 -0.79156 0.0058872 -0.084417 0.11667 1.0895 
"There -0.65851 -0.41508 0.32305 -0.62933 0.17938 -0.78974 -0.8627 0.26792 0.062209 0.52802 
rejected -0.41969 -0.4993 0.07689 -0.4373 0.056658 -1.1601 0.081654 0.84081 0.36643 0.080806 
reported -0.41373 -0.5375 0.28923 -0.51754 -0.085523 -1.01 0.033198 0.48393 0.12176 0.26697 
One -0.448 -0.30367 0.48399 -0.45176 -0.47698 -0.79537 0.21083 0.91878 0.016927 0.051239 
details -0.39898 -0.3088 -0.16684 -0.81059 -0.1694 -1.022 0.21294 0.25306 0.070913 0.18398 
hundreds -0.84768 -0.079479 0.13347 -0.85044 -0.26167 -0.54546 -0.056247 1.0667 0.28364 -0.077081 
Secretary -0.93447 -0.24041 -0.1889 -0.87911 0.13328 -0.9494 0.15455 0.42352 0.62467 -0.061615 
full -0.33892 -0.11969 0.55105 -0.53258 -0.50032 -0.63768 -0.4025 0.55987 -0.56396 0.60187 
calls -0.31798 -0.4948 -0.26148 -0.42686 0.090922 -1.2299 -0.29465 0.48148 0.34839 0.49575 
drop -0.58125 -0.16902 0.24731 -0.70464 0.08614 -1.1414 0.1341 0.40279 0.24516 0.12976 
growth -0.87738 -0.17384 0.04003 -0.65392 0.25235 -0.77835 -0.71514 0.89888 0.39636 0.075796 
hard -0.44411 -0.55261 -0.17817 -0.79809 -0.18229 -1.308 0.39852 -0.10648 -0.16158 -0.02238 
fight -0.96878 -1.3005 0.56504 -0.67596 -0.87563 -0.049382 -0.36304 1.0297 -0.27074 0.010919 
Woomera -0.24683 -0.49826 0.42068 -0.18926 -0.19808 -0.94488 -0.49751 0.80828 -0.00015067 0.9592 
allegations -0.24532 -0.7661 -0.27544 -0.097749 0.72356 -1.9019 -0.60275 0.61176 0.32601 0.62403 
caught -0.37571 -0.30813 0.13247 -0.91033 -0.25133 -0.60058 0.38486 0.84563 0.22077 0.2145 
opened -0.63721 0.22811 -0.11797 -1.0522 0.027539 -1.0058 0.50428 0.83537 0.53145 -0.38828 
getting -0.5733 -0.57779 -0.2986 -0.9059 0.32434 -1.2047 0.49834 0.32881 0.039726 -0.011118 
bombings -0.70564 0.15766 -0.25633 -1.2218 0.066698 -0.62469 0.32497 1.0837 0.47999 -0.36309 
although -0.72724 -0.46651 0.4312 -0.94912 -0.30534 -0.63413 0.16061 0.084505 -0.16618 0.14711 
building -0.29727 -0.3818 -0.14338 -0.50415 0.16794 -1.0963 0.078105 1.0249 0.01872 0.13219 
always -0.46326 -0.81711 0.53008 -0.57761 -0.50779 -0.69987 -0.43688 0.1184 -0.52032 0.6221 
2 -0.82015 0.40503 0.50239 -1.4792 -0.86626 0.1686 0.75341 1.1469 -0.2596 -0.4417 
look -0.097529 -0.47538 -0.20802 -0.89334 -0.39573 -0.54403 -0.43828 -0.42372 -0.11079 1.8577 
Jewish -0.54611 0.48906 -0.14782 -0.90768 -0.06615 -0.86296 0.34933 1.29 0.39777 -0.26243 
source -0.79843 0.28036 -0.30944 -1.0437 0.19738 -1.1581 0.13963 0.79583 0.58044 -0.3895 
flights -0.36452 -0.45248 0.005702 -0.35898 -0.36646 -0.85961 -0.11263 1.2583 0.32585 0.26238 
quite -0.76108 -0.49884 0.058982 -0.79436 0.0036598 -0.73048 -0.4704 0.17956 0.053239 0.53128 
killing -0.51911 -0.37159 -0.45217 -0.80471 0.20381 -1.0467 0.42255 0.60393 0.14325 0.089282 
Strip -1.2311 0.013163 0.17307 -0.63285 0.17821 -0.94503 -0.42054 1.7156 0.7737 -0.64832 
bid -1.0792 -0.22419 0.34847 -0.84927 -0.10704 -0.99312 0.36481 0.71343 0.80983 -0.76284 
understand -0.63129 -0.87247 0.072226 -0.68195 -0.029768 -0.79076 -0.19447 0.10181 0.083069 0.50308 
year's 0.19696 0.19881 0.14216 -0.35273 -0.1655 -0.96453 -0.41715 1.1723 0.063476 0.91191 
innings -0.16188 0.43484 -0.19665 -0.9235 -0.51545 -0.67827 0.61674 1.2149 -0.20615 0.049488 
access -0.95858 -0.52134 0.26809 -0.77106 0.073375 -0.82693 0.23409 0.37356 0.22716 -0.011289 
ago. -0.8092 0.49553 -0.34681 -1.1878 0.27086 -0.39397 0.045829 0.90135 0.70182 0.66741 
young -0.61735 -0.46111 -0.28035 -0.77272 -0.2253 -0.8858 -0.38187 0.48484 -0.21742 0.22268 
himself -0.50586 -0.41653 0.12672 -1.0351 -0.22388 -0.7269 0.382 0.087799 0.0064922 0.11688 
meet -0.61479 -0.26445 -0.22843 -0.8839 -0.21159 -0.92077 0.93311 0.62461 0.16192 -0.11888 
On 0.11531 0.11417 -0.11958 -0.71922 -0.29876 -1.024 0.73178 0.16105 0.09954 0.92642 
Commonwealth -0.12339 -0.010514 -0.082165 -0.5273 0.28692 -1.3203 -0.34545 0.59417 0.023544 0.60061 
Bureau -0.37583 -0.29238 0.29131 -0.30262 -0.27537 -0.8769 -0.2812 0.98577 -0.10768 0.51361 
targets -0.8902 0.54291 -0.061923 -1.1397 -0.079809 -0.5792 0.065843 1.1848 0.41044 -0.37736 
"We're -0.45533 -0.17787 0.048553 -0.84664 -0.34626 -0.65111 -0.056196 0.27222 -0.067717 0.41661 
militant -1.0592 -0.046778 -0.47542 -1.2559 0.16099 -0.71899 0.13136 1.0733 1.3393 -0.34764 
running -0.12904 -0.27359 -0.32187 -0.48722 -0.44453 -0.97407 0.34225 1.0898 -0.26654 0.2375 
caves -1.0122 -0.4745 0.34045 -1.0218 0.016573 -0.59843 0.15098 0.92158 0.12728 -0.49119 
declared -0.60519 -0.10724 -0.0086152 -0.74791 -0.22557 -0.83052 0.072348 1.2024 0.36896 -0.17828 
reached -0.25907 -0.36427 0.028301 -0.53191 0.26539 -1.2004 -0.020163 0.3741 0.36988 0.60811 
18 -0.093247 0.35617 -0.6656 -0.73337 0.19139 -1.2141 -0.37264 0.75859 0.33183 0.53026 
20 -0.22842 0.57184 0.25308 -0.46883 -0.29495 -1.0181 0.21564 1.592 0.071853 0.077952 
among -0.97807 -0.57031 0.33194 -0.75682 0.2165 -0.90939 -0.087744 0.77455 0.067941 -0.32093 
based -0.66067 -0.17167 0.064644 -0.45228 -0.033682 -1.0247 -0.30621 0.75949 0.4866 0.21256 
Howard -0.43512 -0.71639 -0.056046 -0.49835 -0.42093 -1.115 -0.025701 0.18807 -0.48237 0.27778 
try -1.1617 -1.3375 0.3684 -0.57844 -0.18947 -0.93598 -0.22674 0.22079 0.43222 -0.02577 
believes -1.2776 -1.1189 0.83939 -0.97937 -0.31175 -0.53722 0.17365 0.14683 -0.29189 -0.30164 
July -0.48224 -0.98195 -0.011395 -0.10745 0.29574 -1.3739 -0.79471 0.69411 0.51032 0.60226 
actually -0.50258 -0.49557 -0.094255 -0.82424 -0.10391 -0.87057 -0.083115 -0.17324 -0.095901 0.67832 
currently -0.37913 -0.48193 0.16933 -0.48951 -0.064401 -1.0122 -0.042982 0.42423 -0.04596 0.50456 
announced -0.65211 -0.50928 0.2164 -0.62068 0.14151 -1.0106 0.005206 0.63732 0.40638 0.10373 
clear -0.62099 -0.084059 0.24553 -0.93774 -0.35325 -0.47933 -0.16236 0.078499 -0.30758 0.45829 
State -0.84388 -0.34719 0.27836 -0.8368 0.0098355 -0.61911 0.29381 0.75375 0.0717 -0.092019 
Parliament -0.6334 -0.61602 0.20892 -0.41612 0.23832 -0.99216 -0.31619 0.9888 0.45006 0.47098 
here -0.84587 -0.8154 0.1675 -0.81058 0.094417 -0.8329 -0.82535 -0.40364 -0.072981 0.5952 
Britain -0.66854 -0.66991 0.38053 -0.45566 -0.25515 -0.89802 -0.036091 0.92996 0.056963 0.0065461 
year, 0.12549 -0.082306 0.34346 -0.58673 -0.45087 -0.73811 0.23466 1.2068 -0.014995 0.59825 
executive -0.092847 -0.26221 0.021571 -0.40873 -0.29916 -1.0497 -0.096802 0.56158 -0.45414 0.72594 
surrender -0.69651 -0.53957 0.18109 -0.58271 0.073285 -0.94141 -0.035066 0.55154 0.18601 0.10786 
Alexander -0.49886 -0.16637 -0.14498 -0.67469 0.3042 -1.3187 0.069366 0.82769 0.56254 -0.12402 
flying -0.11584 -0.38305 -0.20988 -0.62297 -0.16868 -0.96792 0.37554 0.68493 -0.33619 0.45129 
weekend -0.88462 -0.50949 0.37115 -0.75219 -0.26449 -0.56051 -0.19774 0.59405 0.21435 0.094716 
time. -0.53069 0.078393 0.17647 -0.63849 0.14904 -0.91305 0.0060927 0.75675 0.24859 0.28222 
human -0.48934 -0.12364 -0.075103 -0.50842 -0.14069 -1.1576 0.1805 1.0319 0.061454 -0.099837 
Immigration -0.49888 -0.92589 0.31088 0.083673 0.76188 -1.7775 -0.4118 0.8586 0.43785 0.46887 
days. -0.37835 0.12682 0.46038 -0.51702 -0.16149 -0.81445 -0.13559 1.2457 -0.010709 0.32481 
airline -0.18091 -0.91893 -0.12499 -0.20853 0.21515 -1.4611 -0.48268 0.8248 0.30318 0.47519 
river -0.029069 -0.18337 -0.0066583 -0.55832 -0.14902 -1.3313 -0.096235 0.077911 -0.10757 0.57928 
annual -0.71652 -0.31163 -0.11919 -0.65476 -0.013839 -0.80156 0.01614 0.73553 0.4489 0.35369 
yet 0.094532 -0.42905 0.44326 -0.29841 -0.86284 -0.69212 -0.42103 0.88908 -0.52034 0.95575 
we're -0.48905 -0.29537 0.033409 -0.81253 -0.16199 -0.74757 -0.61608 0.066038 -0.24372 0.6899 
travel -0.41257 -0.64017 0.3735 -0.42796 -0.10634 -1.051 -0.32573 0.34754 -0.18767 0.60941 
sex -0.62987 -0.053036 -0.068677 -0.41185 0.28148 -1.1755 -0.20104 0.90713 0.74082 0.26889 
expect -0.17546 -0.44793 -0.11527 -0.4888 -0.25369 -1.3106 0.10971 0.17321 -0.32717 0.50882 
outside -0.60497 -0.33565 0.020765 -0.59512 -0.15389 -0.92067 0.24267 0.93451 -0.070808 0.01877 
gave -0.45999 -0.79422 0.14229 -0.80915 -0.48202 -0.77735 0.12466 0.17142 -0.34336 0.28264 
future -0.62106 -0.080488 0.34991 -0.8434 -0.47559 -0.53433 0.22285 0.3063 -0.059621 0.33629 
people, -0.72317 0.14286 -0.020894 -0.89848 0.18287 -0.53877 -0.1652 0.88709 0.16873 0.3261 
Kallis 0.035913 -0.021514 -0.072622 -0.89665 -0.48517 -0.97725 0.51496 0.13843 -0.31571 0.48688 
arrived -0.65503 -0.17325 0.30108 -0.8793 -0.024092 -0.8391 0.20669 1.0708 0.2164 -0.35764 
responsibility -0.53039 -0.10444 -0.030038 -0.65592 0.0076372 -0.93279 -0.20856 0.95609 0.28227 0.1723 
Chief -0.28825 -0.069046 0.15408 -0.65711 -0.17445 -1.0785 0.30307 0.6681 -0.16136 0.27182 
sources -0.95265 -0.1504 0.16059 -0.84928 0.058111 -0.81735 -0.15752 0.92456 0.18348 -0.371 
expressed -0.24584 -0.09216 -0.18441 -0.65704 0.18635 -1.3649 -0.15702 0.24927 0.38284 0.44807 
again -0.13234 0.15541 -0.036238 -0.67215 -0.37879 -0.76804 0.58771 0.99905 0.14692 0.38751 
needs -1.166 -0.85495 0.49153 -1.1106 -0.17422 -0.50714 0.15052 -0.055856 0.12732 -0.0095887 
times -0.4255 -0.45116 0.16623 -0.61919 -0.1216 -0.78745 -0.37025 0.59919 0.074251 0.61105 
leader, -0.83507 -0.40127 -0.16492 -0.81771 0.20567 -1.2477 0.29685 0.14689 0.67899 -0.067318 
media -0.58269 -0.50771 0.11869 -0.9861 0.098279 -0.84741 0.18088 0.5695 0.49694 -2.044e-05 
overnight -0.43681 -0.65678 0.56094 0.13961 -0.48087 -0.80332 -0.99859 1.722 0.054393 0.66475 
caused -0.97917 -0.76175 0.4043 -0.59703 -0.30197 -0.9153 -0.28732 1.0132 0.31359 -0.28838 
investigation -0.18938 -0.18232 0.059527 -0.29267 0.28961 -1.4319 -0.26646 0.68258 0.15044 0.61887 
victory -0.16319 0.20487 -0.32743 -0.71021 -0.59618 -0.7974 0.05543 0.52359 -0.018849 0.55244 
cost -0.80039 -0.46987 0.21671 -0.72669 0.01664 -0.58539 -0.26988 0.67556 0.24607 0.19155 
means -0.5359 -0.39811 0.062489 -0.71328 0.25246 -1.1506 -0.13971 0.45218 -0.022699 0.38059 
guides -0.92491 0.19234 0.12689 -0.73119 -0.21347 -0.69585 -0.12781 1.0639 -0.32526 -0.27498 
Afghanistan's -1.7266 -1.3072 0.80621 -1.1434 0.0571 -0.64139 0.35074 0.62081 0.49932 -0.92061 
Test. -0.30523 -0.19483 0.34772 -1.0374 -0.89213 -0.59233 0.90696 0.28284 -0.62918 0.42718 
parties -0.27466 -0.74169 -0.048115 -0.41405 0.124 -1.3378 -0.31569 0.33096 0.35237 0.60587 
November -0.48325 0.4383 0.039117 -0.74529 -0.028897 -1.0785 0.48455 1.1421 0.45563 -0.020907 
away -0.19245 -0.18864 0.19643 -0.68478 -1.0664 -0.50416 -0.29543 0.28875 -0.38742 0.80483 
Glenn -0.16092 0.20464 -0.053383 -1.0576 -0.19055 -0.83696 0.39109 0.02053 0.17021 0.80312 
night. -0.44225 -0.6139 0.31652 0.16884 -0.42483 -0.77408 -0.97458 1.8343 0.1028 0.78089 
less -0.66982 -0.45096 0.41795 -0.82296 -0.49965 -0.71526 -0.039793 0.13776 -0.27897 0.12005 
gives -0.4279 -0.84722 0.082835 -0.55126 0.044791 -1.0336 -0.32104 0.55644 -0.24865 0.45981 
refused -0.58638 -0.21334 -0.022103 -0.51596 0.028976 -1.2026 0.041049 0.92237 0.4752 -0.013422 
decided -0.72556 -0.02837 -0.068769 -0.74213 -0.09437 -0.88408 0.27605 0.89184 0.44076 -0.1275 
wage -0.40121 -0.80652 -0.28185 -0.45087 0.43091 -1.1512 -0.65771 1.0993 0.69776 0.42115 
certainly -0.5499 -0.67279 0.24162 -0.67403 -0.17508 -0.84386 -0.3702 -0.16043 -0.067849 0.77189 
face -0.61531 -0.43418 0.35145 -0.76491 0.12073 -0.91028 0.45011 0.77802 0.51644 -0.030533 
having -0.5923 -0.50884 -0.12815 -0.95062 -0.043975 -0.8241 0.3651 0.16113 -0.28701 0.085403 
bombers -1.2398 -0.41213 0.0019891 -1.1365 0.21151 -0.62403 0.16052 1.3297 0.588 -0.67608 
13 -0.54224 -0.035422 0.19915 -0.94915 -0.29678 -0.39926 0.14965 1.3134 -0.32087 -0.16852 
More -0.5301 -0.38215 0.27745 -0.44749 -0.35388 -0.78393 -0.40907 0.54898 -0.33072 0.26945 
Musharraf -0.72271 -0.42299 0.29238 -0.74761 -0.29883 -0.87323 0.28857 0.31643 0.10132 0.047243 
Sir -0.2818 -0.042892 -0.25134 -0.79051 -0.23331 -0.79677 -0.088692 0.45492 0.22139 0.49527 
Western -1.1211 -0.41329 0.76431 -0.81795 -0.15319 -0.78374 -0.080945 1.1858 -0.032108 -0.72178 
Warne -0.8204 0.046468 0.52015 -1.0056 -0.73185 -0.30246 0.50402 0.67523 -0.19012 -0.042959 
we've -0.45483 -0.56948 -0.25026 -1.0451 -0.23464 -0.86534 -0.16396 -0.26406 -0.0011327 0.58027 
returned -0.63799 0.32895 0.030209 -0.96407 -0.20555 -0.81053 0.42153 0.6279 0.33484 -0.17234 
house -0.75742 -0.18589 -0.063027 -0.65061 0.053913 -0.97163 -0.18382 0.65974 0.50103 0.095274 
figures -0.55919 -0.82169 0.3812 -0.51933 -0.40181 -0.52769 -0.4942 0.37331 -0.37199 0.86916 
soon -0.68944 -0.36126 0.43756 -0.50434 0.19468 -1.066 -0.096877 0.50939 0.15549 0.38802 
Opposition -0.68182 -0.58414 -0.10144 -0.48169 0.67173 -1.4955 -0.058017 0.25077 0.45792 0.33038 
Energy -0.51101 -0.76475 0.26603 -0.85319 -0.10383 -0.83002 0.23561 0.42705 -0.25398 0.21571 
appeared -0.61028 -0.03067 0.28831 -0.59617 -0.058189 -0.8806 -0.15989 0.93 0.14286 0.012014 
"What -0.63566 -0.48789 -0.36567 -0.89496 0.01277 -1.1355 0.1956 0.59737 0.38119 -0.22313 
parts -0.4181 -0.42879 0.42001 -0.54119 -0.19117 -0.77028 -0.021683 0.83512 0.037915 0.38572 
point -0.13348 -0.39979 0.14534 -0.3982 0.3011 -1.1175 -0.29728 0.33407 -0.32319 0.94751 
weeks -0.84809 -0.45623 -0.041873 -0.85808 -0.10018 -0.71545 0.0025992 0.71341 0.21958 -0.15969 
step -0.58851 -0.59193 0.11097 -0.78502 0.14629 -1.0043 -0.071049 0.20353 -0.086852 0.035588 
Hicks -1.008 -0.78799 0.23697 -0.77425 0.41271 -1.2016 0.061533 0.56126 0.51794 -0.24989 
ended -1.1579 -0.039716 0.0906 -0.86655 0.39578 -1.1457 0.5094 1.0451 0.65093 -0.66114 
big -0.59189 0.57667 0.078373 -1.3641 -1.1388 -0.1522 0.82477 0.56943 0.13043 -0.20908 
run -0.65302 0.048723 -0.048766 -0.2368 -0.22685 -0.78076 -0.13169 1.8847 0.14833 0.10582 
Robert -0.73878 -0.3162 0.29343 -0.63828 0.15176 -0.95327 -0.27134 0.739 0.30262 0.011605 
rather -0.54199 -0.50404 0.23971 -0.57695 -0.020117 -1.1834 -0.48607 0.18258 -0.071732 0.14712 
dispute -0.59891 -0.24139 -0.24634 -0.87716 0.13293 -1.1338 0.13062 0.67144 0.47887 -0.097124 
thousands -0.59459 -0.19276 0.095834 -0.78413 -0.26062 -0.63415 0.10253 1.1021 0.14309 0.12273 
countries -0.7035 -0.73832 0.16302 -0.56778 -0.0041519 -0.96993 -0.20448 0.66241 0.11783 0.025651 
Reserve -0.56001 0.17638 0.17915 -0.52764 -0.028521 -0.7938 0.031212 1.4017 0.26553 0.16119 
biggest -0.4895 0.47039 0.26572 -0.62941 0.045512 -1.0264 -0.068533 1.2436 0.42199 -0.024493 
can't -0.338 -0.35183 -0.067394 -0.98388 -0.30783 -0.83769 0.14455 0.15661 -0.17154 0.34419 
region -0.97407 -0.90859 0.33715 -0.40272 0.53378 -0.96694 -0.11612 0.73441 0.12955 0.11801 
issues -0.24368 -0.54375 0.16034 -0.32911 -0.11935 -1.0704 -0.25339 0.69831 0.026616 0.65188 
beyond -0.73044 -0.88384 0.26236 -0.62942 -0.30949 -0.86829 -0.26779 0.25646 -0.1347 0.26453 
huge 0.06198 -0.13064 0.065147 -0.53906 -0.57058 -0.70575 0.3814 0.76288 -0.33079 0.74003 
them. -0.94097 -0.094915 0.28448 -1.1193 0.026324 -0.51727 -0.10673 0.24991 0.0022696 0.10268 
break -0.23897 -0.067875 0.011817 -0.64121 0.028014 -0.99103 -0.099606 0.66141 0.071476 0.42956 
ensure -0.6047 -0.20732 0.042373 -0.73671 -0.28409 -0.77458 -0.069325 0.3468 0.043935 0.33353 
ground -0.80755 -0.32779 0.33002 -0.69762 -0.43295 -0.4713 -0.28624 0.62903 0.1329 0.032685 
tourists -0.17656 0.29377 -0.14154 -0.69722 -0.14515 -1.1009 0.59738 0.76324 -0.22988 0.32268 
shortly -0.62093 -0.15104 0.19878 -0.69804 -0.48306 -0.74067 0.21036 0.74156 0.11879 0.024688 
something -0.38528 -0.42772 0.14768 -0.71707 0.069271 -0.84547 -0.13426 0.23577 -0.33418 0.66602 
terms -0.69637 -0.39751 0.11108 -0.8003 -0.023361 -0.8553 -9.8948e-05 0.24245 0.21503 0.36034 
top -0.22192 0.11829 -0.68747 -0.97791 -0.13539 -1.2222 0.97374 -0.1614 0.047215 0.25792 
safety -0.020855 0.076224 -0.17182 -0.40668 0.015779 -1.315 -0.17682 0.63457 0.31241 0.54103 
whose -0.34997 -0.13762 -0.03016 -0.27788 0.13221 -1.0828 -0.38876 0.91586 0.080737 0.57371 
order -0.99582 -0.40618 -0.19792 -0.93127 0.41348 -1.1497 0.43603 0.44781 1.0437 -0.1839 
21 -0.085056 -0.010679 -0.66043 -0.12693 0.88982 -1.8694 -0.17931 0.93158 0.82015 0.72476 
seven -0.39829 -0.30661 0.024808 -0.96479 0.078221 -0.7738 0.27888 0.26596 0.56182 0.38215 
worst 0.097278 -0.1606 0.18995 -0.33069 -0.70953 -0.67656 -0.14719 0.79014 -0.37031 1.0207 
200 0.13733 -0.25174 0.046987 -0.46316 -0.35212 -0.9502 -0.25985 0.29188 -0.19106 1.2458 
changes -0.464 -0.92606 0.28507 -0.20014 -0.18717 -1.0733 -0.53631 0.26224 -0.2315 0.67833 
Mountains -1.1534 -0.87889 0.60924 -0.74831 -0.28202 -0.61248 -0.073345 0.92031 0.056135 -0.40218 
1,000 -0.70838 -0.16288 0.22058 -1.0484 -0.26202 -0.33055 0.088492 0.74536 0.038542 -0.084748 
attempt -0.47822 -0.29838 0.10106 -0.74016 -0.071863 -0.84449 0.040019 0.84332 0.44023 0.076961 
wave -0.31156 -0.40856 -0.1572 -0.91966 -0.44857 -0.57926 -0.084495 0.36998 0.19239 0.47009 
She -0.066616 -0.44437 -0.31106 -0.26105 -0.13449 -1.7476 0.11305 0.23768 0.118 0.50219 
heavy -0.80547 -0.48956 0.031545 -0.63491 0.082504 -0.88523 -0.12775 0.91095 0.32216 -0.043405 
banks -0.75618 0.050185 0.33442 -0.61108 0.20314 -0.75549 -0.25918 1.1274 0.46881 0.14693 
struck -0.75841 -0.23175 0.24316 -0.3551 0.12774 -0.99184 -0.4644 1.067 0.032251 0.19559 
bill -0.42771 -0.66555 0.51912 -0.48359 0.23558 -1.2363 0.23742 0.4015 0.26831 0.18626 
massive -0.25911 -0.015492 -0.21298 -0.77438 0.2289 -1.0731 0.19715 0.69782 0.48804 0.40765 
foreign -0.70887 -0.58564 -0.29247 -0.69577 0.45106 -1.195 -0.29085 0.53493 0.73745 0.080734 
Monday -0.37898 -0.65809 0.46204 -0.35015 -0.35338 -0.77362 -0.17567 0.72848 -0.26669 0.52181 
residents -0.32668 -0.43874 -0.0034263 -0.37418 -0.12082 -0.87914 -0.03663 0.9527 -0.11188 0.50569 
Detention -0.18533 -0.46977 0.19719 -0.02305 0.41507 -1.3237 -0.55928 0.94326 0.17478 1.1073 
protect -0.4054 -0.31342 -0.13167 -0.5065 0.20664 -1.1117 -0.38422 0.39597 0.12142 0.75343 
crash -0.43912 -0.83338 0.44986 -0.37469 -0.13555 -0.96428 -0.072978 0.84174 0.066295 0.41483 
Kabul -0.58617 -0.80919 0.41939 -0.44002 -0.19332 -0.85898 -0.33533 0.61829 0.095236 0.23391 
Jacques -0.55652 -0.025243 0.40859 -1.0688 -0.68406 -0.27788 0.14071 0.41066 -0.31233 0.30749 
gunmen -0.42305 0.2533 -0.067615 -0.9149 -0.056029 -0.80871 0.16317 0.82007 0.27642 0.15398 
River -0.20776 -0.2088 0.041719 -0.42161 0.20322 -1.4237 -0.1165 0.4631 0.20152 0.32105 
denied -1.0211 0.045528 -0.092533 -0.85357 0.28892 -1.114 0.1001 1.0739 0.57715 -0.56136 
Governor-General -0.46408 -0.72263 0.02539 -0.453 0.27556 -1.4485 -0.13389 0.44509 0.38845 0.27621 
act -1.0618 -0.37881 -0.43374 -0.95567 0.41286 -1.2818 -0.10137 0.25008 0.48717 -0.14108 
Safety -0.093932 0.19858 -0.044445 -0.28696 -0.1363 -1.0126 -0.61601 1.1923 0.31764 0.88742 
he's -0.82517 -1.1886 0.07422 -0.91241 0.12824 -1.1745 0.31281 -0.50042 -0.01525 0.20672 
general -0.40336 -0.72439 -0.048035 -0.46019 0.5306 -1.4201 0.042846 0.60021 0.2843 0.41215 
inside -0.49403 -0.79284 0.063585 -0.30458 -0.062748 -1.1448 -0.029052 0.92042 -0.3259 -0.030701 
"In 0.14206 -0.43767 0.034311 -0.6622 -0.63578 -0.94617 0.42705 0.03036 -0.53372 0.95958 
feel -0.29763 -0.44583 0.23282 -1.2493 -0.33286 -0.45005 -0.11678 -0.47531 -0.014831 1.0629 
beginning -0.4212 -0.40751 -0.066802 -0.76597 -0.44687 -0.73864 0.49814 0.94655 -0.3882 -0.14223 
it, -0.024066 -0.19552 0.50007 -0.88673 -0.99405 -0.42001 -0.17266 -0.39151 -0.92561 1.4205 
Israel, -0.93439 0.75104 -0.72085 -1.4172 0.36152 -1.1572 0.46734 0.98297 1.1163 -0.32339 
Pakistani -1.218 -1.1175 0.26884 -0.89158 0.14393 -1.0494 0.21505 0.7121 0.86927 -0.61649 
decide -0.41546 -0.17611 -0.29655 -0.54214 -0.028688 -1.1172 0.014871 0.95152 0.2911 0.14778 
though -0.93542 -0.33324 0.50572 -1.2183 -0.36425 -0.30462 0.34921 0.33671 -0.020203 -0.093799 
Russian -0.536 -0.21008 0.078891 -0.77835 -0.16967 -1.0774 0.47069 0.73348 0.12161 -0.26857 
trees -0.21715 -0.43411 0.03368 -0.18297 -0.16524 -0.96944 -0.84429 0.92978 0.085199 1.037 
giving -0.56052 -0.13006 -0.20955 -0.7351 -0.30251 -0.76578 0.40107 1.0384 -0.56272 -0.082276 
attacks. -0.89721 0.28248 0.13426 -1.1526 -0.27305 -0.70616 0.75297 1.2295 0.59735 -0.68085 
commanders -0.9914 -0.91766 0.4645 -0.84902 0.29949 -0.86211 0.1748 0.92809 0.058036 -0.37947 
president -0.71359 -0.21898 -0.17122 -0.66046 0.36689 -0.95473 0.071375 0.65674 0.48519 0.35551 
witnesses -0.61583 0.037384 0.16153 -0.70363 -0.20466 -0.76764 -0.1061 0.81297 0.1686 -0.028418 
"They -0.77747 -0.16617 -0.018243 -0.92284 -0.098622 -0.67925 -0.13312 0.70029 0.13582 -0.0085825 
fact -0.94488 -0.74141 0.23873 -0.79808 0.047018 -0.88832 -0.097864 -0.14217 0.16036 0.28889 
longer -0.96503 -0.78697 0.49322 -0.59009 -0.11939 -1.0381 -0.30219 0.3724 0.15842 -0.069811 
Powell -0.86485 -0.29877 0.37512 -0.90921 -0.38405 -0.4983 0.25136 0.18479 -0.33423 0.1848 
collapse -0.20896 -0.053282 0.063361 -0.71259 0.029996 -0.94555 0.0047596 0.71257 0.062807 0.49244 
boy -0.61633 -0.78252 0.21414 -0.99675 -0.38976 -0.63158 -0.10533 0.28067 -0.0064795 -0.025882 
involved -0.39479 -0.37348 0.1915 -0.3786 0.24025 -1.2711 -0.33789 0.61373 0.23195 0.41561 
forward -0.37587 -0.73509 -0.039462 -0.72596 -0.16806 -1.0808 0.22238 -0.21078 -0.025025 0.66136 
militia -0.97298 -0.11183 -0.40936 -1.1902 0.2159 -1.0166 0.28851 0.93906 1.0437 -0.57611 
situation -0.3375 -0.49064 -0.037044 -0.16936 0.65051 -1.6674 -0.21963 0.91134 0.37382 0.41423 
ASIO -0.082901 -0.67106 0.19455 -0.29069 -0.038008 -1.2016 -0.68837 -0.034887 -0.05809 1.4267 
response -0.19858 -0.55104 -0.20229 -0.48978 -0.028931 -1.0657 -0.21986 0.76817 0.17216 0.42049 
As -0.29886 -0.57086 0.30199 -0.39279 -0.060578 -1.0807 0.035184 1.6119 -0.094083 -0.085308 
disease -0.4276 0.0023951 -0.045637 -0.67376 -0.29047 -0.95933 0.059656 0.92299 -0.017962 0.13596 
placed -0.17452 -0.19936 0.11971 -0.89642 -0.27132 -0.88739 0.28465 0.055566 -0.10173 0.55601 
chance -0.43666 -0.9081 0.74033 -0.70909 -0.068279 -0.97664 0.096723 -0.18922 -0.11563 0.61212 
address -0.0014757 -0.2482 -0.15443 -0.67262 -0.10827 -1.1118 -0.0025285 0.22444 -0.048841 0.71111 
States. -0.66495 0.10725 0.14708 -0.80425 0.11089 -0.81733 0.29644 1.0831 0.035881 -0.24435 
party -0.55945 -0.65679 0.28802 -0.56679 -0.27724 -0.91479 -0.15573 -0.080868 0.079512 0.62018 
entered -0.68046 -0.32644 0.42126 -0.54045 -0.028012 -0.79632 -0.11086 0.67714 0.2096 0.26185 
Day -0.43094 -0.35968 -0.24926 -0.93562 -0.47959 -0.73882 0.59543 1.085 -0.049284 -0.28497 
short -0.58075 -0.33006 0.26391 -0.698 -0.42761 -0.82832 0.27318 0.42617 0.15037 0.076953 
Boxing -0.21172 -0.041874 -0.43404 -0.90109 -0.74459 -0.70522 0.98486 0.78903 -0.93986 0.28104 
Martin 0.16203 -0.036766 -0.37672 -0.5617 -0.19854 -1.2821 0.46765 0.27576 -0.019471 0.76655 
Donald -0.65274 -0.30043 0.058702 -0.60881 0.15198 -1.1795 -0.11918 0.1998 0.32073 0.29433 
Local -0.75608 -0.72725 -0.18894 -0.73266 0.27862 -1.3321 0.31177 0.061204 0.47287 -0.14434 
followed -0.32729 0.28894 -0.022603 -0.40436 -0.28682 -1.003 0.10582 1.2692 0.30297 0.19204 
warned -0.59806 -0.43205 0.28192 -0.86793 -0.15083 -0.67185 0.27903 0.38526 0.025258 -0.050058 
48 -1.3065 -1.4274 0.35336 -0.8817 0.0096189 -0.55586 0.16857 -0.11523 0.16306 -0.056604 
serious -0.71516 0.31911 -0.059803 -0.88491 0.41232 -1.0312 0.015585 0.94179 0.54708 -0.23558 
inquiry -0.58137 -0.27905 0.070826 -0.71423 0.23915 -1.0531 0.082007 0.73688 0.39584 0.18489 
sort -0.26256 -0.19543 0.18875 -0.84972 -0.21725 -0.71703 -0.21658 0.17491 -0.29592 0.7186 
prevent -0.20505 -0.32602 -0.16733 -0.50173 0.15263 -0.9455 -0.1129 0.41438 0.48461 1.071 
strike -0.66709 -0.30778 0.073121 -0.70164 0.25997 -0.85821 -0.19573 1.0138 0.34589 0.19096 
Anglican 0.054656 -1.0331 -0.0059116 -0.053058 -0.13348 -1.5993 -0.050093 0.57017 -0.38288 0.7314 
cancer -0.19992 -0.53237 0.019491 -0.42635 0.037758 -1.311 -0.3106 0.90962 0.040219 0.21367 
bring -0.18233 -0.10073 -0.43261 -0.48982 0.066788 -1.051 0.11163 0.87998 -0.20854 0.45659 
available -0.52407 0.13102 0.13111 -0.91465 -0.12903 -0.87427 0.23112 0.47517 0.095475 0.091368 
morning, 0.14801 -0.13532 0.18026 -0.35887 -0.42701 -0.88808 -0.41629 1.1517 -0.58072 0.59559 
Brett -0.33376 -0.36176 0.25144 -1.054 -0.2577 -0.8434 1.0467 0.75495 0.29776 -0.19761 
money -0.09201 -0.62016 0.27955 -0.39116 -0.18889 -0.89995 -0.82398 0.22088 -0.28864 1.1107 
Muslim -0.46085 -0.57349 0.22932 -0.38681 0.079687 -1.1082 -0.097108 0.65399 0.14412 0.27875 
mountains -1.0891 -0.84141 0.55001 -0.83106 -0.23461 -0.51527 -0.093006 0.98443 -0.0089239 -0.43523 
main 0.22113 -0.83266 0.10521 -0.12618 -0.19237 -1.2647 -0.33507 0.44239 -0.32171 1.1611 
overnight. -0.53628 -0.59264 0.57361 0.079302 -0.41328 -0.86297 -0.83981 1.5716 0.13146 0.5897 
border -1.0745 -0.80688 0.094161 -0.84945 0.28023 -1.0358 0.35539 0.756 0.65898 -0.55052 
current -0.34056 -0.29671 -0.028539 -0.42503 -0.030829 -0.95851 -0.24346 0.40756 -0.052589 0.93051 
AFP -0.96629 -0.23299 -0.18841 -1.3291 -0.14243 -0.79105 0.5924 0.22969 0.70363 -0.5799 
Daryl -0.56327 -0.49327 -0.043204 -0.89886 0.23492 -1.0182 0.42749 0.38291 0.43357 0.07015 
level -0.63115 -0.19731 0.20887 -0.76827 -0.045536 -1.0081 0.091203 1.0142 0.32456 -0.19721 
never -0.48897 -0.043838 0.015599 -0.97358 -0.3497 -0.98028 0.66209 0.046729 0.13706 -0.0079755 
cannot -0.59905 -0.57081 0.19503 -0.77679 -0.2478 -0.7807 -0.059398 0.35563 -0.049662 0.21827 
royal -0.45409 -0.96683 0.27389 -0.53659 0.39614 -1.3393 0.18308 0.47539 0.20399 0.1335 
calling -0.47807 -0.52471 -0.55177 -0.65506 0.11565 -1.1299 0.42493 0.76564 0.21525 0.040629 
Anthony -0.64931 0.026489 0.033161 -0.81541 0.43626 -1.1604 0.59253 0.51899 0.34883 0.14871 
lives -1.0007 -0.43611 0.27161 -0.72437 0.070933 -0.93666 -0.22224 0.8181 0.37997 -0.2095 
according -0.61513 -0.70434 -0.038144 -0.55538 0.085711 -1.0958 0.092172 0.73041 0.10862 -0.052779 
Geoff -0.4455 -0.83383 -0.0010065 -0.45873 0.37007 -1.0799 -0.8611 0.030447 0.23448 0.94561 
state's -0.6466 -0.47969 0.15904 -0.56322 -0.28015 -0.81131 -0.44785 0.93537 0.14372 0.083674 
"This -0.31861 -0.070662 -0.33344 -0.75423 0.047923 -1.231 0.1555 0.25614 0.079381 0.38957 
movement -0.68234 -0.0058577 -0.42516 -0.70921 0.41102 -1.0052 -0.26123 0.90005 1.1233 0.39109 
Justice 0.22145 -0.046057 -0.3873 -0.54528 0.11145 -1.4528 0.0022886 0.28234 0.15543 0.90186 
Vaughan -0.45571 -0.34748 0.43919 -0.61248 -0.23755 -0.84024 0.32034 0.9344 -0.065779 0.045147 
deadly -0.92643 0.38534 -0.14636 -1.3457 0.13863 -0.53906 0.20089 0.75679 0.79325 -0.15513 
ruled -0.24084 -0.22829 0.024232 -0.18049 -0.10174 -1.1659 -0.14475 1.3568 0.36087 0.386 
fast -0.25826 -0.27597 0.32058 -0.92486 -0.49563 -0.52719 0.42289 0.69926 -0.21873 0.32969 
led -1.0457 -0.71829 0.62081 -0.4528 -0.012406 -1.0829 -0.1586 0.92367 0.277 -0.50027 
insurance -0.17065 -0.49295 0.31402 -0.30209 0.27829 -1.2379 -0.094054 0.77571 0.21631 0.59419 
burning -0.059832 -0.742 0.27194 -0.1307 -0.36454 -1.1497 -0.41148 0.92573 -0.78046 0.52795 
fired -0.69486 0.040284 0.36622 -0.44326 -0.5774 -0.68291 -0.75575 1.0486 -0.039971 0.079566 
anything -0.4306 -0.45034 -0.36616 -0.93137 0.24657 -1.0363 0.077518 0.037307 -0.036428 0.42709 
study -0.54841 0.18277 0.14457 -0.65779 -0.24644 -0.65135 -0.091736 0.51482 0.022659 0.38374 
"These -0.55263 -0.56792 -0.02625 -0.86976 0.12231 -1.0129 -0.14027 0.054992 0.12695 0.36782 
trip -1.1363 0.15488 -0.10571 -0.78124 0.54151 -1.2883 -0.058228 1.5792 1.0205 -0.92743 
Workers -0.31711 -1.1872 -0.20573 -0.25898 0.45861 -1.3987 -0.066375 0.89995 0.46048 0.51971 
speaking -0.67576 -0.78225 -0.17374 -0.53167 0.21999 -1.1365 0.48679 0.6051 0.10733 0.014648 
White -1.0691 -0.71576 0.18601 -0.66263 0.18797 -0.93076 0.030931 1.0591 0.3468 -0.39768 
cent. -0.38842 -0.38395 0.48194 -0.1118 -0.2842 -0.8129 -0.37809 0.65673 -0.034025 1.1807 
difficult -0.56592 -0.38875 0.20392 -0.79458 -0.22895 -0.80898 -0.064906 0.1169 0.095482 0.40942 
rule -0.29437 -0.4349 0.14987 -0.057217 0.22377 -1.3794 -0.13889 1.4322 0.38186 0.25243 
Allan -0.47308 -0.21368 -0.072363 -0.98678 -0.31049 -0.93589 0.81075 0.55897 0.18562 -0.03318 
costs -0.64242 -0.060676 0.079552 -0.76381 0.22622 -0.90742 -0.10995 1.1008 0.37748 0.29005 
yesterday. 0.03423 -0.23344 0.26804 -0.30525 0.097846 -1.3262 -0.48147 0.97843 -0.15244 0.48416 
fighter -0.75659 -0.97552 0.34947 -0.60984 -0.6389 -0.50048 -0.36047 1.0879 -0.14099 -0.18508 
member -0.52666 0.27822 -0.019485 -0.62276 0.10908 -0.96039 0.33368 0.97859 0.57237 0.10144 
case -0.51205 0.195 -0.060801 -0.89321 -0.14657 -0.84095 0.14524 0.40001 0.22466 0.18709 
tanks -0.95401 0.085001 0.17345 -0.67773 0.20026 -0.65944 -0.37138 1.0175 0.7128 0.10698 
"You -0.16206 -0.00056435 -0.081943 -1.0188 -0.59424 -0.70124 0.12138 -0.4033 -0.6527 1.0768 
If -0.28207 0.1919 -0.34916 -1.0601 -0.18642 -0.81348 0.18053 -0.025946 0.23304 0.35833 
accept -0.23733 -0.40864 -0.064546 -0.5112 0.22181 -1.1557 -0.13447 0.61398 0.25163 0.45604 
week. -0.64909 -0.30361 0.096381 -0.69397 -0.14986 -0.73241 -0.14011 0.69815 0.29607 0.23642 
yacht -0.058818 -0.33121 0.26527 -0.32216 -0.25582 -1.0478 -0.22141 1.4873 -0.18601 0.17528 
receiving -0.67558 -0.35521 -0.097124 -0.47067 0.22287 -1.09 -0.095484 0.99088 0.1136 0.11381 
complex -0.77305 -0.39732 0.29186 -0.53716 0.28691 -0.83655 -0.30644 0.99067 0.28981 0.13298 
bomb -1.0665 -0.0030874 -0.077976 -1.2056 0.1396 -0.68699 0.22538 1.1693 0.56946 -0.80553 
Islands -0.67129 0.085485 0.24231 -0.82182 -0.26395 -0.62288 0.011155 1.2019 0.13598 -0.18813 
nine -0.68703 0.067762 0.26018 -0.62093 -0.40544 -0.56954 0.023432 1.5445 0.14896 -0.081614 
companies -0.44762 -0.33386 0.16977 -0.42543 0.29643 -1.0604 -0.35753 0.89526 0.17445 0.41111 
Rafter -0.085078 -0.50727 0.089136 -0.64779 -0.61235 -1.1055 0.041548 0.15516 -0.16986 0.5649 
front -0.38352 -0.40941 0.070501 -0.53376 -0.13149 -0.79345 -0.36936 0.44023 -0.022469 0.7336 
population -0.3208 -0.41263 0.076773 -0.18204 0.60486 -1.6229 -0.17057 0.86279 0.19409 0.47944 
confident -0.55883 -0.38904 0.1976 -0.49928 0.020843 -0.78832 -0.32809 0.67949 0.10776 0.53149 
industry. 0.0092273 -0.37565 -0.20037 -0.46483 0.31335 -1.4774 -0.096699 0.73231 0.21874 0.52656 
tour -0.43954 -0.19026 -0.11173 -0.83247 -0.33728 -0.96407 0.11174 0.34995 -0.56476 0.18356 
Suharto -0.87874 0.12042 -0.15994 -0.80527 0.14874 -1.0192 0.0061843 0.65136 0.49705 0.042594 
tomorrow. -0.068397 -0.16142 -0.099732 -0.31752 0.027595 -1.181 -0.19693 1.0481 0.10702 0.6485 
Hobart -0.40508 -0.23509 0.36173 -0.62247 -0.81449 -0.57674 -0.092663 0.94042 -0.4049 0.19496 
yesterday, -0.23715 -0.072551 0.42636 -0.44529 -0.046663 -1.0071 -0.38182 1.0655 -0.12396 0.27852 
2,000 0.099853 0.044741 -0.11929 -0.7598 -0.33545 -0.78934 -0.056185 0.4076 -0.25193 0.87933 
wicket -0.079426 0.40289 0.35853 -0.96778 -1.0911 -0.35977 0.72483 0.88639 -0.68603 0.52199 
Reid -0.046752 -0.63395 -0.092827 -0.45231 -0.016952 -1.2688 0.15978 0.32874 0.078602 0.41831 
cabinet -0.72927 -0.24877 0.22627 -0.6884 -0.21956 -0.81994 0.47646 1.2002 0.34203 -0.2746 
provide -0.63287 -0.41829 0.24012 -0.70966 -0.2431 -0.75058 -0.32633 0.29332 -0.11356 0.38158 
Richard -0.37644 -0.60922 0.21232 -0.66811 -0.19052 -0.988 0.063575 0.34944 -0.31023 0.29261 
share -0.7711 -0.56008 0.53573 -0.49884 -0.19793 -0.73914 -0.57008 0.75933 -0.38981 0.23133 
Hewitt -0.30787 -0.29882 0.021498 -0.3843 -0.33191 -0.94711 -0.12048 0.77761 0.0069131 0.3869 
federal -0.4838 -0.42478 0.20567 -0.63983 0.040881 -0.98377 0.014822 0.62376 0.23546 0.31461 
ever -0.64672 -0.16055 0.14861 -0.8194 -0.28796 -0.86134 0.35801 0.36622 0.37592 -0.035676 
tribal -0.64211 -0.54691 0.17191 -0.56734 -0.0063289 -1.1274 0.23998 0.42009 0.1412 -0.16763 
country -0.77805 -0.92748 0.30379 -0.65351 -0.030827 -0.92047 -0.16022 0.26628 0.17352 0.12659 
changed -0.52327 -0.55094 0.19295 -0.55853 -0.20834 -0.97609 -0.3652 0.071883 0.029538 0.54407 
starting -0.46169 -0.50999 -0.058123 -0.73978 -0.016958 -0.91 0.24025 0.42762 -0.035204 0.28767 
5,000 -0.29395 0.068369 -0.18029 -0.63574 0.048494 -0.85869 -0.18597 0.97646 0.14903 0.35857 
stage -0.66806 -0.34818 -0.01396 -0.67032 -0.060946 -0.85306 -0.21959 0.65349 0.53493 0.26162 
survey -0.22242 -0.087934 0.38811 -0.26126 -0.58625 -0.75421 -0.13878 1.0151 -0.42212 0.45977 
absolutely -0.63469 -0.74938 0.087538 -0.81309 0.12101 -0.91824 -0.17939 0.051154 0.12888 0.43506 
small -0.71332 -0.46958 0.1701 -0.61473 -0.037699 -0.92908 -0.093239 0.51409 0.30154 0.27425 
offices -0.99956 0.070539 0.077916 -0.95078 -0.044151 -0.73524 0.14409 0.78637 0.55758 -0.35419 
global -0.44703 -0.59839 0.24321 -0.70627 0.22237 -1.1103 0.0017645 0.26625 0.29455 0.35686 
nearly -0.5257 -0.13128 0.42142 -0.77345 -0.49131 -0.5598 0.23629 0.78728 -0.1401 0.0033709 
French -0.91901 -0.14773 -0.21897 -1.0051 0.25846 -1.1588 0.66086 0.65286 0.63917 -0.58954 
ministers -0.97549 -0.63506 -0.055398 -0.82027 0.44184 -1.3243 0.13017 0.79134 0.6692 -0.40888 
secretary -0.64314 -0.35139 -0.14915 -0.72097 0.1525 -1.0265 0.12711 0.39252 0.32861 0.21684 
area. -0.57663 -0.8352 0.34768 -0.39441 -0.052231 -0.97518 -0.77588 0.92722 -0.43441 0.1048 
House -0.92075 -0.90767 0.18648 -0.456 0.22475 -1.156 -0.3757 0.55383 0.19389 0.20614 
proposals -0.2896 -1.2513 0.19899 -0.25546 0.25114 -1.3102 -0.57241 0.24839 0.18089 1.0164 
Steve -0.087794 -0.3733 -0.057198 -1.1987 -0.69229 -0.83323 1.2122 0.12809 -0.47218 0.22127 
powers -0.65772 -0.8354 0.31703 -0.4126 -0.2223 -0.83428 -0.61877 0.63718 -0.21321 0.413 
helicopter -0.63627 0.33169 -0.04124 -0.64942 -0.007792 -1.0096 -0.24097 1.1973 0.4376 -0.08689 
total -0.4352 -0.49007 0.17867 -0.30173 0.15963 -1.2734 -0.14197 0.70474 0.19506 0.31517 
well, -0.50813 0.20312 0.018288 -1.1888 -0.41429 -0.51521 0.28217 -0.27168 -0.099919 0.60281 
terror -0.94879 -0.25523 0.039908 -0.68023 0.23317 -0.94696 0.016717 0.64619 0.36467 0.10413 
list -0.69022 0.021708 -0.19053 -0.84109 0.027263 -0.77191 0.15256 0.71619 0.50055 0.15777 
wickets -0.39027 0.44605 0.44766 -1.1009 -1.0188 -0.2017 0.59159 0.95276 -0.61251 0.22399 
confidence -0.69457 -0.34047 0.15298 -0.96222 0.12703 -0.93435 -0.036093 0.38207 0.29469 -0.036755 
post -0.045679 -0.62986 -0.030791 -0.46173 -0.33766 -1.0991 -0.28709 0.80161 -0.32254 0.40907 
base -0.58016 -0.49237 0.30686 -0.32092 -0.012507 -0.85299 -0.52995 0.45617 0.0053144 0.64254 
commander -0.69177 -0.58551 0.20819 -0.72212 0.4732 -1.1835 0.24418 0.91314 0.19896 -0.27314 
increase -0.38979 -0.026867 0.23021 -0.19072 -0.0079615 -0.96927 -0.25431 1.0862 0.053428 0.60379 
moved -0.62325 -0.12637 -0.035697 -0.77188 0.099314 -1.0098 0.026153 0.90692 0.87822 -0.0056579 
Rural -0.26397 -0.40441 0.24293 -0.3083 -0.34759 -0.85743 -0.73475 0.2754 -0.60334 1.1969 
Highway -0.50854 -0.35244 0.32248 -0.60597 -0.52647 -0.8323 0.05358 0.56329 -0.12004 0.15013 
overall -0.37548 -0.58074 0.39297 -0.38239 -0.49669 -0.7306 -0.19826 0.64835 -0.1485 0.63353 
areas. -0.53282 -0.97826 0.68268 -0.35349 -0.043329 -0.89552 -0.68848 1.1655 -0.20518 0.15418 
airport -0.73792 -0.59203 0.39815 -0.47836 -0.21277 -0.8835 -0.36628 0.77606 -0.18391 0.22346 
him. 0.090288 -0.46353 -0.05657 -0.57333 0.092224 -1.231 0.24255 0.21846 -0.23232 0.5865 
Pacific -0.78524 -0.38348 0.19945 -0.70667 0.1526 -0.80599 0.12937 0.52258 0.3571 0.24161 
accident -0.37187 -0.23406 -0.049253 -0.25345 -0.055416 -0.96741 -0.16488 0.6578 -0.17606 0.78905 
coming -0.070611 -0.58318 -0.30004 -0.50957 0.31244 -1.3856 0.12634 0.43218 -0.056819 0.54713 
criticism -0.44423 -0.71442 0.15159 -0.52192 0.057248 -1.1272 -0.076981 0.51607 0.097529 0.17495 
fellow -0.65176 -0.27971 0.42349 -0.8394 -0.37984 -0.65908 0.45517 0.5082 0.027163 0.17688 
places -0.68642 -0.44241 0.20883 -0.92535 -0.38432 -0.64966 0.085694 0.27956 -0.10354 0.15155 
hearings -0.1915 0.24339 -0.085617 -0.71106 0.091059 -1.0513 0.17307 1.0069 0.11188 0.27261 
anti-Taliban -1.0447 -0.84226 0.27591 -0.86997 0.12948 -0.86219 0.33534 0.60414 0.34893 -0.25317 
tennis -0.60595 -0.20268 0.12342 -0.73031 -0.25719 -0.84503 -0.20902 0.4513 0.12055 0.23302 
car 0.10849 0.20337 0.0018021 -0.86136 -0.46389 -0.59082 0.20338 0.69156 -0.066353 0.49193 
force, -0.9936 -0.53781 0.049585 -0.60097 0.017685 -0.95836 -0.17046 1.0351 0.61785 -0.22209 
Simon 0.024231 0.11378 -0.33675 -0.41 0.16936 -1.2598 0.10345 0.25713 0.10542 1.092 
rights -0.45751 -0.69076 0.015417 -0.32252 -0.38762 -0.79263 -0.034619 1.4039 -0.011613 0.14712 
Perth. -0.44169 0.040914 0.28577 -0.71437 -0.61802 -0.51368 -0.17772 0.65362 -0.23293 0.46822 
India. -0.20225 -0.92663 -0.008708 -0.34339 0.017222 -1.2478 -0.046154 0.47811 0.065459 0.42233 
Tony -0.82862 -0.31718 0.085526 -0.65926 0.2121 -0.97746 0.27143 0.71986 0.56379 -0.15878 
hour -0.45488 0.057377 0.19187 -0.61432 -0.81711 -0.44354 -0.13434 0.87384 -0.42005 0.28991 
months. -0.45802 0.19037 0.12636 -0.88762 -0.11615 -0.48853 0.15943 1.1086 0.039966 0.31866 
management -0.46919 -0.5156 -0.2898 -0.54294 0.507 -1.2844 -0.29579 0.57462 0.75766 0.53533 
began -0.43988 -0.81965 0.20006 -0.58888 -0.10307 -1.1743 0.046398 0.44548 0.055165 0.11476 
threat -0.56857 -0.14488 0.047821 -0.90026 -0.21183 -0.76336 -0.058288 0.35999 0.13608 0.30395 
freeze -0.48188 -0.99623 -0.087136 -0.34492 0.19773 -1.1128 -0.2401 0.93702 0.70452 0.40433 
time, -0.47249 -0.29166 0.048025 -0.50322 0.10961 -1.0954 0.062447 0.83041 0.22984 0.15488 
significant -0.55159 -0.24458 0.041006 -0.75474 -0.051686 -0.85181 -0.2545 0.29067 0.11777 0.65681 
mean -0.3003 -0.80873 -0.21211 -0.6164 0.025246 -1.3568 0.23852 -0.026676 0.10032 0.4789 
damaged -0.094224 0.074958 0.25549 -0.27227 -0.29047 -0.92231 -0.50933 1.0131 0.008574 0.80034 
quickly -0.21029 -0.20662 -0.05791 -0.73478 -0.066713 -0.9085 -0.023358 0.31106 0.12451 0.61123 
control. -0.61809 -0.51828 0.41046 -0.55019 -0.29782 -0.68075 -0.46778 0.77951 -0.17226 0.24028 
storms -0.532 -0.84614 0.4456 -0.27544 -0.42596 -0.71124 -0.63012 0.67107 -0.14738 0.6868 
added. -0.52311 -0.41385 0.4767 -0.81253 -0.13042 -0.82314 0.26649 0.18023 0.064419 0.23956 
operating -0.62039 -0.17246 -0.32408 -0.63313 0.38281 -1.0842 0.14149 1.2927 0.35057 -0.13169 
whole -0.83238 -0.85254 0.046098 -0.58939 0.18799 -0.97853 0.082829 0.25208 -0.058176 0.14619 
terrorism -0.70902 -0.27466 0.1412 -0.48818 0.11603 -0.94872 -0.05075 0.78791 0.22088 0.32491 
severe -0.64832 -0.59695 0.35196 -0.64795 0.28263 -1.0193 -0.44414 0.51563 0.39933 0.36499 
started -0.57046 0.017562 0.40069 -0.72915 -0.45602 -0.44943 -0.109 0.34801 0.04172 0.40484 
saw -0.28168 -0.48379 -0.016247 -0.67513 -0.61188 -0.7441 -0.1406 -0.034318 -0.27839 0.82037 
school -0.35081 -0.80571 -0.22136 -0.40537 0.20339 -1.4607 -0.058057 0.54551 0.34207 0.34235 
strategic -0.82648 -0.028157 0.06908 -0.64402 0.33389 -1.076 -0.1246 1.2338 0.54717 -0.24592 
measures -0.58575 -0.87252 0.39032 -0.27369 -0.011235 -0.91156 -0.3873 0.80795 -0.042643 0.48501 
reach -0.049404 -0.64805 0.13466 -0.14793 0.17783 -1.2746 -0.17269 0.34518 -0.22757 1.0613 
didn't -0.67103 -0.50766 0.25298 -0.82553 -0.14948 -1.0409 0.32106 0.18912 0.0084828 -0.017925 
mission 0.071497 -0.70345 0.014609 -0.37367 0.84517 -1.7252 0.24837 0.68217 0.22479 0.35596 
carry -0.31398 -0.37039 -0.016617 -0.92578 -0.39248 -0.64707 0.14221 0.45776 0.055705 0.30562 
airline's -0.19533 -0.90773 -0.060751 -0.15316 0.2498 -1.4539 -0.46062 0.79351 0.16728 0.53522 
operation -0.60703 -0.22839 -0.17784 -0.24725 0.90159 -1.6031 -0.36505 1.1636 0.65905 0.35462 
Sharon's -0.53162 0.014101 -0.35147 -1.0874 0.12388 -1.2784 0.64493 0.58941 0.53854 -0.16049 
market 0.014857 -0.15902 -0.13229 -0.5336 -0.13428 -1.0347 0.21877 0.36541 -0.089388 0.78297 
Jason -0.37182 0.10945 0.14441 -0.78079 -0.36935 -0.6016 0.25734 0.49608 0.0017925 0.75263 
I've -0.30291 -0.28994 -0.060411 -0.78662 -0.42569 -0.70765 -0.074235 0.63184 -0.042167 0.22129 
suspended -1.0026 -0.22211 0.24609 -0.90261 0.0048028 -0.91969 0.30061 0.83167 0.50003 -0.47204 
everything -0.25028 -0.47456 -0.23525 -0.79683 0.13395 -1.0971 0.048917 0.0075893 0.11786 0.63535 
Laden, -2.0189 -1.4431 0.95401 -0.90579 0.043261 -0.57266 0.10554 0.37008 0.1899 -0.55675 
winning -0.22717 0.11865 -0.16047 -0.82654 -0.92389 -0.63676 0.45987 0.94152 -0.75564 0.11819 
space -0.34117 -0.081156 0.077317 -1.0006 -0.111 -1.078 0.88261 0.52974 0.27809 -0.12185 
fell -0.82764 -0.01633 0.53834 -1.0465 -0.70195 -0.34097 0.44582 0.46338 -0.40653 0.11575 
Bank, -0.92318 0.31172 0.11852 -0.66204 0.23116 -1.0075 -0.43549 1.4725 0.52893 -0.30507 
Endeavour -0.35022 -0.19489 -0.15907 -0.67883 0.069576 -1.0339 0.17495 0.5124 0.25385 0.26299 
circumstances -0.63659 -0.77506 0.50847 -0.77507 -0.48278 -0.51886 -0.37034 0.2151 -0.33686 0.46979 
women -0.41519 0.3101 0.062625 -0.69796 -0.39412 -0.40408 -0.40204 0.91959 0.29827 0.76272 
Space -0.36815 0.053405 0.0049708 -0.92795 0.15598 -1.2032 0.70822 0.70597 0.73626 -0.3846 
rest 0.12569 0.007577 -0.076527 -0.20381 0.64936 -1.5388 -0.91919 0.91707 0.32751 1.1623 
signed -0.96387 -0.081043 0.0034198 -1.0349 -0.29718 -0.68574 0.00909 0.56496 0.4217 -0.42813 
