1694 100
. -0.0073677 0.0085351 -0.006796 -0.0034636 0.0063714 0.0017518 0.0043525 0.00047615 0.011996 0.011498 -0.0026636 0.0035697 0.0091625 0.0071534 -0.0050881 -0.0024293 0.00064887 0.0053288 -0.00036542 -0.0093268 -0.0016235 0.0089283 0.0058939 -0.0051137 0.0056315 -0.0076466 0.0023354 -0.005507 -0.0034403 0.010308 -0.0072886 -0.0023932 -0.0093366 -0.0075306 -0.012064 -0.00060474 0.0022395 -0.010275 -0.00167 -0.0056005 0.0087009 0.0086535 0.0036048 0.0018652 -0.0035568 0.0017059 -0.0037502 -0.0046059 -0.0087258 0.004396 -0.0083039 0.0089225 -0.0091893 0.0051461 -0.0019044 -0.0052419 0.0010328 0.0025309 0.0051715 0.0037724 -0.0065502 0.0062235 0.0091799 0.0065703 -0.0050002 0.00067642 -0.00898 0.0052481 0.0091041 0.0056495 -0.01039 0.0024462 -0.0031607 0.00022234 0.00044661 -0.0029836 0.011307 0.01124 -0.00031432 -0.0045009 -0.0081716 0.0062584 0.011315 -0.0089096 -0.0044994 -0.0088694 -0.00030603 0.0013715 -0.0045269 -0.0039032 0.009791 0.0046301 0.011883 -0.009881 0.0013287 -0.010527 0.0059139 0.011536 -0.0067664 -0.0016169 
the 0.0030675 0.0056888 0.0078729 -0.010203 0.0076825 0.0084974 -0.0077292 0.0013958 -0.0018956 -0.00057796 -0.0015858 -0.0059478 -0.0049943 0.0023767 -0.0067323 -0.0075668 0.0035321 0.0056904 -0.0077086 -0.0013287 -0.0049372 0.011202 0.0042694 0.0075287 -0.0086195 -0.0069896 -0.0093116 -0.0024288 -0.0034624 -0.0069229 -0.0053578 -0.00011221 0.0033275 -0.0065928 -0.0082888 -0.0020328 -0.0079223 0.0032935 -0.00016251 -0.0020651 -0.010762 0.010457 -0.0049954 0.0032614 0.0098122 0.0018682 0.0088078 -0.0033058 -0.004298 0.0047257 -0.0020841 -0.0017755 0.0023947 0.0051516 -0.00985 0.003716 -0.0099434 0.00094436 0.0096458 -0.0021319 -0.00010359 0.0044539 0.0075459 0.0089452 0.0035863 -0.0034757 -0.0084044 -0.0057109 -0.0052663 -0.0059142 0.0011808 0.0066119 0.0064192 -0.0080182 -0.0023376 -0.0019185 -0.002756 0.0040598 0.0069435 0.0050608 0.0010278 -0.0056358 0.003746 0.0028572 0.0053033 0.0028776 -0.0026466 -0.0090884 -0.0055066 0.0070413 0.0030741 0.0025123 0.0045853 0.0012054 0.00914 0.0010706 -0.00089066 0.0036412 -0.0075655 -0.0070664 
</s> 0.0079817 -0.008329 -0.0013912 -0.0034101 -0.00050476 -0.0078958 -0.0090148 -0.0085497 0.0096969 0.0088069 -0.0091519 -0.0024412 -0.0013307 -0.0061542 -0.0028684 0.0045501 0.0023364 -0.0030235 -0.0081886 0.0029148 0.0058019 -0.0066915 -0.006704 0.0038868 0.00044595 -0.0017046 0.0042908 -0.009403 -0.0084005 0.0015653 0.0032012 0.0074774 -0.0036029 0.0023601 -0.0080558 -0.0072271 -0.0074255 0.0083788 0.0090518 0.0084491 -0.0080415 0.0044141 0.0042999 -0.00072735 0.0034455 0.0061249 0.0078097 0.0075878 0.0064985 0.0071757 -0.00092482 -0.00050194 0.0065105 -0.0059492 -0.009628 0.0087811 0.0018265 -0.0084277 -0.0061072 -0.0045742 0.010284 0.0081991 0.0066873 0.0068064 -0.0063232 0.0029672 -0.0049028 -0.0024743 0.0044498 -0.0091445 0.0079321 0.0042979 0.0039968 -0.0096363 -0.0080504 0.0040997 0.0081037 -0.0041511 0.0075745 -0.0079174 0.0094955 -0.0024039 -0.0077518 -0.0042234 -0.0027168 -0.0074853 -0.0029904 0.0090468 0.0072327 -0.003365 -0.0071717 2.0758e-05 0.0070038 -0.002909 0.0027727 -0.0013402 -0.0022766 0.0048568 0.0063018 0.0093683 
, 0.0010534 0.0096905 -0.006554 -0.0042068 0.0015946 0.0082767 -0.007067 -0.00029706 0.0072581 0.007637 -0.0047414 0.0091784 -0.0071685 0.0044579 0.0048253 -0.0059494 -0.0066638 -0.0080785 0.006995 0.0023651 0.0081622 0.0095416 -9.7257e-05 0.0020368 -0.0069532 0.0040573 0.0081361 -0.0032717 -0.010196 -0.0047701 0.0064753 0.0058786 -0.00089705 0.0077741 -0.0033651 0.0078312 0.0015124 -0.0048532 -0.0013952 0.0048157 0.0014439 0.00041435 -0.0038403 -0.0066509 -6.4681e-05 -0.0040841 0.007834 -0.0011868 0.0043214 0.0075293 -0.010177 -0.0058968 0.0017315 -0.0065682 -0.0025562 -0.0048909 -0.00056671 0.0029007 0.00517 0.00081755 -0.0080207 0.0034238 0.0046108 -0.0075016 -0.0076022 0.0024264 -0.00022857 -0.0057206 -0.00093964 -0.0043606 0.0085451 0.0040311 0.00117 0.0035369 9.9286e-05 0.0089823 0.0055156 0.010107 0.0068311 -0.0081226 0.0016036 0.0033062 0.0086905 0.0055009 0.009914 -0.0007388 -0.0018277 0.0080089 -0.0096634 -0.0089219 0.0011595 -0.0058927 0.0025988 0.0026303 -0.0063191 -0.0049342 0.00014627 0.005245 -0.0030072 0.0024874 
a -0.0033344 0.0057626 -0.00023353 0.00056676 0.010504 0.0098668 0.0032319 -0.0095827 0.0068827 0.0057822 -0.0010861 -0.0044301 -0.0050358 0.0030989 0.0081604 0.00067041 0.0026344 -0.002676 -0.0065659 0.0085456 0.0083376 -0.0018867 -0.0042779 -0.0088466 0.0029446 0.0030851 0.0097387 0.0025352 0.006085 0.0072291 0.0053312 -0.0080413 -0.0084243 -0.0026482 -0.0006545 0.0070308 -0.0097863 0.0087689 0.0060265 0.0013076 -0.0046425 -0.0010796 0.0077236 0.0097907 0.0059167 -0.009542 0.00029684 0.0088105 -0.0020945 -0.0018312 -0.0064078 0.005461 0.0046036 0.00049781 0.0086349 0.007739 -0.0055744 0.0051881 -0.0085345 0.0093652 0.0030585 0.0029021 -0.0025031 -0.00019819 0.0065526 0.0056658 -0.0056571 -0.0092595 -0.0055276 0.0037828 -0.0042156 0.00060904 -0.0068573 0.006267 -0.0053648 -0.0034802 -0.0059328 -0.0091968 0.0049428 -0.0034595 -0.0070928 0.0022856 0.0014461 0.0036601 -0.00012703 -0.0040059 0.0020616 0.0063084 -0.0050787 0.0072884 0.005832 0.00097179 0.011148 -0.0012075 0.0019917 0.0063546 -0.00092706 -0.0079741 -0.0069178 -0.0061831 
of 0.0098272 0.0047827 0.0059091 -0.0041482 0.0041623 0.0031785 -0.0079291 -0.0023364 -0.0088935 0.0087389 0.00090589 0.0037743 -0.005023 -0.0015014 -0.0063261 0.0041003 -0.0068784 -0.0084367 0.0072242 -0.0063967 -0.007948 0.0013619 0.0060514 -0.0023478 0.0032283 0.0065238 -0.00080504 -0.0062104 -0.0080103 -0.007154 -0.0066034 0.0070092 -0.0039282 -0.001508 0.0049924 0.0062546 -0.0069334 -0.0050413 -0.0082162 0.0087493 -0.0063843 -0.00065837 -0.0047429 0.0027342 0.0073883 -0.0018305 -0.0031762 -0.0099115 -0.0045713 0.0076628 -0.0051627 -0.0083804 -0.0088495 0.006048 0.0045659 0.0031441 0.0019296 -0.0006984 0.00068286 -0.00286 -0.0080632 -0.0041523 0.0078242 -0.0039372 0.0052058 0.0025898 -0.0088613 -0.0065178 -0.0051798 0.0075145 -0.0013716 0.0067247 0.0099882 -0.0096044 -0.0027602 -0.0018245 0.0021473 -0.0086432 -0.0074431 -0.0036283 0.0058577 0.0053773 0.001617 0.010724 0.0060763 -0.0017898 -0.0095389 0.00097286 -0.0079829 0.0099031 -0.0019003 -0.0011399 -0.0085704 0.0024103 -4.5632e-05 0.00049651 -0.0087024 -0.0015032 -0.0051667 -0.007545 
and 0.0077744 -0.00046212 0.008393 -0.0084346 -0.0038607 0.003819 0.0039376 -0.0015167 0.0011984 0.0007107 0.00073607 0.0059694 -0.0097603 -0.0093128 -0.0052275 0.0084301 -0.0018818 -0.0024209 0.00025703 0.004889 0.0073365 0.0093315 0.0017337 -0.0042373 0.0022166 0.0052738 -0.0057569 -0.00086833 0.00017871 0.0090905 -0.0064629 -0.0096822 -0.0058978 0.0014949 0.00382 0.0060054 0.0044308 0.0033561 -1.1816e-05 0.0011387 -0.0043445 0.0068891 0.005161 -0.0050379 0.0077627 -0.0053993 0.0097939 -0.0076431 1.6284e-05 -0.0058964 0.0050422 0.0064014 -0.0052681 0.00010304 0.0047342 -0.0029601 -0.0013342 0.0030668 0.0085077 -0.0021422 -0.00019364 0.0066257 -0.0090286 -0.0089475 -0.0060606 0.0059967 -0.0098142 0.0038275 -0.00090452 0.0097993 -0.0075619 0.0027028 -0.0050503 -0.002972 0.0014969 0.0013982 -0.00029346 -0.008125 -0.0082237 -0.0034224 0.0068924 0.0078213 0.00391 -0.006006 0.0068913 -0.0057141 0.0075208 0.005379 0.0092173 0.00031527 -0.0017722 -0.0044518 -0.0026761 -0.00099923 -0.0070006 -0.0082134 -0.0021481 -0.0040792 0.0082634 -0.0092059 
to -0.0064551 -0.0035357 -0.0084403 -0.0067004 0.0085336 -0.0027151 -0.0043127 0.0013008 0.001195 -0.0065498 0.0035023 -0.0085727 0.00022474 0.0093018 0.0062301 -0.0013385 -0.0052258 0.00092702 0.0020056 0.0047757 0.0011562 -0.0034863 -0.0067136 0.0030207 -0.0054768 -0.0059756 -0.0046934 0.0050641 -0.0047811 0.0021982 -0.0007733 0.0076782 0.0093474 0.0039651 -0.0095456 0.0050119 0.0079211 -0.0092242 0.0082095 0.0024986 0.0049937 0.0057018 0.0001203 0.0065779 0.0050255 0.0056588 0.0076304 0.0076938 0.006221 0.0097476 -0.0064643 -0.00062095 0.0056776 0.0084376 0.002313 -0.001621 0.00041768 0.0010217 0.0059479 -0.0072153 -0.00099849 -0.0079694 0.0095582 -0.0086682 -0.0066206 -0.0073809 0.002815 -0.0025927 -0.00847 -0.0049067 -0.0059718 0.0061049 -0.00857 0.0010334 0.0085108 0.0087266 -0.006137 0.0067869 -0.0047088 -0.002991 -0.0021728 -0.0041491 0.0076733 0.0081801 0.00079812 0.0089386 -0.0010461 0.004415 0.00074371 -0.0031844 0.0094158 -0.0033216 -0.0088745 -0.0045983 -0.0099878 -0.0060345 -0.0032961 -0.0096482 0.006968 -0.002717 
is 0.0062955 -0.0055784 0.0083083 -0.003505 0.0070667 -0.0099105 -0.0020361 0.0028691 -0.0084998 -0.0037012 -0.0084389 -0.0026486 -0.0038894 0.0097865 0.0041146 -0.0069166 0.0013937 0.0050487 0.0083446 -0.0007241 -0.009079 -0.0028434 0.0033026 -0.0056454 -7.2168e-05 -0.0034913 0.0088239 -0.0089908 0.0088343 0.0050451 0.0019036 0.0098995 0.0051504 -0.0024741 -0.0066625 0.0025139 0.0086366 0.0039847 0.0016922 0.0096119 -0.0085882 -0.0096802 0.0094442 0.0068869 0.0073966 -0.0075265 0.0036872 0.0051293 -0.00282 0.009816 -0.003479 0.0047317 -0.0061413 0.0072627 -0.0016191 0.0075041 -0.00083859 -0.0093093 -0.0040887 0.0048935 -0.0025429 0.0014765 0.0058869 0.009842 -0.0025633 -0.006838 0.0089093 -0.0047404 -0.0048019 -0.0034044 0.0037653 -0.0086906 0.0023747 0.0084153 0.0094189 0.007657 -0.0067171 0.0057651 0.0079792 0.0094364 -0.00128 -0.0029711 -0.0021798 -0.0073031 0.008681 0.0066529 0.0050826 0.0022956 0.0004918 0.002331 -0.0015 -0.0046411 0.0084894 0.0063691 -0.0048588 -0.0022135 -0.0025383 0.0091671 0.0078196 -0.0035092 
that -0.0070853 -0.0010078 0.001793 0.0071622 -0.0019824 0.0066901 0.0047718 0.0012716 -0.0044213 -0.0072864 -0.0067889 -0.0049701 0.0067431 -0.0096837 -0.0074656 -0.0061728 -0.0040163 -0.0098175 0.0025219 -0.0038205 -0.0047799 -0.0031041 0.0023104 -0.0038471 -0.0084512 -0.00021858 0.0067615 -0.0075318 0.0057839 -0.0070616 0.0026413 -0.0071299 0.0047199 -0.0054043 -0.0037887 -0.0017039 -0.0053955 0.0084224 0.00075148 0.00016293 0.0032691 0.0062447 -0.0022881 0.0035503 -0.0014556 0.00064474 0.0044371 -0.0021046 -0.00070004 -0.0019322 -0.00064715 -0.008082 0.0016833 -0.0021891 0.0056678 0.0045551 0.0033568 0.0090782 0.0095593 0.0055174 -0.0046676 0.0021349 -0.00041028 0.004606 -0.0036268 -0.0069824 -0.0027033 0.0091101 -0.0035021 0.004585 0.0038405 -0.0052877 0.0016542 0.0061232 0.00049737 0.0058676 -0.0034297 0.0010682 0.0062331 -0.0011651 0.0086356 -0.0062326 0.0053532 -0.0091677 -0.0069812 0.0018217 -0.010084 0.0046783 -0.0011002 2.5064e-05 0.00214 0.0077559 0.0094619 -0.0049408 -0.0091882 -0.0029235 -0.0085238 0.00093396 -0.0046452 -0.0096488 
in 0.0067113 0.0020599 -0.0063429 0.0080611 0.0089334 0.0010474 -0.0018816 -0.0012411 -0.00082546 -0.0025929 0.0087648 0.00072175 0.0002933 0.00064722 -0.0021588 -0.0030769 -0.00059187 -0.0068932 0.0088971 0.0067914 0.0024777 -0.0016259 0.0093517 -0.0097391 -0.0044151 -0.0076297 0.0072596 -0.0033007 -0.0037726 0.0015164 0.0098625 -0.0076802 -5.7499e-06 -0.0032545 0.0068769 -0.0079885 7.8892e-05 -0.00084161 -0.0012445 -0.0091003 -0.0048937 -0.0014349 -0.009024 -0.0031796 0.0065758 0.010416 -0.0028344 0.0052556 -0.0064409 0.000441 -0.0095262 -0.0043559 0.0069472 -0.0011202 0.0034428 -0.0070388 0.0014719 0.0093451 0.0068993 0.00088569 0.0061907 0.0056961 0.0036352 0.0064707 -0.0038169 0.0096466 0.0045987 0.0007396 -0.0047448 0.0093623 0.0093092 0.0092503 0.0061539 -0.0073807 -0.002333 -0.0015814 7.2333e-05 0.0074468 0.0038592 -0.0053099 -0.002552 0.0058069 -0.0039046 -0.00294 0.0093741 -0.0066368 -0.0040152 0.00021736 -0.0068372 -0.0022936 -0.005405 0.0034006 0.0068248 -0.0082546 -0.0099727 -0.0090813 0.0058044 -0.0029108 -0.0050942 0.0040452 
it 0.008619 0.0061853 -0.0051028 0.0089634 -0.0045666 0.0054758 0.010124 0.0011107 -0.0084008 -0.0052112 -0.0065193 0.0012499 0.0075003 -0.00079642 0.0063424 -0.00073804 2.4921e-05 -0.0076136 0.00041937 0.0021955 0.0027976 0.0057285 0.00081163 0.0065959 -0.006565 0.0059422 -0.0042542 0.0052294 -0.0095018 0.003392 0.0039955 0.0087694 -0.0016067 -0.010032 0.0018023 0.0004936 0.00025022 -0.0025239 -0.00067752 0.0017536 0.0034962 0.0045922 0.0068243 0.0081109 0.004424 0.0019563 -0.0011267 0.0014529 -0.0068289 0.0074388 -0.0061851 0.00035886 0.0043632 -0.008296 0.0091684 0.004696 0.0024911 -0.0036242 0.0068399 -0.010149 0.0061706 0.0021741 0.007025 0.0081336 0.0083557 -0.0042888 -0.0030687 0.0043663 -0.0072511 0.0020217 -0.0047646 0.00059874 0.0090449 0.0051042 -0.0060098 0.0033037 -0.0026853 -0.0029377 0.0069225 -0.0087818 0.0069464 0.003915 -0.0068426 0.0059885 0.0057164 0.0055701 0.0089097 0.0012855 0.0020318 -0.0091946 -0.0029488 0.0089644 -0.00066457 0.0098371 0.0051632 -0.00043338 -0.008956 -0.002836 -0.0089596 -0.0059658 
with 0.0019471 -0.0065868 -0.007142 -0.0059463 0.0095536 0.00072417 -0.0096481 -0.0036459 0.0044605 -0.0024938 -0.0027548 0.0090295 0.0096806 0.008054 0.0029649 -0.0013382 -0.00076513 -0.003416 0.0074316 -0.0049862 0.0088225 0.00031317 0.0048703 0.0018409 -0.0033817 -0.0077611 0.0069065 0.0077158 0.0072441 -0.0041007 0.0012833 0.0033134 0.0065255 0.0018447 -0.010152 0.00365 0.0082731 -0.0068628 -0.0066409 -0.0013559 0.0056429 -0.0049348 0.0094624 -0.0071989 0.0080435 -0.0082073 -0.00014161 0.0084782 0.0015721 0.0019159 0.0040284 -0.0095948 -0.0012234 -0.0051521 -0.0037091 -0.0057562 -0.0078165 -0.0035076 -0.007361 -0.0041743 0.0031214 0.0068067 0.0061399 -0.00040873 -0.0085282 0.0071518 -0.0095647 -0.00024089 0.0048429 -0.0054266 0.0038489 0.007016 0.0059623 -0.0051676 -0.0017738 -0.0080597 0.0038345 0.0097444 0.0014385 0.0070951 0.001284 0.0017284 0.0035366 -0.0047287 0.0057322 0.00082353 0.0005999 -0.0019596 -0.0056737 0.000985 0.0018411 -0.0092185 -0.00067874 -0.0089173 -0.0033105 -0.0072869 0.0050137 -0.0084948 -0.00072274 -0.0075713 
as 0.0033785 -0.0033415 0.0053415 0.0066251 -0.0046545 0.0062076 0.0030793 -0.0060593 0.0088204 0.0032791 0.0017008 0.0049928 -0.0087686 0.0051152 -0.0029771 0.0058414 0.005706 0.0082574 -0.0098636 -0.0036535 -0.0025696 -0.0035841 -0.0045345 0.0011827 0.0049616 0.0032257 0.0087037 0.0044507 0.0062077 0.0019152 0.0056109 0.00050847 -0.0031062 -0.0050019 0.0066688 0.007306 -0.0086044 -0.0092893 0.0047228 -0.0031379 0.0083743 0.0020015 -0.00067653 0.0050019 0.0066435 -0.0062797 -0.0086779 0.0011511 0.0034778 -0.002878 -0.0012338 0.0074048 -0.0091747 0.0042333 -0.0099516 -0.0027634 -0.0072817 0.0044114 -0.0098271 0.0048839 -0.008939 -0.0045872 0.0036825 0.010332 -0.0028308 -0.0055324 -0.0057482 0.00072478 0.0050599 -0.0028804 -0.0098156 0.006512 0.0045628 -0.0011669 -0.0052 -0.007688 0.009001 -0.008136 -0.0059282 -0.0017122 0.0052539 0.0042848 -0.0069613 0.0065789 -0.0018446 0.007173 0.0073425 -0.0074065 -0.0036103 0.0052145 -0.0063317 0.0047314 0.0057722 -0.0066581 -0.0017907 0.00090391 -0.0023023 -0.0013136 0.0089201 -0.0031181 
movie 0.0022527 -0.0083568 0.0022168 0.0075993 0.0062469 -0.0094965 0.0022126 -0.003666 0.0020316 0.0036436 -0.0042962 0.0088943 -0.0097337 -0.0036148 -0.0049749 -0.0026749 -0.00043194 0.0079658 -0.0051803 0.0099634 -0.0066667 0.0062435 0.00090782 -0.0062613 0.0021648 0.0050694 0.0074315 -0.0097238 0.0057247 0.0049457 -0.0043103 0.0079351 -0.0079809 -0.0070736 0.0089762 -0.0048965 0.00032611 0.005251 -0.0057582 -0.0089024 -0.0070384 0.0064979 -0.0049128 -0.00027271 -0.0016023 -0.00078088 0.0098938 -0.0056037 0.0087892 0.0030365 -0.0077492 0.0068262 -0.0029235 -0.0018341 -0.006044 -0.0062082 0.00017023 -0.0028743 0.002718 0.0043098 -0.0066817 0.002714 -0.0093722 0.0067135 0.008828 -0.0067056 -0.0003906 0.00057716 -0.0019762 0.0030202 -0.0080664 -0.0025517 0.0043508 -0.0096276 -0.009106 0.0094632 0.0084004 0.0077372 -0.0039453 0.0082782 0.0055171 -0.0079808 -0.0015056 0.0081944 -0.0023275 -0.0050007 0.005578 0.0021687 -0.0031986 -0.0088497 0.0081494 0.0034118 -0.0050097 0.0039626 -0.008194 -0.0094288 -0.0030663 0.00075808 0.0015225 -0.0010739 
film 0.0028984 0.0063829 -0.0040353 -0.0084964 0.0032694 0.0061903 -0.0062999 -0.0070603 -0.0041129 0.006401 0.0059656 -0.0089541 0.0018684 0.0025355 0.0063073 0.0099803 -0.0028008 0.00038992 -0.0073133 -0.0070182 0.0085406 -0.009202 -0.0094301 0.0096485 0.00042857 0.0035043 -0.0055937 0.0095434 -0.0093021 -0.0057396 0.0041743 0.0078398 0.009628 -0.0064433 -0.006527 -0.0058389 -0.0093011 -0.0052177 0.00109 0.0096079 -0.00024122 0.0049985 0.0094186 0.0062734 -0.0044902 -0.0078403 0.002929 0.0099243 0.0016875 0.0075367 -0.0036496 0.0096657 0.00094001 -0.0036818 0.0057709 0.0076108 -0.0027275 -0.0069527 0.0072286 -0.0037952 0.004649 -0.0064875 -0.0070685 0.0041198 0.0061093 -0.0062637 0.0094761 0.0015108 -0.0061284 0.0065859 0.0072929 0.0081289 -0.0098332 -0.0064901 0.008244 -0.0034193 -0.0035398 -0.0089946 0.0019151 0.0024041 0.00055268 0.0098381 0.0030036 0.0031033 -0.0024258 -0.0073055 0.0044283 -0.0093371 0.0015691 -0.0097223 -0.0097153 0.0054918 0.0047073 -0.0034565 -0.0015498 0.00594 -0.004483 -0.0031459 0.0058926 0.0028063 
but 0.0038041 0.0020114 -0.0039314 0.0014114 0.0035927 0.0065795 -0.0063396 -0.0038142 0.0085653 0.0051043 0.0065761 0.0059087 -0.0050732 0.0043218 0.0037099 -0.0061918 0.0019262 0.0034854 -0.0061105 -0.002493 -0.001155 0.0058584 0.0097591 0.0064148 0.00086786 0.0026071 0.0064433 -0.00099839 -0.0026211 0.0048402 0.0097256 -0.0016711 0.00095335 -0.0077258 -0.009758 -0.006747 -0.00091564 -0.0039619 0.0091119 -0.00057505 -0.0072766 0.0088293 0.005723 0.0068706 0.0041076 0.0084259 -0.00063851 0.0056616 0.006975 -0.00096461 0.0060791 0.002438 0.0013396 -0.006374 -0.00060466 -0.0011356 0.0094702 -0.002667 -0.0016087 0.0011 0.0038431 -0.0097723 0.0091638 0.0022331 0.0021552 0.0042141 0.0086815 0.0016973 0.005305 -0.0039892 -0.0042626 0.0041552 0.0090233 0.0062507 0.006211 -0.0002449 0.0022998 -0.0024963 0.0078674 0.0057429 -0.0058248 0.0012193 0.0016141 0.0083576 0.0020235 0.0061044 -0.0094395 -0.0088373 0.0065998 0.0053034 0.0079199 0.006939 0.0089397 0.0097813 0.0036295 -0.0099016 -0.0010272 0.0057678 0.0058613 -0.0025449 
for 0.0073132 -0.007241 0.00076575 0.0016104 -0.00060691 -0.008662 -0.0082923 0.005582 0.0059959 -0.0080805 -0.0029267 0.0028095 -0.006474 -0.00013851 -0.0099591 0.0095716 0.0076884 0.00030478 -0.0011986 -0.0095579 0.0048135 0.00023548 -0.0089592 -0.0043235 -0.0058717 0.0070106 0.0029533 -0.0083094 -0.0025082 0.0048933 -0.0046173 -0.0033762 0.00061121 -0.0037746 -0.00068034 -0.003468 0.0063546 0.00069133 0.0023681 -0.0060164 0.0071073 0.0024395 -0.0027574 0.0040661 0.0037938 -0.0074066 0.0059393 -0.0051179 -0.0056711 -0.0037314 -0.0083782 0.0028172 -0.0054488 -0.003687 0.0075385 -0.0069193 0.0042645 0.002107 -0.0018633 -0.00083553 -0.0093488 -0.0058981 0.0088401 0.0095985 -0.0038405 0.0075274 0.0046737 0.0092858 -0.002106 0.0071995 -0.0072208 0.0065464 0.0014039 0.00048489 0.00050807 -0.0088618 -0.0016599 0.0084672 0.0078474 0.0082339 0.0096989 -0.0023663 -0.0012853 -0.0098539 0.0042315 -0.00067168 0.0011549 -0.0015892 0.0064236 -0.0086006 0.0091574 -0.006715 0.0076149 0.0030156 0.00050645 -0.0042111 -0.0027765 -0.0014334 -0.005447 0.0055869 
this 0.0065843 0.0080301 -0.007133 -0.00802 0.0016613 -0.0077704 -0.0037427 0.0082787 -0.00078706 0.0039859 -0.0061453 -0.002327 0.0040459 0.0084715 0.0067136 0.0064557 -0.0053238 -0.0033522 0.0028946 -0.0039853 0.0023926 0.0018036 -0.0003331 0.0029944 -0.0029809 -0.0028522 0.0075514 -0.0097876 0.0014971 -0.0086655 -0.0037537 -0.0078318 0.0060725 -0.0049904 -0.003737 -0.0051443 0.0021055 -0.0080323 -0.0080631 0.0046963 0.0054417 -0.00047291 0.00089213 -0.0033639 0.0016495 -0.0093703 -0.0073996 0.0088676 -0.0015354 -0.0045097 -0.0087272 0.0090893 -0.0082874 0.00563 -0.007878 -0.0015435 -0.0054135 0.0090281 0.0081453 0.0090337 0.0087445 -0.00032926 0.008527 0.0086948 -0.00072794 0.0028369 0.0063279 -0.003818 -0.0075674 0.0029377 -0.0045396 -0.00083476 0.0038729 -0.0011983 -0.00022693 0.0021475 0.0068436 0.00077213 0.0010124 -0.0026472 0.0053408 -0.0094383 0.0050781 0.00053435 0.0085213 0.0095253 0.0002471 0.006543 0.0053431 -0.00020367 0.001366 0.0076661 0.0093256 -0.0089649 -0.0074623 -0.0026721 -0.0059322 0.0032899 -0.003149 0.0039606 
an 0.0039662 -0.0041463 0.0074683 0.0064729 0.0083662 0.0087201 0.0008353 -0.00080598 -0.00010331 0.00445 -0.0076921 -0.0094988 0.0027031 0.0034741 0.0017832 0.0011424 -0.0046724 -0.0061971 -0.0088497 -0.010068 0.0055319 0.0037554 0.0085283 0.0046255 -0.0053562 -0.007547 -0.0036851 0.0062634 0.0020612 0.002532 0.0036693 -0.00042547 0.0056287 0.0065351 -0.0037952 -0.00058731 -0.0086847 0.0072933 -0.0027085 -0.0085414 -0.0019055 0.004725 -0.0076467 0.0085026 0.0052601 0.0095695 0.00019471 -0.0086589 0.00046019 -0.0083754 -0.0046893 0.0047791 0.0024973 0.00037945 -0.0052388 0.0052701 0.0068422 -0.0028333 0.0054671 -0.0081211 -0.008836 0.0010708 -0.0087161 0.0016033 0.0042574 -0.0031674 0.0042872 0.0076898 0.0029782 0.0090835 -0.0077686 -0.0017273 -0.0046188 -0.0061472 -0.0052932 -0.0018244 0.0066893 0.0061276 0.0057344 -0.0016232 0.0086946 0.0023494 0.00061191 0.00046038 -0.0089258 0.0057328 -0.0080494 -0.00098036 0.0056962 -0.0093649 0.0058139 -0.0014938 0.0067224 -0.0081445 -0.004424 0.00027193 -0.0058802 0.0079347 0.0026267 0.0063845 
about 0.0021788 -0.0089488 0.0049499 0.0095368 -0.0075821 0.0024598 0.0056905 0.0036519 0.0095387 -0.002164 -0.0044332 0.001341 0.0047685 0.0061496 0.0033683 0.0060612 0.0027856 -0.0047863 0.0071979 -0.004345 -0.010004 -0.0019705 0.0066547 0.0012011 0.0040051 -0.0047615 -0.0026477 0.0026176 -0.0041633 -0.006627 -0.0017485 -0.0032668 -0.0046265 0.0029285 -0.0087603 -0.0051224 0.0089782 0.0053612 0.006869 0.0091621 -0.0079858 0.0018058 0.00061522 0.00839 0.0059036 0.0063321 -0.0047167 0.00095113 0.0037551 0.008418 0.0042744 -0.0065697 -0.0093106 0.0008497 -0.0056261 -0.0036032 0.0079456 -0.0025688 -0.0043959 0.0062752 -0.0094114 0.0019564 -0.0041247 0.0053788 -0.0084784 -0.0032998 0.0032611 0.0023991 -0.0023864 -0.0065293 -0.0096941 0.0091266 0.0069562 0.0094337 -0.006442 0.0076766 0.0061204 -0.00057212 -0.00024957 -0.0077549 0.0066686 0.00779 -0.0040039 -0.0075106 0.0044216 0.0014633 -0.0030778 0.0088572 -0.0015584 -0.0091191 0.0053244 0.0090685 0.0052938 0.0019664 -0.0087563 -0.0056081 -0.0026674 -0.0096311 -0.0073391 -0.0043816 
its 0.0031297 0.0079244 -0.0033048 -0.0082625 0.0022622 0.0056105 -0.0098425 0.0024744 -0.0066576 -0.0053027 -0.0016949 0.0086671 -0.0015619 0.0079984 -0.0042412 0.0052014 0.0049277 0.0016464 0.0097986 -0.0056343 0.0085278 -0.0085635 0.0095902 -0.00029595 -0.00043874 -0.0048216 0.0057279 -0.0037625 -0.0074829 0.0014549 0.0094849 0.0076401 0.00081505 0.0083244 0.00037953 -0.0094235 -0.0046898 -0.0028262 -0.0087861 0.0043359 0.0051075 0.0090813 -0.0028976 -0.00034307 0.0032628 -0.007672 0.0047542 0.0030302 0.00019699 -0.00856 -0.0019864 0.0065026 0.0037673 -0.0058249 -0.0056126 -0.0035627 -0.0025938 -0.0075659 -0.00039375 -0.00087244 -0.0060564 -0.00027733 0.0043625 0.0011405 -0.0088977 -0.0097845 0.0054346 2.5759e-05 0.0060258 0.003426 -0.0094525 -0.00050991 3.9812e-05 0.0005867 -0.004539 0.0049971 -0.009535 0.0024945 0.00097441 0.0028924 0.00023699 -0.0048013 0.0021969 -0.0073189 0.0035548 0.0087092 0.00016279 0.00011017 -0.0042303 -0.0068294 0.0075799 -0.0047349 -0.0066059 -0.0052863 0.0091172 -0.0099672 0.0013923 0.0012783 0.0081569 -0.0061313 
" -0.002826 0.0065093 0.0079895 0.0068413 -0.0084655 0.0066898 0.00014493 0.0029441 0.0081881 0.0041729 -0.00019922 -0.0035818 0.00015002 0.0016893 -0.0072994 0.0084598 0.0065864 0.0072056 -0.0068663 0.0066638 -0.0015671 0.0095552 -0.0095875 -0.0017878 0.0010194 0.0040378 0.0060205 0.0081217 -0.0081269 -0.0039642 0.0063509 -0.00079322 0.0097917 0.0021589 0.0045266 0.0071995 0.0070928 0.0084517 -0.0062953 0.004842 -0.0087002 0.00077772 -0.0098459 0.0021189 0.0062899 -6.7963e-06 0.0096852 -0.0044889 -0.0060702 -0.0082909 0.0091525 0.0092359 0.0044496 0.00866 -0.0024208 -0.0089435 -0.0046482 0.008281 0.0079359 0.0020364 -0.0033826 2.783e-05 -0.0061564 0.0054706 0.0043821 -0.0092677 0.0098093 0.00095378 0.0067512 0.0022231 0.0040517 -0.0030824 -0.007671 -0.0079497 0.001379 -0.0037704 -0.00032394 -0.0093556 -0.0025794 -0.001351 -0.0028287 0.0037692 -0.002824 0.0020642 -0.0096942 -0.00025632 0.0098071 -0.0031811 -3.5103e-05 -0.0075563 -0.0043074 -0.0086627 -0.0015043 -0.0079348 0.0049912 0.003672 0.00063271 0.00042298 0.0052169 -0.0095164 
be -0.0050785 0.0049339 -0.0023192 0.0085569 -0.0023058 0.008927 -0.0056809 -0.0053911 0.0038796 -0.0076196 -0.00098775 -0.0063151 0.0032041 0.0097401 -0.0080802 0.0080765 0.0073495 -0.0081992 -0.0079726 0.00428 -0.001937 0.0024932 -0.0064224 0.00078882 -0.0089298 -0.0049878 -0.0097322 0.0035103 0.002284 -0.0044379 0.0056572 -0.0096425 0.0074865 0.0061029 0.0079101 -0.0091757 0.0078727 0.0071891 -0.0053431 0.0024239 -0.0082581 -0.0082313 -0.0024824 0.0048208 0.0026542 0.0085399 0.0061231 0.0030201 0.0080252 -0.010081 0.0092941 0.0050155 -0.0030047 -0.004063 -0.0073128 -0.0051178 -0.0041203 0.0042643 -0.0018398 0.0070709 0.0079459 0.0088264 -0.0042361 -0.0042892 -0.0041782 -0.0026975 -0.006839 -0.0021373 -0.0071614 -0.0099073 0.0045093 0.0047536 -0.0023606 0.0014956 0.00073533 -0.00097819 -0.0018151 -0.0097843 -0.0046565 0.005993 0.00010371 -0.005444 -0.0056818 0.0079245 0.0063632 0.0089702 0.00085282 0.0071319 -0.0054516 0.0089876 -0.0030051 -0.0039191 0.0085351 -0.0026396 0.0031066 0.0062542 0.0098563 0.005267 0.0059664 0.0075364 
so 0.0055382 0.0023215 -0.0093488 0.0022082 0.0046087 0.0014311 -0.0044605 -0.0053181 0.0020415 0.0070427 -0.0074933 0.002369 -0.0014707 0.0011589 0.0022174 0.0079953 -0.0036179 0.0052954 0.0044087 0.0011171 0.0032544 0.0010712 0.00072281 -0.0037391 0.0069953 -0.0011206 0.0058206 -0.0032285 -0.0063306 0.0093515 -0.0018978 -0.00069768 0.0036973 0.0076074 -0.0034403 0.0050715 0.0020797 -0.00013749 -0.0027499 0.0025273 -0.0020555 -0.0071752 0.0030155 -0.0062792 -0.0042119 -0.0094038 -0.0063918 -0.003278 -0.0070265 0.00030607 0.008228 -0.0046424 0.0060934 -0.0085266 0.0043446 0.0079314 0.0098804 -0.0039178 0.0086505 -0.0035403 0.003807 -0.0032566 -0.0033881 0.0080574 -0.004206 0.0024056 0.0068864 -0.0026854 0.0093208 0.0095987 -0.006498 0.005485 -0.0028038 0.0042381 -0.0076395 -0.0096691 -0.0058792 0.0061063 -1.214e-05 0.0042119 -0.0036282 -0.0026218 -0.0079571 -0.0063899 -0.0020491 0.0072451 0.0031674 0.0045561 -0.0045963 0.00436 0.0098256 0.0011984 -0.00030195 -0.0032089 0.006074 -0.0094406 -0.0034702 -0.008585 0.00041544 0.0052887 
it's 0.0044831 -0.005342 0.0032279 0.0075623 -0.0070885 -0.0089768 -0.0077076 -0.0024055 0.0080903 -0.0066502 -0.0051636 0.0088679 -0.0077559 -0.0086774 -0.0084705 0.008694 0.002689 -0.007463 -0.0080222 0.0072789 0.0014789 0.0012506 -0.00067053 -0.003006 0.0033466 0.0020524 0.0032829 -0.0097113 -0.0068121 -0.00011919 0.0085 -0.0040223 -0.0080348 -0.0060303 -0.0095047 -0.0043847 -0.0082995 -0.009319 0.0033329 0.0015124 -0.0069117 0.0043809 0.0030891 -0.0013543 -0.0095869 0.0069722 -0.0046025 -0.008232 -0.0051298 -0.006558 -0.0044138 -0.0035221 0.0090411 0.0082529 0.0031658 0.0083835 -0.0066646 -0.00038092 0.00079186 0.0013159 0.0067727 -0.0096904 0.00013098 0.0022098 -0.0098486 -0.0096304 0.0081859 0.0034136 0.002682 -0.0041463 -0.0081856 0.0042803 0.00029221 0.0074254 0.0034367 0.0025763 0.00024245 0.0050021 -0.0028861 -0.00034848 -0.0040477 -0.0075228 -0.00090589 2.1159e-05 -0.0058825 0.0054588 -0.0041969 -0.002149 -0.0071112 -0.0085804 -0.0089224 -0.0069258 -0.0087635 0.0038776 0.00060605 -0.0092152 -0.0051032 -0.00032558 -0.0071726 -0.0010093 
like 0.0011642 -0.00076745 0.0020186 0.0086538 0.0039667 0.0045632 -0.0010132 -0.0063686 0.000665 0.0029101 0.0032321 0.0010758 -0.0030861 -0.0036473 0.0010247 -0.0073078 -0.0051033 0.0095566 0.0020692 -0.0037614 -0.0023982 -0.0036917 -0.0063061 0.0088261 -0.007521 -0.0058541 -0.0056044 -0.010099 -0.0015333 -0.0070248 -0.0092649 0.00086309 0.0070575 0.0062552 -0.0060407 0.00091177 0.00013954 -0.0015582 -0.00035232 0.006491 -0.0020258 0.0071254 -0.0041125 0.0064908 -0.00927 -0.0015806 0.0012911 0.0052675 0.0098526 0.0092762 -0.0096761 0.0030804 0.00093241 0.006501 0.006062 -0.0079188 0.00030045 -0.0080351 0.0066556 -0.00050164 0.0060758 -0.0045477 0.0093979 -0.00086989 0.0073317 -0.0027535 -0.0016017 0.0082447 -0.0054069 0.0014837 -0.0095028 -0.0092272 0.00836 -0.00072542 0.0010929 0.0031284 0.0086909 -0.0090644 0.010059 0.0028301 -0.001619 0.0019348 0.008704 0.0018494 0.0034615 -0.00049447 0.0080363 0.006112 -0.005404 -0.0023198 0.004421 -0.0090215 0.0095095 0.007999 -0.00076117 -0.0089056 0.0010914 0.0017594 -0.0045573 0.0067144 
-- -0.0055291 -0.0083082 -0.0022272 0.00090738 0.0091504 0.0082104 0.007401 0.00069783 0.0022419 0.0098382 -0.0035857 0.0053196 -0.0076072 -0.0019873 -0.00943 -0.0084957 0.00063764 -0.009151 0.00085904 -0.0051138 -0.0027606 0.0039596 0.0041393 -0.00028385 0.0042403 0.0055023 -0.0029189 0.0013299 -0.0025785 0.0090175 -0.0013372 0.0081734 -0.009337 -0.0052803 0.0077976 -0.0043109 -0.0072736 -0.005908 0.0068662 -0.0074135 -0.0086966 -0.00037156 -0.0025898 0.007796 0.0011313 -0.0023931 -0.0057837 -0.0061538 0.00714 0.0051803 0.0086055 -0.0071789 0.0019066 0.004641 -0.0088124 -0.0077352 -0.0083965 0.0012312 -0.0068312 0.0097701 0.0096455 0.0091414 -0.0027097 -0.0087449 -0.0015611 0.0031374 -0.0017333 -0.0066069 -0.0092504 0.0086767 0.0093907 -0.0057041 -0.0086533 -0.0020166 -0.0035615 0.0097771 0.0086624 -0.0061282 -0.0089764 0.0066549 0.0090542 0.0090323 0.0081457 0.0090098 0.0042816 -0.00010809 -0.0084029 -0.0020234 0.0089191 -0.0079399 -0.0046753 -0.0015057 0.0033079 0.0089715 0.0057928 0.001849 -0.0098292 0.0032735 0.0028373 -0.0068709 
by -0.0025414 0.0099159 0.0079639 0.0052206 -0.0032504 -0.0059348 -0.0021135 0.0066473 -0.0043456 0.0021681 -0.0017827 0.003021 0.0013237 -0.0042633 0.005092 0.0042797 0.0072208 -0.001504 -0.00020811 0.00070672 0.0019714 0.004129 -0.0043988 -0.0017249 0.00082975 -0.0054771 0.0050207 0.0027815 -0.00017198 0.0039179 0.00010641 0.0008444 0.0089557 0.0042239 0.0035621 -0.0068713 -0.0022296 -0.0050967 0.0007487 -0.009755 0.0078198 0.0067308 -0.0015133 -0.0029855 -0.0044819 5.3584e-05 0.0077279 -0.00085749 0.0040688 0.0026559 0.0076422 -0.0072621 0.0090865 0.0064832 -0.0044386 0.007102 -0.005639 -0.008266 0.0027379 0.0009838 0.0045526 0.0022249 -0.0094829 0.0094169 0.0079984 -0.0073718 -0.0054167 0.0051695 -0.0053779 -0.0063013 0.0047226 0.0099885 -0.0083684 0.0047416 -0.0045797 -0.0010669 0.0091555 0.0073343 -0.0063897 0.0057053 -0.0071113 -0.0062286 -0.00047564 0.0041818 0.0036621 -0.00079461 0.002662 0.00041749 -0.0088866 0.0095151 -0.0002087 -0.00014579 0.0086023 0.0042561 -0.0082508 0.006983 -0.0092493 -0.0095091 0.0067696 -0.0092661 
more -0.0019498 0.0089225 -0.0069988 -0.0073532 -0.0033907 0.0067258 0.0018715 0.0011923 -6.8783e-06 0.0030476 0.0041076 0.0070836 -0.0079271 0.0030971 0.0070586 -0.0058209 -0.0041225 -0.0007121 0.0037515 -0.00064065 -0.0078672 0.0022089 0.0044598 0.0056548 0.00027707 -0.0025267 0.008952 0.00021307 -4.214e-05 0.007708 -0.0072872 0.0099877 0.00056737 -0.0056101 0.0085496 0.0023101 -0.0029654 -7.344e-05 0.0040623 -0.0031382 0.0050833 0.0048879 0.0020404 0.0081516 0.001565 -0.0052524 -0.004761 0.0045973 -0.0041121 -0.0032364 0.0043862 0.004299 -0.0046415 -0.001992 -0.0071232 -0.00025643 -0.0085997 0.0023765 -0.0037064 0.0068934 0.0033265 -0.0069618 0.0041607 -0.00081753 -0.0093863 0.0056761 0.005278 -0.0075341 -0.00093183 0.003797 0.0036655 -0.008969 -0.00568 0.0024129 0.0037729 -0.0046016 -0.0053071 0.0090564 -0.007947 -0.0089629 -0.0045382 0.004729 0.0014978 0.0015543 0.0066302 -0.00023617 0.0095765 0.0059085 0.0044212 -0.0097281 0.0088414 -0.00059569 -0.0016201 0.0067185 -0.0048679 0.009466 0.00596 -0.0093738 0.0056282 0.0040665 
story -0.0036252 -0.0098565 0.0069361 -0.0049958 -0.0060197 -0.0090993 -0.0059712 -0.0035297 -0.0084513 0.0048236 0.0022237 -0.0087956 0.0085044 0.0026753 0.0059524 -0.0093142 -0.005695 0.0056036 -0.0085402 0.0083288 -0.00012217 0.0074451 -0.0047503 -0.0069897 0.0028504 0.0013462 -0.0032693 0.002746 0.0070129 -0.00016819 -0.0091187 0.0067139 0.0037604 0.0074774 0.0098276 0.00072504 0.0023554 0.0049171 0.0077254 0.0082089 -0.0037471 0.0015688 -0.007691 -0.0038551 -0.00092183 -0.004835 0.0026768 0.0041075 0.0091942 -0.0039986 0.0077899 -0.0054548 0.0003164 -0.0041423 -0.00494 0.0044659 -0.0031056 0.0024013 0.0074049 0.0056525 0.0078643 0.0018086 -0.0026789 -0.0043902 0.0060669 0.0057992 0.008106 0.00025959 -0.007041 -0.0050568 0.0038903 -0.0015981 0.0054466 0.00048106 0.00076191 0.00019949 0.0025245 -0.0076259 0.0095053 -0.0089974 -0.0069693 -0.0068881 0.0036163 -0.0037757 0.0080427 -0.0025053 -0.0085718 0.0019758 -0.0061876 -0.0062881 -0.0044866 -0.0064165 0.0062461 -0.0081507 -0.0043842 0.0094317 -0.0039197 -0.0082481 -0.0044599 -0.0098094 
than -0.0059422 -0.009168 -0.00425 -0.002236 -0.0088291 -0.006838 0.0051038 0.0039146 0.0089125 -0.0036907 -0.0035292 -0.00023007 -0.0054448 -0.0059777 -0.0053934 -0.0056804 -0.008899 -9.9751e-05 -0.0069644 -0.0044621 -0.007096 -0.0068657 -0.0074476 0.0053474 -7.7144e-05 -0.0051927 0.0057635 -0.0025479 -0.0024778 0.0089953 0.0079936 -0.0044949 -0.00085493 -0.0063382 -0.0044762 0.0022718 -0.006241 -0.0070845 0.0041872 0.0089597 0.0012218 -0.0040389 0.0095433 -0.0062359 0.0036977 -0.0022973 0.0037253 -0.009474 -0.0043563 -0.0081132 0.008777 0.0014016 -0.00062596 -0.0084303 -0.0019625 -0.001448 -0.00034459 0.0042068 0.0063279 -0.00089787 -0.0098132 -0.00047365 -0.0046862 0.0031369 -0.0094547 0.0031441 -0.0052418 0.0073296 -0.0092052 -0.0079307 -0.0015702 0.010009 0.0086415 -0.00025119 0.0026238 -0.0065919 -0.0010174 -0.0013188 0.0021636 -0.0075339 0.0083458 0.0036505 -0.0067084 0.008311 0.0040283 0.0058271 -0.0050621 0.0056402 -0.010082 0.0064885 0.0050748 -0.0060487 -0.0010939 -0.010062 -0.0040551 0.0078955 -0.0044092 0.0097051 -0.0094144 0.0092748 
on 0.0067005 -0.0038162 -0.0074871 0.0063851 0.0081549 0.0036046 0.0030065 -0.0058494 -0.0065981 -0.0057297 0.00070046 0.0061838 -0.0085914 -0.0032141 -0.0084313 0.0065396 -0.0090234 0.0038841 0.0054424 0.0092111 0.0035875 0.0084652 -0.0037172 -0.0089393 -0.0069147 0.0032492 0.0089893 0.0049233 0.0090303 0.0018614 0.0089675 0.0061489 0.00090232 -0.0043385 -0.0003865 0.0039524 0.0037503 -6.007e-05 0.0030059 -0.006571 0.0014875 0.0037547 -0.0010229 0.0066431 -0.0083393 -0.008321 -0.00327 -0.004769 -0.0038928 -0.008575 0.00015306 0.00089755 -0.0063104 -0.0033247 0.0061491 -0.0099869 -0.003296 0.010017 -0.00096974 0.002845 0.0066802 -0.0040306 0.0042009 -0.0014895 0.0047367 0.0028984 -0.0064563 0.00097506 0.0077306 -0.0030716 0.0076004 0.003909 0.0085798 0.0049104 -0.0097285 -0.0089693 0.0094782 0.0046057 0.007375 0.0054491 -0.0028917 0.00087789 0.006135 0.0070495 -0.0054558 0.0047596 0.0018804 -0.001089 0.0064017 0.0010774 -0.0094949 -0.009134 -0.0064035 -0.0091772 0.0033632 -0.0049839 0.00011447 -0.0052586 0.0036944 -0.0023003 
you 0.00022115 -0.0027604 0.0041274 0.00066974 0.0051069 0.0015927 0.0063204 -0.0078724 -0.0067856 0.0034017 0.0078911 -0.00058155 -0.0036658 0.0012383 0.0096255 0.00021737 -0.0079412 -0.0054433 -0.0064641 -0.0047787 0.0066252 0.004413 -0.0032812 -0.0054454 0.0049317 0.0050238 -0.0043595 -0.0080539 0.0048835 0.0036302 0.0071705 0.0040021 -0.0077137 0.0052642 -0.0058421 -0.0080958 -0.007243 0.0099405 0.0027969 -0.0098357 -0.0055077 -0.0062402 0.001471 0.0033892 -0.004855 0.0027101 0.004444 0.0071293 0.00056303 0.00012138 0.009807 -0.0030451 -0.0032036 -0.00026304 -0.0072227 0.0068058 -0.0046139 -0.0042688 0.0069035 0.0085894 -0.0085776 -0.0031773 -0.00061744 0.0029041 -0.003989 -0.0011541 0.0055525 0.0014072 -0.0095329 0.0033628 -0.0068373 -0.0039378 0.0094552 0.002774 -0.0069652 -0.0059414 0.0024578 -0.0083569 0.0096907 -0.010102 0.0013044 -0.006488 -0.0022615 -0.0091628 -0.0060887 -0.0076928 -0.0035363 0.0019107 0.0075373 -0.0048336 -0.0071446 -0.00451 0.0074957 0.0030897 -0.0040513 -0.0050869 -0.0050276 0.0087792 -0.0075835 -0.0036471 
i 0.0083419 -0.0065421 -0.00061679 -0.0045329 0.0089503 -0.0030946 -0.00029348 0.0076453 -0.00030212 -0.0034851 0.0088657 0.0080587 0.0076078 -0.0042865 0.0010656 0.0081112 0.00856 -0.0048779 0.0062858 -0.0046373 0.0022625 -0.00029889 0.0018686 0.001953 -0.0084357 0.0012663 -0.00062338 -0.0015314 0.0087848 0.0041833 -0.0050597 0.0027767 -0.0099522 0.0075801 0.00060112 0.0007104 0.0034746 -0.00613 -0.0069275 0.0097976 0.0041165 0.001871 0.0077716 -0.0078825 -0.0062474 0.0058298 0.0067694 0.00084106 -0.0063983 0.0064449 5.8794e-05 -0.0031451 -0.0056783 0.0023709 -0.0088617 -0.0041457 0.0042104 0.0083569 0.0023346 0.007073 -0.0021532 0.0049364 -0.0029523 -0.00079241 0.0043997 0.0016853 -0.006929 0.0079989 0.0082307 -0.00036832 -0.0078652 -0.0094159 0.0046043 -0.003231 -0.0016361 -0.009868 -0.0076319 0.0097025 0.0079245 0.0036092 0.00065687 -0.0078638 -0.0042048 -0.0029796 0.0061214 0.0056746 -0.0003737 0.0041057 -0.0039397 -0.00043422 -0.0096378 -0.0044632 0.0015889 -0.0012348 0.0026831 -0.0050879 -0.0053893 0.0023998 -0.0073823 -0.0011149 
all 0.0067262 -0.0054151 0.0044242 -0.0018752 0.0029702 0.0088144 -0.0016694 0.0038562 -0.0010638 0.0034691 -0.0056049 0.0008453 0.0038063 0.0081515 0.0048877 0.0086846 0.0054881 -0.0078582 -0.0039689 0.0065811 -0.0013311 -0.0091873 -0.0045284 0.0046562 0.0068144 -0.0047157 -0.0065486 -0.002938 0.0041495 -0.0013643 0.0053858 -0.0072871 0.0027083 0.0081399 -0.005688 -0.006269 0.0079424 0.0022531 -0.0053438 -0.0086482 -0.0083534 0.0081284 -0.0043602 -0.0055486 0.0063703 -0.0081039 -0.0085975 -0.0048694 0.0087385 0.0066731 0.005669 0.0087247 0.0022824 -0.0030792 -0.0081907 0.0054838 -0.0069785 0.0051803 -0.0071918 -0.00099492 -0.00085148 -0.0043234 0.0043509 -0.0018839 -0.0060742 -0.0087521 0.0082203 0.0080699 -0.0039985 -0.0039154 -0.0049344 -0.0095645 0.0031301 -0.0015109 0.009992 0.0099994 0.0063941 -0.0036098 0.0046717 0.0018067 0.0050032 -0.0078735 -0.006484 0.0043002 -0.0069478 0.0047411 0.0087426 0.0032478 0.0032096 -0.0010318 -0.0055755 -0.0024036 0.0091793 -0.0017456 0.0053905 0.005772 -0.0062132 0.0056318 -0.0067146 -0.007587 
will 0.005541 -0.0079362 0.0079836 -0.005435 0.0086955 0.0091775 -0.0046735 0.0065404 0.0055368 0.010227 0.0052189 -0.0023805 0.00041851 -0.0022473 -0.0047091 0.0047849 0.0064819 -0.0093359 -0.0084509 0.0066569 -0.0052849 -0.0052365 0.0063996 -0.0062275 -0.00072836 -0.0052501 0.0021454 -0.0019461 -0.0083228 0.0033181 0.0049766 0.0026838 -0.0057226 -0.0021198 0.00070263 0.0027367 -0.0075707 -0.0086949 -0.0046197 0.0021217 -0.0019311 -0.0069057 -0.0017114 -0.0058729 -0.0021742 0.0092605 0.0040271 -0.001372 0.0077255 0.0093729 0.0096025 0.0076352 -0.0055384 0.0070646 0.0017435 -0.0029044 -0.0068735 0.00012664 -0.0030533 -0.0095872 0.0039528 0.0031353 0.0092551 -0.0095514 0.0076281 -0.0078801 -0.0092511 0.0042908 0.00014144 -0.0088755 0.0021378 -0.0018548 -0.0083764 0.0057407 0.00073687 0.007228 -0.0022511 -0.0071865 0.0039212 0.0090703 0.008218 0.0079923 -0.00033813 -0.0090534 -0.0041157 -0.0086268 0.0093087 -0.007919 -0.0023965 -0.0032013 0.0012417 -0.0084688 -0.0042271 0.0034166 0.0026267 -0.0021888 0.0077725 -0.0037558 -0.0094465 0.005953 
from 0.0017773 0.0051212 0.0050764 -0.0022751 -0.0058314 0.0095119 0.0027558 0.0028681 -0.0034427 0.0015645 -0.00071905 0.0069405 -0.010067 0.003144 -0.0096173 0.0063349 0.007401 -0.0036719 -0.0036282 -0.0062301 0.0076952 0.0057803 -0.0053053 0.0023251 0.0084527 -0.00011011 -0.0084205 -0.0048136 -0.00017279 -0.0073229 0.00062584 -0.006103 -0.00018187 -0.0040899 -0.0056442 -0.0015995 0.006015 0.0048779 -0.0066966 -0.0003576 0.0055836 0.0070181 -0.0014192 0.008054 0.0054682 0.0062811 -0.0083469 -0.0062512 -0.0084851 0.00099088 0.004953 -0.0099058 -0.0067256 0.0009839 0.0011791 -0.0038155 -0.0063264 0.0022076 0.0057488 0.0045666 0.0053989 0.0092823 0.0034463 0.0010048 0.0056376 0.00020307 0.0038722 -0.0037306 0.0062668 -0.0039059 -0.00027672 -0.0048997 -0.006846 0.006236 -0.0010585 0.0067739 0.0062053 -0.0064994 0.0047389 0.00092554 -0.008966 -0.0079451 -0.0061475 -0.0064204 0.0055667 -0.0014709 0.0085161 -0.0042786 -0.0060415 0.0041379 -0.0081312 -1.1258e-05 0.0018034 -0.00083212 0.0030091 -0.003754 -0.002575 0.0093446 0.0075456 0.0029311 
have 0.00039323 0.0010376 -0.0082039 -0.0084716 0.00067132 0.0020994 -0.00031665 -0.003649 0.0042383 -0.005066 0.0056582 0.0072831 -0.00069933 0.0053941 -0.0090134 -0.005686 -0.0087659 -0.0089022 -0.00010441 0.0067069 0.0078317 0.00070472 0.0083401 -0.003376 -0.0017771 -0.0099346 -0.0021209 0.0015145 -0.00069628 0.0056952 -0.0074745 0.0078556 -0.0082954 0.0035796 -0.0028161 -0.0047056 0.0029465 0.0018591 -0.007848 0.0049559 -0.00098196 -0.0086292 0.00515 -0.0024507 -0.0025238 -0.005013 0.0039507 -0.0011038 0.00073207 0.0088226 -0.0041091 -0.0051224 0.0093179 -0.0099543 -0.0097549 -0.0049778 0.0019395 0.0055385 -0.0092339 -0.0028301 0.004425 0.0046506 -0.0007539 -0.0041687 -0.0036562 0.0088078 -0.0017015 -0.0011922 0.0038794 -0.0015748 0.0056211 0.009617 -0.00044947 0.0051617 -0.0047786 -0.0025809 0.0025903 -0.0035313 -0.0051742 -0.0096261 0.0066122 0.0032753 0.0042342 -0.0056845 0.0044821 0.0019122 0.0013813 -0.0093283 -0.0019496 0.0029002 0.0048512 -0.003359 0.0094069 -0.00093258 -0.0029139 0.0011726 -0.007426 0.0024645 -0.0028201 -0.0085797 
into -0.0044103 -0.0018868 0.0041302 -0.0068898 0.0076724 0.00519 -0.0047108 -0.0021539 0.0010449 0.0083072 0.0086345 0.0086778 -0.0077729 -0.0037021 0.0073106 -0.0051065 -0.00090029 0.0037765 -0.0050446 -0.0054805 0.0086875 -0.004434 0.0019556 -0.0076503 0.0008936 0.0050401 0.0064357 0.0097285 -0.0028709 0.0098899 0.0036548 0.0098068 -0.0055394 0.009059 0.0032819 0.0013514 0.0091241 0.0059617 -0.0070411 -0.0093817 -0.003496 0.0073781 -0.0071522 -0.0018516 0.007503 -0.00037878 0.0023998 0.0041427 0.00059811 -0.00026338 -0.0065499 0.0050974 -0.0025699 -0.0030895 0.003558 0.0042846 0.0098892 -0.0053254 0.0098361 -0.0022528 -0.0097214 0.0053055 0.0045984 0.0027217 0.0072736 -0.0059892 -0.0016231 0.0054958 0.0079727 -0.0082738 0.00050327 -0.0058393 -0.0038183 -0.0024237 -0.005243 -0.0089674 -0.0089215 0.0049204 0.00037039 0.0052305 0.003366 0.0055786 -0.0030167 -0.0076846 0.0081539 -0.0059913 0.0082892 0.0055559 -0.0076282 0.0029232 -0.0090812 0.0027943 -0.0031823 0.0075888 -0.0050761 -0.0096687 -0.0020136 -0.0014207 0.0091889 0.0034482 
has 0.0096691 -0.001905 -0.00019018 0.00463 0.0018754 0.0044669 0.0024939 0.003918 0.0075204 -0.0034171 0.0037014 0.0063211 -0.0069975 0.0057329 -0.0069896 0.0044521 -0.0028027 0.0056547 0.0013227 0.0094192 0.0021806 0.0064012 0.0010623 -0.0034436 -0.0083575 0.0065951 -0.0097986 0.0018592 0.0021652 0.0034256 -0.0071639 0.0090071 -0.0028114 -0.00022049 -0.0020732 -0.0051375 0.003139 -0.0097685 -0.00029208 0.0074806 -0.0061184 -0.0072253 0.0090095 0.0033792 -0.0097219 -0.0037263 -0.0053729 0.00064841 -0.0081714 0.0023901 0.0046186 -0.0082022 0.0051594 0.0033882 -0.00067559 -0.0098819 -0.0035836 0.0033542 -0.0047792 0.002896 0.0020985 0.0037847 -0.0044895 -0.0078231 -0.008131 -0.0025391 -0.0042922 0.0041174 0.0065204 0.0069265 0.001449 0.0059844 0.0030807 0.0046979 -0.0098417 -0.0090715 0.010165 0.0091066 0.0012367 0.0018319 -0.009218 -0.0049869 -0.0056725 0.0033646 -0.0014917 0.0096601 0.0062594 -0.0075898 0.0011287 -0.0060596 -0.0011431 -0.0074263 -0.0034537 -0.0055041 0.0048858 -0.0082196 -0.0054645 -0.00017198 0.0028139 0.007605 
most 0.00027774 9.9355e-05 -0.00079281 -0.0039571 0.0084267 -0.0068311 0.0029354 0.0077731 -0.0060654 -0.0033359 -0.00943 0.0085488 0.0015471 -0.0093809 0.0089976 -0.0092563 -0.0058144 -0.0095515 0.0060832 0.0054743 0.0071226 0.0011423 0.0033295 0.008858 0.0016212 -0.0037333 0.0027834 -0.0035281 0.0065631 -0.0080051 0.0098581 0.0048873 -0.00021712 0.0037849 -0.004365 -0.0025339 -0.00027504 -0.0041355 0.0013194 0.0027275 0.0014891 -0.0031189 -0.0013829 -0.0065449 0.0037528 0.00098363 0.0025685 -0.0066662 0.0098128 0.0080122 -0.0084367 0.0012258 -0.0051725 -0.0069605 0.0056368 -0.0099908 0.0019501 0.0075425 -0.00031311 -0.00051296 0.00030745 -0.0076033 0.010127 -0.0071144 0.0005969 0.0039248 0.0026024 -0.0073588 0.007041 -0.0071944 -0.0073115 -0.0079643 -4.447e-05 0.0078708 -0.0099956 0.0010655 -0.0017557 0.0058862 -0.0058291 0.0061045 0.0058827 -0.0061781 -0.003359 -0.00021367 -0.0053801 -0.0070653 -0.0051105 -0.0026675 -0.00782 0.0051885 0.001439 -0.0072567 0.0072476 -0.0077323 -0.004161 0.0025568 -0.0031169 -0.0081618 -0.0090923 -0.0013117 
his -0.0088432 0.00094017 0.0074567 0.0021569 0.0021634 0.0085882 -0.0048325 -0.0037335 0.0098763 -0.00050575 0.0047349 -0.00081069 0.0057158 -0.00072128 -0.0095745 0.0058896 -0.0018877 -0.0090646 0.0065695 0.00064082 -0.002325 0.0092011 0.0068391 -0.0047256 -0.0085787 0.0079533 0.0081484 0.0028358 -0.0095178 -0.0023938 0.007575 0.0055832 -0.0059362 -0.0086175 0.00075512 2.1636e-06 0.0070389 -0.0014355 0.0036635 -0.007985 -0.0010226 -0.0040132 -0.0050306 -0.0059962 0.005026 -0.007319 0.010051 0.0045454 -0.008545 -0.0014313 -0.0056298 -0.005009 -0.0012148 0.0089925 -0.00024948 0.0022592 -0.0084073 -0.0085398 0.0077612 -0.0099401 -0.0090807 -0.003613 -0.0050139 0.004098 -0.0083002 0.00021942 -0.0032306 -0.002595 0.0047722 -0.0062224 0.0088099 0.00089004 0.0037102 0.0027723 -0.0082558 -0.0089181 -0.0022274 -0.0086737 0.0066802 0.0029002 0.0076855 0.0089072 0.0064603 -0.0076952 -0.0072823 0.0017828 -0.0083053 0.0020166 6.1613e-05 0.0099554 0.0041792 -0.0059193 -0.0029363 -0.0095729 0.0035795 0.0027764 -0.00090924 0.0064956 0.0071488 0.0034351 
are -0.0023524 -0.00092688 0.0018964 0.0018528 0.00062825 0.0058481 -0.0052754 -0.0095553 -0.0080805 -0.00050713 0.00063206 -0.008992 -0.00092005 -0.0072845 -0.00080872 -0.010046 -0.0068152 0.0013303 0.0047997 0.002681 -0.001412 -0.0039332 0.0059315 0.00097767 0.0078105 -0.0066494 -0.0055786 -0.0092755 0.0063882 -0.009303 -0.0039838 -0.0071543 -0.0087125 -0.0062226 -0.0083429 0.00070586 0.0017882 -0.0085156 -0.0051133 0.00069969 -0.0061565 -0.0033535 -0.0098903 0.0095799 -0.0034785 -0.0088394 0.010001 -0.00079077 0.0026898 0.0022048 0.0071673 -0.006668 0.0081995 -0.0016158 -0.0081794 -0.007086 0.003876 0.0081382 -0.0081329 -0.001913 -0.01004 0.0024488 9.3352e-05 0.0063537 -0.0076412 0.0098751 -0.0085966 0.0063124 -0.005576 0.0047519 -0.0031284 -0.0029356 0.0028528 -0.0068241 -0.00091129 -0.0073108 0.0073523 0.0071526 -0.0048728 0.0076311 -0.0014684 -0.0060005 -0.0027796 -0.0097869 -0.0061571 -0.0085074 -0.0099766 0.0043765 0.0089715 -0.0069185 0.006084 -0.0081828 0.010139 -0.0061393 0.0063934 -0.0075937 -0.0068477 -0.0088738 -0.005849 -0.0047013 
would -0.0060156 -0.0088106 0.0019939 -0.005633 -0.0062828 -0.0061779 0.00061636 -0.0072456 0.002526 0.0078244 0.0030305 -0.0041504 0.0083187 0.0069997 -0.0069561 -0.0021041 0.0054506 -0.003762 0.0056288 -0.0065664 0.0096947 0.0020943 -0.0019918 0.0049079 -0.0067083 0.0056941 0.00057028 0.0017275 -0.0078752 -0.0025664 0.0076016 -0.0068873 -0.0072378 0.0045617 0.0085494 -0.0086464 0.0022341 0.0037955 -0.0099519 -0.0075202 -0.0097183 -0.0020767 0.0058766 0.0026003 -0.0096804 -0.0078461 -0.0050975 0.0013378 0.0083867 0.0039951 -0.0069413 0.0051876 -0.0011038 0.009686 0.0044976 -0.0083649 -0.0063509 0.00037038 -0.00017887 -0.0083748 -0.0011155 0.0034278 -0.0033122 0.0053383 -0.0043103 -0.00031282 0.0098955 -0.00069406 0.0048338 -0.0053758 -0.0094724 0.0057995 0.0038522 -0.003776 -0.0088002 -0.0030866 -0.0043386 0.0032656 -0.004086 -0.006541 0.00087206 0.0068446 -0.0040898 0.00355 -0.0010811 -0.0056335 -0.0031051 -0.0064183 0.0064206 -0.0026642 0.0038737 0.0080596 0.0039878 0.0097086 0.00020074 -0.0032289 -7.6268e-05 0.0084593 0.0034783 0.0036875 
if 0.0016207 -0.0065323 -0.0049786 0.0027902 -0.0076509 -0.0066099 -0.00069713 0.0016763 0.0049356 0.0024325 0.0096245 -0.00036868 -0.0053512 0.0081206 0.0069187 -0.0061575 -0.0036495 -0.0068146 -0.0058562 -0.0094557 -0.003658 0.0043709 -0.008109 0.0015704 -0.0036921 -0.0050623 -0.004464 -0.0062961 -0.001629 0.0093743 0.0068924 0.0098797 -0.0083071 -0.0037837 -0.0029798 -0.00053517 -0.0029414 -0.0055811 0.0049419 0.0016105 -0.0041458 -0.0086716 -0.0041122 0.0013898 0.0062042 0.0058963 -0.006706 -0.004899 0.0034291 -0.0084166 -0.0095402 0.0071885 -0.0075896 -0.0046088 0.0088855 -0.007414 -0.0070639 -0.00032806 0.0017795 -0.0017843 0.0043812 -0.00302 0.0074757 0.0097868 0.0077841 0.0049192 0.0054673 -0.001357 0.00082916 0.0001584 -0.00071117 0.0079542 -0.0053572 0.0006319 -0.0083398 0.0045579 0.0055651 0.0063758 0.0065614 0.0008683 -0.0033478 0.0017405 0.0052341 0.0075546 0.0089395 -0.0097607 -0.0034141 -0.0068565 -0.0022868 -0.0043219 0.00038834 4.6446e-05 0.0031924 0.0053599 0.0081589 -0.00046236 -0.008918 0.004421 -0.0024689 7.5065e-05 
at 0.008115 -0.0069667 -0.0043775 -0.0011735 -0.0044 -0.009591 -0.0093105 0.0048788 -0.0043964 -0.0050019 -0.0084045 -0.0034105 0.0065668 0.0054791 -0.0092597 0.0054291 -0.0030608 -0.0071448 0.0014711 0.0065547 -0.0012834 0.0076647 0.0098733 0.0077441 -0.0098597 0.001529 0.0074445 0.0058319 0.004124 0.0084432 -0.0062742 -0.0040216 -0.00014851 0.0033679 -0.0017584 0.0093291 -0.0047378 -0.0079739 -0.0048544 -0.0044093 -0.00971 -0.007261 0.0022554 0.00082531 -0.0061451 -0.0078011 0.0014381 0.0049629 0.0079028 0.0086649 -0.0017227 -0.007692 -0.0037351 0.0062458 0.0055499 0.009183 0.0095927 0.0048898 0.0015399 -0.0039925 -0.00022598 0.00032572 -0.0029172 -0.0011648 0.0085001 0.0039738 0.0085056 0.0019516 0.00078479 0.0096758 -0.0022579 0.0088257 -0.0067619 0.0048968 -0.0042172 0.0012968 0.0025193 -0.0070389 0.0066002 -0.0088676 -0.0020106 0.0048026 0.00025019 -0.002803 0.008617 0.0061685 0.0035894 0.0033813 0.0021069 0.0087262 -0.00073742 -0.0028139 -0.0098882 0.0067939 0.0026178 0.0039087 -0.0095542 -0.00059794 -0.0024411 0.002076 
some -0.0064493 0.0076134 0.0060467 -0.0047476 -0.0071729 -0.0077761 -0.0055917 -0.0083162 0.0011158 0.00023 0.0041342 0.0072049 0.0017027 0.0086549 -0.0012351 -0.0039786 -0.0062621 0.0049511 -0.00033978 -0.0094347 -0.0026491 -0.0097884 0.0032887 -0.0029026 -0.0086391 0.00079099 0.0043062 -0.0089787 0.0087287 0.007382 -0.0074038 0.0037969 -0.0055017 0.0046674 0.006585 0.0038191 0.0071827 -0.006449 -0.0019051 -0.0046354 -0.0061631 -0.0037194 0.00075137 -0.0032237 -0.0083716 0.00030654 -0.005459 0.0097176 0.0037724 -0.0086746 -0.0032281 0.00041483 -0.0083633 -0.0091091 0.0019953 0.0074746 0.0064243 0.0090279 0.0097384 0.0060674 -0.0075473 5.496e-05 -0.0067463 -0.0073087 0.0098902 -0.0011622 -0.00043534 -0.0076088 0.0087598 -1.5437e-05 0.0055166 -0.0079447 0.0055999 0.0034453 0.00048661 0.0095371 -0.0025124 -0.0029377 -0.0075219 -0.0027511 -0.0068553 -0.00031184 0.0072189 -0.0077848 0.00037849 -0.0068534 0.0032416 -0.0079937 -3.7865e-06 0.0046388 0.0031579 0.0046486 -0.0074882 0.003083 0.0089009 0.0068518 0.0075842 0.001525 0.0063148 0.0056855 
even -0.0063431 0.0097641 -0.0055265 0.0057056 0.005621 -0.0064986 0.0041632 -0.007083 -0.00060952 0.0031566 -0.00425 -0.0029456 0.0056587 -0.0062046 -0.005271 0.0037051 0.0016182 -0.0024562 -0.0038432 -0.0067583 -0.0089234 0.0037805 -0.0022037 -0.0022845 0.0063992 -0.0076513 0.0010754 0.0085871 -0.0025908 0.0083976 -0.0090581 -0.0062198 0.00257 0.00102 -0.0098444 -0.007413 0.0088258 -0.0075175 0.0032595 0.0012892 -0.003427 0.0043783 0.0064544 0.0062236 0.0012804 0.0062588 0.00702 -0.0057123 -0.0024479 -0.0044014 0.0022051 -0.00071802 0.001046 -0.0068722 -0.0058444 0.0043796 -0.0069879 0.0062951 0.0087607 0.0066075 0.0015263 0.0040181 -0.0084822 -0.0095181 -0.0093285 0.0011805 -0.0074754 0.006365 -0.0088641 -0.0078737 -0.0093446 -0.0081657 0.0037605 -0.0071803 -0.0083102 0.0042472 -0.0096073 0.0015841 0.0088177 0.0028252 -0.0055394 -0.0044629 -0.0045811 -0.00024025 -0.0091079 -0.0026665 0.0058934 0.00091619 0.0098092 0.0094263 0.0071983 0.0032996 0.0026643 -0.0043689 0.0085545 0.0079811 0.0029911 -0.0082759 -0.0021393 0.0033737 
her 0.0024094 -0.0051074 0.0045592 -0.00086955 0.00032404 -0.0054349 -0.003277 0.0089264 -0.001116 -0.00060077 -0.0064245 -0.0007302 -0.0030394 0.0013995 -0.0087211 0.0049423 -0.0030176 0.0067259 -0.0022367 -0.0072268 0.004556 -0.0068355 0.0023437 0.004992 -0.0033549 -0.0062367 -0.0044729 0.0097447 0.0078149 -0.0036999 0.0075579 -0.0051393 -0.0002478 -0.0017352 0.0058625 0.0078782 0.00968 -0.0051595 -0.0011796 -0.0031024 0.0074718 0.0035155 -0.0035108 -0.009127 -0.00088403 0.0026656 0.0075815 -0.00093701 0.0064648 -0.0050143 -0.0088679 -0.0064234 0.0035034 -0.0055279 0.0004049 0.00025562 0.0064471 -0.0068442 0.0093857 -0.0095435 0.0021106 -0.0023262 0.0074445 0.0097749 0.0021383 0.0063101 -0.0052808 -0.006355 0.0041134 0.0066516 0.0037697 -0.0017877 -0.0075347 0.0037922 -0.0036196 0.0029473 -0.0076395 -0.0067707 -0.0098498 -0.0039405 0.0094002 0.001355 0.0064378 0.0064422 -0.0092788 -0.0059519 -0.0023944 0.00087763 0.0068876 0.0094527 -0.0083692 0.0049068 0.0048032 0.009667 0.0078977 -0.0095827 -0.0036016 0.00019596 -0.0060753 -0.0062319 
through 0.0014031 -0.0064631 0.003583 0.0071415 0.0055078 0.0066667 -0.005257 -0.0040317 0.0028637 0.0051382 0.0020635 -0.0048768 0.0054809 0.0028024 -0.0022042 -0.0040572 0.0099 0.0022433 -0.0053894 -0.0099899 -0.0039053 -0.0052824 0.0098972 -0.0060202 -0.0025445 0.0025009 -0.0071974 -0.0036173 0.0034408 0.0083252 0.004639 -0.0091644 0.0047605 0.0029103 -0.0060314 0.0058578 -0.00086616 -0.009088 0.0083581 0.0018864 0.0037092 -0.0025561 0.0049398 0.0091688 0.0058039 -0.010045 -0.0095348 -0.0005731 -0.0064592 0.0082532 0.0016949 -0.00841 -0.0021721 0.0086923 -0.0073308 0.0087843 -0.0039829 -0.0086957 -0.001297 0.0075143 0.0094531 -0.0061799 -0.0065377 0.0018293 0.001403 -0.002657 -0.0099284 0.0020356 -0.0074286 -0.0094663 -0.0011318 0.0023764 -0.0050965 0.0053147 -0.0054775 0.0085809 0.0040384 -0.006575 -0.0010997 -0.0081005 -0.00083834 -0.00024893 0.003726 -0.0095035 -0.0094323 -0.0047341 -0.0078973 0.0060077 -0.00218 7.736e-05 -0.0029136 -0.00082078 -0.0064037 -0.005551 0.0016804 0.00056137 -0.0048488 -0.0069166 0.0098243 -0.00073348 
who -0.0033781 0.0048455 0.0014916 -0.0080882 -0.009968 0.0075752 0.0046987 0.0080423 0.0052866 -0.0053785 0.0069151 -0.0039301 -0.000822 -0.0024392 0.0088762 -0.0047838 -0.0080034 -0.0078336 0.0017029 0.0036238 -0.0078581 -0.0084966 0.0057861 0.0097451 0.005014 -0.0050146 -0.0068428 0.0087666 0.0086404 0.0018314 -0.0036632 -0.0031614 0.00038557 0.0086584 -0.0045981 0.0018763 0.0042809 0.0057921 0.0081266 -0.0073493 0.0027215 0.0086903 -0.005552 -0.0019657 0.0023485 -0.0075549 -0.0050958 0.0029973 0.0058263 0.0072293 -0.0017793 0.0019668 0.0024462 0.0028876 0.0044746 0.0058205 -0.0087911 -0.0076524 -0.0070808 -0.0098791 0.0022215 -0.0080314 0.0085962 -0.0081361 -0.0031097 -0.0017896 -0.0050015 0.0041161 -0.0046728 -0.0075338 0.0056215 0.0079309 0.0071884 0.006869 -0.0089536 0.0095888 -0.00046789 0.0050603 -0.0014201 -0.0078478 -0.0018871 -0.0019093 0.0023123 0.005226 -0.0053488 0.0080425 0.0090242 -0.002634 -0.0013546 0.009434 -0.00609 -0.0042933 -0.0022005 0.0085944 0.00065984 0.0058594 -0.002053 0.0089782 -0.0061408 0.0078098 
only 0.0021853 0.0037816 -0.0067496 -0.0046795 0.0014939 -0.00035511 0.006024 0.0059599 0.0030177 0.00038757 -0.0068067 -0.0006966 0.0062908 0.0059368 0.007702 0.00025202 -0.0018211 -0.0098974 -0.0047732 0.00051509 -0.003229 0.0014965 0.0076258 0.0038085 0.0014405 0.0041827 0.0012802 0.0084571 -0.0032252 -0.0074566 0.0038608 -0.0043283 0.0040201 0.0099574 -0.0083639 -0.0013241 0.0079272 0.0083331 -0.0060727 -0.0024261 0.00090966 -0.0075093 0.0067787 -0.0073445 0.0097764 -0.0070498 -0.0062226 0.0070411 -0.0067121 -0.0056716 0.0004848 -0.0055774 0.0068124 0.004254 0.0091851 -0.0075765 0.0029212 -0.0065462 -0.0054851 0.0046739 0.009414 -0.0044403 0.0047378 -0.0074768 0.002197 0.00082055 -0.0060986 0.0056396 0.0082528 -0.0067985 0.0053718 -0.0081678 0.0015545 -0.0097275 -0.0093116 -0.00090592 0.0063912 -0.003311 0.0070185 -0.0031862 -8.5211e-05 -0.0026802 5.0627e-05 -0.0063681 -0.0030391 0.0067515 -0.0046959 -0.0045672 -0.0082952 -0.002394 -0.0019399 -0.0037225 0.0016722 0.001481 -0.0056852 -0.010214 -0.0024137 0.0066032 -0.0044062 0.00068788 
out -0.003759 0.0090799 0.00032468 -0.0026009 -0.0090617 -0.0079715 -0.0024839 0.00566 0.0053583 -0.0012095 0.0041007 0.0057051 0.0020887 0.0017139 0.0073694 -0.0061658 0.0096856 -0.00063607 -0.0098331 0.001869 -0.0040126 -0.0016796 -0.0037131 0.0063328 -0.0014309 0.0036842 0.0051341 0.0044741 -0.0014189 0.0026328 -0.0019788 0.0082803 -0.0059146 -0.0088205 -0.0055461 -0.0082152 0.0054108 -0.00074582 0.0075556 0.0048238 -0.0078418 -0.0029637 -0.0022107 -0.0089251 -0.00019604 0.0082842 0.0075363 -0.0098382 -0.0068417 -0.0037094 -4.9605e-05 -0.0024643 0.0086436 -0.0067232 0.0076467 -0.004903 0.0060157 -0.0030068 0.008272 -0.0097622 0.0078376 0.0045883 0.0054815 -0.00075053 0.0043047 0.0086797 -0.0093254 0.009911 0.0088835 0.0001927 -0.003269 0.0090219 0.0097341 0.00041413 0.0085559 0.0035278 0.0004575 -0.005087 -0.0050099 -0.008185 -0.0086334 0.0026073 -0.0073677 0.0094265 -0.0084129 -0.0028429 -0.00076459 -0.0057576 0.0035524 0.0059135 0.0062138 -0.0039525 -0.0055733 -0.00075754 0.0047247 0.0079028 -0.0012775 -0.0094237 -0.0018202 0.0024528 
or -0.0008695 -0.0015761 -0.0017413 -0.001077 0.0024864 0.0023919 -0.0090669 -0.0040682 0.002456 0.0053175 0.0072653 0.0064327 0.0070062 -0.0055342 -0.0049765 -0.0075227 0.0090437 0.0043536 -0.0075985 -0.006773 -0.00096988 -0.002708 -0.010005 -0.007115 0.0095398 -0.0083981 0.0089024 0.00063368 0.0064979 0.00051408 0.0002745 0.0072117 0.0057138 0.0037095 0.0079876 0.00062076 0.0071996 0.0037809 0.0092753 0.0090778 0.0030029 0.0091598 0.0067612 -0.0076431 0.0010375 -0.0010237 -0.0031668 -0.0017389 0.0099387 0.0097111 0.0043588 -0.0031732 -0.0011458 0.0033593 0.0066509 0.0097596 8.8361e-05 -0.0093217 0.0088526 0.0085119 0.0043955 0.0034136 0.0030071 0.0078107 7.5483e-05 -0.0016656 0.0062731 -0.0023927 0.0076653 -0.0029918 0.0079151 -0.0075344 -0.0090689 0.0059868 -0.0088443 0.00042375 -0.0055139 -0.01 -0.0086743 0.0020486 0.0028417 -0.0023122 0.0093622 0.0090198 -0.006987 -0.0002696 0.0006167 0.0077804 -0.0093702 0.006784 0.0048735 -0.0081871 -0.0076119 -0.0024933 -0.0045275 -0.0057213 0.00070652 0.0010363 0.0042062 -0.0060374 
actors -0.0071681 0.0034137 -0.0005977 0.0073988 -0.0013858 -0.0088885 -0.0087675 0.0060155 -0.0035782 -0.0087786 0.0096288 0.0083377 -0.0053348 0.0088931 -0.0097019 -0.0072459 0.00052365 0.0043922 -0.0004902 0.0079074 -0.0050813 -0.0090538 -0.0017828 0.0077455 -0.00078911 -0.0091794 -0.00023361 -0.0070521 -0.0030651 -0.00067526 -0.00041452 -0.0096797 0.0071928 0.00089883 -0.0033697 0.0078576 -0.0053393 0.007518 0.00040698 0.0042267 -0.0097885 0.004828 0.0062098 -0.006526 0.0015809 -0.0083582 0.0066528 -0.0055558 -0.0079676 0.0084112 0.0015937 -0.0041814 0.0034069 0.0027405 0.0025963 0.0057182 -0.0097774 0.0089763 -0.0012128 -0.0012988 0.0014434 -0.0018049 -0.00034177 -0.00058622 0.0022623 0.0038601 0.0032852 0.0035758 0.0058642 -0.0015211 0.0068221 0.0054508 0.0089826 -0.0012413 0.0040227 0.0017261 0.0042645 -0.0071748 0.0016803 -0.0052878 0.0015462 0.0061884 0.007935 0.0075966 0.0074875 -0.00045345 -0.006981 -0.0016254 0.0058702 -0.0040936 0.0090224 -0.006258 0.008689 0.00028897 -0.0082139 0.0051417 0.0021441 0.0027978 -0.0060835 -0.009218 
which 0.0053037 0.0020093 -0.0046014 -0.007026 -0.0054406 0.0043131 -0.00078327 -0.00029175 -0.00671 -0.0016037 0.0024309 0.007838 0.0026304 0.0026641 0.0018864 -0.0063293 -0.0011636 0.0019953 0.0095406 -0.0031983 -0.0025937 -0.0095152 0.0069751 -0.0028472 -0.0030201 -0.0099531 -0.001877 -0.0030868 0.008729 0.0066999 0.0052929 0.004419 -0.00066105 0.00072071 0.0046448 0.0054281 0.0047777 0.0080685 -0.0099714 -0.0082113 0.0027778 0.0091752 -0.0088299 0.0056251 0.0030034 0.0059223 0.0060294 0.0033733 0.0066522 0.0090048 -0.0039412 -0.0064985 0.00056259 0.009403 -0.0015824 0.0031501 0.0050981 0.0083012 0.0064875 0.0034844 0.006182 0.0066093 0.0066831 -0.001268 0.0020884 0.0024279 6.2535e-05 0.00051014 -0.0079344 -0.0073361 0.0020826 -0.00386 -0.0022495 -0.0053829 -0.0069913 -0.00041197 0.0072342 -0.0019982 -0.0096129 -0.0085606 0.0034721 0.001049 0.0017797 -0.0074914 -0.0090679 -0.0012575 0.0051023 0.0064049 0.0081804 0.00073474 -0.0029221 -5.0799e-05 0.0089407 -0.0084965 -0.0032571 -0.0081252 0.0043945 -0.0054204 0.0042103 0.0047482 
one 0.0096608 -0.0050946 0.0047018 0.0082825 0.0053484 -0.0039015 0.0043314 0.0073034 0.0010483 0.0017374 -0.0040881 0.0097333 0.0056125 -0.0060671 0.0087797 0.0014774 -0.0058148 0.0080901 -0.0015062 0.0027768 0.0071844 -0.008758 0.0065546 0.00034948 0.0033601 -0.0052032 0.0049329 0.0050876 0.0043842 -0.0072198 0.00031591 -0.00058055 0.0055177 0.0096819 0.0048099 0.0061998 0.0014678 -0.0032127 -0.0064053 -0.0060664 -5.6293e-05 0.0081058 0.0028764 -0.0085343 0.0069743 -0.0053591 0.0085055 0.0066786 0.0048177 0.00145 -0.00065368 0.0038662 0.0022699 0.0056047 0.0056828 -0.0082154 0.0091723 -0.00401 -0.0023669 -0.0067976 -0.0014633 -0.0083375 0.0074426 0.00058265 -0.0040111 0.0081149 -0.0063797 0.0006819 0.0015533 -0.0089864 0.0055838 -0.0046536 -0.00045658 -0.0082838 0.0060127 -0.0031119 0.0011157 0.0026115 0.0019777 -0.0072036 0.0080646 -0.0092048 0.0024987 -0.0055354 0.0071415 -0.0070913 0.0011314 -0.0029015 -0.0035228 -0.0062162 -0.0019436 -0.0072213 0.0053649 0.0038276 0.0099316 0.0054545 -0.0062579 -0.0055147 0.0013929 -0.00034069 
no -0.0020855 0.0087798 -0.0044255 -0.0024188 -0.0050597 0.0056904 -0.0060897 0.0094826 0.0042118 -0.0084169 0.0034867 -0.0050914 -0.008473 0.00098565 -0.0028483 -0.006399 0.0090006 -0.0083643 0.0029824 0.0087362 -0.0031151 -0.0066628 -0.0080213 0.0071083 0.0064736 0.0072818 0.002981 -0.0098208 0.0048383 -0.003634 0.0085456 -0.0072726 -0.0099988 -0.0019984 -0.0070263 -0.00031845 -0.0022047 0.003045 -0.0062446 0.0077546 0.0059344 -0.0084324 -0.0079322 -0.0077143 0.0075435 0.0095519 0.0074608 -0.0055261 -0.004339 -0.0033655 -0.0080918 0.00011322 -0.0044311 0.0098934 -0.0056755 -0.001294 0.0069033 0.002865 -0.0049427 -0.0085131 0.0066778 -0.0047952 -0.0077511 0.001425 -6.918e-05 -0.0073942 0.0013824 -0.0040142 0.0027502 -0.0028171 -0.0055458 -0.0071492 0.0048299 -0.0072901 -0.0091457 0.00032403 0.0085607 -0.004996 -0.0091947 0.005079 0.0087832 -0.009739 -0.0016151 0.00028551 0.0039982 0.0049414 0.0078656 0.0015814 -0.0068916 -0.00021111 0.0051045 0.0095167 -0.0017981 -0.0028423 0.0048482 0.00042975 -0.0010661 0.0099534 -0.0077098 -0.0017874 
way 0.0024282 0.0087317 0.0082704 0.0067816 0.007816 -0.0088773 6.9025e-06 -0.0053861 0.0065785 0.0001488 -0.003238 0.0056056 -0.0095405 0.0099178 -0.0024995 0.0045163 -0.0022908 0.0018761 0.0089457 -0.00084236 -0.0083819 -0.0096659 0.00067584 -0.0088687 -0.0047346 0.0065753 -0.005189 0.0090093 0.0045873 -0.0064482 -0.0087143 0.0091793 -0.0049547 0.0085145 0.002448 0.00059217 -0.0034297 -0.0083514 -0.0083166 0.0064501 -3.4538e-05 0.0063259 -0.0071429 -0.0048173 -0.0058591 -0.00075747 -0.0002118 0.0048625 0.0098768 0.0016724 -0.0011787 -0.0028484 0.00018478 0.0091707 0.007479 0.0011596 -0.0027634 0.0056623 -0.009973 0.0046243 0.0053104 0.0098257 -0.006416 0.0019816 -0.0032293 0.0095332 -0.0031543 -0.0038072 0.0083213 -0.00022274 0.0083008 -0.0026214 -0.0014012 0.00627 0.0041129 0.0089524 0.0084859 -0.0051807 -0.0018642 -4.2039e-05 -7.5877e-06 -0.0074289 -0.0029219 0.00153 4.2344e-05 0.0092558 -0.0014314 0.0021933 -0.0098099 -0.00059895 -0.0085999 0.0086136 0.00024653 0.0091792 0.0013932 0.0022977 0.0036328 -0.0099914 0.0075803 -0.0082067 
any 0.0029905 -0.0061518 0.0028549 -0.0065302 -0.0094111 0.0082773 0.0074666 0.004475 0.0077036 -0.0021027 -0.0099947 -0.0059662 -0.0007583 -0.0013439 -0.0012951 -0.0054993 0.0087014 -0.0023475 0.0037858 0.0044126 -0.0096511 0.0025421 0.0099568 -0.0047497 -0.0027246 -0.0066312 -0.0069639 0.0038715 -0.0039512 0.0059278 0.0063565 0.0049182 0.006061 0.0038743 -0.0062624 0.008812 -0.0032667 0.0080804 -0.0018525 -0.0080318 0.0064015 0.0032242 -0.0009042 0.0096136 0.0063735 -0.0027939 -0.00091701 -0.0056271 0.0058318 -0.0086009 -0.003985 0.0087606 0.0077701 -0.0090028 0.0082668 0.006859 -0.0002839 -0.001227 0.0010608 0.0037074 -0.0012579 -0.0082972 -0.0088575 -0.002965 -0.0017936 -0.0011754 -0.00018757 -0.0030655 0.0080789 -0.0060557 -0.0081659 0.0040942 -0.0083913 0.0031513 0.0091846 0.0063385 0.0029621 -0.0025179 0.0026444 -0.0017666 -0.0044235 -0.0022414 -0.0043951 0.007333 0.0091024 -0.0025257 -0.0046888 0.0051774 0.0030357 0.0087162 0.006304 0.0068017 0.0033626 -0.0073708 -0.0056753 0.0058993 -0.0042908 -0.0084275 -0.00047967 0.0054601 
that's 0.0069361 -0.0067021 -0.00025589 -0.0015064 0.00020886 -0.0014035 -0.0057332 -0.00054003 -0.0012029 0.0069632 0.0064232 0.0059205 0.0048222 -0.0041721 -0.0074924 -0.0079393 0.0095259 0.0036436 -0.0074175 -0.0037596 0.0063793 -0.0099465 -0.0070527 0.0052591 0.0011283 0.0069069 -0.0047622 -0.00030138 -0.0037284 0.00070956 -0.0091925 -0.0059654 -0.0042225 -0.0077702 0.008264 -0.00055785 -0.0036083 -0.0098458 -0.0063521 0.0011514 -0.0068876 0.0085205 -0.00030037 -0.0088543 0.002405 0.006612 -0.0076952 0.0066649 0.0013455 -0.0080607 0.0022249 0.0079958 -0.0034037 -5.2591e-05 0.0040717 0.0094881 -0.0098424 0.0077229 0.0066273 0.0052227 -0.0048474 -0.0062384 0.0086447 0.0024851 -0.0075291 -0.0090602 0.0015503 0.0032013 0.0046075 -0.0079393 0.0029745 -0.0031176 -0.006629 0.0010812 0.0071875 -0.0022867 0.0060137 0.0015983 0.0024472 -0.0011299 -0.00032714 0.0096259 0.0056458 -0.0035542 -0.0065323 0.0028719 -0.0032042 0.0063788 0.0075438 -0.0023463 0.0052322 0.0081662 0.0061477 -0.0067995 0.0067507 -0.0047393 0.0061396 0.0097996 -0.0025879 0.0048619 
while 0.0041171 0.0074475 -0.0097125 0.0048005 0.008804 -0.00041684 0.0053914 -0.0038124 -0.0020715 -0.0053697 0.0093514 0.0054215 0.00083061 0.0016201 0.00933 0.0038241 0.0039917 0.0060327 0.0055822 0.00082423 0.0028608 0.0018757 -0.0018546 0.0092108 -0.0081333 0.004988 -0.0029793 0.0011196 -0.0070459 0.0010465 -0.0024812 -0.0041249 0.0060518 -0.0069727 0.0078541 0.0066628 -0.00042746 0.0096582 0.00073004 0.0021886 -0.0072394 0.0036297 -0.0016806 0.0075845 -0.0046781 -4.4764e-08 -0.0072452 0.0042257 -0.0034777 -0.006215 -0.0022111 0.0035012 -0.0046003 0.0097363 0.00068099 -0.0046969 0.009262 -0.0051359 -0.0059472 0.0081547 -0.004583 0.0029298 0.0051108 -0.0069021 0.0052243 0.0093928 -0.0086148 0.0060392 0.0028741 0.007828 -0.00041218 -0.0063032 0.0097759 0.0039446 -0.0093472 0.004479 -0.0056565 0.0041576 -0.00018973 0.0044712 0.0022818 0.0023863 0.0019193 -0.0079108 -0.0078963 0.0050458 0.00057651 -0.0092254 -0.0056596 -0.0088573 -0.0077781 -0.00035539 -0.0080392 0.0088624 -0.0055158 -0.0086581 0.0091907 -0.0026683 -0.0099377 -0.0042179 
just -0.0077789 0.0087058 -0.0035817 -0.010151 0.0087476 -0.0089384 -0.0022991 0.0039582 0.0042084 0.0062132 -0.0042824 0.0034947 -0.0015246 -0.0093677 -0.0067639 -0.00054358 -0.005474 0.004968 5.668e-05 -0.0052759 0.00086637 -0.0064598 0.0032217 -0.0093323 -0.0063911 0.0019326 0.0040349 0.0042868 -0.0020719 -0.0014259 -0.0067521 -0.0060064 -0.0081793 0.0027981 0.00083636 0.0019131 0.0041619 0.0057139 -0.0039357 0.00046724 -0.0020942 0.0047741 0.0045248 0.0036795 0.0046038 0.0031206 -0.0049714 0.0088654 -0.0085533 0.0043232 0.0044556 -0.0030111 -0.0050729 -0.0064926 -0.0073951 -0.0031924 -0.0078932 -0.0035895 0.0034382 0.0081623 0.00097959 0.0015201 -0.0053887 0.0011682 0.0088769 -0.0028952 -0.0046034 0.0098269 -0.0077079 -0.0045223 -0.0076004 -0.0014327 0.0021342 -0.0060873 0.0010309 0.0033567 -0.00045284 0.010299 -0.0083852 -0.003471 -0.0060823 -0.0025895 0.010063 -0.010053 -0.0048719 -0.0064586 -0.0036391 -0.0030657 -0.006274 0.0081657 6.5638e-05 0.0044473 0.004722 0.008886 -0.0060775 -0.0024803 0.0038139 0.0072274 0.0018541 0.0075193 
what 0.001256 -0.0072072 -0.0012082 -0.0092475 -0.0072561 -0.0051413 0.0077636 -0.0053801 0.00968 -0.0099936 0.0023198 0.0060547 0.0030332 -0.0069869 -0.0009809 -0.0030741 -0.0092536 0.0068217 -0.0048514 0.0023674 -0.0034575 -0.0068802 0.0082446 0.0099168 -0.00051144 0.0067153 0.0076581 -0.0024133 0.0085388 0.0094379 0.007111 -0.0011707 0.0054981 -0.0087543 0.0094667 -0.005555 -0.0095075 0.0071465 -0.00012708 -0.0044328 0.0089418 0.0092554 -0.0048385 0.0046457 -0.0084089 -0.0053868 0.0045494 -0.0066884 0.0043131 0.0062033 -0.0030203 -0.00055262 -0.0020076 0.0071612 -0.0087854 0.003418 -0.0099804 0.001316 0.0013567 0.0092677 0.0071369 0.0091868 -0.0072149 -0.0082181 0.0026732 0.0097605 0.0090004 -0.0077972 0.0095136 -0.0079815 0.00050482 0.0064151 0.0010251 0.0010393 0.0037924 -0.006498 0.0029765 0.0078436 -0.0021045 0.0098396 0.0063928 -0.0021707 -0.0088797 -0.006207 -0.0084262 -3.8213e-05 -0.00091583 -0.00053605 0.0035446 0.0042901 0.0078327 0.0041359 -0.0034656 -0.0035594 -0.0037443 -0.0054904 -0.0033867 -0.0090195 0.0092687 -0.0081954 
them -0.0044095 0.00063376 -0.0056983 -0.0070299 -0.0051466 0.0040865 6.8171e-05 -0.004646 0.004108 0.00070565 0.0030115 0.0098482 0.0098255 0.0027347 0.0086969 0.0055765 0.0082296 -0.0094334 -0.003733 -0.0012094 0.0096697 0.0064757 -1.7118e-05 0.0031701 -0.0038855 0.0097652 -0.0064077 0.0083942 0.0024522 0.0028104 -0.0052797 -0.008221 -0.0029002 0.00027885 -0.0010238 -0.0023886 -0.0068137 0.00080285 0.0046301 0.0096877 -0.0041349 0.0084131 -0.0077887 0.0083068 0.0028258 -0.0021352 -0.0045158 -0.0047666 0.0017842 0.0052172 -0.0037765 -0.00077264 2.9645e-05 0.0014419 -0.0089102 0.0067287 -0.0012856 -0.0031532 -0.0099399 -0.0070605 0.0033996 0.0027149 0.0016104 0.0070193 0.0079429 0.0076652 0.0063941 0.0072908 -0.0078502 -0.00087425 0.0085091 5.9577e-06 0.0039192 -0.0088374 -0.006339 0.0081759 -0.0012559 0.0010122 -0.00070977 -0.0095871 0.0048488 0.00063984 0.0059597 -0.0036586 -0.00031776 0.0058424 0.0045169 0.0099225 -0.0080813 0.0084692 -0.0053962 0.0096658 -0.0030671 -0.00082212 -0.0063325 0.0016629 0.0093325 -0.0019256 0.0045692 -0.0038961 
us -0.00097454 0.00051885 0.0018698 0.0072723 -0.0055307 0.0037677 0.0043594 -0.00035875 -0.0021557 -0.0055692 0.0032986 0.0030372 -0.0055463 0.0047378 -0.00052472 0.009919 -0.0052847 -0.0080153 0.006982 -0.0010294 -0.0012764 -0.0051803 -0.0015086 5.0293e-05 0.0055669 0.002752 0.0041823 0.0073756 -0.0033472 -0.0061854 -0.0017867 -0.0024048 0.0034358 -0.0017308 0.0076971 -0.0020535 -0.0044925 0.0035232 0.0040365 0.0011582 0.0090279 0.0091863 0.0092314 0.0094862 -0.0068293 -0.00095517 -0.0022302 0.00072954 0.0025619 0.0069904 -0.005908 0.0061786 -0.0036254 0.0060426 -0.0056134 -0.0092115 -0.00061409 -0.0016837 0.0079722 0.0095167 -0.0020209 -0.0098475 0.0021415 -0.007273 -0.0069095 -0.0049855 -0.0061109 -0.0022916 -0.0022961 0.0058189 -0.00080253 0.0058716 -0.0034766 -0.0071356 0.0078391 0.0061253 0.0093116 -0.004597 0.0058445 -0.0065608 -0.004555 0.0090596 0.0037312 -0.0065964 -0.0062776 0.0069521 0.0099146 0.0070655 -0.0071166 0.0029819 -0.00035103 0.0082036 0.0049624 -0.0057984 -0.0082144 0.00099997 -0.0066584 -0.0016247 0.0083448 0.0055825 
get -0.003341 -0.0073286 -0.0018092 0.0062845 0.0019252 0.0061068 -0.0098125 0.0038839 0.0015102 -0.0086155 -0.008283 -0.0048091 0.0004451 0.003056 0.0079977 0.0092486 0.0059363 0.0084897 -0.0084742 -0.006772 -0.0027499 -0.0044482 -0.00099503 -0.0097636 -0.00095286 -0.0069831 0.0018243 -0.0018986 -0.0084985 -0.0064821 0.0053587 -0.0010757 0.0042928 0.0077431 0.0019227 0.0046428 -0.0064023 -0.0022621 0.0057708 -0.00077803 -0.0027884 -0.0054919 -0.00055782 0.0090078 0.00041223 0.0076206 0.0094309 -0.0050845 0.0018098 -0.0013428 -0.0070164 -0.0017349 -0.010091 0.0068748 -0.0017858 -0.0048544 0.0072673 0.0052797 -0.0051675 0.0046087 0.0066304 -0.0061763 -0.0037389 -0.0034735 -0.0064584 -0.001474 -0.0079058 -0.0051987 0.00035008 0.0051996 0.0023876 -0.0016224 -0.0046583 0.00048083 0.00084969 -0.0072951 0.00054817 0.0072528 0.0054859 -0.0016249 -0.0019823 -0.0070568 -0.00014561 0.0088194 -0.0062922 -0.0047605 0.0025578 -0.0023004 0.001416 0.0061726 0.004182 0.0099114 -0.0028612 -0.0038217 -0.0041206 0.0097287 -0.0066163 -0.0051299 0.0024723 -0.0072988 
ever 0.0029312 0.0060879 0.0094687 -0.0033217 -0.0072983 0.0039562 0.0065584 -0.0014746 -0.010137 -0.005011 0.0079634 0.0088587 0.0064628 0.0028401 -0.0018975 -0.0071999 0.0015229 -0.0059193 0.0070582 0.0022559 -0.0045479 0.0037655 -0.0026731 -0.0035011 0.00038928 -0.0071155 -0.0055481 -0.007104 -0.0043693 -0.0022597 -0.0038419 0.0011081 -0.0047752 -0.0017648 0.0055296 -0.0086012 -0.0054662 -0.0077505 0.0095513 0.0063151 -0.0091889 -0.00043605 0.0064314 9.8588e-06 0.00046516 -0.0037316 0.00041498 -0.0017031 -0.009259 -0.00855 -0.0078266 0.0092733 0.00037708 0.0050144 -0.0081928 0.00048208 -0.004612 -0.0066082 0.0025519 0.0016844 0.0093668 0.0036685 0.00034573 -0.0090686 -0.0032139 0.0089459 0.0045596 -0.0017171 0.0038987 0.0087374 0.0084034 0.0090759 0.00829 0.0019045 0.0080764 -0.0047736 0.0086572 0.0016716 -0.0060601 -0.0042596 0.0097419 -0.0023686 0.00032011 0.0012106 0.0096128 -0.0044043 0.0088323 -0.006923 -0.0073572 0.002264 -0.0067416 -0.0010838 0.005612 0.0044205 -0.0023168 -0.0074824 -0.0078782 0.0049784 -0.0037879 0.0077631 
off -0.0050899 0.0026875 -0.0029097 0.0065074 0.0078417 0.00635 0.0043811 -0.0057327 0.0028554 0.0014214 -0.0012179 -0.0022187 -0.0048871 -0.0091978 -0.0024571 0.0090484 0.00028709 -0.00040602 0.0081616 -0.0063485 -0.0024682 -0.0081758 -0.0012866 -0.009289 -0.0050513 0.0034919 -0.0042103 0.00072014 0.0039216 0.0098086 0.0034979 0.00052368 0.0028442 -0.0012548 0.0087554 -0.0025785 0.00064089 -0.0092805 0.0016931 -0.0090491 -0.0085861 0.0008078 -0.00052363 0.0075589 0.0074095 0.0012913 0.0047377 -0.0056516 -0.0053011 -0.0061863 -0.0088099 -0.0080484 -0.0066585 -0.0016308 0.0022983 -0.0039079 -0.0014126 0.0034455 -0.0021581 0.0098596 -0.0011958 0.0042523 8.9666e-05 0.00042696 -0.0078538 0.0024894 -0.0065705 0.0058009 0.00054713 0.0072777 -0.0094943 0.0063962 0.0070046 -0.0058437 -0.0094406 -0.0018739 -0.0074152 0.0044748 0.0046003 -0.0039733 -0.0079758 0.0077387 0.0064894 0.0042919 0.0026354 -0.0020593 0.009718 0.0021841 0.0055203 -0.0087861 -0.0098918 -0.0026364 8.8294e-05 0.0033975 0.0038429 -0.00067386 0.0066641 -0.0020644 -0.0069595 0.0017623 
care 0.0048551 -0.0010425 -0.0097451 -0.0051136 0.007005 -0.001925 -0.0069609 -0.0063672 0.001045 -0.004996 0.009933 0.0056581 -0.0067537 -0.0074198 -0.0077452 -0.006819 0.0010922 -0.00026989 -0.0072465 0.0019932 -0.0028152 -0.0012258 -0.0039913 0.0035294 0.0024053 -0.0086311 -0.0040963 -0.0030488 0.0027543 -0.000887 0.0083121 -0.0075033 -0.0020718 0.0049511 -0.0025434 0.00034922 -0.0045428 -0.0044538 -0.0085081 -0.0049366 0.0033793 0.0074534 -0.0014712 0.0042349 0.0092217 0.0045161 -0.0021428 0.0036804 0.0085547 -0.0074475 -0.0040726 -0.008871 0.0095546 0.0063576 0.0017317 0.00047751 -0.0054806 0.0034038 0.0020558 0.0031921 0.00059055 0.0033493 0.0068959 0.0067462 -0.0029287 -0.0084046 -0.003423 -0.0044191 -0.0092731 0.0049074 0.0016147 -5.5644e-05 0.0016879 0.0020776 0.0067756 -0.0047985 -0.0074998 0.0036041 0.0053216 0.0077 0.0055169 -0.002123 0.0030853 -0.0040033 -0.007287 -0.0042022 -0.0044492 0.007508 -0.0060229 0.0010208 0.0068537 -0.0013216 -0.0033176 -0.0094623 -0.0040144 -0.0077722 -0.0094334 -0.003882 -0.0038955 -0.0022057 
time -0.0052857 -0.0013356 -0.0070927 0.0005928 0.0062665 0.0093284 -0.0020075 -0.003727 -0.0012736 -0.0084892 -0.004523 -0.0086551 0.0092488 0.002549 -0.0017662 -0.0047623 -0.0028549 -0.0070204 0.0029474 0.0064045 0.0014281 0.010327 -0.00060858 0.0028268 0.0030311 -0.001497 -0.0046612 -0.0013657 0.0059113 0.0080998 -0.005812 0.0053243 0.0028746 -0.0053232 -0.0015489 0.0092143 0.0068417 -0.0080692 -0.0090566 0.0085711 0.0010084 -0.0038343 -0.0077137 0.0080284 -0.0066322 0.00032131 -0.0035161 0.0029287 -0.008436 -0.0081579 0.0055721 0.0011517 -0.0055184 0.00033069 0.0046839 0.00064413 0.0059179 0.0020684 -0.0050688 -0.0074793 -0.00977 0.0090163 0.00056019 0.009615 -0.0079809 0.0091067 0.006185 0.0069884 -0.00026663 -0.0098724 5.3455e-05 2.0114e-05 0.0033717 0.0059426 -0.0072205 -0.0065545 0.0078454 -0.0013256 -0.0081876 0.0083123 0.0042446 -0.0028905 0.00094123 0.0030425 0.0094289 0.0049033 0.0034995 -0.0064346 -0.0030553 -0.0019334 -0.0046748 -0.0019221 0.0036612 -0.00033782 -0.0039198 0.0040499 0.0068585 -0.0065967 0.0040308 0.001542 
not -0.0059561 -0.0092358 0.0014585 0.0044379 0.0057631 0.0020334 0.00066007 0.0087591 -0.0068048 -0.0063422 0.0029845 -0.0046381 -0.0095418 0.005337 -0.0059613 0.001788 0.0057662 -0.0075332 -0.0083114 0.0020254 0.0047046 0.0095613 -0.0063703 0.0078516 -0.0015754 -0.0062033 0.0096811 0.0077097 0.0087252 -0.0036702 -0.0033158 -0.0060321 0.0017169 -0.0065705 -0.0085768 0.0075934 0.0021238 -0.008205 0.0045994 -0.0068358 0.0098352 0.0087032 -0.0043977 -0.0031203 -0.0054424 -0.0068921 -0.0039408 0.0038672 0.0049722 0.007857 -0.0090382 0.0016417 -0.0035902 -0.0085039 0.0075758 -0.0061433 -0.0065809 0.0020614 0.0021343 0.0018072 0.0077696 0.0094188 0.0054368 -0.0056068 -0.0002638 0.0026927 -0.0070485 0.0030982 -0.0019452 -0.00077933 0.0043541 -0.0059488 -0.0028871 0.0023555 -0.0032248 0.0080686 0.006733 0.004428 -0.0020547 0.00097255 0.0025182 0.008156 0.006788 -0.0064534 0.0082323 -0.00276 0.0044411 7.0035e-05 -0.0015978 -0.0001974 -0.0065832 0.0069072 0.009361 -0.0093722 0.0016969 -0.0052358 -0.0038766 0.0079074 0.0071377 -0.0012043 
almost 0.0040005 0.0039399 -0.0049207 -0.007928 0.00028534 -0.0085303 0.0073685 0.0064437 0.00029428 0.0058484 -0.0041268 -0.0068919 -0.0079576 -0.005598 0.0022325 0.0039699 -0.0076728 0.0090603 0.0077975 0.00034225 0.007257 -0.0036016 0.0074339 0.0057812 -0.0043457 0.001661 0.0084291 0.0019062 0.0063181 -0.0047183 0.00043364 0.00020577 -0.0092937 -0.0058225 0.0059713 -0.0018527 0.0085549 0.0036764 0.0040447 -0.006497 -0.0057509 -0.0080915 -0.00010259 -0.0037658 -0.0060454 -0.003661 -0.0078013 0.0064294 0.0067287 0.0045686 -0.0080872 0.00052751 -0.008251 -0.0091229 0.003404 -0.0049882 0.00054757 0.010057 0.0042639 -0.0043843 -0.0018356 0.0070768 0.006213 -0.0042759 0.0095686 0.0098233 -0.0029533 0.0083935 -0.0095065 0.0037674 0.0088795 -0.0017059 -0.0064842 0.0086513 -0.0092625 0.0059821 0.007206 0.0087164 0.0034198 -0.0034545 0.0088348 -0.0033653 -0.0090755 -0.002389 0.0040056 -0.0028973 -0.0055806 0.0071045 -0.0024049 -0.001034 0.0073833 -0.0020016 -0.0062542 -0.0019169 -0.00080624 -0.0023426 0.006067 0.0087128 0.00016856 -0.0093319 
never -0.004896 0.0010344 -0.0053947 -0.0057647 -0.0067032 0.0049607 -0.003441 -0.0048238 0.0075888 0.0040012 -0.0047507 0.0082801 0.0038611 0.0086147 -0.00073234 0.001417 0.0051341 -0.0078356 0.0080755 -0.0084888 -0.0069511 0.0057887 0.0047923 0.0069294 -0.004742 0.0087006 -0.00097666 0.0048971 -0.0025514 0.004645 0.0077587 -0.0026971 0.0078405 0.0072444 0.0032167 0.0045585 0.0020886 0.0085387 -0.0030396 0.0010355 -0.0035897 -0.0060691 -0.0088109 0.0088555 -0.0052021 -0.0048564 0.00763 0.0082954 -0.0044266 -0.0016224 -0.0081632 -0.0079239 -0.0088337 0.0037987 -0.0055857 0.0030668 0.0093653 -0.007444 -0.0046391 -0.0019262 0.0023857 -0.0056903 -0.0057648 0.0035256 0.0091138 -0.0042667 -0.0056027 0.0029929 -0.0038333 0.0091058 0.0020184 -0.0073298 0.0054196 -0.0039706 -0.0010585 -0.0020967 0.0091445 0.0055693 -0.00013374 0.0066539 0.0083583 -0.0045372 -0.0083496 0.00018513 0.0015472 0.00083382 -0.0091878 0.00033133 -0.0067309 1.1721e-05 0.0092332 0.0001987 0.0040244 0.0007391 -0.0036792 0.0059518 5.1372e-05 -0.0045767 -0.0031472 0.006715 
though 0.0042733 -0.0011558 0.0072698 0.0099992 0.0024777 -0.0090437 -0.0061996 0.0070406 0.0059273 0.0041531 -0.003189 -0.0075484 -0.0074329 -0.0026482 -0.0089584 0.0018923 -0.0038707 0.0098947 0.0065484 0.0087646 -0.001541 -0.0026094 0.0073069 0.0097552 0.0026927 0.0025489 0.0019073 0.0016217 -0.003167 -0.0067063 -0.0023851 0.00082416 -0.0079935 0.0041588 -0.0072643 -0.0051992 -0.0030193 0.0053234 -0.005487 -0.0017269 -0.0093438 -0.0094503 -0.0097266 0.00092524 0.004619 0.0068876 0.0093307 -0.0032652 0.0017834 -0.00921 0.0064084 0.00079006 0.0069786 0.0040689 -0.0032965 0.0059185 -0.0059251 0.008303 -0.0089965 0.0039623 0.0044938 0.009129 -0.0057607 0.0049104 0.0059033 -0.0011386 0.0012177 0.0091509 -0.005457 0.0016604 0.0021938 -0.0048755 -0.0052728 0.0079392 -0.0010514 0.0026874 0.00060915 -0.0070065 -0.0075564 -0.0095924 -0.0061595 -0.003314 0.00647 -0.0051106 0.0069424 -0.0050064 -0.004636 -0.0011729 -0.00087439 -0.0063957 0.0082476 -0.0072079 0.0040948 -0.0051123 -0.0095259 0.0086389 0.0075591 0.0020957 0.0033881 3.1921e-05 
few 0.00075286 -0.0067727 -0.0060187 -0.0097137 -0.0039933 -0.0085604 -0.0058433 0.0064877 -0.0036526 -0.0073238 0.009872 0.0070579 -0.0076515 -0.00798 -0.0089074 0.0034884 -0.0041875 -0.00010742 0.0073994 -0.00080855 0.0028716 0.0047876 -0.0003071 -0.0065697 0.0037806 0.0082132 0.0071492 0.0056226 0.0097751 -0.00052131 0.0021798 -0.0065332 -0.00089969 -0.00062998 0.0023172 0.00047437 -0.0017081 0.0013663 0.0033259 0.0048732 0.0031043 -0.0052659 -0.0075898 0.003606 0.00283 0.009123 0.0012811 0.0070617 0.0097569 0.0093738 -0.0063692 0.0096219 -0.0087247 0.0045514 -0.0077288 0.0047877 -0.0023315 -0.0078959 0.0067921 -0.0033717 0.0082866 0.0015274 0.008207 -0.0085082 -0.0071996 0.0099292 -0.0037024 0.0051609 -0.0088345 0.0016719 -0.0088023 -0.0083322 -0.0089237 -0.0055074 -0.0049598 0.003155 -0.0051549 -0.0016487 -0.00044488 -0.0088126 -0.009497 0.0087157 -0.0070414 -0.00015752 0.008019 -0.0089258 -0.0040247 -0.0033502 0.0055489 -0.0029975 -0.0074595 0.0014014 0.0018707 -0.0087312 0.0042957 0.0048621 0.0090555 -0.00036521 -0.0063705 0.0074361 
funny -0.00026632 0.0064839 -0.0059526 0.00076169 -0.0064446 0.0061068 -0.006815 -0.0053657 -0.0022384 0.0093461 -0.0037669 -0.0032852 -0.0087251 -0.0056498 -0.0031605 0.0035031 0.0040273 -0.0034628 -0.0050448 -0.0057828 -0.0061901 0.0009172 0.0060495 0.0076558 0.0069958 -0.002825 -0.0022067 0.0041743 -0.0062534 -0.0042817 -0.0022267 0.0032499 -0.003676 -0.0046375 -0.0055684 0.0087499 0.0017192 0.0037161 -0.0057931 0.0072714 0.005301 0.0083996 0.0061413 0.0093258 0.0028282 0.0054399 -0.0055967 0.0066489 -0.0073109 -0.00051282 0.0016222 0.0034572 0.0013461 -0.0055397 -0.0098066 0.00028774 -0.0014069 0.00061476 -0.0056003 0.0096665 0.001021 -0.0096325 -0.0022567 -0.0044666 -0.0020453 0.0049176 0.00027324 0.0097155 -0.002457 0.0030238 -0.006128 -0.0036347 0.0019755 0.0082565 -0.0028254 -0.0026787 -0.0011657 0.00060321 -0.0047999 0.0036626 0.0051034 0.0076222 -0.0023461 -0.00222 -0.0063715 0.0035877 -0.0079125 0.00041718 0.0031125 0.00035266 0.0014621 0.0047268 0.0093164 0.0038568 0.0047379 0.00082623 0.0087744 0.0082339 0.004825 0.0026586 
we -0.0013537 0.0060642 -0.0055029 0.0030759 -0.0046982 0.0043317 -0.0070687 0.0044925 -0.0045341 0.0015874 -0.0033977 0.0070445 0.0056371 0.004468 -0.0064184 0.0033878 0.0042517 -0.0027738 0.0085041 -0.0013071 0.0056348 0.0026098 0.0023819 -0.0096349 -0.0091262 0.005033 -0.0090801 -0.0038596 0.0077426 -0.0060158 -0.0035502 -0.0021589 0.0096924 0.0021811 -0.0026667 -0.0023025 0.007773 -0.0093492 0.0033498 -0.0077143 0.0082553 -0.00071586 0.0049529 0.0043695 0.0079579 0.0041544 0.0058721 0.0089852 0.0035629 0.0073493 -0.00019502 -0.0099931 0.0048834 0.0069672 0.0051909 -0.00089807 -0.0058256 -0.0016824 0.0012469 0.0054252 0.0099951 -0.0001135 0.0041881 -0.0049207 0.0036467 0.0074183 0.0037871 0.0003012 -0.0099872 0.0071793 0.0037538 0.0020335 -0.00029623 0.0080687 0.0062604 0.0021395 0.0093565 -0.0041604 -0.01002 -0.0091008 -0.0037898 0.0012184 -0.0007342 -0.0075054 -0.0028323 -0.0002361 -0.00067373 -0.0022464 0.0073103 -0.005596 -0.00041205 -0.00037435 -0.0015651 -0.0086556 -0.0097835 -0.0088067 -0.0081392 0.0033113 0.0021285 -0.0033922 
little -0.0030618 0.002264 0.005419 0.0077653 0.0075188 -0.0041185 -0.008122 -0.0036044 0.0095176 -0.0047679 0.0061375 0.0098817 -0.0066472 -0.0043279 0.0064175 0.0065314 0.0092217 0.0083286 0.0050995 0.001555 -0.0066686 -0.0083188 0.0034455 0.0021104 0.0062792 0.0033193 -0.0074149 0.0081717 -0.002036 0.001421 0.0012264 0.009462 0.0063979 -0.0012233 0.0098277 -0.001327 -0.00010692 -0.00047026 5.7789e-05 0.0077601 -0.0092271 -0.0042126 -0.0047892 -0.0082291 -0.0019281 -0.0056691 0.0042608 0.0072745 -0.0036441 -0.0039538 0.0065124 0.0036297 0.0039613 -0.0030016 -0.0084734 -0.0028387 0.0041148 -0.005789 -0.0046168 0.0081594 0.0098044 0.0013184 -0.0036304 0.0060366 -0.0062806 0.0018319 0.0043886 0.0032577 0.0096398 0.0066353 -0.0058152 -0.0024459 0.0076572 -0.00027557 -0.0026583 -0.0041673 -0.00035729 -0.0058264 -0.0011788 0.0036908 -0.0045074 -0.008983 0.0058983 -0.001482 -0.0087458 -0.0091081 0.0063407 0.0043912 -0.0068393 -0.0082009 0.0082267 -0.009876 0.0030641 0.0028739 0.0070758 0.007324 0.0047276 0.0064951 0.00738 -0.0014334 
there's 0.0019072 0.0098013 -0.0083935 0.0062541 -0.0092985 -0.0029466 -0.0079328 0.003141 -0.0025186 -0.003951 -0.0090665 0.0093661 -0.00027305 0.0066432 0.0040956 -0.0078371 -0.0056689 0.0014216 0.00167 0.0081833 -0.00089228 0.0042103 0.004166 0.0054617 -0.006061 -0.00022043 0.0015335 -0.0043392 -0.00016323 0.0094324 -0.0013267 0.0064348 0.0091193 -0.0069501 0.005171 0.007271 -0.0056694 -0.0035296 -0.0041905 0.0066298 0.0019362 -0.00072043 0.0044184 -0.0068528 0.0059456 -0.0053806 -0.0063378 -0.0032217 -6.7004e-05 0.0055336 0.0093292 0.0069777 0.00093765 -0.0095564 -0.0032731 -0.0098134 0.0057037 -0.0082903 -0.0029871 -4.7864e-06 -4.6675e-05 -0.00093078 -0.0079344 0.00072107 -0.006076 -0.0030939 -0.0057124 -0.0014498 -0.0029828 -0.00071796 0.00052595 -0.0018479 -0.0056839 -0.0079872 0.003237 -0.0092992 -0.0092462 0.0046934 -0.0081044 0.0041758 -0.00071522 -0.0001776 0.00069777 0.0099414 0.0026401 0.005453 -0.0046907 -0.0034512 0.0083559 0.0093562 0.0068355 0.00049237 0.0023621 0.0082855 -0.00086361 -0.0047432 -0.0044908 -0.0051793 -0.0081096 0.004003 
can 0.00012444 -0.0055752 -0.0037895 0.0070661 -0.0006135 0.0038666 0.0050196 -0.0097908 -0.0067701 -0.00031285 0.0026956 -0.0021419 -0.0029142 -0.0072708 0.0076735 -0.0041302 0.0041061 0.0057937 0.0056357 0.0071078 0.0091536 -0.008598 0.001007 -0.0020125 -0.0048451 0.0044635 -0.0023615 -0.0087723 -0.0031313 -0.00049474 -0.0070599 0.0094159 0.0088793 -0.00514 -0.0056893 -0.0095895 -0.00021994 -0.0063812 0.00016612 0.0088535 -0.0036707 -0.00072763 -0.0027058 -1.196e-05 -0.0025263 0.0058182 -0.0069348 -0.0089257 0.0022664 -0.0019858 0.0059744 -0.0015032 -0.0046327 0.0032981 0.0035127 -0.0074693 0.0016371 -0.0084477 -0.00072911 -0.0068768 -0.00093453 -0.0036651 0.005709 0.0013096 -0.0080556 0.0074117 0.009323 0.0085285 0.0072166 0.0070664 -0.0085136 -0.0031525 0.0063261 0.0061212 -0.0064708 -0.0028701 -0.0084294 -0.0052721 0.0051361 0.0076587 0.0035478 -0.00021283 0.0092888 -0.0067144 -0.0013216 0.0020989 0.0093694 -0.007208 -0.0019137 -0.005397 0.006767 0.0058086 0.001127 -0.0014782 0.0083531 -0.0038658 -0.005378 0.0014828 -0.0046617 -0.0037065 
don't 0.0071025 0.00052517 0.0089926 0.0066654 -0.0054948 0.0040395 -0.0061858 0.002703 -0.0058893 0.0067676 -0.0098766 -0.0061108 0.0044905 -0.00035004 -0.0046282 0.0021245 0.005615 0.0019592 0.0059111 -0.0082596 -0.0084785 0.0062639 -0.0073544 0.0047377 0.00050263 0.0076426 -0.0024724 0.0034137 -0.0093259 -0.0022864 -0.0091843 -0.0035388 0.0016479 -0.0084455 -0.0076867 -0.0035853 -0.0027958 -0.0031148 -0.0010199 0.0080567 -0.0051428 -0.007023 0.0076047 0.0040486 0.0060202 0.0052188 0.0056748 -0.0089738 0.00064601 0.0067805 0.0066208 0.0084525 -0.0095402 0.0019083 -0.0027381 0.00076818 -0.00058187 -0.0098429 0.00038668 0.00075106 0.0092515 0.005353 -0.0096184 -0.0044349 0.0085241 -0.00029144 -0.0073611 -0.0051696 -0.00053661 0.0051177 -0.0096074 -0.0082766 0.0058153 0.0041838 -0.0049224 -0.0040854 0.0088712 -0.0057095 0.008513 -0.0096233 0.004485 -0.0038881 0.001293 0.0071415 -0.0011064 0.0053817 0.00048632 -0.0045389 0.0047328 -0.0098551 -0.0096182 0.0040323 -0.0012386 -0.0013782 0.0071662 0.00067037 0.0065829 -0.003466 -0.0092467 -0.0059752 
they 0.0085715 -0.0014375 -0.0078511 0.0058684 -0.0031811 -0.0050993 -0.0031063 -0.0043211 0.0077967 -0.0089293 -0.00087447 -0.0056921 0.0079465 0.0022355 -0.001468 -0.0040923 0.0087759 0.0035579 -0.0075738 0.0033117 -0.00099796 -0.0032658 0.0016739 -0.0081914 -0.0058679 -0.00047811 0.0034926 0.0030469 0.0071908 -0.0067231 0.0046076 0.0078494 0.0094392 -0.0084389 -0.0097688 -0.0043794 -0.0060622 0.0066746 -0.0080693 -0.0059853 0.0083141 -0.0090456 0.0089191 -0.00065483 0.0017623 -0.0066762 0.003539 0.0085301 -0.0092698 -0.00054886 -0.00023082 0.00037555 0.00051444 0.001038 -0.001215 -0.0085458 -0.0060602 -0.0066228 -0.0060374 0.00018724 -0.0050992 -0.0022107 0.0038636 -0.00083979 -0.0065124 -0.0037794 -0.00044672 -0.0076048 0.0022071 -0.0085409 -0.0076606 -0.0075196 0.0077453 -0.0061753 0.0026421 -0.0040938 -0.0027902 -0.0061595 -0.0080121 0.0030542 0.0083004 0.0064684 0.0080444 -0.0039068 -0.0035652 -0.0086213 -0.0056215 0.0034606 -0.0075711 0.0085272 -0.0043205 0.0087721 0.0051252 -0.0014254 -0.005289 0.0061228 0.0059815 0.0063942 -0.0016262 -0.0058941 
compelling -0.0083916 -0.0086823 -0.0095877 0.0056397 -0.0095604 0.0073134 -0.0010169 0.0051809 -0.0092403 0.0036285 0.0022887 -0.0067523 -0.0097562 -0.0088212 -0.00054141 -0.0042062 0.0093249 0.0025833 0.0074154 -0.0079996 -0.0093032 -0.006218 0.00085433 0.001642 -0.0014452 -0.0098247 0.00036626 0.0058227 -0.0057856 -0.00089388 0.006999 -0.0019798 0.0080961 -0.0015699 -0.00040446 0.0013165 0.010089 -0.00075115 0.00050754 -0.0068509 -0.0036656 0.0083383 -0.0053109 -0.0047161 -0.0051159 0.0025725 0.0057963 0.0057969 -0.0068864 -0.0065529 -0.0074718 -0.008331 0.0075101 0.0058382 0.0081936 0.0067735 0.00036439 -0.0016526 -0.0020229 0.0026144 -0.0018819 0.0068419 0.0017408 0.0058596 -0.0046941 -0.0070907 0.0081105 -0.00083092 -0.0059043 -0.0051075 0.005065 0.0064827 -0.0029695 -0.0081786 -0.006868 0.008561 0.009802 0.0045138 -0.0069005 0.0053491 0.0043714 -0.0088736 -0.0048641 0.0094353 0.008704 -0.0026589 -0.0096813 9.6434e-05 0.0028722 -0.0089137 -0.0093992 0.0021524 -0.0011925 -0.0023878 0.0032474 0.0055374 0.00022544 -0.0071373 -0.0054927 0.0017882 
much -0.0083408 -0.0027846 -0.0072278 -0.0085786 0.005981 -0.006685 0.0054058 0.0047243 -0.0057852 -0.0062269 0.00040714 -0.0066168 0.0021284 0.00050782 -0.0061617 -0.008497 0.0032577 -0.0080109 0.001349 0.0066065 0.0049944 0.0055781 0.0029332 -0.0032475 0.0090367 0.0014285 -0.0082802 -0.0083894 0.0011916 0.0075125 -0.00092873 0.0068111 -0.0085082 0.0012321 -0.0005489 -0.0048132 -0.0091648 -0.0016191 0.0065193 0.0091535 -0.0030648 -0.0031144 0.00047881 -0.0026189 -0.010177 -0.0083616 -0.0024042 0.0022083 -0.0070623 0.0022563 0.0054954 -0.0015929 -0.00072406 -0.0033548 0.0099851 -0.0037706 0.0011655 -0.00039203 0.0013549 0.0059543 0.0089553 0.0039621 -0.0086037 -0.00089453 -0.0042014 -0.0038769 0.0060516 -0.0075135 -0.0062105 -0.0029017 -0.0073708 0.0037083 -0.00056642 0.0011996 -0.0014242 0.0069316 -0.0056864 -0.0049801 0.00022076 0.00099466 -0.0051944 -0.0018966 -0.003754 -0.0093349 -0.0053183 -0.0031876 0.0056671 -0.0099941 0.0023021 4.3463e-05 0.00078061 0.0067942 0.0093365 0.008942 0.00037634 0.0013996 0.00054022 -0.0031833 -0.00024956 -0.0020413 
! 0.0023866 0.008243 0.0087926 -0.0080042 -0.0082033 0.0088583 0.0038771 0.0094486 -0.0025406 -0.0010944 0.0065534 -0.0036119 0.0028811 -0.0092393 -0.0065475 0.008624 -0.0058365 0.0057405 -0.0010914 0.0067912 -0.0028422 -0.009027 0.0090599 0.0050429 0.0080497 0.0054784 -0.0089949 0.0012318 -0.0076247 0.0038948 -0.0075831 -0.0012704 -0.0081593 -0.0016734 0.0021702 0.0092259 0.0085911 -0.0049441 0.009552 0.0091463 -0.0045473 0.0016302 0.002116 0.0090488 0.0031456 0.0069587 -0.002755 0.0017545 0.0033948 0.0057465 0.0037409 0.0045013 0.0097488 0.007072 0.0091629 -0.004635 -0.0045909 0.0062476 0.00063525 0.0048031 0.0023129 -0.0098541 0.00054507 -0.0088876 0.00011981 -0.0053256 -0.006251 0.0062734 -0.0033708 -0.0078435 0.0014467 -0.0095287 -0.0047221 -0.00045449 -0.0098731 -0.004632 -0.0066681 -0.00019977 0.006252 0.006257 0.0022913 0.00050126 0.0062823 0.0081963 0.0067448 0.0044033 0.0054805 0.0053804 0.0078363 0.0032448 0.0035803 0.0088471 0.0031755 -0.0096462 -0.0061278 -0.00049141 -0.0053918 -0.0046597 0.0047063 -0.0028712 
our -0.0062345 -0.0011128 0.0037144 0.00041945 0.0077749 0.0006543 -0.0095026 0.0064593 0.0068855 -0.0023825 -0.00025096 0.0012114 0.0057387 0.0094333 -0.0073076 -0.0071306 -8.7665e-05 -0.0035435 0.00028888 -0.009639 -0.0075211 -0.00091399 -0.0025979 0.0082314 -0.0090793 -0.0020136 -0.0094648 0.0011315 -0.0079872 0.0087493 0.0019125 0.0025687 0.0094835 -0.0040164 -0.00019927 -0.0037731 0.00068746 -0.0059821 -0.0086292 0.0098832 -0.0054777 -0.00463 0.0084023 0.0013937 0.0014333 0.00018322 -0.0052665 -0.0028667 -0.0011371 -0.0084924 -0.0007067 0.0012175 -0.0077703 -0.0068789 0.0091926 -0.0045671 0.0029514 0.0062852 0.0050391 -0.0061608 0.0079228 0.0010065 0.006792 0.0039839 0.0077394 0.003783 -0.0025174 -0.0021084 -0.0082542 -0.0084063 0.007215 0.0094591 0.0015653 0.0099951 0.0031997 -0.0032758 -0.0053423 -0.0012494 0.0027115 -0.0088386 -0.0031523 0.007412 -0.0084068 0.0040678 -0.0058098 -0.0019844 -0.0032882 0.0059381 -0.0052985 0.0008365 0.0051433 -0.0063417 0.0046565 0.003103 -0.0078948 -0.0097115 0.0054516 -0.0067166 0.0056612 0.0009541 
best -0.007788 0.0067245 -0.00037504 -0.0031034 -0.009853 0.0069891 -0.00079089 0.0036398 0.0033402 0.0096911 -0.0098562 -0.006592 0.0026272 -0.0098061 0.0091477 0.0074472 0.0096123 -0.007827 -0.0014044 0.0063802 0.0081365 -0.0096492 -0.00060261 -0.0031071 -0.0091298 -0.0033937 0.0090364 -0.0028458 0.0010371 -0.00033832 0.009234 0.0027569 -0.0062636 0.0016001 0.0028521 -0.0099586 0.0062622 0.0073941 -0.0014231 -0.0054982 -0.004112 -0.0093144 -0.0026731 -0.0060197 -0.0072015 0.0080517 -0.0022811 -0.0056193 -0.0067241 0.0067842 -0.0093976 -0.00091365 0.001527 0.006618 -0.0065336 -0.0072528 -0.0030207 0.00073235 -0.0061555 0.0042222 -0.0070174 -0.0036578 0.0037359 -0.0088904 -0.00081431 0.002491 0.004996 -0.0072135 -0.0086282 -0.0017752 0.00035395 0.0092866 0.0059859 -0.0025907 0.0036258 0.0029988 0.0057753 -0.004008 -0.00065499 -0.0084957 0.00041592 0.0048386 -0.0049072 -0.0061674 0.0043351 0.0005273 0.0023951 -0.0096641 -0.0082071 0.0060787 -0.0096895 0.0053455 -0.0062574 0.007944 0.0074116 0.0072778 0.00028847 0.0014596 -0.0043738 0.0068882 
long -0.0089367 0.0026011 0.0021347 0.0098144 0.0072148 0.0035884 -0.0097367 0.006073 -0.0019221 0.0043171 -0.0083089 -0.0068109 0.0098713 0.0019668 -0.0090604 -0.0097485 0.0031245 0.0067695 -0.0052843 0.0023771 -0.00885 -0.0065915 0.0091209 -0.0062448 -0.0020006 0.0047932 0.002817 -0.0072244 -0.0063303 0.0090679 -4.6457e-05 -0.0041151 0.0090483 -0.0080623 0.0050871 0.0023142 -0.0018974 -0.0015401 -0.0024606 -0.0049108 0.0042779 0.0030485 -0.0063986 -0.002043 0.0042168 -0.0007512 0.0044257 -2.0828e-05 0.00078055 -0.0068099 -0.0060594 -0.00014858 -0.0079071 0.0049805 -0.0072316 -0.00017752 0.0030036 0.0070035 -0.0073532 -0.0044729 -0.006346 -0.004131 0.004795 0.0013647 0.008815 0.0037686 0.0031036 -0.0078066 0.0046879 -0.0017821 0.0072127 0.00084514 -0.0040661 -0.0062807 -0.0045867 0.0099067 -0.0031313 -0.0037065 -0.0072865 0.0022586 -0.0089551 0.0062812 0.0083501 0.0065486 0.0084141 -0.0099065 0.0074632 0.0026301 9.2991e-05 -0.0052019 0.0048697 0.0092363 0.0027684 -0.0032307 -0.0041122 -0.00065075 0.009676 -0.0075444 -0.0010693 0.0091757 
over -0.0083659 -0.0091393 -0.0083314 0.0051892 0.0063248 0.0079091 -0.0071198 0.0074869 -0.0017879 0.0010777 -0.00081148 0.0075421 -0.0053211 -0.002925 -0.0009258 0.0017028 0.0060541 0.0064838 -0.0014589 -0.0096444 -0.0095321 -0.00025858 0.0069063 0.0062013 -0.0081036 -0.0094627 -0.0036561 0.0081099 -0.0036378 0.0010999 -0.003182 0.0067217 -0.0035029 -0.00048445 -0.0032251 0.0069188 0.003666 -0.0014045 -0.0012416 0.0077451 0.0041092 0.00097799 -0.00036947 -0.0034485 0.0046541 -0.0063254 0.0033255 -0.0069594 0.0045521 0.0099232 0.0065439 0.0094885 -0.0037931 0.0071619 -0.003053 -0.0095918 -0.0024936 -0.008951 -0.0042659 -0.005288 -0.003688 -0.0021171 0.0026936 -0.00414 0.0036289 -0.0069516 0.0062288 0.0021565 -0.0071885 -0.0043547 0.0072514 -0.0025498 -0.0041393 0.0051563 0.0059639 -0.0060291 0.0048427 -0.0069578 0.0038344 0.0064168 -0.0081708 0.0059044 -0.0041 0.0024431 -0.00038226 -0.0043247 -0.0099141 -0.0070936 -0.003193 0.0027811 0.0038021 -0.0094146 0.0066693 0.0083597 0.0097044 -0.00080795 -0.0077288 -0.0084694 0.0062891 0.0083846 
make 0.0076524 -0.0042146 0.0087111 0.0045064 -0.0054477 -0.0053387 -0.0086244 0.0050004 -0.0027304 -0.0043035 0.007406 0.0026638 -0.0087114 -0.0090794 0.0065774 0.0061045 -0.0029942 -0.0054396 0.0059255 -0.0079114 0.0072845 0.0040627 0.0012973 0.00025316 -0.0019917 -0.0030766 0.0089643 -0.0023809 -0.0089646 0.0070215 -0.0098145 0.00088935 -0.0098476 -0.0098392 -0.0092908 -0.0090669 -0.0067689 0.0022899 0.00087953 0.0053332 0.00045808 -0.00061644 0.0055274 -0.0076508 -0.0047261 -2.5581e-05 0.0036299 0.0026476 0.0064264 -0.00011814 -0.0046329 -0.0011199 -0.0017985 0.0079592 -0.00092916 -0.005294 -0.0020877 -0.0097424 -0.0044466 -0.0028295 0.0094806 -0.0035789 0.0039434 0.0019363 -0.0090604 0.0057671 0.0052834 -0.0038238 0.0043112 -0.0014827 0.0073609 0.0080881 0.0040596 -0.0039303 -0.0051411 -0.0023903 -0.0092021 -0.0063289 0.0049947 -0.007976 -0.0075091 -0.0071456 -0.0073195 0.0071141 0.0045568 -0.005008 -0.0046952 0.0079597 0.0083812 -0.0034636 -0.0058255 0.00317 -0.0096766 0.0028936 0.0047176 -0.0064323 -0.00042155 0.0027583 -0.0087565 -0.0016777 
director -0.00015027 0.0044763 0.0051905 -0.0033998 -0.00075871 -0.0036866 -0.0073454 0.0094139 -0.0031548 -0.0033443 -0.0077473 0.0026849 0.0014522 -0.0018157 -0.0083413 0.0003195 0.0096956 -0.0061048 -0.0041072 -0.0020513 0.0079321 -0.0082016 -0.0075644 -0.00021359 0.0083936 -0.0036109 -0.004017 -0.0065556 0.0082109 0.0087081 -0.0050193 -0.00022359 0.0038463 -0.0030357 0.0050957 -0.003197 -0.0042425 -0.00074666 -0.00039024 -0.0084272 -0.0020095 -0.0069726 0.00060937 -0.0022874 0.0095262 0.0031895 0.0095327 -0.00015651 0.0082134 -0.0062361 0.0057195 0.0022767 -0.0090786 -0.003107 -0.0014673 0.0045221 0.004528 0.0028962 -0.0045879 -0.0031822 -0.0012764 -0.0028326 0.0062705 0.0039993 0.0070833 0.0027576 0.001752 -0.0066854 0.00069589 0.0065871 0.00037119 0.0067378 -0.00064374 -0.00018568 -0.0013237 0.008529 0.0003469 0.0068617 -0.0048049 -0.0013463 0.0036073 -0.005469 0.0038663 0.004028 -0.0060847 0.0098079 0.0020641 0.0030761 -0.0066547 0.0030194 0.0057887 -0.0028118 0.0078023 -0.0095943 0.0074768 0.0083628 0.0082857 -0.0065379 0.00060496 0.005335 
go 0.0029869 0.0014533 -0.003911 0.0049065 -0.00082497 0.0084198 -0.0089195 0.00052555 -0.0095403 0.0070012 -0.0072711 -0.0068982 -0.0041038 0.0027314 0.004063 -0.0021584 0.0013055 0.0016788 -0.0096006 0.0073138 -0.0064654 -0.0035496 -0.0073055 -0.0029485 0.00080092 -0.0056953 0.0096245 -0.0076876 -0.0092649 -0.0013238 0.0026096 -0.0019503 -0.0037704 -0.00076097 0.004513 0.0066069 0.00055428 -0.0049448 0.0091309 -0.00403 0.0019805 0.007643 -0.0031377 -0.007901 -0.0005778 0.0051511 -0.0037938 0.0083238 0.0070383 0.0015276 0.0091456 -0.0077831 0.00091768 0.0097492 0.0052799 -0.0021205 1.234e-06 -0.0019822 0.0046639 0.00048122 0.0033321 -0.0021362 -0.0096472 -0.0061098 0.002123 -0.0094959 -0.006319 0.0092492 0.0028273 0.0050847 0.0021331 0.0093582 0.00082802 -0.0037399 -0.0097865 -0.0016017 -0.0043194 -0.0060995 0.0071031 0.00545 0.0060342 0.0053834 -0.00539 -0.003632 -0.0039613 0.0080534 -0.0093676 0.0054769 -0.0017097 -0.0048999 -0.0012178 0.0080463 0.0030838 -0.0084177 -0.0057769 -0.0012535 0.0034998 -0.0068089 -0.0078861 -0.00076737 
