22 100
the 0.0013522 0.0087004 -0.0039072 -0.0093827 0.0021229 0.0035257 -0.010532 0.0064985 -0.00048248 -0.00035263 -0.010436 0.0034055 0.0009553 0.006621 -0.016549 -0.0019614 0.010021 0.0062239 0.00057807 -0.0084963 -0.01299 0.0012169 0.01042 -0.0071357 -0.0029352 -0.0028617 -0.0027877 0.0018261 0.0034875 0.014077 -0.0054226 0.00092488 -0.0065695 0.0038489 -0.0079896 -0.0037274 0.0093309 -0.014218 -0.0042943 0.0012055 -0.010866 -0.0039373 0.0078248 -0.0045933 0.0053243 0.0025383 0.0029731 0.0035365 -0.0052917 0.0040158 -0.0042564 -0.00025144 -0.015492 0.0099053 -0.0018448 -0.00060539 -0.0064428 0.016768 0.013727 0.010953 0.016132 0.00056337 0.0063288 -0.0087779 0.012449 0.0051962 -0.013151 0.0066354 0.0016461 -0.0083213 0.0009436 -0.0080614 -0.006328 0.0048062 -0.018752 0.010411 0.013845 -0.0041075 -0.0023388 -0.0075349 -0.003004 -0.00029649 0.0051125 0.0029748 -0.011976 0.0061217 0.0070305 0.0077753 -0.0077545 0.0084204 0.013961 0.0036229 0.0089207 -0.012361 0.0077251 -0.0034044 0.0016896 0.00086356 -0.0037936 -0.0065619 
of 0.0043985 0.0036678 -0.0019724 -0.0047832 0.0062918 0.0058346 -0.0078439 0.0020101 0.0014076 0.0020044 -0.0064752 5.75e-05 0.0016122 0.0064966 -0.006146 -0.0023211 0.0059834 0.0026451 -0.0043607 -0.004817 -0.007255 0.0014517 0.0089663 -0.0027977 -0.0021631 -9.5985e-05 -0.0029501 -0.00053121 -0.00033983 0.0068629 -0.0015731 -0.0036392 0.0020317 0.0060354 -0.0086946 0.00054187 0.0028622 -0.005179 -0.0016281 0.00075827 -0.0063747 -0.0031395 0.0051609 -0.0027055 0.0069207 -0.007564 -0.0028472 0.0016781 -0.008378 0.0020496 0.0012528 -0.006597 -0.002125 0.006312 -0.001119 0.0038612 -0.003487 0.0016463 0.0069622 0.0070235 0.013915 -0.0031632 0.0025169 0.00049264 0.0063823 0.0012154 -0.0075502 0.0015769 0.0023858 -0.0071661 0.0011326 -0.00037809 -0.002044 0.00070984 -0.01299 0.0035576 0.0054176 -0.0020124 0.0020351 -0.0025022 -0.0017219 -0.0027903 0.0014557 -0.0035379 -0.0058895 0.0057734 -2.9502e-05 0.00086641 -0.0090097 0.0060008 0.0074548 0.00099828 0.0034413 -0.0056383 0.0054662 -0.0059617 -0.0036261 -0.0028912 -8.4834e-05 -0.0028583 
and 0.00021832 0.0032738 -4.0406e-05 -0.0061927 -0.0020172 0.0020258 -0.0081525 0.0023847 0.00097137 -0.00058918 -0.0059757 0.0046605 0.0038387 0.0028993 -0.010434 0.0019259 0.0058287 -0.0033919 -5.2885e-05 -0.0005475 -0.0033592 0.0035198 0.006563 -0.0032824 -0.0063883 0.00085912 -0.00031837 -0.00054516 -0.0016543 0.0080955 -0.0016038 0.00034624 -0.0049594 0.0026562 -0.0039721 -0.0039023 -0.0008186 -0.0069743 0.0024999 0.0036631 -0.0094122 -0.0031717 0.0051151 -0.0042364 0.0044642 -0.0038109 0.0043804 0.0042417 -0.004232 0.0018072 -0.0055279 -0.0029747 -0.0073837 0.0076619 -0.0048036 0.0022924 -0.005173 0.004662 0.004131 0.0026313 0.011027 0.00036825 0.0040332 -0.0023114 0.0068495 0.0054591 -0.0022653 0.0038458 0.0040848 -0.0045963 0.006446 -0.00046855 -0.002009 0.00032254 -0.010734 0.005418 0.0089237 -0.0068726 0.0015476 -0.0070382 0.0037676 0.00065585 0.0050171 -0.00091446 -0.0043792 0.0044731 0.0051274 0.0067928 -0.0072272 0.0092175 0.0044164 -0.0002797 0.0040405 -0.0053558 0.0041116 2.1055e-05 -0.0018174 0.0037463 0.00049156 0.00062381 
in 0.0051443 0.0041099 -0.0040695 -0.0032232 0.0026819 0.0062443 -0.007428 0.00056267 -0.00023541 0.00018695 -0.0050661 0.0064008 -0.0027364 0.0048361 -0.010365 -0.0022452 -0.0010193 -0.0010605 0.0035806 8.1978e-05 -0.0020464 0.0057311 0.0025907 -0.0043582 -0.0052927 0.0015604 0.0024956 0.0011741 -0.0010318 0.0059059 -0.0023748 0.0039539 -0.0036579 0.0021549 -0.0057904 -0.00036087 0.0037596 -0.0073029 -0.003357 0.0034982 -0.0049374 -0.0042408 0.0045894 -0.0019536 0.00029515 -0.0044745 0.0038175 -0.0024108 -0.0018005 0.0039006 -0.0028234 -0.0019109 -0.0065004 -0.0007526 -0.0024969 -0.004203 -0.003675 0.0082495 0.002807 0.005633 0.010922 0.0015588 0.0015307 -0.0067205 0.0058363 0.0053702 -0.007194 -0.001075 0.0035621 -0.0048529 0.0042277 0.00047342 0.0018392 0.0070123 -0.011342 0.0025746 0.011629 -0.00041375 0.0034248 -0.0074279 0.0016318 0.00099789 0.0067517 0.0046958 -0.0012934 0.0054516 0.0032725 -0.00012405 -0.0038656 -0.00025668 0.0020237 -0.0023262 0.0045867 -0.0061333 0.0028649 -0.0035285 -0.00082956 -0.0016047 -0.0027003 -0.0058173 
as -1.2627e-05 0.0053054 -0.0018253 -0.0054244 0.0059876 0.0018248 -0.0024548 0.0030114 0.0020525 -0.00092086 -0.0014818 0.0010656 0.0022871 0.0066662 -0.0042392 -0.0049265 0.0099674 0.0016235 -0.0034587 0.0017805 -0.0043345 -0.0014563 0.0021441 -0.0054605 0.0015481 0.0011134 0.0019759 -0.0019121 0.0044282 0.0092248 -0.00019325 -0.00049454 -0.0095522 0.0022554 -0.002563 -0.0014008 -0.0018504 -0.0065901 0.0035692 0.0055329 -0.006396 -0.0028577 0.0055515 -0.0039286 -0.00091179 -0.0053053 0.001408 0.0030564 -0.008741 -0.0013789 -0.00049972 -0.00091663 -0.0013605 0.0031422 0.007598 0.0021486 -0.0019036 0.0073984 0.0037696 0.0091239 0.014618 0.00075675 0.0011682 -0.0026236 0.0088239 0.0029411 -0.0037462 0.0010604 0.0015274 -0.0052283 -0.0011165 0.00033855 -0.0011669 0.0060893 -0.0059703 0.0092604 0.0038326 -0.0060344 -0.0010779 -0.0056114 -0.0040316 0.0010565 -0.0022578 0.0043019 -0.0070209 -0.00086457 0.0025008 0.00020819 -0.0044363 0.0090418 0.010978 0.00037988 0.010351 -0.0017372 0.0031917 0.0015892 0.00061486 -0.0065166 -0.0028656 -0.0018093 
is 0.004808 0.0029039 0.002066 -0.0076257 -0.00033146 0.001885 -0.010082 0.00099919 -0.0011023 0.0011653 -0.0011402 0.0069158 0.0011316 0.0054548 -0.0093134 -0.0040564 0.003678 0.0041423 -0.0036442 -0.0058076 -0.0063448 -0.0036592 0.0021816 -0.0039592 -0.0011064 0.0050045 -0.0022224 -0.0066782 -2.8205e-06 0.0067142 -0.0091964 0.0021289 -0.0064972 0.002865 0.0029737 -0.00083019 0.0010297 -0.013275 -0.0069755 0.00090642 -0.010341 0.0017967 0.0024862 -0.0070826 0.0016417 -0.00070565 -0.0053483 0.0035442 -0.0033905 -0.0014541 -0.0025695 0.00038492 -0.01037 0.002979 0.00069095 0.006291 -0.0040962 0.012815 0.0096116 0.0088882 0.0048997 -0.0044205 0.0066062 -0.0036892 0.0092048 0.0018373 -0.0043013 -0.00061669 0.0011345 -0.0062438 0.0017004 -0.0037764 -0.0014379 0.0014176 -0.0041954 0.0044954 0.0084034 -0.0057806 -0.0017301 -0.0024802 -0.0019224 0.0058856 0.0045557 0.0031449 -0.0015208 0.0030319 0.0024386 0.0013743 -0.0023654 0.0046392 0.0094361 0.0028827 0.0020767 -0.0038384 0.0056257 -0.0030451 0.001915 0.00088532 0.00042002 -0.00046888 
that 0.0037655 0.0023722 0.00054099 -0.0031525 0.0029688 0.0013273 -0.00442 0.0026259 6.8644e-05 0.0018895 -0.001854 0.0017634 0.0012542 0.0021433 -0.0054125 0.00061958 0.0047501 0.0034519 5.3954e-05 -0.0041083 -0.0032957 -0.00031378 0.003504 -0.0010229 -0.0034503 0.0010992 -0.00095713 -0.0023155 0.00062832 0.005826 -0.0037752 -0.0025061 -0.0010553 0.0064116 -0.0020669 -0.0012065 0.0041772 -0.0058574 -0.0020489 0.00030929 -0.0047794 -0.0016856 0.0047382 -0.0036462 -0.0013895 -0.005594 -7.3091e-05 0.0023427 -0.001626 0.0032522 -0.0025482 -0.0027319 -0.0038201 0.0066886 0.0012227 -0.0016807 -0.003408 0.0026138 0.0060453 0.004263 0.01048 -0.0001901 0.0015946 -0.0014502 0.006766 0.0019359 -0.0050563 0.0055 0.0012611 -0.0032855 -0.0021598 -0.0027807 -0.00206 0.0023471 -0.0098296 0.0032131 0.0066488 -0.00090204 0.00060317 -0.0021005 -0.00060087 0.00018274 0.0011993 -0.0011174 -0.0014133 0.0023385 0.0033685 0.0049165 -0.005918 0.0025737 0.0063282 -0.0015407 0.0059152 -0.0025764 0.00084041 -0.0056468 -0.0020369 -0.00062341 0.0013382 -0.0030852 
to -0.00094103 0.0030922 -0.0034361 -0.0018403 0.0049983 0.0024383 -0.0060228 -0.0010098 -0.0019536 -0.0030732 -0.0042673 0.0025962 0.0032792 0.0044129 -0.0059833 -0.002084 0.0042388 0.0032756 -0.0011923 -0.0030726 -0.0078685 0.0011918 0.00027238 -0.006681 -0.00094432 -0.0031867 -0.0042564 0.003538 0.0022456 0.0076492 -0.0048658 -0.0017099 -0.00049823 0.00091697 -0.008434 -0.001385 0.0075086 -0.0079281 0.00080788 0.0017012 -0.0045893 0.0036799 0.0039766 0.001025 0.0021209 -0.00087303 0.0083343 0.001344 0.00061888 -0.00071212 -0.00025185 -0.0033627 -0.0042281 0.0057774 0.0015258 0.0032711 -0.006909 0.0084713 0.0088981 0.0056595 0.0083739 -0.0026086 0.0045878 -0.0047864 0.00057789 -0.001895 -0.0055982 -0.00065867 -0.00073551 -0.0046907 -0.0052261 -0.0044595 -0.0059993 0.0040042 -0.0038129 0.0092639 0.0053222 -0.0014752 -0.0015893 -0.0023235 -0.00098787 -0.00097899 0.0020669 0.0026907 -0.004022 0.0027087 -0.00034947 0.0028399 -0.0024233 0.0054827 0.0077986 -0.0012707 -0.0009739 -0.0038697 -0.00022657 -0.0019059 -0.0049254 -0.0050466 0.0013552 -0.0025476 
a 0.0025117 0.0018714 0.0077173 -0.00050268 0.00048919 -0.00049462 -0.0039711 0.004243 5.1692e-05 -4.7057e-06 -0.0064065 -0.0016496 -0.0018219 0.0076101 -0.0054118 -0.00014673 0.0062872 0.0071904 0.00011649 0.0014818 -0.0079424 0.0032936 -0.0011544 -0.0056214 -0.00059985 0.00032093 0.0073078 -0.00097112 0.0012377 0.0041311 0.0028081 0.0045434 0.0060817 0.0013682 -0.0028766 0.0040566 0.0091597 0.0026806 -0.0032323 0.0077777 -0.011153 -0.0050107 0.0014277 0.0032006 0.0079468 -0.0048462 0.0070662 0.0012226 -0.0058738 0.0011839 0.0020352 0.0061182 -0.0042692 0.010352 -0.0024195 -0.00054359 -0.0046557 0.0032437 0.0043244 0.0067035 0.0015743 0.00046876 0.0014222 0.00648 0.0038075 -0.0069381 0.0071831 -0.00088864 0.0017186 -0.0029226 0.0044223 -0.0068402 -0.0038073 0.0016487 0.001403 0.0044103 -0.00021372 -0.0024493 0.0025128 0.0030092 -0.0026103 0.00030829 -0.0011482 -0.002068 -0.0022683 0.0049126 0.0091272 0.00070654 -0.0023079 -0.00066388 0.00038008 -0.0060202 0.0058451 -0.0033608 0.0016945 -0.00043827 -0.0014124 0.0043646 0.0063373 -0.0079051 
anarchist 0.0013777 0.0039148 -0.00050999 -0.0059422 0.0028332 0.0024193 -0.0090424 0.0069626 0.00076409 -0.0027476 -0.0061839 0.0030859 -0.0017972 0.0046699 -0.013414 -0.0024058 0.0065681 0.0036896 -0.00261 -0.0031204 -0.009135 -0.0019672 0.0054728 -0.0049154 -0.0027279 0.0010671 -0.001286 -0.0018618 0.0044608 0.0092543 -0.0045825 -0.00055249 -0.0045143 0.0040164 -0.0046538 -0.0022646 0.0035852 -0.011393 -0.0031509 0.0012296 -0.0073939 -0.001025 0.0026537 -0.0051685 0.0026221 -0.00087564 0.0021662 0.0024162 -0.0024544 0.0014939 -0.0019042 -0.0027701 -0.0097994 0.0078444 -0.0012913 -0.00030283 -0.0070165 0.013854 0.00584 0.0097948 0.014279 -4.9875e-06 0.0032511 -0.0029991 0.0089241 0.0030655 -0.0056923 0.0038666 0.0023826 -0.0072217 0.0030867 -0.0037283 -0.0044397 0.0048644 -0.011749 0.010005 0.010426 -0.0015285 -0.0036766 -0.0015111 -0.0015479 -0.0016571 0.0039483 0.0021862 -0.0054443 0.0043101 0.0056732 0.00311 -0.0078751 0.0053671 0.0092179 0.0044885 0.0087639 -0.0078066 0.0040084 -0.0032833 -0.0027165 -0.002003 0.00064361 -0.0053862 
anarchism 0.0019577 0.0039847 -0.00040963 -0.0055776 0.0024886 0.002074 -0.0095244 0.0058362 0.00034699 -0.0029289 -0.0048309 0.0052194 -0.0020274 0.0049799 -0.012549 -0.00238 0.006889 0.0021592 -0.0018635 -0.003936 -0.0090889 -0.0012954 0.0043196 -0.0070542 -0.0033887 0.00028457 -0.00051134 -0.0029138 0.0029377 0.010861 -0.0048232 0.00043118 -0.0048696 0.004015 -0.0047811 -0.00355 0.0026375 -0.011598 -0.0029072 0.0020206 -0.0079737 -0.0017934 0.0041496 -0.0064233 0.0026844 -0.00087786 0.0012231 0.0026128 -0.0037667 0.00019824 -0.00215 -0.0023605 -0.010879 0.0083699 -0.0013345 -0.0004079 -0.0065376 0.012894 0.0061634 0.0096624 0.014828 -0.0011879 0.0034523 -0.0028438 0.0081386 0.003648 -0.0044503 0.0024938 0.0034126 -0.0073666 0.0039618 -0.0013283 -0.0021983 0.0042618 -0.011357 0.008954 0.0099034 -0.0019971 -0.0027126 -0.0025067 -0.0025809 -0.0015144 0.0031993 0.0034122 -0.0044637 0.0046455 0.0062447 0.00255 -0.0083883 0.0052498 0.0078251 0.0040509 0.0072045 -0.0072825 0.0048432 -0.0032644 -0.0021001 -0.0014657 -0.00044533 -0.0033985 
society 0.0038746 0.00035589 -0.00090767 -0.0029587 0.0015625 0.0026899 -0.0037232 0.0012501 0.0014167 -0.0031562 -0.003569 0.0028647 0.001862 0.0031348 -0.004892 -0.0029248 0.0019858 0.001257 -0.0016044 -0.0023785 -0.0055822 0.0004442 0.0026713 -0.0020223 -0.0014126 -0.0016431 -0.0026657 -0.0013288 0.0014361 0.0065234 -0.0021864 0.00096864 -0.00077446 0.0027286 -0.003247 -0.0030044 0.0010978 -0.0055243 -0.0028268 0.00015478 -0.0042064 -0.0003559 0.0010507 -0.0012071 0.00029299 -0.0037392 -0.00083819 0.0025192 -0.0048804 0.00068641 -0.0016082 -0.0025884 -0.0047566 0.0048303 -0.00055684 0.00039762 -0.0011171 0.0049498 0.0048891 0.0042933 0.0089193 -0.00041669 0.0030279 -0.0024498 0.003931 0.0049872 -0.0027345 0.0025389 0.0012339 -0.0041004 0.00026265 0.00062344 -0.00077587 0.0044389 -0.0041187 0.0026072 0.0035889 -0.0022419 -0.0023545 -0.001016 0.001976 0.00065801 0.00099599 0.0017104 -0.0030613 0.001056 0.0047037 0.00083937 -0.0041723 0.0022829 0.0035582 -0.00082353 0.006913 -0.0030356 0.0012133 -0.0021093 -0.0013761 -0.0022596 -0.00023352 -0.001931 
what 0.0017886 0.00036448 -0.0019677 -0.001174 0.0031945 0.0032861 -0.0059797 0.0018688 0.0023587 0.0031011 -0.0038774 0.0033691 0.00095531 0.0057777 -0.0024868 -0.0040619 0.0050799 -0.0028885 -0.0017737 -0.0063657 -0.0070291 0.00057158 0.0051438 -0.0010693 -0.002409 -0.001455 0.0003051 0.0007029 0.00051769 0.0076424 0.0020102 -0.0017621 0.00088754 0.0052087 -0.0027985 -0.001108 0.003604 -0.0060266 -0.00055831 -0.0014349 -0.002189 -0.0046909 0.0029069 -0.00066735 0.0010015 -0.0022807 -0.00040284 0.00099239 -0.0011979 -0.0022855 0.00087301 -0.0057902 -0.0043142 0.0042815 0.00010558 0.00019742 -0.0039736 0.003047 8.5507e-05 0.0066772 0.012446 0.00025977 0.0010018 6.7284e-05 0.0078126 0.0015226 -0.0061699 0.00095843 -0.0017644 -0.0048163 0.0030176 0.0017028 -0.0018726 0.0027992 -0.0071014 0.0047279 0.0095579 0.0017505 0.00047191 -0.0028764 0.00049346 0.0014905 0.0017122 0.0032644 -0.00082687 0.0002639 -0.0002517 0.0021105 -0.004414 0.0037736 0.0066145 -0.00098612 0.0049183 -0.0023246 -0.0016666 -0.0023498 -0.0027244 -0.0035517 0.0008486 -0.0039321 
are 0.0019775 -0.0020961 -5.5237e-05 -0.0026645 0.0033369 -0.00010865 -0.0023797 0.0033133 0.0020779 0.00072697 0.00030671 0.0035323 0.000849 0.0028461 -0.0080591 -0.0017333 0.0048764 0.0015495 -0.0028066 -0.0036508 -0.005741 0.00064069 -0.00071866 -0.0024035 -0.002893 0.00056014 0.0018167 0.00017104 0.0014251 0.0091811 -0.00059868 0.00027545 -0.0056256 0.0029513 -0.0025526 -0.00042571 0.00082289 -0.007066 -0.0014803 0.0056611 -0.00048621 -0.0023995 0.0053417 -0.0043165 0.0022323 -0.0029091 0.0017316 0.0012878 -0.0015942 -0.0019547 -0.001809 -0.0008849 -0.0091414 0.0029975 -0.0033301 -0.0030639 -0.003491 0.0058351 0.0040881 0.0066789 0.0067314 0.0015761 0.0039567 0.00098277 0.0045546 0.001644 -0.0042767 0.0022545 0.0014135 -0.0042996 -0.0026343 0.00053399 0.0013403 0.0012434 -0.0040906 0.0019107 -9.2953e-05 -0.00071945 0.001124 -0.0014461 0.0033382 -0.0014127 -0.0006157 0.0011139 -0.0039803 0.0030975 0.0064497 0.00067673 -0.0060419 0.0036927 0.00054192 0.0034886 0.0055884 -0.0056661 0.0054498 0.0014397 -0.00207 0.00042769 -0.00080093 -0.0017721 
anarchists 0.0018897 0.0030304 -0.0011902 -0.0065388 0.0022822 0.0021259 -0.0089741 0.006322 0.0010116 -0.0017419 -0.0057246 0.0037658 -0.0018069 0.0042145 -0.011458 -0.0033064 0.0069252 0.0029283 -0.0029366 -0.0020466 -0.0086036 -0.0019822 0.0050874 -0.0051966 -0.0025425 0.00080775 -0.001315 -0.0025811 0.0037236 0.0093585 -0.0045531 -0.00035384 -0.0043537 0.0034504 -0.0042859 -0.0026167 0.0030445 -0.011022 -0.0025031 0.00026619 -0.006908 -0.00066228 0.0030538 -0.0051655 0.0019884 -0.00055455 0.00057368 0.002368 -0.0019631 0.0021109 -0.0024921 -0.0022807 -0.009574 0.0071704 -0.0015101 -0.00015356 -0.0068398 0.012789 0.0050868 0.0097823 0.012983 -0.00093336 0.0031195 -0.0040019 0.0084854 0.0019065 -0.005128 0.0035275 0.0023823 -0.0074499 0.0021162 -0.0020966 -0.0035199 0.0041318 -0.010854 0.0091862 0.01054 -0.00098125 -0.0029148 -0.0012766 -0.0012453 -0.00081526 0.0028919 0.0024671 -0.0045279 0.0049666 0.0051562 0.0027494 -0.008026 0.0054961 0.0089911 0.0055178 0.0077379 -0.0074765 0.0036798 -0.0032394 -0.0021309 -0.0024304 0.00014682 -0.0035284 
this -0.00087932 0.0065762 -0.0015273 -0.0038535 0.00067774 0.0024305 -0.0071652 0.0017112 -0.0010294 0.0025913 -0.0026575 0.0019145 -0.0014024 0.0044285 -0.0057701 -0.00031969 0.0013485 0.0030102 -0.00023753 -0.0055986 -0.0050209 -0.0033128 0.0039838 -0.0026758 -0.0036738 0.0011683 0.0015098 -0.00064134 0.0037616 0.0064863 -0.004525 0.0013574 -0.0015436 -0.0008814 -0.0013861 0.00013772 0.0029214 -0.0084187 -5.0477e-05 -0.0022543 -0.0025512 0.0012797 0.0031079 0.00048707 0.001374 -0.0015846 -0.00024782 0.0054083 -0.00045399 -0.00063481 -0.0035065 -0.0012306 -0.0082393 -0.0005116 8.8348e-05 0.0012024 -0.0032508 0.008839 0.0046933 0.0069459 0.0070003 -0.00022203 0.0014061 -0.0044286 0.0069059 0.0034647 -0.0024051 0.00083592 -0.00021951 -0.00051293 0.0038704 -0.0023032 -0.0015871 0.0028363 -0.0060172 0.0059284 0.0044075 -0.00025899 -0.004007 -0.0043568 -0.0024422 0.0030356 0.0039609 -0.00073558 5.7261e-06 -0.00071807 0.0053937 0.0011339 -0.0017011 -0.00020424 0.0050479 0.0043827 0.0029751 -0.0032429 0.0020392 -0.00014221 0.0026499 -0.00013803 0.0036057 0.0006023 
it 0.0025878 -0.00095466 -0.0054645 -0.0090892 -0.00044053 0.00010025 -0.0048281 4.0376e-05 0.0050293 -0.0045317 0.0037189 0.0082544 -0.0024923 0.0010407 -0.0082968 -0.0039765 -0.0023689 0.0014747 -0.0017247 -0.00037194 -0.0018198 0.0010518 0.0089141 -0.00051957 -0.00054701 0.0019283 0.004502 0.00037645 0.0047516 0.0090828 0.001384 -0.00032487 -0.0023352 -0.0017469 -0.0022563 -0.0050424 -0.00076013 -0.0026352 9.9433e-05 0.0018688 -0.0021916 0.00032619 0.0015537 0.0015882 0.00033489 0.00078315 0.0027763 0.0023705 0.0037571 0.0063608 -0.0028118 0.00058859 -0.0038418 0.0016059 -0.007104 0.00090767 -0.0024791 0.0034893 0.0023052 0.0048026 0.011484 0.0011346 0.0041397 -0.006128 0.0020871 0.0095883 0.00041312 0.00061403 0.0032916 -0.0057729 -0.00096394 0.0019389 -0.0011215 0.0034129 -0.0046534 0.0015884 0.0045598 -0.0010106 -0.00044735 -0.0022549 -0.0011001 0.0028193 -0.0010898 -7.7148e-05 -0.00069348 0.0014935 -0.0013428 -0.004153 0.0005815 0.0047993 0.0071276 0.0031366 0.0071288 -0.0038301 0.0021272 -0.0036561 -0.0012265 -0.00094221 0.0013386 -0.0046056 
property 0.0016669 0.00088386 -0.003065 -0.0013166 0.0021771 0.0014694 -0.006434 0.0021768 -0.00047446 -0.0021119 -0.0020654 0.004733 -0.001025 0.0026565 -0.0070172 -0.0015425 0.0020831 0.0014648 0.00025038 -0.0038012 -0.0054352 -0.00073202 0.0026011 -0.0026478 -0.0050057 -0.00065086 -0.00030215 -0.0014467 0.00217 0.0071517 -0.0011756 0.00053025 -0.0004275 0.0016676 -0.0022712 -0.0010787 0.0022332 -0.0045449 -0.0027391 -0.0006533 -0.0028608 -0.00066603 0.00045916 -0.00037284 0.0017598 -0.002183 0.0011358 0.0013964 -0.0019604 0.00075135 -0.0033566 -0.0017529 -0.0071366 0.0038396 0.00023377 -0.0017383 -0.0032249 0.0063765 0.0043041 0.0051252 0.0080809 -0.0020155 0.0040554 -0.0021212 0.0040475 0.0039205 -0.0017003 0.0022365 0.0010449 -0.003873 0.00076609 -0.00075654 -0.00054039 0.0020532 -0.0068088 0.0025729 0.0041813 -0.0017585 -0.0015206 -0.0017832 -0.0017979 0.0011078 0.0015215 0.0021264 -0.002108 7.368e-05 0.0023904 0.0022517 -0.0029662 0.0015013 0.0045581 -0.00135 0.0060993 -0.0048987 0.001101 -0.0030171 0.00045968 -0.002023 -7.3338e-05 0.00027967 
be 0.0054213 0.0054967 -0.0046858 -0.007999 -0.0011253 0.00067783 -0.008244 0.0050628 0.0023264 0.00065654 -0.0044803 0.0021771 0.0027912 0.0030136 -0.006331 0.0041977 0.00026848 0.0037714 -9.333e-05 -3.6377e-05 -0.0039566 3.1837e-05 0.0077788 0.00024974 0.00044946 0.0012566 -0.00032785 -0.003539 -0.0008943 0.0086894 -0.0060303 -0.004165 0.00037945 0.0046573 -0.0052888 -0.0012728 0.0053206 -0.011926 -2.6364e-05 0.0044494 -0.0052697 -0.0027102 0.0064653 -0.0037217 0.0013346 -0.0019911 -0.0044548 0.0015893 -0.0036753 0.0024752 -0.00032867 -0.0014737 -0.0058109 0.0062995 -0.00045066 0.003415 -0.0050401 0.011789 0.0064109 0.0076572 0.013444 -0.0051559 0.004776 -0.0021125 0.0051848 0.0010992 -0.00046508 0.0036239 0.001597 -0.0045915 -0.00068064 -0.0020009 -0.0018536 0.0049596 -0.01158 0.0037497 0.0034149 0.0018724 -0.00042862 0.0017322 -0.0017895 -0.00087617 0.0034947 0.0025831 -0.0005647 0.010245 0.0069284 0.0040161 -0.0032496 0.0049967 0.01114 0.0082612 0.006383 -0.010423 0.00065524 -0.0056622 -0.0062022 -0.0058776 -1.7081e-06 0.0014076 
term 0.0028785 0.0017171 0.0042023 -0.00068754 0.0052036 -0.00035049 -0.0034138 0.00096943 -0.0019438 -7.0857e-06 -0.0021928 0.0012309 0.0029827 0.0015033 -0.0055697 -0.0017927 0.002924 0.0021218 -0.0021699 -0.004446 -0.0042609 0.0010628 0.00095698 -0.0029127 0.00036854 -0.00025097 0.00027804 -0.001893 0.0014477 0.0044202 -0.001463 -0.00059967 -0.00030086 0.0057717 -0.0035764 0.00013453 0.0018654 -0.0054923 -0.0013468 0.00027807 -0.0032312 -0.0011279 0.0023168 -0.0022295 0.0013168 4.9746e-05 0.0014483 -0.0025111 -0.0014241 0.00016228 -0.001901 -0.0010784 -0.0024645 0.0039316 -0.0013402 0.00025049 -0.0022767 0.0057972 0.0055089 0.0042446 0.0072832 -0.0015333 0.0010202 -0.0012351 0.0029004 0.0018802 0.0029201 0.0018671 0.001855 -0.004719 -0.00092721 -0.0018236 -0.0018072 0.0035172 -0.0064496 0.0057558 0.001976 0.0010917 0.0025121 -0.0022964 0.00043491 -0.0021327 -0.0010277 9.5258e-05 -0.0050381 0.00099268 -8.148e-05 0.0027797 -0.0038039 0.0015098 0.004369 -0.0013853 0.0047435 -0.0052158 0.0022147 -0.00092846 5.2557e-05 0.00083762 -0.00084872 -0.0011109 
an -0.00061041 0.0045599 -0.0018752 -0.0058745 0.0015869 0.0062951 -0.011522 0.008695 0.0042493 -0.0040188 -0.009866 0.0037671 0.0010135 0.0076362 -0.019431 0.0011961 0.014929 0.0041649 0.00059386 -0.003636 -0.016066 0.0033337 0.010991 -0.0069261 -0.0054082 -0.0012319 -0.0040147 0.0050703 0.0005079 0.010539 -0.0033418 0.0053649 -0.0085641 0.0093778 -0.0084867 -0.0048222 0.010789 -0.011053 -0.0018535 0.0078986 -0.01232 -0.0083569 0.0098892 -0.0049305 0.0098249 0.0040291 0.0021893 0.0083147 -0.0043647 0.0017711 -0.0047117 -0.0013846 -0.01714 0.012256 -0.0046225 -0.0035505 -0.00571 0.014173 0.012852 0.013225 0.012322 -0.00307 0.0084012 -0.0067855 0.013188 0.00030881 -0.0090547 0.0061184 0.0048925 -0.0090237 0.00096602 -0.0038998 -0.0057804 0.0066168 -0.017427 0.014987 0.010646 -0.0074625 -0.0040115 -0.0075586 -0.0011972 0.0024657 0.0049955 0.0039333 -0.010262 0.010469 0.0081879 0.010597 -0.011455 0.0069485 0.013547 0.0057923 0.010505 -0.0078359 0.0059436 -0.00069973 -0.0034471 -0.00099228 -0.0067103 -0.0084778 
by 0.0034577 0.0038246 -0.002542 -0.0047103 0.0044177 0.0034999 -0.010288 0.0026424 -0.0033024 -0.0027533 -0.0030931 0.0080688 -0.00022715 0.0021804 -0.012074 -0.00019876 0.0069609 0.002486 -0.00013281 -0.0035439 0.00050897 -0.0030898 -3.3992e-05 -0.0066914 0.0013425 -0.0032224 0.0044019 -0.0018391 0.0054821 0.0082483 0.0014819 0.0052071 0.00093543 0.0032115 0.0010664 -0.003121 0.0024766 -0.0052691 -0.000528 0.00034119 -0.001901 0.0028014 0.0031696 -0.0030405 0.0028842 -0.0045929 0.0023199 0.00052443 0.0016515 -0.0030055 0.0010622 0.00038555 -0.0079191 0.0011137 0.0010232 0.00075468 -0.0031021 0.0045294 0.0044125 0.0064835 0.0077602 -0.0015282 0.006496 0.00099269 0.0052748 0.00019798 -0.0012318 -0.000583 0.0066004 -0.0024691 0.0026182 -0.00078089 -0.0018952 0.004953 -0.011799 0.0051244 0.0032236 -0.00041924 -0.0021362 0.00054944 0.00029638 -0.0028669 0.0070337 0.0042604 -0.0065653 0.0080206 0.003571 0.0040087 -0.0068818 0.0040422 0.0068592 -0.0049929 0.00012357 -0.010261 0.0061567 -0.0045808 0.0020016 -0.0033132 0.0041994 -0.0041707 
