1750 10
the -0.561106 -1.975698 1.663955 -1.232246 0.754751 0.985764 2.261441 -0.598290 -0.474331 -1.416105
to -0.527251 -2.197760 1.836250 -1.323349 0.906303 1.060422 2.519796 -0.649221 -0.554019 -1.576732
of -0.530696 -2.128148 1.786909 -1.303477 0.824383 1.095918 2.477693 -0.594670 -0.592093 -1.559925
in -0.563600 -2.135914 1.815666 -1.265913 0.931468 1.028321 2.502441 -0.580544 -0.579898 -1.504289
and -0.590879 -2.181351 1.851085 -1.355633 0.950606 1.137951 2.605359 -0.555363 -0.581404 -1.609313
he -0.484945 -1.893047 1.388885 -0.993976 0.689943 0.846838 1.956435 -0.384549 -0.338895 -1.307870
is -0.533569 -2.061151 1.719124 -1.322006 0.813010 1.005114 2.420504 -0.610176 -0.470008 -1.584983
for -0.478865 -2.148783 1.820308 -1.332549 0.861152 1.061425 2.513180 -0.624151 -0.508928 -1.592848
on -0.584374 -2.300855 1.867821 -1.363871 0.960750 1.051601 2.654191 -0.587514 -0.624497 -1.651397
said -0.502326 -1.968597 1.645207 -1.193408 0.839117 0.998909 2.170130 -0.427732 -0.444968 -1.484214
that -0.542622 -2.022777 1.573593 -1.149224 0.855932 1.008926 2.243259 -0.472553 -0.507358 -1.362843
has -0.540118 -2.206608 1.781383 -1.296798 0.876993 1.035694 2.556706 -0.550033 -0.526745 -1.659460
says -0.592737 -2.215927 1.813446 -1.282210 0.947500 1.042418 2.490810 -0.588585 -0.549042 -1.559816
was -0.417833 -1.911063 1.560031 -1.156856 0.730287 0.980700 2.137297 -0.428958 -0.448575 -1.404332
have -0.522513 -2.053990 1.813494 -1.268915 0.892778 1.078723 2.441478 -0.484231 -0.511522 -1.604535
it -0.480845 -1.952006 1.573099 -1.164969 0.844986 0.928044 2.259890 -0.507859 -0.434243 -1.462620
be -0.483802 -1.877619 1.495397 -1.148604 0.685281 0.840473 2.124568 -0.518464 -0.495971 -1.347563
are -0.533684 -2.138987 1.786398 -1.269398 0.862170 1.143666 2.565179 -0.644235 -0.551095 -1.637086
with -0.553756 -2.199056 1.877341 -1.359951 0.896506 1.095529 2.538184 -0.547218 -0.510970 -1.598956
will -0.609240 -2.047968 1.741470 -1.281515 0.802705 1.066864 2.346272 -0.514335 -0.523266 -1.446734
at -0.608845 -2.216656 1.920017 -1.316388 0.920346 1.066860 2.607329 -0.583349 -0.543735 -1.691657
mr -0.539673 -2.021107 1.638502 -1.144847 0.745210 0.937858 2.152602 -0.592523 -0.414372 -1.455384
from -0.530066 -2.200377 1.771905 -1.275341 0.899847 1.074985 2.537240 -0.537838 -0.562543 -1.572702
by -0.593079 -2.186008 1.832554 -1.319562 0.944965 1.034045 2.486276 -0.594284 -0.514759 -1.592005
we -0.581061 -2.089075 1.638256 -1.254455 0.919176 0.987419 2.349471 -0.590048 -0.507619 -1.422220
been -0.522924 -1.753150 1.462969 -0.975274 0.820164 0.948618 1.963039 -0.422963 -0.381053 -1.235190
as -0.490195 -2.105736 1.722282 -1.262231 0.864767 1.021774 2.318274 -0.604211 -0.568559 -1.525070
an -0.522309 -2.084837 1.737343 -1.260834 0.905963 1.064426 2.434043 -0.626804 -0.532672 -1.500379
not -0.470854 -1.919725 1.552906 -1.084726 0.789776 0.889722 2.170449 -0.523070 -0.420975 -1.332174
his -0.455395 -1.992287 1.681691 -1.137287 0.831935 0.948109 2.228816 -0.577794 -0.518485 -1.454424
but -0.562462 -2.043612 1.602051 -1.200480 0.898745 0.991074 2.342204 -0.503283 -0.515180 -1.478726
they -0.532052 -1.946030 1.555590 -1.163797 0.879302 0.929683 2.239305 -0.544338 -0.432577 -1.325268
after -0.507344 -2.254312 1.902505 -1.372689 0.983450 1.068839 2.576004 -0.674838 -0.538883 -1.728441
were -0.550029 -2.084474 1.695301 -1.272843 0.857994 0.993422 2.457808 -0.524315 -0.572731 -1.534819
had -0.517368 -2.081605 1.728177 -1.220284 0.848281 1.028079 2.258132 -0.464140 -0.431852 -1.498957
there -0.423160 -1.817946 1.520623 -1.048144 0.732676 0.860930 2.075239 -0.492686 -0.389189 -1.303397
new -0.538454 -2.059183 1.800189 -1.215456 0.733658 1.014028 2.437506 -0.513672 -0.595824 -1.566371
this -0.481671 -2.016280 1.622009 -1.160069 0.863318 0.937113 2.194535 -0.574763 -0.460349 -1.493869
australia -0.499153 -1.758894 1.551488 -1.016101 0.755071 0.814267 2.072182 -0.514265 -0.419663 -1.241829
australian -0.492470 -1.910282 1.608421 -1.162572 0.845800 0.907773 2.262726 -0.491240 -0.451937 -1.455938
who -0.510828 -2.047460 1.756775 -1.215079 0.871546 1.030135 2.336690 -0.563838 -0.476389 -1.533149
people -0.513774 -1.815977 1.483763 -1.082017 0.746718 0.955177 2.170208 -0.526204 -0.475246 -1.368722
palestinian -0.478902 -1.959810 1.630973 -1.092611 0.808932 0.945725 2.105273 -0.533266 -0.518742 -1.394520
their -0.462323 -1.991121 1.734222 -1.257892 0.801494 0.982944 2.344093 -0.488269 -0.500809 -1.430562
two -0.463720 -2.121223 1.714641 -1.239769 0.834710 1.020503 2.447006 -0.567808 -0.533658 -1.530221
government -0.465224 -1.725724 1.435970 -1.072807 0.745943 0.854472 2.035866 -0.474090 -0.436079 -1.286584
up -0.529739 -1.930667 1.567383 -1.198564 0.748787 0.960668 2.202163 -0.499366 -0.442505 -1.379322
south -0.569467 -1.865514 1.714949 -1.208112 0.664826 0.876272 2.276524 -0.530346 -0.590479 -1.474642
us -0.398428 -1.834425 1.545865 -1.109162 0.759544 0.858192 2.052557 -0.446474 -0.463774 -1.248687
which -0.515777 -1.957935 1.633327 -1.210250 0.799225 1.026581 2.295995 -0.586576 -0.503441 -1.422504
year -0.561501 -1.816628 1.608325 -1.027537 0.783377 0.909076 2.165976 -0.484198 -0.514604 -1.319181
one -0.446563 -1.645507 1.404046 -1.039098 0.756647 0.846658 1.946762 -0.499061 -0.413489 -1.263054
about -0.428475 -1.866365 1.554147 -1.101748 0.812087 0.984098 2.246027 -0.493391 -0.497766 -1.461399
out -0.456314 -1.773787 1.486911 -1.049236 0.758512 0.896502 2.104046 -0.433366 -0.442388 -1.334247
if -0.473624 -2.051289 1.685709 -1.154994 0.823257 1.006866 2.341938 -0.506746 -0.530345 -1.486274
also -0.442124 -1.928195 1.647829 -1.106402 0.835976 0.957029 2.154778 -0.464278 -0.467889 -1.456125
more -0.414221 -1.754153 1.533056 -1.040832 0.799691 0.974074 2.149302 -0.472919 -0.527137 -1.358338
when -0.495015 -2.059025 1.709994 -1.192886 0.871748 0.931325 2.290879 -0.553311 -0.485067 -1.528111
its -0.462061 -1.958208 1.644113 -1.131925 0.793590 0.984297 2.261998 -0.497081 -0.504662 -1.390177
would -0.511495 -1.859126 1.565790 -1.095514 0.811015 0.970779 2.106047 -0.501706 -0.494825 -1.362926
into -0.466952 -2.058183 1.642895 -1.224130 0.818790 0.959839 2.357783 -0.591072 -0.509131 -1.469931
first -0.440733 -1.906419 1.586844 -1.181432 0.799593 0.962209 2.187679 -0.562012 -0.540215 -1.358184
last -0.515583 -1.873127 1.561463 -1.123778 0.721977 0.930758 2.197526 -0.458286 -0.483274 -1.449522
against -0.481230 -1.834604 1.515775 -1.063398 0.684828 0.939129 2.139961 -0.535657 -0.508578 -1.375679
israeli -0.405624 -1.923903 1.539534 -1.115656 0.794812 0.875201 2.074347 -0.516701 -0.540263 -1.344374
minister -0.414799 -2.096288 1.648321 -1.207322 0.859033 0.906304 2.334074 -0.531739 -0.546205 -1.547028
arafat -0.345246 -1.720869 1.385988 -0.989028 0.637242 0.803576 1.913689 -0.464493 -0.449014 -1.272684
all -0.433020 -1.628515 1.351347 -0.995462 0.700541 0.760219 1.832729 -0.455523 -0.367266 -1.141228
over -0.491679 -1.867604 1.549303 -1.163083 0.803665 0.968397 2.125482 -0.574691 -0.444214 -1.390039
afghanistan -0.360029 -1.580419 1.275551 -1.006760 0.658511 0.757811 1.857326 -0.446168 -0.323235 -1.200958
three -0.388578 -1.787350 1.432304 -1.069783 0.754974 0.808414 2.028316 -0.498342 -0.467465 -1.291816
united -0.497747 -1.503870 1.104503 -0.847622 0.729611 0.721597 1.751998 -0.415415 -0.453595 -1.083720
no -0.420351 -1.613807 1.316928 -0.959382 0.748356 0.792918 1.881722 -0.420116 -0.425333 -1.147306
world -0.505353 -1.897817 1.653682 -1.213488 0.817698 0.893299 2.198175 -0.574279 -0.522205 -1.437422
or -0.430646 -1.685820 1.419189 -0.983704 0.683881 0.831181 1.994725 -0.443795 -0.387546 -1.261047
police -0.460260 -1.692589 1.372264 -0.952135 0.664405 0.847688 1.926236 -0.405545 -0.478948 -1.240566
than -0.352351 -1.778061 1.464255 -0.914386 0.806162 0.826083 2.039869 -0.544293 -0.456411 -1.361772
before -0.472909 -2.012562 1.666428 -1.135571 0.821956 0.961294 2.237932 -0.567061 -0.452894 -1.504353
attacks -0.388784 -1.453465 1.269384 -0.874454 0.589544 0.770949 1.635066 -0.457979 -0.355424 -1.037884
fire -0.422989 -1.641733 1.402838 -0.988493 0.677864 0.829857 1.913026 -0.488994 -0.482253 -1.257018
day -0.396899 -1.440955 1.227702 -0.846289 0.629359 0.664076 1.639366 -0.363845 -0.396005 -1.092776
security -0.450493 -1.658689 1.393702 -0.928759 0.701413 0.757525 1.836851 -0.394165 -0.445602 -1.187222
some -0.377109 -1.618914 1.327679 -0.940707 0.686948 0.773682 1.837942 -0.418512 -0.416013 -1.205793
states -0.489393 -1.362221 1.202613 -0.788907 0.702868 0.756942 1.727420 -0.405627 -0.231181 -0.937317
you -0.501913 -1.829009 1.488800 -1.122745 0.793880 0.938575 2.114067 -0.567173 -0.480929 -1.358027
them -0.373836 -1.528329 1.297875 -0.932861 0.674073 0.768864 1.763239 -0.381174 -0.408084 -1.191933
could -0.453435 -1.570824 1.335999 -0.989109 0.704993 0.792506 1.842731 -0.372204 -0.403614 -1.151325
today -0.500418 -1.947487 1.570524 -1.176842 0.827005 0.953163 2.231424 -0.541005 -0.449919 -1.377008
say -0.399309 -1.542921 1.273618 -0.897716 0.641784 0.706324 1.739248 -0.393179 -0.337866 -1.138252
told -0.449943 -1.832024 1.484406 -1.101383 0.779594 0.839133 2.032284 -0.443839 -0.414238 -1.298179
now -0.437399 -1.560394 1.324709 -0.937008 0.721293 0.775571 1.879003 -0.466399 -0.340003 -1.130705
time -0.275125 -1.313897 1.049976 -0.719127 0.494420 0.661809 1.436943 -0.369847 -0.282937 -1.006157
any -0.384187 -1.625747 1.270886 -0.911924 0.641172 0.806676 1.811610 -0.466923 -0.439097 -1.191302
very -0.386297 -1.370128 1.160760 -0.857414 0.575042 0.717337 1.615334 -0.327283 -0.369656 -0.978849
laden -0.344621 -1.576331 1.155451 -1.007692 0.642083 0.749731 1.666118 -0.368285 -0.330230 -1.067752
just -0.414414 -1.423358 1.170533 -0.870281 0.571398 0.747123 1.714638 -0.404903 -0.333732 -1.072603
bin -0.312090 -1.526738 1.387577 -0.835066 0.767592 0.832407 1.667103 -0.304964 -0.254658 -1.084674
can -0.375032 -1.638270 1.354969 -0.923565 0.635431 0.836723 1.818578 -0.441536 -0.358910 -1.133255
what -0.381165 -1.432802 1.096167 -0.775353 0.562622 0.649612 1.652198 -0.366998 -0.284153 -0.974899
sydney -0.363811 -1.519500 1.302705 -0.925851 0.681368 0.830514 1.836681 -0.388083 -0.377996 -1.195811
still -0.356770 -1.469901 1.254464 -0.889541 0.627936 0.711018 1.706929 -0.437357 -0.405090 -1.105430
president -0.386143 -1.488993 1.238580 -0.907770 0.614053 0.705477 1.743608 -0.452338 -0.408041 -1.127133
company -0.341730 -1.450643 1.270404 -0.861951 0.658145 0.787102 1.714895 -0.345269 -0.384325 -1.116558
four -0.413691 -1.618349 1.395170 -0.912725 0.711798 0.848925 1.885603 -0.397421 -0.454887 -1.182995
man -0.214872 -0.998784 0.793763 -0.572851 0.369120 0.440150 1.178729 -0.216232 -0.187690 -0.760427
killed -0.321486 -1.196360 0.923151 -0.618571 0.506757 0.605485 1.360462 -0.301220 -0.276358 -0.825739
taliban -0.385432 -1.497374 1.259799 -0.899850 0.612073 0.766432 1.800512 -0.420733 -0.327119 -1.097409
al -0.419399 -1.430481 1.196450 -0.753787 0.617735 0.655746 1.607363 -0.311437 -0.255053 -0.954653
our -0.396814 -1.440529 1.224821 -0.812340 0.633129 0.738198 1.588111 -0.386380 -0.319863 -1.086426
forces -0.307883 -1.308496 1.117205 -0.773161 0.559372 0.642020 1.512760 -0.313578 -0.362904 -0.955220
around -0.359058 -1.466777 1.242389 -0.873610 0.571344 0.728403 1.693818 -0.340109 -0.358281 -1.082798
days -0.354631 -1.363082 1.146538 -0.778193 0.619257 0.730274 1.550650 -0.418503 -0.401824 -1.037255
being -0.321188 -1.363746 1.171638 -0.796420 0.579271 0.620455 1.562813 -0.327262 -0.320585 -0.958383
west -0.271450 -1.258479 0.975920 -0.758104 0.546152 0.539886 1.347518 -0.300519 -0.376075 -0.912010
old -0.259717 -1.289796 1.084873 -0.676488 0.555949 0.605172 1.486926 -0.372797 -0.256299 -1.013517
other -0.350459 -1.434809 1.146921 -0.834166 0.617154 0.674557 1.577048 -0.385438 -0.361621 -1.005428
where -0.335534 -1.526945 1.255480 -0.839223 0.679859 0.714208 1.694285 -0.377088 -0.391199 -1.075185
so -0.385417 -1.311139 1.105388 -0.818124 0.600645 0.697241 1.508908 -0.332767 -0.303173 -0.940896
officials -0.380877 -1.426681 1.094100 -0.822616 0.589518 0.623474 1.596315 -0.310431 -0.324708 -1.030949
test -0.379074 -1.392794 1.234605 -0.850022 0.518439 0.633610 1.567823 -0.357208 -0.370313 -1.082426
israel -0.270129 -1.226642 1.033826 -0.672052 0.459215 0.541290 1.442619 -0.292687 -0.332294 -0.868665
qaeda -0.375986 -1.234604 1.141918 -0.766251 0.608779 0.691513 1.438984 -0.341092 -0.357193 -0.926495
per -0.368808 -1.199117 1.053213 -0.777373 0.508500 0.497214 1.388468 -0.242853 -0.329218 -0.959306
think -0.327483 -1.375581 1.205755 -0.889430 0.615330 0.751352 1.633887 -0.420333 -0.296817 -0.998126
federal -0.343096 -1.152800 0.959947 -0.656507 0.423378 0.524729 1.359305 -0.317000 -0.329368 -0.800409
next -0.334192 -1.245512 1.066502 -0.795209 0.552173 0.573507 1.428012 -0.322583 -0.347335 -0.987112
general -0.450072 -1.647073 1.250128 -0.960329 0.627990 0.816349 1.850125 -0.390906 -0.449061 -1.133075
force -0.370846 -1.323892 1.073323 -0.790425 0.490988 0.581068 1.442991 -0.336076 -0.364084 -0.985111
she -0.284567 -1.147369 0.927938 -0.692558 0.533706 0.589437 1.312165 -0.308676 -0.240164 -0.832145
cent -0.311812 -1.298963 1.196462 -0.826771 0.490453 0.571976 1.619593 -0.343158 -0.283716 -0.989201
yesterday -0.376733 -1.418721 1.169945 -0.794595 0.534680 0.621805 1.615452 -0.380210 -0.394655 -1.057215
leader -0.251750 -1.250838 0.997233 -0.641675 0.448230 0.523862 1.300020 -0.379225 -0.284308 -0.888026
workers -0.320663 -1.440290 1.204955 -0.873259 0.524386 0.693240 1.652588 -0.385144 -0.395383 -1.023306
hamas -0.334912 -1.436982 1.145912 -0.843520 0.613629 0.666600 1.624202 -0.334507 -0.348067 -1.022763
take -0.234698 -1.076248 0.956076 -0.666971 0.409781 0.516662 1.326064 -0.311806 -0.300558 -0.821106
under -0.305203 -1.384498 1.125767 -0.847202 0.521137 0.628639 1.572289 -0.412791 -0.344804 -1.063598
him -0.295856 -1.123627 0.978468 -0.672081 0.481036 0.586786 1.275093 -0.344555 -0.293790 -0.790536
state -0.388244 -1.329631 1.086277 -0.840998 0.516874 0.682280 1.535525 -0.414862 -0.383547 -0.965158
meeting -0.258304 -1.185843 1.024762 -0.671557 0.466424 0.592611 1.331331 -0.312038 -0.322731 -0.857962
back -0.261767 -1.131964 0.929050 -0.723446 0.488294 0.592045 1.300221 -0.289404 -0.309227 -0.783068
bank -0.379908 -1.240102 1.008409 -0.722661 0.560251 0.612472 1.485229 -0.303852 -0.304761 -0.932472
years -0.210056 -1.119857 0.930649 -0.643725 0.401531 0.591203 1.239830 -0.299745 -0.289748 -0.849143
suicide -0.357768 -1.302560 1.069463 -0.765605 0.506688 0.668577 1.508584 -0.320047 -0.358381 -0.991051
those -0.325831 -1.171401 0.973631 -0.730101 0.484327 0.594092 1.384157 -0.306773 -0.266031 -0.827122
made -0.306263 -1.224705 1.102905 -0.703622 0.503015 0.673296 1.461993 -0.307586 -0.337580 -0.981391
action -0.276168 -1.183569 0.998800 -0.694220 0.554381 0.587749 1.388143 -0.349393 -0.293878 -0.929585
down -0.332005 -1.351154 1.060260 -0.782650 0.563334 0.621671 1.542823 -0.381040 -0.294724 -0.918590
morning -0.313228 -1.219161 0.921578 -0.676924 0.433332 0.591555 1.317893 -0.247391 -0.270849 -0.794298
commission -0.375196 -1.300104 1.067615 -0.744476 0.534384 0.687895 1.528298 -0.348700 -0.328827 -0.959454
pakistan -0.288995 -1.315384 1.115850 -0.769691 0.511162 0.610998 1.490850 -0.359562 -0.312454 -0.938484
re -0.286864 -1.235409 1.047907 -0.744669 0.520072 0.620624 1.408416 -0.337902 -0.261970 -0.927778
international -0.396776 -1.490271 1.191410 -0.811542 0.620233 0.662254 1.647190 -0.342467 -0.375072 -1.065285
attack -0.306988 -1.351203 1.043537 -0.720886 0.581023 0.656207 1.461243 -0.322488 -0.312205 -0.917232
afghan -0.313540 -1.301242 1.100387 -0.734311 0.531417 0.635421 1.487623 -0.295805 -0.361391 -0.891079
group -0.295653 -1.389647 1.084085 -0.804065 0.615108 0.696701 1.585530 -0.383662 -0.316048 -1.031765
city -0.335058 -1.217442 1.000497 -0.761960 0.531240 0.588185 1.456333 -0.347765 -0.299393 -0.926083
centre -0.283194 -1.261941 0.997608 -0.785982 0.512926 0.565025 1.440394 -0.311940 -0.351126 -0.917143
military -0.320844 -1.379213 1.176731 -0.782869 0.605036 0.698712 1.576970 -0.385063 -0.356606 -1.029990
well -0.283250 -0.990211 0.865036 -0.570908 0.451134 0.478545 1.156927 -0.298539 -0.242032 -0.768512
number -0.227899 -1.004549 0.838760 -0.563232 0.409374 0.462051 1.181108 -0.262225 -0.299123 -0.669510
members -0.349252 -1.261974 1.042548 -0.733077 0.566029 0.633625 1.505203 -0.319195 -0.337881 -0.937463
through -0.358187 -1.358360 1.099082 -0.804211 0.556132 0.668374 1.475572 -0.311958 -0.338355 -0.946158
while -0.285940 -1.346138 1.130622 -0.781420 0.596727 0.599532 1.562321 -0.314481 -0.379757 -0.990417
qantas -0.282638 -1.194128 0.972770 -0.653967 0.498369 0.617865 1.399176 -0.288152 -0.316463 -0.837082
area -0.204981 -1.058536 0.838469 -0.630246 0.404308 0.491767 1.143785 -0.251039 -0.226784 -0.760810
called -0.316434 -1.136007 0.969087 -0.632085 0.452502 0.500423 1.268065 -0.320020 -0.242070 -0.847817
five -0.296766 -1.337958 1.143101 -0.801238 0.530432 0.614060 1.506600 -0.332800 -0.286631 -0.918354
local -0.380718 -1.334504 1.105779 -0.762122 0.585487 0.612286 1.527893 -0.350849 -0.323863 -1.039509
national -0.300401 -1.224531 1.051414 -0.747320 0.464461 0.615036 1.428813 -0.356175 -0.289086 -0.934329
union -0.336567 -1.315755 1.130532 -0.841319 0.515645 0.620247 1.592858 -0.342299 -0.314410 -0.944859
gaza -0.259760 -1.223135 1.019833 -0.731295 0.486333 0.567464 1.378724 -0.340567 -0.343851 -0.869637
week -0.250534 -1.061380 0.893655 -0.604451 0.393347 0.572684 1.260171 -0.268650 -0.322210 -0.763558
since -0.361502 -1.238109 1.012320 -0.699849 0.516137 0.650253 1.457085 -0.310900 -0.344487 -0.944908
september -0.201861 -0.808484 0.698514 -0.501897 0.280545 0.393317 0.946548 -0.210290 -0.189495 -0.566229
including -0.355072 -1.357549 1.136182 -0.786769 0.501279 0.651802 1.501845 -0.343704 -0.321162 -0.989605
wales -0.249726 -0.881505 0.885589 -0.597738 0.352830 0.488472 1.144109 -0.316171 -0.275639 -0.668023
hours -0.262223 -1.202743 0.958355 -0.640299 0.464704 0.586529 1.323248 -0.349369 -0.342044 -0.855894
east -0.276569 -1.215027 1.000548 -0.682151 0.493327 0.596614 1.371228 -0.361378 -0.257273 -0.841227
another -0.248676 -1.076173 0.852076 -0.598598 0.420069 0.499249 1.164406 -0.242829 -0.253590 -0.773462
should -0.279549 -1.047219 0.868043 -0.650924 0.465879 0.530185 1.188719 -0.306721 -0.228727 -0.791984
report -0.281168 -1.090024 0.861717 -0.631010 0.443751 0.486935 1.273653 -0.251717 -0.259439 -0.780573
night -0.356621 -1.256970 1.030205 -0.734425 0.506297 0.620348 1.424694 -0.329461 -0.326301 -0.944881
north -0.234723 -1.107444 0.906450 -0.694247 0.477012 0.503828 1.328535 -0.308130 -0.306049 -0.861190
off -0.307098 -1.104640 0.955391 -0.660325 0.473463 0.512806 1.306202 -0.317393 -0.240216 -0.851681
these -0.301139 -1.058437 0.848486 -0.591618 0.450411 0.547739 1.207124 -0.300701 -0.197437 -0.739497
six -0.325895 -1.192828 1.003281 -0.693850 0.520859 0.548668 1.331393 -0.351460 -0.323955 -0.817155
war -0.233091 -0.807890 0.701570 -0.478924 0.317644 0.407227 1.018343 -0.221142 -0.194418 -0.655940
second -0.279574 -1.360919 1.119361 -0.822641 0.512582 0.635458 1.532773 -0.332055 -0.302109 -0.978328
between -0.257842 -1.185290 1.059014 -0.782733 0.521179 0.647543 1.393958 -0.304660 -0.270972 -0.877534
staff -0.237969 -0.999230 0.788301 -0.598363 0.413170 0.471755 1.130571 -0.214070 -0.269753 -0.742358
get -0.261616 -1.086570 0.938356 -0.638840 0.482871 0.518014 1.233938 -0.268307 -0.292557 -0.857221
earlier -0.296441 -1.227131 0.964310 -0.656224 0.442539 0.599368 1.383130 -0.264318 -0.259360 -0.818000
go -0.245815 -1.035076 0.832932 -0.609744 0.381988 0.502155 1.241518 -0.284815 -0.258698 -0.767041
months -0.253554 -1.153556 0.954366 -0.647214 0.494562 0.568795 1.304289 -0.334683 -0.316655 -0.767346
further -0.245554 -1.023207 0.860735 -0.601829 0.402840 0.485212 1.243720 -0.303155 -0.300910 -0.720828
islamic -0.280498 -1.357418 1.099574 -0.783095 0.537292 0.612785 1.567460 -0.339300 -0.376835 -1.029707
defence -0.196262 -1.005215 0.846838 -0.534039 0.445167 0.440684 1.083190 -0.236070 -0.256294 -0.713512
end -0.227661 -0.895619 0.730794 -0.512128 0.324786 0.393013 0.936769 -0.250330 -0.235874 -0.618401
do -0.250558 -0.893453 0.706259 -0.543586 0.324578 0.447182 1.047005 -0.197114 -0.190298 -0.621091
because -0.223786 -1.129220 0.901769 -0.621694 0.462247 0.519158 1.262650 -0.274518 -0.257082 -0.850237
power -0.271014 -1.170347 0.933285 -0.668922 0.518308 0.546120 1.341506 -0.276417 -0.238260 -0.820110
team -0.224609 -1.005186 0.834790 -0.609042 0.415962 0.482635 1.125951 -0.283693 -0.266290 -0.776720
authority -0.217503 -0.954993 0.771067 -0.569548 0.356863 0.432760 1.118532 -0.259198 -0.241387 -0.709036
near -0.344179 -1.203787 1.057811 -0.760058 0.526816 0.600201 1.412610 -0.293121 -0.355735 -0.925160
foreign -0.268304 -1.118068 1.008605 -0.662184 0.417926 0.576128 1.333945 -0.282772 -0.233014 -0.873071
going -0.186162 -0.864073 0.747629 -0.476339 0.310500 0.426714 0.982648 -0.278807 -0.220408 -0.640915
areas -0.268792 -1.115939 0.949471 -0.701040 0.448527 0.592475 1.302105 -0.276680 -0.267647 -0.880313
sharon -0.216100 -1.022288 0.861766 -0.601086 0.410795 0.469483 1.211323 -0.316264 -0.227290 -0.809672
work -0.192742 -0.850821 0.703787 -0.462866 0.373951 0.454426 0.931034 -0.250640 -0.203872 -0.646223
during -0.266423 -1.160401 0.959546 -0.739312 0.485437 0.597001 1.320173 -0.319492 -0.262611 -0.871192
india -0.213029 -0.962092 0.796821 -0.594223 0.364655 0.476775 1.026729 -0.294451 -0.203129 -0.711760
eight -0.263953 -1.132688 0.908542 -0.642104 0.409019 0.577651 1.287661 -0.291582 -0.302283 -0.795544
only -0.238184 -1.042784 0.823965 -0.633112 0.390318 0.489693 1.138806 -0.226235 -0.234237 -0.778255
died -0.282871 -1.072991 0.880767 -0.593963 0.449147 0.511411 1.181807 -0.260079 -0.301109 -0.740106
many -0.215168 -0.967340 0.779898 -0.592088 0.353136 0.421483 1.100086 -0.257199 -0.228626 -0.661086
way -0.180074 -0.766131 0.721977 -0.518665 0.344025 0.395934 0.928193 -0.255448 -0.224396 -0.643363
month -0.259066 -1.103483 0.888982 -0.712918 0.470639 0.597449 1.279235 -0.331966 -0.234517 -0.884267
know -0.206313 -0.946482 0.778209 -0.592682 0.454493 0.455541 1.093375 -0.271438 -0.178532 -0.749863
former -0.264567 -1.009117 0.829207 -0.662643 0.444511 0.503424 1.220435 -0.300283 -0.247745 -0.766747
air -0.297277 -1.067270 0.884353 -0.574778 0.482171 0.560811 1.219264 -0.323316 -0.309082 -0.808906
claims -0.230812 -0.972800 0.799552 -0.543424 0.344127 0.461889 1.022732 -0.240075 -0.248507 -0.728407
match -0.204585 -0.965076 0.805050 -0.563705 0.368336 0.444095 1.060939 -0.238876 -0.257508 -0.642190
melbourne -0.271135 -1.034726 0.929329 -0.643517 0.469246 0.540514 1.265372 -0.266663 -0.241572 -0.770601
good -0.195659 -0.815715 0.673670 -0.544196 0.395166 0.404428 0.973283 -0.217670 -0.195984 -0.576306
left -0.248221 -1.044755 0.890900 -0.632720 0.476813 0.496606 1.139914 -0.317698 -0.252355 -0.789864
metres -0.239482 -1.129196 0.934753 -0.649122 0.442144 0.523802 1.317568 -0.290308 -0.341939 -0.816417
ve -0.269015 -0.898979 0.739927 -0.476662 0.349349 0.488480 1.019609 -0.270977 -0.166116 -0.670780
northern -0.220112 -1.013003 0.878212 -0.568918 0.475597 0.530884 1.174484 -0.315358 -0.276805 -0.723048
spokesman -0.232672 -0.893316 0.716584 -0.546855 0.322493 0.453639 0.984321 -0.224626 -0.220493 -0.663007
make -0.266296 -1.034596 0.911360 -0.628623 0.401053 0.464308 1.172238 -0.308599 -0.291117 -0.730672
prime -0.262980 -0.904164 0.825645 -0.469433 0.331486 0.455509 1.002315 -0.229342 -0.158865 -0.723779
most -0.246126 -1.032940 0.913677 -0.623852 0.484539 0.527498 1.287657 -0.302610 -0.259152 -0.792750
like -0.227842 -0.855437 0.737776 -0.531129 0.349180 0.455838 1.007200 -0.197834 -0.165002 -0.640993
support -0.202358 -0.812520 0.652875 -0.423841 0.315945 0.406143 0.857727 -0.233964 -0.195452 -0.629203
osama -0.193476 -1.104993 0.865730 -0.666126 0.437999 0.496778 1.193970 -0.265027 -0.260431 -0.775578
peace -0.289336 -0.980694 0.852283 -0.562487 0.366471 0.458290 1.160624 -0.273371 -0.220578 -0.758748
authorities -0.197127 -0.968298 0.779195 -0.538976 0.361558 0.477521 1.116741 -0.258401 -0.211068 -0.698663
set -0.260611 -1.035028 0.884122 -0.635111 0.440373 0.450472 1.159055 -0.278892 -0.246439 -0.754209
ago -0.239123 -1.000411 0.854125 -0.584443 0.466737 0.478767 1.221106 -0.302078 -0.208206 -0.720889
am -0.246695 -1.130821 0.877521 -0.620446 0.437360 0.523612 1.249243 -0.282284 -0.276916 -0.762683
given -0.274503 -0.864232 0.746050 -0.561649 0.383096 0.457183 1.012809 -0.205637 -0.247853 -0.661610
expected -0.258818 -0.842991 0.664650 -0.451999 0.309477 0.368091 0.972146 -0.273331 -0.191336 -0.590634
saying -0.220168 -0.888097 0.720211 -0.554285 0.402869 0.491443 1.031874 -0.289979 -0.250253 -0.727330
come -0.187858 -0.817482 0.698853 -0.462718 0.309782 0.396118 0.945293 -0.232268 -0.215515 -0.557956
place -0.213789 -0.844864 0.697019 -0.504153 0.388510 0.476756 1.007011 -0.224836 -0.241509 -0.629129
militants -0.228082 -0.873438 0.739653 -0.519635 0.343597 0.463414 0.981280 -0.291841 -0.283443 -0.635373
put -0.272252 -0.873730 0.703307 -0.521979 0.390773 0.490339 1.005372 -0.286898 -0.238683 -0.713445
tora -0.263330 -1.038276 0.788157 -0.558726 0.420431 0.545153 1.194520 -0.329675 -0.272132 -0.712516
bora -0.264105 -1.056796 0.870426 -0.599572 0.461202 0.462861 1.164847 -0.214756 -0.245726 -0.774546
looking -0.185430 -0.818713 0.754371 -0.498159 0.366237 0.408614 1.026325 -0.244696 -0.256274 -0.585421
several -0.267136 -1.060678 0.895489 -0.565142 0.408958 0.459284 1.126035 -0.227150 -0.295560 -0.718623
fighters -0.201266 -0.897032 0.729086 -0.566194 0.380438 0.419422 1.086521 -0.197557 -0.190433 -0.692885
children -0.253408 -0.938738 0.787665 -0.605463 0.447279 0.439367 1.106492 -0.284025 -0.276949 -0.699694
troops -0.167058 -0.822634 0.657138 -0.519188 0.296539 0.371102 0.937544 -0.263817 -0.216362 -0.576012
meanwhile -0.218564 -0.912826 0.794924 -0.522157 0.409368 0.419530 1.067999 -0.209329 -0.218170 -0.650971
indian -0.178735 -0.847314 0.697964 -0.462768 0.342345 0.398321 0.901690 -0.177089 -0.173249 -0.571989
unions -0.272496 -0.922947 0.769516 -0.508590 0.416634 0.420841 1.040718 -0.206823 -0.207718 -0.707534
groups -0.261746 -0.923138 0.787615 -0.576552 0.383736 0.419270 1.000061 -0.286879 -0.208429 -0.702435
africa -0.149272 -0.759962 0.677464 -0.459987 0.281660 0.353853 0.877217 -0.199833 -0.250391 -0.557130
child -0.225040 -1.037338 0.827017 -0.627102 0.380025 0.464679 1.185670 -0.271630 -0.217714 -0.745404
christmas -0.187505 -0.869350 0.682880 -0.457603 0.391494 0.447269 0.965791 -0.236374 -0.242488 -0.653047
arrested -0.219406 -0.683611 0.539054 -0.366595 0.312096 0.353746 0.837790 -0.193430 -0.181402 -0.507370
river -0.241193 -0.778615 0.644135 -0.424269 0.331736 0.340953 0.882922 -0.182720 -0.170684 -0.582733
royal -0.239223 -0.911414 0.765100 -0.572827 0.423140 0.414371 1.053965 -0.285101 -0.235054 -0.690698
injured -0.174098 -0.790578 0.567372 -0.458550 0.352514 0.319501 0.892378 -0.176520 -0.219877 -0.577473
found -0.146939 -0.752124 0.686888 -0.482947 0.325256 0.432574 0.889163 -0.212394 -0.187456 -0.537339
then -0.247190 -0.958783 0.860620 -0.582166 0.384123 0.525623 1.163324 -0.257852 -0.233441 -0.725977
talks -0.298650 -1.016091 0.905980 -0.573200 0.437515 0.539841 1.128779 -0.262210 -0.271990 -0.721414
yasser -0.174993 -0.865649 0.643623 -0.465916 0.254342 0.425617 0.860229 -0.263475 -0.163016 -0.563826
hospital -0.233529 -0.947078 0.756232 -0.554647 0.343323 0.442647 1.041837 -0.221633 -0.202729 -0.706195
terrorist -0.195456 -0.703002 0.629500 -0.471869 0.297326 0.349088 0.847919 -0.178445 -0.214240 -0.568164
interim -0.156889 -0.742086 0.658869 -0.476512 0.258905 0.370580 0.811708 -0.195346 -0.177790 -0.531036
official -0.270671 -0.956596 0.842294 -0.554099 0.385778 0.436158 1.091666 -0.306409 -0.246211 -0.725461
part -0.160612 -0.812301 0.606256 -0.422579 0.267948 0.355095 0.916340 -0.169781 -0.214661 -0.577186
whether -0.240995 -1.006158 0.784356 -0.618085 0.406541 0.448762 1.203493 -0.309017 -0.232276 -0.761605
reports -0.173210 -0.836708 0.608080 -0.509940 0.311178 0.433668 0.911913 -0.163668 -0.179911 -0.627231
economy -0.215685 -0.819370 0.642035 -0.491290 0.317455 0.340688 0.912481 -0.203578 -0.226603 -0.543323
early -0.129790 -0.693326 0.516718 -0.377469 0.228723 0.365211 0.749195 -0.206399 -0.182027 -0.472487
don -0.214566 -0.828587 0.737314 -0.522227 0.309975 0.462117 0.974755 -0.220614 -0.219072 -0.643294
third -0.213413 -1.005650 0.840665 -0.626374 0.438346 0.532065 1.172958 -0.299849 -0.242098 -0.714650
leaders -0.181236 -0.881325 0.701218 -0.494002 0.344877 0.381966 0.980926 -0.276278 -0.260235 -0.671099
statement -0.222535 -0.922248 0.819914 -0.581890 0.433049 0.456386 1.046203 -0.252305 -0.254081 -0.678062
industrial -0.275439 -1.037571 0.816288 -0.564329 0.395337 0.463103 1.135543 -0.299539 -0.270172 -0.726151
how -0.249302 -0.923224 0.822746 -0.523817 0.374856 0.487647 1.027964 -0.245405 -0.218578 -0.701198
terrorism -0.238201 -0.797478 0.690542 -0.430063 0.338497 0.408700 0.897083 -0.181883 -0.236985 -0.621054
mountains -0.193350 -0.879298 0.745159 -0.502162 0.333631 0.387404 1.005368 -0.227701 -0.182962 -0.594459
start -0.179366 -0.756897 0.641401 -0.494428 0.332471 0.402258 0.898823 -0.221535 -0.163059 -0.565350
senior -0.230807 -0.893230 0.746228 -0.526238 0.333925 0.425450 1.068920 -0.266576 -0.205295 -0.682182
family -0.233370 -0.740554 0.652984 -0.440859 0.270501 0.387833 0.889414 -0.199225 -0.153952 -0.612650
both -0.201999 -0.910684 0.787684 -0.571011 0.410229 0.474315 1.081785 -0.265990 -0.204134 -0.687301
public -0.250302 -0.901907 0.678787 -0.527389 0.353988 0.385797 0.955544 -0.227629 -0.232063 -0.664687
million -0.152404 -0.699886 0.545884 -0.379470 0.269199 0.288076 0.807949 -0.214160 -0.199113 -0.552113
weather -0.246689 -0.894796 0.802394 -0.495758 0.398137 0.443776 1.036045 -0.208967 -0.179179 -0.687841
john -0.194959 -0.828400 0.685068 -0.483361 0.289026 0.457224 0.976550 -0.263083 -0.195932 -0.615951
believe -0.152627 -0.645728 0.514486 -0.363607 0.334007 0.294371 0.756937 -0.195035 -0.152204 -0.450265
radio -0.204357 -0.913713 0.739561 -0.506339 0.344713 0.452865 0.981100 -0.217071 -0.260698 -0.634217
pay -0.240172 -0.797876 0.739061 -0.474403 0.325485 0.401675 0.979900 -0.198348 -0.212676 -0.670551
trying -0.160527 -0.795866 0.611494 -0.490022 0.327943 0.358830 0.805570 -0.186011 -0.227647 -0.534979
army -0.164937 -0.529745 0.416466 -0.349885 0.233867 0.223471 0.649876 -0.166494 -0.126349 -0.389712
court -0.222007 -0.921345 0.717204 -0.555274 0.396534 0.447270 1.074083 -0.194418 -0.175427 -0.642538
hit -0.197715 -0.919533 0.680763 -0.495285 0.393183 0.466165 0.994258 -0.260029 -0.231980 -0.612557
pressure -0.205257 -0.742101 0.588509 -0.434712 0.302833 0.353459 0.805023 -0.249196 -0.233543 -0.583266
however -0.187049 -0.801211 0.579909 -0.442442 0.267819 0.363182 0.851880 -0.200821 -0.160517 -0.508012
lead -0.135216 -0.746400 0.664348 -0.453353 0.257137 0.350320 0.891181 -0.180275 -0.183262 -0.559635
chief -0.278896 -1.055595 0.930662 -0.646777 0.427646 0.490368 1.200234 -0.292722 -0.305640 -0.800115
asked -0.178353 -0.839942 0.710473 -0.481455 0.373575 0.367525 0.953392 -0.200641 -0.179222 -0.559648
control -0.221781 -0.652670 0.562089 -0.436586 0.247221 0.379698 0.784091 -0.177777 -0.179062 -0.518810
long -0.221359 -0.944881 0.824903 -0.620971 0.400359 0.506365 1.107527 -0.285561 -0.198691 -0.725354
best -0.099826 -0.585175 0.535182 -0.334289 0.240684 0.332000 0.654912 -0.113923 -0.190774 -0.489576
following -0.206662 -0.972392 0.814340 -0.536494 0.426822 0.444616 1.123247 -0.238473 -0.234370 -0.731519
agreement -0.209004 -0.829636 0.778534 -0.548503 0.399869 0.474490 1.021462 -0.269950 -0.177113 -0.625607
help -0.207686 -0.927396 0.699031 -0.512666 0.363520 0.409529 1.015585 -0.256058 -0.204692 -0.673503
adelaide -0.167494 -0.826636 0.663846 -0.469624 0.384587 0.456684 0.937307 -0.226483 -0.162432 -0.671198
dr -0.271084 -1.025369 0.784563 -0.521300 0.423855 0.420711 1.085619 -0.287374 -0.263709 -0.690190
few -0.203613 -0.667226 0.522023 -0.361640 0.306033 0.360079 0.769322 -0.142857 -0.189681 -0.470205
labor -0.225005 -0.858336 0.701173 -0.497202 0.362363 0.388238 0.918145 -0.176642 -0.156307 -0.582453
australians -0.208859 -0.683123 0.640072 -0.390465 0.269766 0.349223 0.893303 -0.219605 -0.178030 -0.568327
firefighters -0.207921 -0.705106 0.556229 -0.459582 0.304443 0.341800 0.759384 -0.204758 -0.187429 -0.490206
high -0.205209 -0.902690 0.811257 -0.578862 0.435558 0.425414 1.033122 -0.295433 -0.269757 -0.652091
house -0.201559 -0.816856 0.633490 -0.453986 0.327941 0.333303 0.933632 -0.262472 -0.157896 -0.578448
community -0.223193 -0.782472 0.628417 -0.454305 0.307777 0.376780 0.913084 -0.234473 -0.185629 -0.563800
taken -0.215270 -0.752823 0.637829 -0.385093 0.272427 0.391355 0.821897 -0.212838 -0.146745 -0.525576
want -0.162281 -0.862663 0.672331 -0.438147 0.318074 0.432714 0.989991 -0.176210 -0.246066 -0.640847
close -0.188313 -0.786535 0.669806 -0.466392 0.265792 0.353432 0.887313 -0.208791 -0.167217 -0.593048
confirmed -0.180767 -0.692955 0.542142 -0.406834 0.328620 0.397035 0.775264 -0.182461 -0.207033 -0.557527
need -0.214552 -0.665439 0.565181 -0.391692 0.289564 0.363741 0.843872 -0.211996 -0.184614 -0.499317
queensland -0.201727 -0.876072 0.757786 -0.539423 0.416898 0.495052 1.084813 -0.226511 -0.263376 -0.680876
service -0.237275 -0.900830 0.729559 -0.499786 0.324589 0.467644 1.004238 -0.253986 -0.261098 -0.696364
arrest -0.144160 -0.735980 0.640894 -0.451384 0.282883 0.344226 0.902272 -0.236529 -0.220557 -0.534824
services -0.220727 -0.910385 0.784554 -0.533525 0.354832 0.452937 1.111989 -0.220411 -0.250320 -0.717922
better -0.235930 -0.785277 0.638514 -0.450452 0.316383 0.370332 0.897831 -0.188962 -0.240043 -0.505563
play -0.202025 -0.818387 0.651595 -0.453190 0.314112 0.433992 0.963765 -0.244194 -0.213376 -0.557119
overnight -0.276953 -0.879086 0.775439 -0.532306 0.347415 0.437114 1.034565 -0.267376 -0.267365 -0.701171
process -0.176667 -0.658596 0.566478 -0.413088 0.262776 0.328435 0.691949 -0.162445 -0.153189 -0.455503
does -0.137349 -0.673678 0.585626 -0.436964 0.268087 0.341672 0.825525 -0.173807 -0.145505 -0.482353
came -0.234499 -0.730820 0.674557 -0.465993 0.265748 0.380819 0.923383 -0.203715 -0.206436 -0.565599
must -0.171408 -0.773432 0.703334 -0.453227 0.290175 0.369614 0.920670 -0.255137 -0.245622 -0.630595
believed -0.118331 -0.509209 0.440953 -0.317047 0.250588 0.302570 0.605244 -0.173779 -0.138520 -0.403616
information -0.221900 -0.838068 0.715648 -0.517626 0.333579 0.384755 0.960164 -0.217250 -0.211677 -0.557245
opposition -0.193627 -0.606044 0.574451 -0.409922 0.261076 0.271858 0.663574 -0.128514 -0.111923 -0.504838
detainees -0.190776 -0.841389 0.714756 -0.462566 0.350378 0.440882 0.909874 -0.246005 -0.251907 -0.582276
secretary -0.208303 -0.963151 0.800510 -0.524206 0.425367 0.501522 1.088708 -0.287905 -0.232910 -0.676973
williams -0.196672 -0.717537 0.551750 -0.393375 0.275966 0.293314 0.755526 -0.153056 -0.180200 -0.506249
won -0.212738 -0.898779 0.719668 -0.522029 0.394823 0.447176 0.980752 -0.230923 -0.186618 -0.672309
took -0.166213 -0.661621 0.579561 -0.371173 0.336449 0.326163 0.858980 -0.211329 -0.232043 -0.551703
held -0.165271 -0.701978 0.634466 -0.466533 0.313335 0.382987 0.808720 -0.151980 -0.224643 -0.526698
released -0.179012 -0.646395 0.520007 -0.425965 0.253233 0.369350 0.771496 -0.150252 -0.167561 -0.494465
win -0.163806 -0.831193 0.707742 -0.492342 0.370950 0.426639 0.933050 -0.170210 -0.240863 -0.578331
accused -0.117087 -0.672258 0.581795 -0.406980 0.252748 0.261561 0.670299 -0.156097 -0.121584 -0.478150
damage -0.230322 -0.742407 0.608552 -0.424014 0.310603 0.393964 0.866955 -0.232972 -0.203557 -0.527993
brought -0.125759 -0.562152 0.484093 -0.347067 0.211642 0.251025 0.692503 -0.151432 -0.175790 -0.414729
governor -0.213930 -0.724302 0.611504 -0.447387 0.259302 0.329626 0.814878 -0.247941 -0.198897 -0.543729
maintenance -0.228078 -0.805107 0.715764 -0.465210 0.289708 0.343758 0.878780 -0.260539 -0.197611 -0.583322
did -0.169347 -0.731677 0.626442 -0.457831 0.324558 0.347269 0.845057 -0.183801 -0.166077 -0.545788
british -0.209240 -0.757701 0.640955 -0.492236 0.354881 0.366308 0.939415 -0.223845 -0.227160 -0.553043
much -0.149812 -0.726538 0.570625 -0.465909 0.282488 0.340303 0.862454 -0.242700 -0.195723 -0.556597
hicks -0.204734 -0.669993 0.500097 -0.385292 0.234411 0.332538 0.677420 -0.202637 -0.153178 -0.431112
shot -0.127855 -0.622314 0.543794 -0.370205 0.252748 0.345824 0.653242 -0.158282 -0.156185 -0.405368
nations -0.234438 -0.674326 0.639599 -0.381686 0.330016 0.329097 0.834357 -0.180520 -0.152632 -0.557727
possible -0.166227 -0.657619 0.507170 -0.426907 0.306525 0.347872 0.807038 -0.164577 -0.203779 -0.476679
her -0.218652 -0.683607 0.572418 -0.422964 0.272832 0.317738 0.837587 -0.220380 -0.186363 -0.533294
party -0.208635 -0.752701 0.604368 -0.486018 0.349324 0.313614 0.801217 -0.164973 -0.160675 -0.510650
pentagon -0.195794 -0.571102 0.494565 -0.352140 0.277344 0.282259 0.697796 -0.165931 -0.094363 -0.394784
peter -0.195716 -0.965280 0.788352 -0.611323 0.430026 0.442834 1.177645 -0.300635 -0.243830 -0.699939
building -0.184685 -0.872877 0.714959 -0.541654 0.317611 0.421582 0.908172 -0.229066 -0.242492 -0.571844
airline -0.183821 -0.769399 0.653245 -0.486346 0.311066 0.388689 0.882218 -0.242853 -0.202716 -0.620011
even -0.235394 -0.865132 0.687782 -0.451904 0.394143 0.440218 0.967431 -0.249810 -0.232292 -0.589973
return -0.145635 -0.621345 0.495543 -0.363919 0.283047 0.310381 0.712651 -0.217124 -0.145383 -0.479489
armed -0.164190 -0.784261 0.644237 -0.469844 0.322074 0.421166 0.914757 -0.207137 -0.180655 -0.549606
asylum -0.187148 -0.743944 0.648199 -0.412826 0.317471 0.360115 0.832509 -0.220851 -0.218682 -0.615729
lot -0.195395 -0.644108 0.460202 -0.339621 0.203144 0.257515 0.681353 -0.148447 -0.198881 -0.419288
eastern -0.154262 -0.657410 0.499640 -0.424572 0.260505 0.323783 0.710009 -0.196717 -0.153527 -0.466013
winds -0.137279 -0.647937 0.514612 -0.365349 0.260956 0.300670 0.803751 -0.183559 -0.118018 -0.482574
council -0.222915 -0.783029 0.654195 -0.487431 0.295178 0.391703 0.878871 -0.252689 -0.139302 -0.525863
conditions -0.196440 -0.756587 0.615210 -0.438346 0.274187 0.352129 0.798134 -0.164540 -0.147291 -0.493633
such -0.165439 -0.679231 0.550466 -0.342243 0.271214 0.327491 0.754805 -0.164239 -0.166734 -0.465526
york -0.146752 -0.558427 0.484974 -0.402047 0.206426 0.330443 0.692377 -0.186516 -0.207370 -0.505333
despite -0.157705 -0.786243 0.666083 -0.453437 0.349383 0.359490 0.884936 -0.233092 -0.241096 -0.584576
got -0.157198 -0.632808 0.525375 -0.395997 0.301842 0.333949 0.766346 -0.213267 -0.115982 -0.484134
hill -0.206394 -0.761954 0.598574 -0.402111 0.343013 0.379402 0.909215 -0.246455 -0.147644 -0.581285
change -0.249840 -0.804269 0.709254 -0.494676 0.308887 0.409231 0.910987 -0.219787 -0.225243 -0.600344
cut -0.159504 -0.650640 0.578762 -0.413939 0.299288 0.347277 0.762802 -0.144847 -0.108323 -0.439588
safety -0.186027 -0.835161 0.741032 -0.548649 0.332976 0.420040 0.981525 -0.278636 -0.172922 -0.664744
director -0.134735 -0.719899 0.566609 -0.384517 0.325732 0.336520 0.799691 -0.150310 -0.192918 -0.500219
without -0.258890 -0.845261 0.680627 -0.494122 0.386552 0.382527 0.956393 -0.215698 -0.165222 -0.660153
dead -0.151077 -0.673316 0.564595 -0.353906 0.243815 0.319259 0.721858 -0.143072 -0.183635 -0.500293
across -0.151018 -0.687439 0.588013 -0.359717 0.268168 0.288709 0.729335 -0.172420 -0.205266 -0.474043
weekend -0.203480 -0.597332 0.523857 -0.341593 0.211977 0.292021 0.679209 -0.198171 -0.141014 -0.416411
violence -0.108482 -0.687320 0.567937 -0.380344 0.247330 0.319422 0.696229 -0.132432 -0.154325 -0.461800
kandahar -0.202509 -0.647473 0.603128 -0.403901 0.324555 0.344686 0.822284 -0.179906 -0.201549 -0.508688
news -0.216387 -0.732888 0.611143 -0.408959 0.307468 0.363578 0.755523 -0.150846 -0.147583 -0.549480
cricket -0.167019 -0.626146 0.510051 -0.426437 0.296889 0.348362 0.729364 -0.121843 -0.164810 -0.489430
men -0.199272 -0.671642 0.528410 -0.425974 0.270733 0.374033 0.825921 -0.184074 -0.210872 -0.493505
lee -0.231497 -0.753702 0.603368 -0.405282 0.333912 0.362950 0.810720 -0.198613 -0.229789 -0.540815
emergency -0.124815 -0.643817 0.586091 -0.378938 0.283158 0.279141 0.739169 -0.146144 -0.145246 -0.452831
far -0.158043 -0.510552 0.433041 -0.326277 0.239858 0.189935 0.553041 -0.144375 -0.108648 -0.371466
crew -0.130407 -0.704994 0.502352 -0.367620 0.299749 0.297775 0.746043 -0.173418 -0.151218 -0.497072
aircraft -0.166762 -0.808763 0.671141 -0.550389 0.311650 0.431709 1.006569 -0.251606 -0.198421 -0.663071
strong -0.241747 -0.798992 0.684072 -0.459564 0.303069 0.387835 0.864398 -0.162211 -0.195550 -0.549521
david -0.222093 -0.694723 0.606064 -0.399827 0.285856 0.350972 0.830370 -0.249127 -0.183266 -0.524146
here -0.121160 -0.562978 0.513054 -0.389335 0.271702 0.322684 0.640457 -0.192686 -0.161944 -0.479549
trade -0.123714 -0.530394 0.474116 -0.343463 0.159775 0.229375 0.574678 -0.189562 -0.166787 -0.379339
fighting -0.191442 -0.676564 0.613830 -0.423201 0.336060 0.353932 0.803555 -0.245546 -0.147690 -0.491361
strip -0.151972 -0.557833 0.377865 -0.353326 0.273114 0.226198 0.614421 -0.105154 -0.180226 -0.340268
board -0.166230 -0.494267 0.395211 -0.296236 0.199202 0.261747 0.534851 -0.150537 -0.167655 -0.362245
palestinians -0.122956 -0.609400 0.508526 -0.345523 0.225229 0.319739 0.650236 -0.123330 -0.184966 -0.473127
role -0.181645 -0.576228 0.504868 -0.403974 0.296846 0.299458 0.693528 -0.221632 -0.115332 -0.435105
monday -0.204474 -0.758123 0.651494 -0.462361 0.279442 0.373330 0.898223 -0.243252 -0.226815 -0.561254
american -0.122193 -0.644532 0.560426 -0.380583 0.305508 0.343370 0.716330 -0.130489 -0.182787 -0.493000
home -0.170099 -0.673847 0.585130 -0.463336 0.285552 0.332006 0.810798 -0.182593 -0.129069 -0.574102
see -0.161722 -0.581283 0.474427 -0.414331 0.269224 0.286715 0.691322 -0.157360 -0.190157 -0.420806
region -0.150104 -0.626534 0.470955 -0.382706 0.211590 0.313314 0.661020 -0.206710 -0.104784 -0.441137
working -0.159202 -0.631371 0.559329 -0.336601 0.262754 0.308902 0.792699 -0.178036 -0.123102 -0.509687
captured -0.191983 -0.700513 0.542129 -0.403059 0.261951 0.363382 0.792790 -0.162481 -0.141915 -0.498287
training -0.194801 -0.702761 0.539003 -0.430629 0.309581 0.337123 0.729765 -0.206952 -0.202739 -0.473267
anti -0.167432 -0.774755 0.644818 -0.442335 0.272111 0.407359 0.824980 -0.195847 -0.216127 -0.549992
continuing -0.148856 -0.661221 0.569638 -0.413980 0.328518 0.365753 0.797619 -0.193090 -0.141475 -0.474708
race -0.181996 -0.819011 0.751264 -0.452921 0.317944 0.423629 1.002344 -0.204116 -0.193581 -0.666940
december -0.154343 -0.570572 0.537472 -0.349168 0.243898 0.301789 0.709444 -0.190138 -0.157076 -0.423248
call -0.081352 -0.480341 0.448997 -0.296488 0.188109 0.300535 0.585320 -0.179775 -0.122622 -0.414811
economic -0.159184 -0.806374 0.681524 -0.450031 0.335382 0.369573 0.945331 -0.197524 -0.165829 -0.542889
too -0.179581 -0.749682 0.605255 -0.509449 0.297526 0.379356 0.888606 -0.248464 -0.217762 -0.557468
southern -0.099389 -0.492301 0.428643 -0.326847 0.177267 0.221680 0.494766 -0.165284 -0.091404 -0.366901
fires -0.190866 -0.561972 0.509565 -0.301099 0.205526 0.338031 0.641086 -0.189601 -0.110918 -0.494515
country -0.113015 -0.540211 0.435802 -0.338257 0.196576 0.304887 0.661985 -0.170654 -0.135419 -0.366915
waugh -0.274047 -0.990310 0.750217 -0.561709 0.391492 0.478004 1.084131 -0.245793 -0.287295 -0.743765
seekers -0.165568 -0.779619 0.620121 -0.397419 0.368738 0.361867 0.910101 -0.167471 -0.199070 -0.573382
administration -0.172193 -0.683229 0.635730 -0.456152 0.278090 0.354517 0.769129 -0.149897 -0.161890 -0.571568
industry -0.199016 -0.646570 0.525796 -0.373823 0.258937 0.341429 0.768091 -0.126622 -0.141253 -0.466803
zinni -0.192758 -0.699689 0.550128 -0.449369 0.328815 0.341839 0.748412 -0.155640 -0.148065 -0.552339
charged -0.152115 -0.563278 0.476098 -0.352399 0.202735 0.233537 0.684011 -0.164334 -0.180390 -0.413429
water -0.139558 -0.583735 0.463023 -0.319439 0.270456 0.268507 0.595895 -0.167902 -0.165995 -0.402997
health -0.191647 -0.842058 0.692651 -0.504339 0.348097 0.339820 0.921127 -0.164546 -0.224391 -0.625991
used -0.194231 -0.659009 0.611517 -0.399467 0.256142 0.315861 0.782272 -0.220030 -0.169394 -0.484090
alliance -0.194528 -0.740095 0.645176 -0.430491 0.335544 0.386908 0.862796 -0.235770 -0.139558 -0.544001
george -0.151942 -0.732116 0.552750 -0.375344 0.273266 0.378917 0.874392 -0.190434 -0.198152 -0.580592
plans -0.146870 -0.734917 0.621682 -0.461657 0.316035 0.353319 0.822363 -0.157583 -0.151636 -0.540521
bush -0.115237 -0.552319 0.398187 -0.308010 0.190146 0.215851 0.582325 -0.169109 -0.130709 -0.397766
bureau -0.192805 -0.735005 0.577499 -0.426345 0.314551 0.372971 0.864007 -0.162970 -0.209804 -0.527613
act -0.176435 -0.541474 0.455708 -0.362495 0.262427 0.283596 0.649469 -0.168133 -0.148402 -0.417533
received -0.156940 -0.681650 0.512130 -0.423475 0.329497 0.367770 0.748429 -0.207281 -0.146479 -0.451833
key -0.187056 -0.665924 0.601903 -0.413477 0.230181 0.280296 0.755115 -0.178831 -0.163054 -0.514908
offer -0.183943 -0.736017 0.567496 -0.383838 0.271530 0.405440 0.831742 -0.227982 -0.156997 -0.533150
head -0.174469 -0.589251 0.479761 -0.381891 0.241028 0.261873 0.681691 -0.129958 -0.110474 -0.419816
past -0.203483 -0.623733 0.538193 -0.345828 0.303137 0.279719 0.825076 -0.222692 -0.166651 -0.524286
rate -0.198475 -0.768249 0.664862 -0.440444 0.265596 0.406556 0.833190 -0.238960 -0.176008 -0.529302
leading -0.200907 -0.700384 0.504785 -0.391124 0.284716 0.363361 0.707423 -0.172265 -0.120404 -0.500824
station -0.187831 -0.720678 0.605278 -0.462611 0.305744 0.307627 0.851458 -0.195151 -0.155286 -0.575604
risk -0.162326 -0.695241 0.531154 -0.425074 0.276289 0.336347 0.731173 -0.196604 -0.132575 -0.484142
large -0.188760 -0.580866 0.482275 -0.374507 0.255951 0.314305 0.636562 -0.200547 -0.157134 -0.452727
department -0.141154 -0.653226 0.516191 -0.354352 0.222222 0.290375 0.727126 -0.187185 -0.119498 -0.420884
airport -0.089198 -0.479233 0.372127 -0.319124 0.210741 0.246999 0.562447 -0.135538 -0.075770 -0.299154
legal -0.195480 -0.778908 0.626938 -0.417980 0.321968 0.325428 0.840603 -0.201391 -0.160770 -0.563285
britain -0.216066 -0.639249 0.606846 -0.379785 0.296654 0.374595 0.837686 -0.133133 -0.175899 -0.450482
zealand -0.169435 -0.546934 0.424218 -0.266234 0.191375 0.265995 0.600250 -0.107522 -0.091886 -0.428515
boat -0.110286 -0.466057 0.364455 -0.247047 0.221660 0.266714 0.564467 -0.160491 -0.173218 -0.392034
least -0.088880 -0.371993 0.316830 -0.273007 0.215501 0.187125 0.512367 -0.115040 -0.107051 -0.286244
hundreds -0.140908 -0.499992 0.432757 -0.332492 0.258519 0.206047 0.568136 -0.098830 -0.168713 -0.348296
issue -0.081630 -0.510356 0.409018 -0.323736 0.247473 0.223645 0.583296 -0.142630 -0.157519 -0.361208
town -0.134840 -0.555308 0.386152 -0.338329 0.187794 0.252847 0.557128 -0.131816 -0.168494 -0.416286
person -0.173986 -0.571369 0.489100 -0.340509 0.173728 0.264804 0.575543 -0.135320 -0.102978 -0.366088
decision -0.109112 -0.614517 0.547015 -0.333822 0.296207 0.250848 0.679753 -0.196327 -0.164321 -0.489966
soldiers -0.095825 -0.498537 0.462039 -0.340793 0.180059 0.235727 0.588588 -0.169164 -0.123518 -0.419527
known -0.153531 -0.505370 0.438439 -0.341930 0.171121 0.227963 0.595276 -0.130408 -0.137131 -0.389957
stop -0.154396 -0.674279 0.622862 -0.456869 0.261430 0.325151 0.857383 -0.224952 -0.205740 -0.520405
within -0.153971 -0.571535 0.504620 -0.375598 0.228278 0.335490 0.712170 -0.175328 -0.179299 -0.391547
operations -0.119070 -0.555297 0.416347 -0.333788 0.252072 0.308881 0.578154 -0.092743 -0.157838 -0.376880
captain -0.191944 -0.906586 0.744514 -0.559303 0.375436 0.430163 1.066549 -0.285892 -0.202131 -0.656113
israelis -0.190447 -0.603379 0.582236 -0.353305 0.302873 0.366173 0.784901 -0.223281 -0.132492 -0.442576
hih -0.217723 -0.757308 0.643488 -0.463986 0.288429 0.349229 0.846750 -0.180291 -0.139078 -0.539558
parliament -0.083935 -0.517428 0.481290 -0.266874 0.167734 0.216244 0.614955 -0.139443 -0.100480 -0.346776
major -0.156876 -0.789612 0.651690 -0.501455 0.292382 0.368023 0.869177 -0.244625 -0.177257 -0.570027
strikes -0.180047 -0.664877 0.589160 -0.419040 0.293890 0.345869 0.752720 -0.230768 -0.187772 -0.462219
downer -0.173231 -0.606862 0.543093 -0.298063 0.297750 0.313297 0.653521 -0.150949 -0.155284 -0.423149
final -0.114418 -0.525882 0.518582 -0.356841 0.261041 0.253481 0.690231 -0.164527 -0.184430 -0.421381
use -0.224830 -0.724950 0.611896 -0.499766 0.280059 0.347913 0.921211 -0.214127 -0.238984 -0.525270
your -0.220897 -0.911059 0.697581 -0.482867 0.367306 0.398208 0.963339 -0.187689 -0.202449 -0.602469
line -0.227628 -0.743960 0.589498 -0.404858 0.264983 0.400568 0.781325 -0.184784 -0.145960 -0.502951
may -0.218392 -0.777029 0.610578 -0.469744 0.354950 0.355946 0.846080 -0.171407 -0.145341 -0.556676
network -0.114680 -0.532342 0.452079 -0.313092 0.251035 0.222646 0.547453 -0.103649 -0.116536 -0.304317
late -0.167638 -0.616948 0.538169 -0.339034 0.256068 0.346248 0.686388 -0.206444 -0.124502 -0.453195
ahead -0.199351 -0.708245 0.595822 -0.378624 0.251314 0.382824 0.818519 -0.223571 -0.139926 -0.580724
homes -0.102905 -0.542710 0.493955 -0.284022 0.233441 0.271006 0.578890 -0.189654 -0.107083 -0.371653
shane -0.165861 -0.806054 0.608221 -0.431316 0.353507 0.338306 0.846687 -0.243132 -0.224888 -0.586199
great -0.146333 -0.567600 0.493776 -0.366212 0.208665 0.273271 0.585835 -0.117908 -0.132975 -0.359519
officers -0.138647 -0.584817 0.417813 -0.341879 0.266165 0.306676 0.599148 -0.165666 -0.125795 -0.383147
kabul -0.130428 -0.566007 0.468845 -0.341254 0.279830 0.291901 0.601831 -0.108360 -0.124380 -0.430084
remain -0.119141 -0.577400 0.482666 -0.390417 0.265696 0.314819 0.666780 -0.119790 -0.137490 -0.405657
right -0.144558 -0.462883 0.416661 -0.278518 0.184248 0.197800 0.562393 -0.107799 -0.094307 -0.396140
western -0.145536 -0.555103 0.493315 -0.377910 0.244566 0.289678 0.636858 -0.101028 -0.161571 -0.367535
half -0.151817 -0.511887 0.378105 -0.261699 0.254432 0.207312 0.549837 -0.097735 -0.095962 -0.329244
give -0.198407 -0.695019 0.561060 -0.368764 0.235719 0.308276 0.764081 -0.180135 -0.202360 -0.531739
due -0.186899 -0.570755 0.477023 -0.376363 0.271146 0.247241 0.626131 -0.159821 -0.140423 -0.392731
un -0.107284 -0.584815 0.513534 -0.394319 0.216847 0.255513 0.752995 -0.207451 -0.175421 -0.482449
my -0.059200 -0.406998 0.333668 -0.277261 0.160766 0.181164 0.452410 -0.115027 -0.096861 -0.334151
laws -0.129548 -0.461504 0.404351 -0.258387 0.184786 0.190543 0.578632 -0.105838 -0.089797 -0.326123
might -0.141030 -0.593547 0.508363 -0.364594 0.215701 0.342217 0.756252 -0.157990 -0.159199 -0.486640
plane -0.166757 -0.570495 0.414689 -0.319004 0.213244 0.304403 0.627532 -0.161492 -0.095463 -0.384468
taking -0.155569 -0.681638 0.557034 -0.391609 0.234901 0.286899 0.772394 -0.170707 -0.195292 -0.449557
interest -0.173499 -0.762585 0.608781 -0.398836 0.341271 0.318644 0.820827 -0.195652 -0.222216 -0.548976
weapons -0.156239 -0.493759 0.438122 -0.346078 0.211291 0.215751 0.593848 -0.152448 -0.149293 -0.422645
series -0.084808 -0.443315 0.341872 -0.219566 0.204078 0.168889 0.499791 -0.145836 -0.080423 -0.335404
latest -0.116661 -0.460771 0.372820 -0.301911 0.228352 0.226380 0.551056 -0.087004 -0.164548 -0.335480
every -0.180977 -0.689285 0.547851 -0.378826 0.222115 0.287999 0.690239 -0.185841 -0.137468 -0.453572
pm -0.095972 -0.495835 0.343386 -0.270516 0.206989 0.175631 0.553070 -0.077892 -0.142014 -0.339460
hollingworth -0.145465 -0.629873 0.541346 -0.388371 0.323218 0.360575 0.720617 -0.176417 -0.202562 -0.473390
coast -0.112428 -0.514519 0.500151 -0.345224 0.243582 0.269866 0.587635 -0.185445 -0.105286 -0.411496
policy -0.168983 -0.629849 0.471213 -0.323054 0.276360 0.295684 0.750458 -0.193895 -0.133042 -0.495615
position -0.114777 -0.503385 0.422400 -0.254903 0.214168 0.296759 0.615603 -0.155468 -0.083700 -0.401452
later -0.151302 -0.609177 0.438207 -0.306435 0.268596 0.280210 0.673113 -0.143618 -0.109445 -0.433164
death -0.141279 -0.585468 0.437613 -0.313285 0.203949 0.304371 0.630946 -0.120638 -0.108617 -0.396660
able -0.144062 -0.497241 0.379255 -0.347458 0.171749 0.276900 0.584110 -0.122483 -0.156820 -0.382698
tomorrow -0.150710 -0.712338 0.651861 -0.422904 0.288561 0.363927 0.852033 -0.192904 -0.223039 -0.537457
behind -0.130496 -0.714570 0.585554 -0.396414 0.291541 0.334772 0.778048 -0.155681 -0.145924 -0.564720
already -0.116025 -0.611532 0.551668 -0.356599 0.224144 0.332853 0.719876 -0.136537 -0.175341 -0.403189
flight -0.145943 -0.528865 0.449256 -0.314092 0.250263 0.199552 0.595949 -0.121232 -0.104421 -0.406632
special -0.157471 -0.516704 0.475936 -0.315826 0.222903 0.244131 0.664904 -0.159855 -0.112511 -0.426731
storm -0.153935 -0.580942 0.512469 -0.293607 0.231500 0.233363 0.645495 -0.114680 -0.128485 -0.409799
washington -0.108037 -0.416659 0.382839 -0.288410 0.133585 0.170261 0.473672 -0.136912 -0.069198 -0.358488
heard -0.112884 -0.544498 0.435259 -0.291453 0.238147 0.234472 0.608774 -0.077900 -0.159507 -0.321411
really -0.115869 -0.577633 0.467269 -0.321891 0.293131 0.276414 0.667681 -0.106235 -0.144675 -0.466479
others -0.091105 -0.506560 0.442205 -0.317030 0.210946 0.253899 0.634494 -0.172149 -0.179526 -0.427286
forced -0.107034 -0.499832 0.463106 -0.311703 0.251908 0.253078 0.682372 -0.172739 -0.129380 -0.455200
point -0.176027 -0.578414 0.424460 -0.368854 0.194219 0.256143 0.655844 -0.115028 -0.187699 -0.385049
failed -0.123780 -0.592049 0.492562 -0.339697 0.247099 0.310739 0.629573 -0.142352 -0.175704 -0.423798
hard -0.098495 -0.606431 0.449753 -0.322968 0.287848 0.285470 0.712072 -0.206200 -0.125765 -0.434572
continue -0.083085 -0.542722 0.412576 -0.245684 0.248479 0.248502 0.544122 -0.096607 -0.132227 -0.377331
same -0.085640 -0.424855 0.397756 -0.274930 0.228582 0.181175 0.491744 -0.064702 -0.127520 -0.272640
territory -0.088742 -0.457868 0.345145 -0.217227 0.160795 0.189663 0.527262 -0.120578 -0.158641 -0.317365
jihad -0.124173 -0.621830 0.470125 -0.353595 0.189795 0.308852 0.645724 -0.133001 -0.170675 -0.423727
concerned -0.135645 -0.473890 0.408530 -0.250111 0.185100 0.261862 0.596197 -0.085940 -0.097985 -0.325355
jobs -0.101194 -0.522695 0.404984 -0.338263 0.263563 0.264186 0.633533 -0.172994 -0.172543 -0.364347
me -0.082121 -0.464143 0.420874 -0.329812 0.236115 0.239893 0.583423 -0.170316 -0.076912 -0.343544
victory -0.160635 -0.487347 0.434751 -0.255896 0.187584 0.279954 0.603833 -0.153995 -0.120074 -0.351182
cup -0.209536 -0.895759 0.745709 -0.525045 0.398088 0.383752 0.959177 -0.243821 -0.239739 -0.599823
event -0.142164 -0.610897 0.509900 -0.418205 0.272974 0.354672 0.717181 -0.135276 -0.172756 -0.459778
campaign -0.150737 -0.608462 0.473931 -0.310917 0.186292 0.308246 0.693590 -0.169118 -0.138170 -0.394679
guilty -0.149810 -0.506963 0.413914 -0.261147 0.186245 0.224495 0.586282 -0.175822 -0.139351 -0.353689
deaths -0.125137 -0.589400 0.519402 -0.365387 0.268577 0.338429 0.714788 -0.126154 -0.127571 -0.438535
side -0.140914 -0.450690 0.347695 -0.211624 0.215208 0.214746 0.462202 -0.122337 -0.153319 -0.335669
seen -0.161547 -0.483819 0.404510 -0.274327 0.178301 0.262462 0.508765 -0.157035 -0.073523 -0.324458
thought -0.106687 -0.300730 0.257094 -0.223031 0.180115 0.139507 0.408618 -0.100847 -0.051761 -0.269989
along -0.185033 -0.652071 0.551841 -0.413363 0.309087 0.333558 0.786816 -0.201816 -0.134158 -0.525349
towards -0.132727 -0.677300 0.590300 -0.376299 0.241478 0.366928 0.730176 -0.155465 -0.136071 -0.435014
abuse -0.155454 -0.806362 0.625048 -0.467023 0.362899 0.330961 0.876226 -0.262731 -0.208972 -0.631888
bill -0.134731 -0.536166 0.518942 -0.296349 0.260084 0.296555 0.673035 -0.184805 -0.114869 -0.384070
life -0.102806 -0.605344 0.505581 -0.380061 0.200119 0.302192 0.666521 -0.160886 -0.181152 -0.397377
timor -0.130511 -0.686897 0.515929 -0.387219 0.298218 0.330355 0.759497 -0.131363 -0.166798 -0.503350
cabinet -0.100676 -0.518605 0.484177 -0.255369 0.208270 0.243012 0.559793 -0.172571 -0.157112 -0.401378
bichel -0.109181 -0.509777 0.449326 -0.316017 0.264325 0.297413 0.620468 -0.144783 -0.181013 -0.385869
case -0.079323 -0.413191 0.315045 -0.247946 0.198298 0.186328 0.484330 -0.159197 -0.090651 -0.259997
weeks -0.087237 -0.550185 0.461437 -0.356311 0.252547 0.293467 0.597557 -0.187510 -0.171907 -0.416967
matter -0.069174 -0.397688 0.338262 -0.246161 0.126846 0.167056 0.439351 -0.075501 -0.084012 -0.262294
move -0.123089 -0.488952 0.447979 -0.337757 0.191943 0.210276 0.641487 -0.154026 -0.110125 -0.405206
bombings -0.076919 -0.499893 0.384387 -0.254168 0.192402 0.213977 0.527066 -0.094252 -0.140883 -0.279463
again -0.115189 -0.619966 0.541776 -0.385677 0.265572 0.325305 0.715448 -0.190959 -0.128618 -0.462120
middle -0.084773 -0.401986 0.352277 -0.269535 0.177408 0.168114 0.462468 -0.106202 -0.073452 -0.299178
capital -0.092526 -0.467796 0.356943 -0.230567 0.205471 0.227074 0.463216 -0.083206 -0.105231 -0.304701
envoy -0.065017 -0.464178 0.391614 -0.281412 0.192892 0.204022 0.474357 -0.150944 -0.132618 -0.283789
member -0.155916 -0.562840 0.451814 -0.376423 0.278201 0.240875 0.681679 -0.200673 -0.129324 -0.443302
november -0.068459 -0.492970 0.406313 -0.271603 0.169328 0.256979 0.513294 -0.150395 -0.083579 -0.351217
countries -0.128236 -0.657391 0.510295 -0.307969 0.227377 0.351099 0.680725 -0.197307 -0.150680 -0.476252
details -0.153610 -0.367445 0.335745 -0.226705 0.223524 0.205250 0.471693 -0.134413 -0.119434 -0.332104
space -0.169573 -0.653605 0.594195 -0.384723 0.303666 0.366665 0.794286 -0.131460 -0.197489 -0.435694
woomera -0.146276 -0.423685 0.382998 -0.241151 0.190627 0.217821 0.452743 -0.110300 -0.065823 -0.274043
warne -0.173341 -0.678263 0.598044 -0.356007 0.273691 0.335981 0.749448 -0.215968 -0.170300 -0.478937
detention -0.077108 -0.385655 0.303960 -0.245694 0.188312 0.219364 0.397658 -0.146928 -0.113419 -0.237121
bowler -0.196402 -0.786274 0.648221 -0.476468 0.344944 0.457473 0.994153 -0.239721 -0.180488 -0.621786
sunday -0.170868 -0.583134 0.527343 -0.373694 0.254219 0.281349 0.615175 -0.193144 -0.176615 -0.385001
seven -0.114128 -0.597145 0.483301 -0.371703 0.224250 0.257831 0.641704 -0.102358 -0.173368 -0.391554
likely -0.148703 -0.441190 0.340369 -0.261799 0.211121 0.225921 0.568475 -0.105864 -0.085087 -0.321925
situation -0.170559 -0.546157 0.455738 -0.332923 0.216527 0.267973 0.598533 -0.122916 -0.106884 -0.447831
according -0.120863 -0.542873 0.458946 -0.278123 0.169792 0.257493 0.574884 -0.090341 -0.101826 -0.339714
buildings -0.097426 -0.564474 0.410517 -0.292225 0.210984 0.263982 0.580149 -0.123724 -0.189276 -0.425163
mark -0.113086 -0.628572 0.594064 -0.418871 0.303643 0.367101 0.755615 -0.213337 -0.154905 -0.524823
rates -0.173541 -0.796886 0.676535 -0.480786 0.281230 0.359602 0.911083 -0.256105 -0.143732 -0.608757
canyoning -0.127556 -0.659039 0.596008 -0.445720 0.332647 0.348879 0.849716 -0.223631 -0.140477 -0.497122
th -0.117856 -0.521446 0.447924 -0.327353 0.227810 0.267562 0.612539 -0.189236 -0.095442 -0.429209
bombing -0.177343 -0.477596 0.394104 -0.339603 0.200051 0.208512 0.611992 -0.121418 -0.096023 -0.396190
hour -0.090830 -0.586297 0.510166 -0.323298 0.188134 0.306642 0.640707 -0.128733 -0.141722 -0.396730
enough -0.100282 -0.496280 0.372918 -0.296965 0.178441 0.247792 0.564507 -0.085732 -0.087302 -0.341653
innings -0.096484 -0.565717 0.475929 -0.332525 0.163608 0.218187 0.656025 -0.117061 -0.123117 -0.424621
important -0.132521 -0.487514 0.340140 -0.279421 0.231427 0.243669 0.491722 -0.111056 -0.143313 -0.327949
mcgrath -0.164538 -0.594240 0.458362 -0.313479 0.254521 0.341560 0.706537 -0.156893 -0.131426 -0.470469
launched -0.122267 -0.527355 0.491507 -0.283337 0.270200 0.248850 0.621795 -0.129138 -0.159118 -0.380969
bus -0.133305 -0.540054 0.397046 -0.306795 0.245985 0.294960 0.626138 -0.110080 -0.177675 -0.392776
helicopters -0.165020 -0.731514 0.582688 -0.400303 0.321070 0.313675 0.774012 -0.162267 -0.226078 -0.514087
perth -0.156906 -0.441507 0.359141 -0.292875 0.149865 0.206412 0.543892 -0.085215 -0.083315 -0.384221
young -0.096543 -0.516096 0.448308 -0.254170 0.163351 0.299133 0.604515 -0.092179 -0.139198 -0.388252
asio -0.151947 -0.581443 0.461730 -0.348209 0.179954 0.226148 0.615310 -0.158351 -0.171506 -0.431451
caught -0.076360 -0.530403 0.398611 -0.287510 0.242638 0.210868 0.551171 -0.163085 -0.162591 -0.331282
movement -0.176786 -0.693352 0.501474 -0.386710 0.293018 0.283495 0.797039 -0.217057 -0.201914 -0.496189
human -0.106050 -0.551256 0.443413 -0.283480 0.264697 0.260262 0.592032 -0.185173 -0.162618 -0.384874
money -0.081589 -0.524413 0.383235 -0.318673 0.235455 0.244970 0.562844 -0.134747 -0.140742 -0.352018
sure -0.054631 -0.372848 0.296534 -0.265928 0.149141 0.215407 0.388279 -0.119751 -0.119682 -0.297341
own -0.080969 -0.425157 0.389765 -0.241497 0.168453 0.212164 0.458250 -0.092933 -0.074652 -0.320664
women -0.077689 -0.449241 0.394377 -0.246835 0.198570 0.210495 0.508934 -0.114366 -0.098760 -0.369568
run -0.106653 -0.452333 0.341520 -0.269815 0.151627 0.191720 0.527441 -0.157187 -0.071441 -0.343447
disease -0.063692 -0.382709 0.373212 -0.282419 0.136664 0.216964 0.525877 -0.115192 -0.093941 -0.362633
top -0.153770 -0.494610 0.363735 -0.244497 0.194062 0.255807 0.575012 -0.079570 -0.066461 -0.324544
immediately -0.137375 -0.468292 0.385221 -0.322755 0.179373 0.220813 0.574358 -0.180522 -0.176757 -0.347398
dispute -0.184314 -0.508486 0.405287 -0.286488 0.204775 0.281058 0.671529 -0.127919 -0.098866 -0.375719
cancer -0.209508 -0.661075 0.561230 -0.416368 0.315173 0.281391 0.788744 -0.183576 -0.156905 -0.463864
adventure -0.139285 -0.377720 0.314308 -0.265895 0.212860 0.241774 0.443639 -0.138126 -0.148494 -0.247008
targets -0.122049 -0.502467 0.385467 -0.225914 0.148361 0.241610 0.550442 -0.103753 -0.097147 -0.321916
added -0.142534 -0.522041 0.406284 -0.274785 0.173240 0.229329 0.547287 -0.126462 -0.163336 -0.382299
aedt -0.115907 -0.495097 0.405427 -0.286102 0.212539 0.270741 0.508602 -0.128479 -0.157375 -0.381756
show -0.116809 -0.426748 0.401827 -0.280507 0.146554 0.185190 0.454301 -0.065116 -0.138372 -0.322743
swiss -0.138396 -0.499320 0.426005 -0.324559 0.205487 0.220445 0.587494 -0.096765 -0.164863 -0.336393
ms -0.149945 -0.582387 0.463268 -0.354104 0.240996 0.257067 0.703520 -0.137902 -0.122676 -0.384797
guides -0.080043 -0.462095 0.405121 -0.283581 0.174019 0.237001 0.597306 -0.155597 -0.106212 -0.337306
african -0.132793 -0.562901 0.527347 -0.334460 0.182635 0.305276 0.657831 -0.114599 -0.200288 -0.444476
raids -0.106481 -0.500284 0.402970 -0.331166 0.221588 0.213225 0.604624 -0.110602 -0.147840 -0.394094
wants -0.142010 -0.529320 0.445261 -0.255194 0.242354 0.275911 0.566490 -0.083410 -0.119459 -0.362159
mission -0.147643 -0.533211 0.382671 -0.318150 0.192267 0.242672 0.520765 -0.090681 -0.143879 -0.313393
opened -0.165739 -0.502371 0.404352 -0.262163 0.248258 0.233340 0.588796 -0.110768 -0.108060 -0.410330
political -0.167208 -0.616576 0.518543 -0.359749 0.314355 0.343745 0.723712 -0.203544 -0.144119 -0.487632
warplanes -0.104041 -0.536211 0.420936 -0.244454 0.249758 0.188845 0.573941 -0.176068 -0.087111 -0.339243
forward -0.074888 -0.453306 0.375240 -0.295487 0.174806 0.223771 0.602609 -0.168320 -0.112182 -0.413189
reported -0.051405 -0.350790 0.269278 -0.175060 0.173584 0.139308 0.446264 -0.091853 -0.132849 -0.242374
based -0.147973 -0.527140 0.424270 -0.294560 0.253859 0.204215 0.546140 -0.097103 -0.169339 -0.397624
rule -0.138691 -0.511266 0.461685 -0.345175 0.166764 0.265889 0.592607 -0.175363 -0.101445 -0.410985
claimed -0.210096 -0.674961 0.532633 -0.414125 0.292384 0.356246 0.815821 -0.195079 -0.197534 -0.456387
jail -0.130990 -0.532160 0.396772 -0.281950 0.160254 0.234054 0.530092 -0.094700 -0.110646 -0.319052
freeze -0.097814 -0.458553 0.365214 -0.251221 0.199602 0.190076 0.548987 -0.107323 -0.100372 -0.377901
office -0.046815 -0.355054 0.307532 -0.211705 0.149108 0.162980 0.455890 -0.047442 -0.067290 -0.277494
justice -0.174757 -0.557112 0.464842 -0.365377 0.246946 0.325605 0.695815 -0.181966 -0.135102 -0.428510
blue -0.200887 -0.668488 0.549970 -0.360541 0.290795 0.352368 0.804943 -0.159842 -0.162399 -0.512650
deal -0.123253 -0.365183 0.324105 -0.232091 0.201640 0.238677 0.480757 -0.077485 -0.052146 -0.301353
carried -0.046185 -0.334005 0.228462 -0.150144 0.112666 0.191813 0.381396 -0.135194 -0.087372 -0.294744
evidence -0.060015 -0.390226 0.340883 -0.206025 0.111068 0.188204 0.425459 -0.063065 -0.142638 -0.225445
commonwealth -0.192948 -0.548958 0.515644 -0.375965 0.258603 0.291647 0.649894 -0.122115 -0.126955 -0.404121
boy -0.130894 -0.398455 0.368398 -0.211167 0.155765 0.212261 0.564008 -0.101161 -0.109749 -0.323781
full -0.161384 -0.544038 0.485485 -0.335794 0.211807 0.241045 0.696287 -0.180060 -0.158982 -0.399663
certainly -0.128746 -0.366678 0.371281 -0.253522 0.171309 0.234840 0.413807 -0.052525 -0.097969 -0.251789
become -0.099218 -0.492885 0.424308 -0.285756 0.186254 0.218066 0.601930 -0.109802 -0.173514 -0.345042
allegations -0.159255 -0.500737 0.429889 -0.304702 0.223311 0.267497 0.587270 -0.083908 -0.088501 -0.409405
although -0.125384 -0.317408 0.310619 -0.162007 0.193816 0.191639 0.346462 -0.040394 -0.127265 -0.208094
proposed -0.132020 -0.586894 0.504723 -0.397462 0.241053 0.271591 0.730546 -0.177213 -0.153670 -0.416308
burning -0.132911 -0.404733 0.353540 -0.253812 0.222936 0.220035 0.538136 -0.141494 -0.080645 -0.358800
always -0.075021 -0.458546 0.364545 -0.238680 0.212595 0.273360 0.555828 -0.128841 -0.081977 -0.382605
sector -0.114521 -0.451634 0.331773 -0.218462 0.188082 0.178845 0.519606 -0.079780 -0.115237 -0.375630
ground -0.118171 -0.437781 0.354459 -0.266003 0.187751 0.156865 0.494943 -0.068967 -0.068312 -0.265445
break -0.091571 -0.481507 0.393340 -0.273864 0.153406 0.201142 0.560360 -0.112011 -0.098345 -0.391494
find -0.114226 -0.417553 0.312752 -0.210966 0.159885 0.150301 0.397048 -0.061547 -0.055435 -0.301493
planning -0.141234 -0.341922 0.301323 -0.224731 0.186427 0.225598 0.476616 -0.052636 -0.080389 -0.319618
probably -0.122829 -0.443516 0.341922 -0.297297 0.202247 0.223788 0.508078 -0.098480 -0.085388 -0.388889
flying -0.070550 -0.428357 0.397289 -0.246625 0.187400 0.235013 0.542602 -0.170179 -0.138983 -0.386420
each -0.092580 -0.458579 0.395437 -0.310383 0.217902 0.279069 0.614315 -0.110717 -0.150996 -0.390757
result -0.114072 -0.469477 0.328214 -0.235430 0.202089 0.178431 0.546743 -0.074938 -0.097184 -0.312269
march -0.106246 -0.578735 0.518865 -0.302751 0.224900 0.308773 0.651212 -0.192586 -0.109309 -0.436211
order -0.049788 -0.310345 0.246822 -0.162947 0.150989 0.180233 0.389934 -0.075098 -0.051368 -0.251804
access -0.119951 -0.404086 0.338688 -0.233703 0.182276 0.203574 0.501544 -0.154110 -0.120496 -0.311257
collapse -0.116646 -0.468072 0.359590 -0.286470 0.227068 0.205263 0.582346 -0.147014 -0.168319 -0.359212
job -0.129129 -0.581693 0.477060 -0.380405 0.286582 0.279927 0.693862 -0.195370 -0.182081 -0.489228
island -0.132356 -0.486580 0.412085 -0.307225 0.173111 0.250336 0.523543 -0.175888 -0.152893 -0.407965
face -0.177660 -0.518805 0.436299 -0.341319 0.228385 0.240231 0.632920 -0.113209 -0.134110 -0.343028
border -0.076497 -0.446405 0.419521 -0.321343 0.218203 0.252022 0.498989 -0.133684 -0.155533 -0.301117
banks -0.077075 -0.429707 0.273395 -0.181852 0.143381 0.231265 0.467862 -0.088763 -0.107686 -0.329332
wicket -0.099122 -0.556979 0.527269 -0.291626 0.191450 0.300156 0.706159 -0.185067 -0.133726 -0.459863
financial -0.143989 -0.557928 0.526833 -0.346658 0.208477 0.292023 0.721562 -0.126452 -0.116704 -0.398890
prepared -0.069758 -0.252829 0.197785 -0.159551 0.083718 0.145894 0.308957 -0.062330 -0.076378 -0.169892
reached -0.117023 -0.549933 0.427538 -0.286762 0.192618 0.289066 0.645454 -0.138702 -0.147397 -0.399313
beat -0.104635 -0.391489 0.365053 -0.291155 0.143234 0.210462 0.443622 -0.099368 -0.104996 -0.341280
using -0.079438 -0.451220 0.358667 -0.313841 0.226805 0.224893 0.526670 -0.167066 -0.074238 -0.314852
growth -0.096696 -0.508667 0.469499 -0.304140 0.188438 0.232834 0.571888 -0.175228 -0.145362 -0.366261
investigation -0.075190 -0.360065 0.367400 -0.220614 0.120511 0.186751 0.483647 -0.090458 -0.098653 -0.321563
times -0.116330 -0.430988 0.366204 -0.309649 0.165513 0.217274 0.544316 -0.124259 -0.129655 -0.344761
carrying -0.154575 -0.533678 0.485269 -0.325165 0.237283 0.266117 0.617940 -0.150920 -0.153649 -0.398624
crash -0.117240 -0.488056 0.467447 -0.343951 0.248049 0.262759 0.629343 -0.159436 -0.097994 -0.333205
tourists -0.158526 -0.434147 0.338570 -0.310394 0.143550 0.233857 0.561495 -0.139580 -0.162518 -0.346915
drop -0.141036 -0.441613 0.402854 -0.252436 0.148431 0.188419 0.590810 -0.170251 -0.131846 -0.387508
tried -0.082982 -0.350716 0.323743 -0.201274 0.158804 0.227513 0.407363 -0.120439 -0.102556 -0.289984
himself -0.090897 -0.541663 0.456174 -0.304701 0.198274 0.248975 0.604102 -0.194022 -0.121757 -0.407719
serious -0.109296 -0.447895 0.347142 -0.257706 0.183682 0.246119 0.500962 -0.083421 -0.133995 -0.332424
bid -0.072890 -0.395925 0.315242 -0.240480 0.124631 0.188692 0.510177 -0.084663 -0.081486 -0.329962
short -0.123024 -0.647023 0.532167 -0.394924 0.244251 0.255120 0.663107 -0.133028 -0.102439 -0.458989
surrender -0.072615 -0.402888 0.361168 -0.285045 0.183273 0.209206 0.405523 -0.115881 -0.122093 -0.275446
believes -0.036814 -0.312255 0.271087 -0.229683 0.111212 0.160559 0.397146 -0.080264 -0.117164 -0.272217
energy -0.194290 -0.674102 0.604526 -0.360581 0.242205 0.292447 0.833971 -0.172073 -0.139062 -0.464322
needs -0.146724 -0.382558 0.313318 -0.286599 0.162931 0.178403 0.510092 -0.122512 -0.072878 -0.264905
thursday -0.041725 -0.375088 0.275400 -0.190513 0.100527 0.121306 0.416951 -0.081284 -0.095448 -0.301314
road -0.107925 -0.314965 0.266154 -0.234232 0.199143 0.212459 0.443927 -0.076034 -0.050051 -0.289299
reserve -0.132723 -0.442073 0.362011 -0.215022 0.186810 0.172250 0.444731 -0.075323 -0.116941 -0.349462
organisation -0.137799 -0.476479 0.396552 -0.231948 0.226210 0.219146 0.522352 -0.132167 -0.111080 -0.355047
suspected -0.175971 -0.506805 0.396264 -0.320079 0.246735 0.303293 0.595859 -0.141265 -0.165603 -0.386283
stage -0.028813 -0.295895 0.183711 -0.204326 0.097538 0.094417 0.298089 -0.107259 -0.035021 -0.212794
calls -0.103267 -0.536939 0.486525 -0.284256 0.247613 0.297638 0.623329 -0.129841 -0.175436 -0.398350
fight -0.132867 -0.434970 0.422335 -0.221401 0.171671 0.204510 0.494184 -0.088295 -0.067874 -0.337701
travel -0.102455 -0.539319 0.432907 -0.351207 0.259453 0.253422 0.609215 -0.154398 -0.105226 -0.375648
responsibility -0.156489 -0.391685 0.343611 -0.200019 0.163549 0.214954 0.451179 -0.098026 -0.129992 -0.267801
until -0.141545 -0.446798 0.355352 -0.242161 0.191362 0.177931 0.509866 -0.135455 -0.081549 -0.288475
militant -0.143870 -0.488532 0.400512 -0.249421 0.183481 0.286950 0.569442 -0.101726 -0.101077 -0.383800
sex -0.137557 -0.490099 0.430555 -0.318327 0.244881 0.268497 0.620861 -0.157889 -0.100764 -0.379116
quickly -0.150558 -0.489225 0.436426 -0.267650 0.211886 0.261029 0.576152 -0.168422 -0.130011 -0.344420
management -0.113843 -0.410113 0.412578 -0.262303 0.191736 0.273664 0.557844 -0.119194 -0.065674 -0.306886
harrison -0.146141 -0.562499 0.407708 -0.272849 0.197235 0.206561 0.641290 -0.105450 -0.176529 -0.437420
future -0.117235 -0.313131 0.240921 -0.203348 0.095154 0.147866 0.374764 -0.132789 -0.035042 -0.195107
thousands -0.084197 -0.331229 0.231238 -0.230631 0.144407 0.142674 0.414660 -0.053967 -0.126481 -0.196517
lives -0.080716 -0.352814 0.307116 -0.175258 0.105826 0.172914 0.384086 -0.116561 -0.111272 -0.193859
senator -0.115658 -0.408426 0.346182 -0.217439 0.202008 0.210338 0.492470 -0.092028 -0.076642 -0.258180
bowling -0.099775 -0.482287 0.372815 -0.309357 0.214742 0.277639 0.530897 -0.115575 -0.149277 -0.388897
immigration -0.102731 -0.472991 0.368556 -0.316075 0.214394 0.188106 0.557130 -0.108745 -0.126859 -0.339351
howard -0.066230 -0.403090 0.305162 -0.243641 0.194211 0.202973 0.449347 -0.091491 -0.055087 -0.311494
trees -0.094409 -0.598141 0.436887 -0.348058 0.255157 0.331462 0.688887 -0.201900 -0.132750 -0.446935
ariel -0.083278 -0.362231 0.280248 -0.198862 0.140235 0.158464 0.459323 -0.116925 -0.106464 -0.251603
went -0.004134 -0.156248 0.135268 -0.126390 0.039966 0.029225 0.169522 -0.051541 -0.001384 -0.088581
comes -0.081615 -0.364822 0.262125 -0.187656 0.160924 0.188826 0.443164 -0.083438 -0.077765 -0.244788
opening -0.065221 -0.405158 0.351349 -0.267404 0.186450 0.244603 0.544680 -0.067448 -0.158603 -0.330951
wave -0.153781 -0.475457 0.445307 -0.273967 0.233246 0.262127 0.616806 -0.108763 -0.137767 -0.391556
militia -0.125860 -0.475095 0.331593 -0.285088 0.185042 0.199445 0.512445 -0.120625 -0.069790 -0.307507
executive -0.136908 -0.610178 0.540352 -0.376169 0.236123 0.306461 0.712121 -0.132382 -0.135058 -0.387967
argentina -0.107555 -0.372519 0.281934 -0.184110 0.200215 0.228240 0.400335 -0.070459 -0.127243 -0.290635
inside -0.074214 -0.430829 0.376345 -0.238947 0.153197 0.242743 0.465089 -0.072541 -0.078989 -0.272505
killing -0.168845 -0.499682 0.358469 -0.257185 0.208368 0.262274 0.535042 -0.175247 -0.112815 -0.371375
relations -0.112284 -0.567823 0.392298 -0.321929 0.233737 0.216959 0.579648 -0.135669 -0.173299 -0.407787
outside -0.151292 -0.522299 0.470770 -0.358901 0.263064 0.289760 0.598200 -0.180751 -0.113488 -0.341535
sent -0.088863 -0.399345 0.308152 -0.216688 0.199153 0.239110 0.467374 -0.070703 -0.130404 -0.280491
ansett -0.130783 -0.445938 0.414133 -0.314303 0.214156 0.250856 0.474858 -0.123025 -0.110231 -0.300447
declared -0.084247 -0.434288 0.366263 -0.249268 0.221780 0.188657 0.515647 -0.154454 -0.070289 -0.377043
kilometres -0.148019 -0.466370 0.397186 -0.218359 0.143752 0.259231 0.489787 -0.146426 -0.091016 -0.363005
flights -0.065567 -0.431074 0.321962 -0.255377 0.140017 0.247584 0.501682 -0.066146 -0.095622 -0.349106
afp -0.081433 -0.353269 0.299088 -0.216125 0.115184 0.138438 0.453133 -0.131277 -0.125000 -0.296329
different -0.140641 -0.525520 0.427082 -0.353182 0.209054 0.285781 0.588087 -0.194199 -0.092615 -0.391030
alleged -0.124365 -0.414393 0.294786 -0.201648 0.123559 0.163389 0.465902 -0.077408 -0.103768 -0.340894
soon -0.067425 -0.340926 0.233953 -0.152511 0.108069 0.170997 0.328418 -0.066248 -0.107143 -0.215384
caves -0.076754 -0.320979 0.246659 -0.232893 0.166514 0.213207 0.339227 -0.135815 -0.052527 -0.218617
post -0.061235 -0.421654 0.365777 -0.280453 0.129980 0.233866 0.426079 -0.097503 -0.110784 -0.249066
rejected -0.073318 -0.440216 0.351956 -0.250433 0.121344 0.149119 0.451555 -0.150301 -0.056848 -0.324945
making -0.081047 -0.436648 0.344530 -0.281723 0.140275 0.200675 0.430272 -0.102454 -0.063472 -0.244840
allow -0.121498 -0.637173 0.460079 -0.386342 0.196965 0.269851 0.678549 -0.120799 -0.169099 -0.452187
clear -0.077503 -0.269912 0.228629 -0.194133 0.137762 0.118190 0.372501 -0.096904 -0.041001 -0.193251
program -0.058476 -0.392826 0.374165 -0.276176 0.181436 0.238550 0.467619 -0.075146 -0.113251 -0.309733
hewitt -0.095167 -0.404350 0.313669 -0.246703 0.147145 0.214690 0.469130 -0.142209 -0.061904 -0.279135
getting -0.088103 -0.513285 0.404318 -0.299825 0.202151 0.273159 0.610034 -0.156922 -0.111733 -0.376298
radical -0.080970 -0.530589 0.388420 -0.273285 0.255687 0.301810 0.623566 -0.155944 -0.116907 -0.370930
inquiry -0.102817 -0.454402 0.397629 -0.303900 0.203543 0.260996 0.488355 -0.080778 -0.073555 -0.344424
kallis -0.161499 -0.528241 0.393549 -0.322150 0.243632 0.229324 0.622603 -0.185237 -0.144714 -0.416642
running -0.075020 -0.393806 0.258734 -0.176877 0.180285 0.161408 0.418608 -0.110948 -0.043181 -0.223676
decided -0.058150 -0.469578 0.386089 -0.244177 0.192385 0.170161 0.433270 -0.138850 -0.092474 -0.321173
destroyed -0.092938 -0.338348 0.273125 -0.191245 0.154257 0.127829 0.339575 -0.068939 -0.095599 -0.270808
jewish -0.063397 -0.329934 0.292160 -0.205211 0.171823 0.170948 0.362628 -0.065630 -0.126215 -0.266974
biggest -0.060595 -0.387068 0.320624 -0.201181 0.170926 0.186575 0.377492 -0.050855 -0.117492 -0.270898
refused -0.082419 -0.462052 0.303051 -0.277378 0.195167 0.165104 0.514765 -0.146464 -0.140888 -0.305227
yacht -0.138417 -0.377644 0.323005 -0.266669 0.182399 0.242857 0.470952 -0.168969 -0.083596 -0.353788
list -0.026702 -0.271484 0.260405 -0.109928 0.142051 0.147263 0.260949 -0.046694 -0.073631 -0.187078
response -0.156853 -0.442662 0.405607 -0.266767 0.163086 0.250901 0.552859 -0.157643 -0.115033 -0.371233
july -0.102498 -0.439148 0.387166 -0.274435 0.158065 0.223461 0.573786 -0.125388 -0.106443 -0.351490
form -0.116100 -0.363320 0.312530 -0.287134 0.146191 0.223761 0.439353 -0.097680 -0.107089 -0.348326
witnesses -0.096826 -0.419448 0.331026 -0.206223 0.188055 0.141149 0.387381 -0.073909 -0.123568 -0.277445
yet -0.113585 -0.237896 0.206973 -0.205568 0.124375 0.164814 0.316417 -0.036238 -0.109665 -0.213681
increase -0.095083 -0.391461 0.335234 -0.291779 0.181091 0.206999 0.471215 -0.140272 -0.147389 -0.321602
school -0.093141 -0.556198 0.489484 -0.298415 0.215720 0.229332 0.649615 -0.203410 -0.174034 -0.444079
alexander -0.153850 -0.459950 0.427367 -0.250764 0.236224 0.253973 0.547224 -0.141405 -0.084484 -0.382183
look -0.122768 -0.285078 0.259654 -0.227335 0.182505 0.205854 0.338351 -0.128408 -0.056448 -0.270973
try -0.144873 -0.381800 0.351142 -0.273460 0.206975 0.164497 0.482232 -0.106758 -0.081726 -0.280070
tanks -0.042721 -0.299079 0.225253 -0.159917 0.090992 0.174420 0.389175 -0.109685 -0.061606 -0.208662
television -0.046869 -0.415137 0.294694 -0.220834 0.131044 0.221882 0.402869 -0.070932 -0.124200 -0.267792
quite -0.073588 -0.446298 0.334485 -0.247675 0.218429 0.227124 0.437413 -0.074907 -0.082032 -0.333741
address -0.064908 -0.417657 0.298598 -0.235883 0.197897 0.148796 0.457690 -0.139505 -0.119640 -0.272227
something -0.052232 -0.331693 0.199989 -0.175028 0.123156 0.147057 0.295326 -0.120777 -0.080246 -0.181162
actually -0.105142 -0.426785 0.349683 -0.198773 0.201787 0.235683 0.427584 -0.154765 -0.140628 -0.328589
attempt -0.072626 -0.278969 0.228785 -0.195601 0.137893 0.182217 0.381119 -0.106023 -0.097863 -0.223756
among -0.077962 -0.471757 0.360780 -0.318289 0.190173 0.249607 0.516310 -0.140802 -0.102441 -0.301926
available -0.086784 -0.402755 0.263618 -0.229186 0.147445 0.153578 0.386547 -0.084164 -0.103082 -0.239052
rights -0.101156 -0.476537 0.381326 -0.268399 0.212691 0.247201 0.532116 -0.123602 -0.138701 -0.327392
ministers -0.088908 -0.314052 0.316983 -0.183981 0.103978 0.174452 0.380072 -0.077748 -0.125558 -0.249477
accident -0.061064 -0.394348 0.392633 -0.208330 0.164665 0.242536 0.541430 -0.113213 -0.093366 -0.299897
rural -0.055910 -0.318935 0.240822 -0.235856 0.125097 0.168058 0.410994 -0.045285 -0.110341 -0.245886
terms -0.086002 -0.374664 0.292345 -0.188474 0.194802 0.139962 0.431537 -0.080124 -0.091511 -0.268181
meet -0.092375 -0.293714 0.212696 -0.133049 0.149715 0.152161 0.397624 -0.037393 -0.105873 -0.258389
agency -0.161487 -0.494219 0.464409 -0.277183 0.206030 0.235906 0.604291 -0.105796 -0.111847 -0.402297
happened -0.069882 -0.371038 0.290352 -0.230186 0.136132 0.159580 0.424426 -0.108578 -0.068320 -0.239955
brisbane -0.149089 -0.470506 0.447147 -0.332263 0.232463 0.203694 0.592231 -0.091741 -0.082461 -0.382258
parties -0.080738 -0.411692 0.399981 -0.224056 0.228875 0.261948 0.534986 -0.094181 -0.121258 -0.359418
warned -0.141439 -0.406410 0.331489 -0.281915 0.201789 0.241730 0.510121 -0.148605 -0.094737 -0.293618
means -0.105784 -0.337885 0.327976 -0.190223 0.175695 0.227400 0.412969 -0.068383 -0.043084 -0.275908
fighter -0.174873 -0.558743 0.473854 -0.286544 0.189100 0.235275 0.627613 -0.136292 -0.156722 -0.430674
source -0.054626 -0.378617 0.247138 -0.161468 0.169111 0.146399 0.366006 -0.111987 -0.117556 -0.227378
issues -0.104531 -0.557003 0.471806 -0.337946 0.263748 0.270585 0.602703 -0.096505 -0.146439 -0.413359
rise -0.113947 -0.421655 0.378285 -0.300922 0.196450 0.237889 0.530492 -0.092924 -0.069337 -0.297901
understand -0.134145 -0.404582 0.317029 -0.248506 0.160614 0.211637 0.408952 -0.138036 -0.045555 -0.292097
measures -0.131861 -0.360956 0.358828 -0.175808 0.208589 0.187015 0.460544 -0.052967 -0.091864 -0.289437
victoria -0.118179 -0.379345 0.305249 -0.273719 0.113668 0.179968 0.442303 -0.091883 -0.081709 -0.249915
anything -0.137060 -0.402193 0.292961 -0.235875 0.210778 0.192609 0.514009 -0.152297 -0.145983 -0.341804
offices -0.112836 -0.299189 0.263090 -0.162217 0.096672 0.193639 0.369112 -0.110279 -0.084316 -0.242611
karzai -0.074562 -0.364621 0.376708 -0.223755 0.144593 0.148875 0.462673 -0.116691 -0.088129 -0.298299
circumstances -0.124523 -0.482026 0.326313 -0.267016 0.205713 0.184197 0.465236 -0.147413 -0.092330 -0.308553
sea -0.152320 -0.432219 0.369911 -0.200540 0.153854 0.164516 0.442794 -0.128519 -0.052232 -0.263994
returned -0.099792 -0.260655 0.229656 -0.220156 0.078650 0.180249 0.344480 -0.125447 -0.032663 -0.232021
ruddock -0.077892 -0.384969 0.299321 -0.260255 0.162791 0.191157 0.490978 -0.144819 -0.135120 -0.294785
residents -0.121608 -0.364958 0.336645 -0.181868 0.142516 0.218646 0.434021 -0.089592 -0.137325 -0.312716
wounded -0.120125 -0.328093 0.257520 -0.211442 0.186868 0.130611 0.426364 -0.099666 -0.122623 -0.269259
done -0.110675 -0.405439 0.366477 -0.238403 0.223917 0.238037 0.475929 -0.078416 -0.141635 -0.327592
directors -0.148660 -0.404875 0.361047 -0.255709 0.196217 0.175499 0.487617 -0.078048 -0.127109 -0.344211
shortly -0.133131 -0.499409 0.447642 -0.273578 0.164609 0.277280 0.602468 -0.170510 -0.166744 -0.381761
annual -0.133799 -0.492951 0.464250 -0.255588 0.237098 0.266341 0.549709 -0.147412 -0.093599 -0.328802
changes -0.137304 -0.439641 0.342494 -0.258054 0.150106 0.201671 0.507483 -0.151667 -0.076026 -0.293367
parts -0.058261 -0.368390 0.288000 -0.229080 0.176502 0.180550 0.406324 -0.067849 -0.087395 -0.229412
gunmen -0.059406 -0.241629 0.209391 -0.157727 0.142714 0.166835 0.252830 -0.019261 -0.080014 -0.219184
donald -0.097861 -0.499135 0.461190 -0.303700 0.198638 0.251849 0.550628 -0.117879 -0.128162 -0.335251
sentence -0.117867 -0.387109 0.314858 -0.249597 0.189491 0.224610 0.391312 -0.067183 -0.116911 -0.274493
wickets -0.119048 -0.280530 0.238295 -0.160290 0.107613 0.137168 0.334377 -0.064390 -0.111564 -0.232425
figures -0.146000 -0.383189 0.367107 -0.248806 0.210571 0.153032 0.489053 -0.128496 -0.118762 -0.352957
ended -0.035543 -0.302936 0.234906 -0.166170 0.156694 0.168942 0.392003 -0.079446 -0.114213 -0.228679
bombers -0.094042 -0.549907 0.449067 -0.275905 0.225439 0.299303 0.561498 -0.160644 -0.147106 -0.350494
white -0.093854 -0.414447 0.349337 -0.222230 0.215190 0.223076 0.448551 -0.144383 -0.074822 -0.308462
sources -0.129292 -0.388952 0.294571 -0.221881 0.110653 0.178683 0.390245 -0.080609 -0.089961 -0.267959
currently -0.147884 -0.506474 0.388008 -0.332807 0.193703 0.191995 0.523586 -0.108383 -0.087954 -0.309123
open -0.145430 -0.502224 0.403412 -0.279499 0.176425 0.300764 0.642100 -0.135438 -0.142434 -0.362128
announced -0.137844 -0.309005 0.274905 -0.206914 0.150500 0.135158 0.454762 -0.105479 -0.063184 -0.284196
nine -0.114128 -0.257736 0.229142 -0.117413 0.097567 0.142302 0.329143 -0.075042 -0.080703 -0.226682
glenn -0.060747 -0.456443 0.385568 -0.295079 0.212301 0.196851 0.526037 -0.083590 -0.139004 -0.266297
law -0.054014 -0.322423 0.303771 -0.175077 0.148167 0.197162 0.434660 -0.054759 -0.125595 -0.246245
robert -0.068483 -0.416288 0.365405 -0.253780 0.126765 0.237876 0.413290 -0.113353 -0.113078 -0.246842
huge -0.086519 -0.432554 0.368431 -0.186490 0.120452 0.233536 0.502932 -0.136698 -0.124107 -0.330242
tennis -0.144191 -0.486145 0.406859 -0.264125 0.179551 0.197713 0.575089 -0.142579 -0.126611 -0.420136
sir -0.152285 -0.553725 0.401571 -0.296798 0.178337 0.226972 0.532629 -0.088278 -0.123280 -0.375539
rather -0.101590 -0.453799 0.383515 -0.293955 0.240389 0.276147 0.571643 -0.115219 -0.103195 -0.324102
beyond -0.089633 -0.385047 0.350661 -0.271840 0.110320 0.153194 0.380052 -0.065928 -0.080049 -0.242176
began -0.081753 -0.399193 0.307254 -0.221629 0.191317 0.196593 0.523169 -0.065427 -0.093542 -0.339764
rafter -0.057854 -0.395163 0.287223 -0.236003 0.105844 0.156872 0.459124 -0.116437 -0.070733 -0.226975
cost -0.107910 -0.389954 0.327021 -0.190516 0.105665 0.214357 0.387200 -0.081350 -0.078593 -0.220245
airlines -0.095352 -0.360132 0.303899 -0.193618 0.151933 0.215036 0.464933 -0.118432 -0.087199 -0.283903
expressed -0.131414 -0.341791 0.327063 -0.212706 0.161678 0.221406 0.481530 -0.124233 -0.066527 -0.266124
tour -0.044034 -0.369036 0.263804 -0.210027 0.123095 0.138834 0.464430 -0.063534 -0.132506 -0.316640
caused -0.143303 -0.454276 0.354761 -0.235735 0.201771 0.229306 0.514945 -0.085708 -0.079274 -0.395692
powell -0.097470 -0.194187 0.181618 -0.093667 0.077016 0.057359 0.213072 -0.055013 -0.055182 -0.128711
less -0.112161 -0.383966 0.287451 -0.237824 0.122394 0.176156 0.415137 -0.116291 -0.047089 -0.246564
virus -0.128266 -0.428038 0.415361 -0.271147 0.190210 0.231623 0.500823 -0.077852 -0.144129 -0.346803
beginning -0.120956 -0.294179 0.311615 -0.174474 0.165238 0.113338 0.334571 -0.062976 -0.069423 -0.215242
friday -0.150157 -0.359267 0.340575 -0.229559 0.131620 0.195417 0.469703 -0.090094 -0.095780 -0.263109
facility -0.153717 -0.469445 0.367037 -0.231915 0.211712 0.236520 0.545767 -0.168184 -0.063650 -0.370036
struck -0.122215 -0.437843 0.307489 -0.187625 0.123544 0.172840 0.503729 -0.098973 -0.123161 -0.302883
period -0.127310 -0.450969 0.330565 -0.191642 0.181601 0.173709 0.500879 -0.067427 -0.073886 -0.346310
nauru -0.060457 -0.359054 0.289528 -0.160118 0.107579 0.117485 0.371279 -0.093651 -0.101739 -0.252192
wage -0.127798 -0.512024 0.462842 -0.308253 0.230410 0.224471 0.641101 -0.104852 -0.130624 -0.371372
prevent -0.109425 -0.417295 0.351330 -0.193310 0.133523 0.164310 0.440194 -0.108836 -0.074830 -0.235436
car -0.104249 -0.316919 0.263844 -0.209117 0.146190 0.144579 0.350579 -0.033109 -0.029812 -0.258557
ever -0.046651 -0.295119 0.240680 -0.156365 0.152755 0.146004 0.381588 -0.118515 -0.072900 -0.275055
crowd -0.161346 -0.426930 0.342916 -0.230067 0.145052 0.255654 0.533155 -0.105815 -0.078178 -0.368620
difficult -0.052033 -0.263705 0.205928 -0.119554 0.074882 0.181352 0.348232 -0.058259 -0.040259 -0.230025
though -0.114521 -0.488190 0.368596 -0.293998 0.210007 0.227651 0.522080 -0.114766 -0.153566 -0.371095
confidence -0.079675 -0.344492 0.246480 -0.212176 0.081819 0.150763 0.353862 -0.104546 -0.126441 -0.184833
having -0.116496 -0.472420 0.339805 -0.226948 0.229307 0.248294 0.566167 -0.078441 -0.143718 -0.372020
musharraf -0.114039 -0.313582 0.271509 -0.202715 0.071768 0.089645 0.266228 -0.028359 -0.047812 -0.213415
gives -0.083042 -0.346337 0.338900 -0.246776 0.184716 0.179341 0.453311 -0.069261 -0.048976 -0.252511
media -0.068487 -0.279113 0.261680 -0.202027 0.172565 0.123578 0.400955 -0.109946 -0.117608 -0.242632
advice -0.044477 -0.354942 0.277272 -0.161661 0.152481 0.159468 0.381433 -0.055233 -0.127265 -0.247792
bomb -0.072093 -0.325705 0.273885 -0.169338 0.136993 0.131743 0.395055 -0.109064 -0.130153 -0.218247
negotiations -0.098420 -0.470625 0.371823 -0.201812 0.213079 0.216784 0.515490 -0.130562 -0.129586 -0.358339
fact -0.112280 -0.386338 0.242859 -0.256700 0.119043 0.147121 0.419640 -0.119149 -0.133526 -0.229952
ll -0.099683 -0.225340 0.163160 -0.103606 0.105829 0.090144 0.289737 -0.032629 -0.071055 -0.177258
highway -0.152743 -0.463771 0.395314 -0.272918 0.193308 0.198325 0.512631 -0.165717 -0.075116 -0.300469
hobart -0.135380 -0.338530 0.277935 -0.238905 0.162546 0.207437 0.438608 -0.064676 -0.053646 -0.260812
arrived -0.132088 -0.346215 0.349305 -0.211878 0.130498 0.130893 0.466624 -0.130372 -0.096271 -0.230130
suharto -0.080817 -0.418792 0.342246 -0.217064 0.206003 0.187745 0.473055 -0.078087 -0.091290 -0.304214
pacific -0.138381 -0.466648 0.416285 -0.270920 0.224967 0.239521 0.516995 -0.095758 -0.164086 -0.370478
business -0.134706 -0.305469 0.274035 -0.200004 0.190195 0.139538 0.374193 -0.051741 -0.124742 -0.230216
expect -0.118631 -0.388643 0.336917 -0.243208 0.205432 0.202844 0.514752 -0.104596 -0.069555 -0.351982
attorney -0.109857 -0.376448 0.305194 -0.189891 0.134652 0.225706 0.507935 -0.155423 -0.103029 -0.299909
intelligence -0.057092 -0.419577 0.390741 -0.196356 0.160255 0.202598 0.494173 -0.130290 -0.098016 -0.339352
deputy -0.077163 -0.464558 0.323593 -0.235518 0.174477 0.229866 0.561751 -0.116148 -0.150189 -0.361264
blake -0.043232 -0.263804 0.263175 -0.165853 0.097171 0.111252 0.369542 -0.084763 -0.118662 -0.260311
involved -0.104190 -0.413479 0.280792 -0.212641 0.128768 0.169990 0.429816 -0.139635 -0.059223 -0.290751
total -0.045291 -0.231574 0.225363 -0.195563 0.157387 0.143381 0.247102 -0.096565 -0.089694 -0.176867
runs -0.022688 -0.320726 0.272536 -0.183328 0.072918 0.105800 0.364987 -0.126575 -0.083886 -0.231377
islands -0.111083 -0.426689 0.356112 -0.278998 0.179375 0.249665 0.505519 -0.143611 -0.146399 -0.339489
elected -0.028403 -0.260945 0.254147 -0.131900 0.155014 0.156914 0.296456 -0.112432 -0.078216 -0.268522
commissioner -0.115117 -0.522081 0.386743 -0.313885 0.201381 0.206951 0.589687 -0.163629 -0.097710 -0.388287
step -0.060058 -0.349086 0.301344 -0.280768 0.180189 0.158902 0.443351 -0.127841 -0.087673 -0.328230
strike -0.091722 -0.312638 0.254181 -0.139413 0.111771 0.094477 0.300779 -0.083378 -0.076054 -0.247058
supporters -0.091488 -0.267199 0.196880 -0.145242 0.108986 0.167868 0.286470 -0.039125 -0.114882 -0.256870
away -0.087635 -0.475813 0.377135 -0.208167 0.150789 0.236723 0.492326 -0.126660 -0.135657 -0.334675
worst -0.054892 -0.382242 0.286898 -0.260091 0.185207 0.218455 0.399597 -0.089298 -0.062258 -0.287112
ses -0.060492 -0.433857 0.384801 -0.288158 0.143368 0.202317 0.510042 -0.111876 -0.074718 -0.354340
afternoon -0.040515 -0.382602 0.253511 -0.217192 0.108219 0.190576 0.423051 -0.126444 -0.107729 -0.223424
market -0.074792 -0.389371 0.310947 -0.280927 0.170424 0.172018 0.405463 -0.119319 -0.099526 -0.325381
allan -0.145555 -0.403580 0.307193 -0.238638 0.171631 0.205665 0.484478 -0.119731 -0.069779 -0.323092
recession -0.065290 -0.254725 0.274395 -0.137109 0.106321 0.114096 0.300731 -0.070562 -0.079529 -0.257831
big -0.078867 -0.452644 0.421553 -0.231019 0.202201 0.229570 0.542687 -0.130402 -0.094003 -0.385706
gave -0.023298 -0.237150 0.174254 -0.137921 0.075762 0.149739 0.288869 -0.016705 -0.038129 -0.228321
followed -0.091035 -0.401537 0.355110 -0.208635 0.141111 0.238581 0.471646 -0.072401 -0.072617 -0.350528
commanders -0.083640 -0.323928 0.325424 -0.154389 0.181430 0.187622 0.372172 -0.095912 -0.047835 -0.226247
appeared -0.035614 -0.296562 0.187706 -0.122035 0.160473 0.137184 0.297730 -0.093989 -0.068274 -0.220496
field -0.061270 -0.310831 0.295926 -0.173217 0.132600 0.176067 0.397137 -0.124356 -0.079895 -0.193881
ensure -0.081045 -0.452575 0.356770 -0.269086 0.163007 0.226337 0.485580 -0.102486 -0.064364 -0.291988
whose -0.135723 -0.546919 0.436878 -0.320513 0.241653 0.241147 0.568124 -0.186640 -0.140521 -0.377499
commander -0.089577 -0.451728 0.334534 -0.262126 0.208059 0.251519 0.483705 -0.124168 -0.143208 -0.264010
feel -0.043060 -0.168794 0.091743 -0.093996 0.113880 0.132547 0.184869 -0.046211 -0.050579 -0.121336
martin -0.174141 -0.459578 0.402219 -0.297150 0.184345 0.251859 0.545431 -0.095681 -0.115922 -0.383243
anglican -0.132284 -0.478944 0.387897 -0.319620 0.180749 0.205656 0.524335 -0.178327 -0.113607 -0.355683
giving -0.131259 -0.437120 0.388334 -0.263430 0.181373 0.264283 0.543167 -0.156480 -0.108766 -0.353062
speaking -0.053929 -0.327787 0.259958 -0.169063 0.123395 0.190514 0.342885 -0.104275 -0.080639 -0.191779
anthony -0.118708 -0.454345 0.339173 -0.271111 0.138085 0.219941 0.427104 -0.082265 -0.154648 -0.298444
americans 0.007263 -0.160977 0.101935 -0.083475 0.007857 0.037705 0.191542 -0.019151 -0.066960 -0.060721
threat -0.082896 -0.362118 0.280048 -0.269756 0.166192 0.171155 0.463255 -0.096925 -0.062596 -0.287840
entered -0.059967 -0.248898 0.231618 -0.124195 0.147474 0.101624 0.276187 -0.053675 -0.065700 -0.247502
terror -0.049823 -0.303303 0.290885 -0.166145 0.140646 0.176557 0.382932 -0.096661 -0.123980 -0.197674
main -0.061248 -0.443656 0.314276 -0.207574 0.175578 0.205239 0.473601 -0.076554 -0.114410 -0.326741
lost -0.099893 -0.284089 0.274267 -0.138321 0.145745 0.125224 0.383690 -0.044270 -0.070348 -0.256316
criticism -0.118263 -0.363984 0.229802 -0.195849 0.095064 0.119314 0.415761 -0.133604 -0.082598 -0.242517
tasmania -0.099099 -0.265496 0.304846 -0.151587 0.096697 0.150562 0.397271 -0.049768 -0.062695 -0.269022
together -0.077151 -0.369769 0.338232 -0.244005 0.154682 0.206111 0.441257 -0.055017 -0.069215 -0.229991
smoke -0.076582 -0.267357 0.215291 -0.162861 0.152060 0.185870 0.355812 -0.057678 -0.061091 -0.247095
son -0.125592 -0.401034 0.297189 -0.247951 0.206753 0.178404 0.422059 -0.096675 -0.112635 -0.280449
crisis -0.081601 -0.417609 0.355249 -0.277280 0.157806 0.142291 0.457724 -0.096588 -0.063452 -0.276870
played -0.049366 -0.340657 0.282832 -0.244762 0.123275 0.225105 0.461128 -0.076679 -0.131403 -0.240027
level -0.078938 -0.336346 0.271875 -0.229560 0.187635 0.182864 0.364861 -0.054561 -0.081805 -0.251119
themselves -0.027857 -0.308195 0.219540 -0.222120 0.182615 0.153343 0.360950 -0.113333 -0.087715 -0.226969
massive -0.129873 -0.476578 0.432394 -0.220562 0.224460 0.222285 0.528267 -0.159282 -0.130358 -0.296427
significant -0.053394 -0.359437 0.286868 -0.276359 0.117394 0.212394 0.430928 -0.109326 -0.046098 -0.327449
base -0.064727 -0.352638 0.256545 -0.192722 0.163140 0.152666 0.353258 -0.046374 -0.117421 -0.258113
never -0.115110 -0.284806 0.228010 -0.218958 0.150523 0.164794 0.384376 -0.066164 -0.057924 -0.247843
assistance -0.044470 -0.361787 0.326978 -0.199153 0.180472 0.129329 0.357418 -0.044547 -0.071688 -0.239258
round -0.115761 -0.354945 0.293126 -0.243679 0.146525 0.176386 0.375831 -0.067712 -0.115197 -0.226868
chairman -0.083476 -0.364380 0.362921 -0.240639 0.128294 0.245428 0.485792 -0.059260 -0.113346 -0.318167
decide -0.122759 -0.424000 0.358134 -0.205002 0.200773 0.166167 0.436496 -0.154283 -0.122830 -0.296332
front -0.118065 -0.320618 0.243104 -0.212235 0.139383 0.152426 0.433466 -0.112294 -0.109727 -0.261080
zimbabwe -0.114745 -0.417701 0.357234 -0.263366 0.165232 0.150848 0.440247 -0.075730 -0.137812 -0.262246
nearly -0.104558 -0.361178 0.296601 -0.226401 0.139112 0.138335 0.426819 -0.061917 -0.067138 -0.273132
game -0.122266 -0.318549 0.230706 -0.234711 0.145905 0.165356 0.390039 -0.070768 -0.061643 -0.251204
ballot -0.135834 -0.370559 0.271240 -0.174481 0.132565 0.176419 0.394094 -0.138064 -0.105853 -0.261647
conflict -0.117878 -0.346506 0.303969 -0.258268 0.138418 0.202390 0.417146 -0.080077 -0.114355 -0.316969
crean -0.144433 -0.475188 0.377506 -0.268827 0.209744 0.233885 0.569883 -0.171696 -0.167067 -0.342227
tragedy -0.052936 -0.308854 0.267064 -0.161158 0.077666 0.100035 0.311030 -0.112773 -0.053219 -0.260638
labour -0.113439 -0.346931 0.277833 -0.130250 0.089890 0.133812 0.336321 -0.049551 -0.046310 -0.245816
chance -0.084693 -0.368947 0.250127 -0.248645 0.120716 0.218316 0.431477 -0.084996 -0.067030 -0.247383
sort -0.078200 -0.160543 0.137285 -0.109180 0.101299 0.112666 0.239050 -0.028236 -0.037005 -0.089986
longer -0.034984 -0.319130 0.265280 -0.231391 0.177853 0.140144 0.417111 -0.064483 -0.129829 -0.269990
trip -0.052887 -0.320162 0.309671 -0.203489 0.176693 0.142778 0.386339 -0.139082 -0.074090 -0.252442
geoff -0.129990 -0.543210 0.378067 -0.303965 0.173780 0.215956 0.608833 -0.181237 -0.129930 -0.403737
changed -0.105922 -0.410041 0.360777 -0.189772 0.203314 0.157893 0.393524 -0.146215 -0.103297 -0.288835
france -0.125386 -0.320150 0.243815 -0.174086 0.151926 0.202469 0.329217 -0.113548 -0.032536 -0.212170
explosives -0.043050 -0.308074 0.229073 -0.144075 0.088579 0.123446 0.379402 -0.044203 -0.096977 -0.229557
employees -0.101955 -0.329070 0.291910 -0.148640 0.159180 0.185028 0.438463 -0.092902 -0.107622 -0.287635
protect -0.096568 -0.442589 0.346364 -0.268811 0.145657 0.182416 0.528154 -0.140301 -0.067319 -0.309126
daryl -0.135028 -0.358267 0.318260 -0.199763 0.171902 0.225268 0.480754 -0.083320 -0.113248 -0.243316
muslim -0.070932 -0.412490 0.314734 -0.269672 0.193601 0.213904 0.410649 -0.136552 -0.052334 -0.335514
yes -0.131775 -0.374512 0.298094 -0.258061 0.209376 0.223970 0.391901 -0.137479 -0.067267 -0.318337
survey -0.066289 -0.353443 0.344686 -0.255085 0.142992 0.191610 0.399259 -0.111235 -0.054179 -0.225283
conference -0.099279 -0.408773 0.284577 -0.231513 0.134245 0.200091 0.447294 -0.093099 -0.142733 -0.282234
ambush -0.061268 -0.396697 0.300278 -0.257769 0.188573 0.161785 0.427792 -0.129634 -0.146239 -0.241689
heavy -0.037074 -0.328463 0.241897 -0.196716 0.170831 0.156562 0.385550 -0.095546 -0.118966 -0.256185
powers -0.077407 -0.345039 0.295066 -0.281827 0.154958 0.232839 0.468490 -0.110322 -0.143559 -0.241428
potential -0.107829 -0.290065 0.237171 -0.238804 0.188860 0.119615 0.362828 -0.084525 -0.108176 -0.236144
finished -0.018474 -0.185429 0.172992 -0.160250 0.109034 0.041557 0.161569 -0.019249 -0.082480 -0.090668
vote -0.026306 -0.254507 0.192871 -0.113956 0.074311 0.100251 0.275577 -0.042859 -0.084913 -0.221286
population -0.097876 -0.439248 0.387748 -0.245686 0.226890 0.207335 0.513170 -0.137473 -0.084873 -0.314135
endeavour -0.124077 -0.294550 0.247368 -0.162577 0.097724 0.165810 0.331263 -0.131162 -0.074475 -0.226172
russian -0.117938 -0.311923 0.243555 -0.217019 0.153941 0.103063 0.321888 -0.084177 -0.101918 -0.262288
brett -0.153619 -0.489423 0.452179 -0.257879 0.207840 0.255964 0.620297 -0.100781 -0.143696 -0.406851
placed -0.087641 -0.389127 0.362331 -0.191619 0.130276 0.228751 0.464641 -0.119136 -0.136121 -0.282383
storms -0.074013 -0.453623 0.336330 -0.265301 0.198054 0.189587 0.471418 -0.086706 -0.104828 -0.279408
study -0.156502 -0.461129 0.433697 -0.308029 0.198745 0.241668 0.533446 -0.157134 -0.111439 -0.320576
reid -0.067079 -0.185174 0.176314 -0.139677 0.061156 0.091416 0.244223 -0.086993 -0.029819 -0.120420
organisations -0.102050 -0.328736 0.230386 -0.171734 0.143356 0.165519 0.357169 -0.042487 -0.093351 -0.208647
denied -0.091046 -0.424472 0.374389 -0.191901 0.125341 0.147885 0.456980 -0.065742 -0.093677 -0.289250
bring -0.057968 -0.361821 0.254427 -0.172789 0.134663 0.219055 0.369844 -0.045007 -0.071301 -0.303098
places -0.115694 -0.299310 0.279423 -0.166252 0.167342 0.212348 0.395535 -0.112365 -0.069721 -0.260953
entitlements -0.138173 -0.329575 0.275011 -0.250139 0.166025 0.209375 0.475628 -0.136624 -0.097737 -0.297358
fast -0.105450 -0.531128 0.427089 -0.310784 0.168420 0.280336 0.520703 -0.122903 -0.157742 -0.384927
indonesia -0.085483 -0.335278 0.354883 -0.243796 0.117586 0.231024 0.435171 -0.096212 -0.047872 -0.311424
jacques -0.085321 -0.415761 0.351859 -0.254664 0.195405 0.181364 0.535026 -0.148844 -0.155489 -0.327187
helicopter -0.130351 -0.437618 0.427728 -0.236229 0.229885 0.189555 0.537481 -0.128623 -0.118153 -0.293054
saturday -0.060314 -0.284598 0.236290 -0.171333 0.093430 0.205698 0.352448 -0.103548 -0.042182 -0.268515
hearings -0.129325 -0.331523 0.306348 -0.186276 0.162966 0.220266 0.412007 -0.090940 -0.095467 -0.238980
plan -0.015741 -0.284276 0.235642 -0.115257 0.122535 0.120460 0.273221 -0.058134 -0.044921 -0.230358
pakistani -0.105635 -0.417953 0.353348 -0.258331 0.112114 0.213783 0.477873 -0.106353 -0.088853 -0.255471
quarter -0.118397 -0.352076 0.348513 -0.169019 0.118265 0.144228 0.379575 -0.090943 -0.070161 -0.246046
costs -0.106340 -0.427674 0.274410 -0.200706 0.157300 0.167222 0.439146 -0.140800 -0.075142 -0.230584
current -0.057235 -0.284799 0.241345 -0.238541 0.141176 0.174746 0.395204 -0.097827 -0.080691 -0.247061
